#Parameter# /_0 {1,3,1,16} 769 ZERO_GRAD
-1.82964757e-01 -5.05186804e-02 +2.56525725e-01 -3.11306894e-01 +2.71232605e-01 +1.13890192e-03 +1.51871312e-02 -2.11979315e-01 -2.88509786e-01 +3.10927685e-02 -2.82073498e-01 -1.47073030e-01 +2.32460767e-01 +2.54600823e-01 +3.10453475e-01 -5.56438304e-02 -1.73730910e-01 -1.10047191e-01 -2.73489892e-01 +2.66656667e-01 -2.23225117e-01 +2.55201697e-01 +1.69328004e-01 -2.30433092e-01 -1.45281315e-01 -3.25453222e-01 -1.29949510e-01 +2.27918625e-01 +5.27918972e-02 -6.48679063e-02 +1.74553856e-01 -3.44042957e-01 -2.66290933e-01 +2.93986797e-01 +2.07651123e-01 +1.47497319e-02 -4.31331955e-02 -1.49471223e-01 -3.58498663e-01 +2.73421735e-01 +1.65356845e-01 -9.01095644e-02 -2.39262789e-01 -1.63871571e-02 +9.17334408e-02 -1.12355137e-02 +1.45216748e-01 -2.55424529e-01 
#Parameter# /_1 {1,1,16,1} 257 ZERO_GRAD
-1.25465747e-02 +2.13047609e-01 +2.01802015e-01 -4.52651948e-01 +2.66632348e-01 -4.72871333e-01 -3.46321255e-01 -4.79405612e-01 -1.94679096e-01 +8.71585906e-02 +2.35150412e-01 +8.07548314e-02 +5.56925833e-01 -4.82662022e-01 +4.65654343e-01 -3.46770018e-01 
