#Parameter# /_0 {1,3,1,16} 769 ZERO_GRAD
-2.77250409e-01 +3.07003766e-01 +9.93132666e-02 +1.75481632e-01 -2.08963946e-01 +2.25007683e-01 +9.96374935e-02 +7.04094842e-02 +9.45578516e-02 +3.76040228e-02 -9.29532424e-02 -3.58154207e-01 -2.53600776e-01 -2.51235012e-02 +2.06936777e-01 +3.25025618e-01 -9.87226069e-02 +6.65217414e-02 -2.77263783e-02 -2.91844100e-01 +1.97697878e-01 -3.26143652e-01 -5.03405295e-02 +3.57758254e-02 -3.26282740e-01 -2.03302801e-01 -1.09818451e-01 +1.17354460e-01 -8.17552879e-02 +2.61123627e-01 -6.25710115e-02 -1.97833896e-01 -5.53087145e-02 +4.98159081e-02 -3.02095890e-01 -1.29890054e-01 +3.20576638e-01 +3.12586576e-01 -3.06800038e-01 -3.14582527e-01 +1.04338102e-01 +4.04982973e-04 -1.03998967e-01 +2.00875536e-01 +7.41792172e-02 +1.95284531e-01 -2.54031539e-01 +1.87282190e-01 
#Parameter# /_1 {1,1,16,1} 257 ZERO_GRAD
+3.33862513e-01 +3.45585912e-01 +3.40379179e-01 -3.92625213e-01 -3.58792037e-01 -2.37609416e-01 -2.06144109e-01 +4.57448781e-01 -3.08049619e-01 +5.71976483e-01 -2.25295916e-01 +3.15124273e-01 +2.65931249e-01 -8.50153416e-02 -5.08007944e-01 -4.09119278e-01 
