#Parameter# /_0 {1,3,1,16} 769 ZERO_GRAD
-2.54418759e-04 -1.14572293e-03 -1.60317600e-03 +2.62460584e-04 +4.74065961e-03 +9.64762829e-03 +2.81865650e-04 +1.35323999e-03 +1.96444197e-03 -2.61660083e-04 -4.21389611e-03 -8.46709032e-03 +2.15477496e-03 +2.50640549e-02 +4.80878055e-02 -9.49128807e-05 +6.33595570e-04 +1.78487028e-03 +2.42101567e-04 -1.00976881e-02 -2.36029103e-02 -2.80322653e-04 -6.14005700e-03 -1.27226897e-02 +3.20346327e-03 -1.65513419e-02 -4.93917614e-02 -7.11257462e-06 +2.61839450e-04 +6.15226338e-04 +1.31493025e-05 -3.67702276e-04 -8.76101200e-04 -5.34931838e-04 -8.11635982e-03 -1.61912329e-02 +3.44211236e-04 +3.74676799e-03 +7.10317353e-03 +3.58827892e-05 +2.04403186e-04 +3.22335865e-04 +6.10736697e-06 +1.39545140e-04 +2.90151627e-04 +1.83855696e-03 +3.65340966e-03 +1.19261083e-03 
#Parameter# /_1 {1,1,16,1} 257 ZERO_GRAD
-2.00547860e-03 +1.01661095e-02 +2.41262931e-03 -8.96918587e-03 +5.19400202e-02 +1.66572491e-03 -2.35459618e-02 -1.33078173e-02 -4.52282056e-02 +6.12538133e-04 -8.67721334e-04 -1.72029827e-02 +7.71135371e-03 +3.80305748e-04 +3.03067995e-04 +3.96565767e-03 
