#Parameter# /_0 {1,3,1,16} 769 ZERO_GRAD
-9.72039008e-04 +1.40271004e-04 -5.09740831e-03 +1.89123792e-03 -4.44061210e-04 +2.55669677e-03 +2.46378663e-03 -5.63040958e-04 +3.98799265e-03 -1.08779641e-03 +2.63431604e-04 -1.12512871e-03 +3.39645958e-05 -7.73953161e-06 +5.59860382e-05 -1.88007078e-04 +9.63022103e-05 +1.98728614e-03 +2.07254989e-03 -4.77094174e-04 +3.20905051e-03 -7.36298505e-04 +2.00812385e-04 +2.05482385e-04 +4.22998797e-03 -9.65401588e-04 +6.90201949e-03 -1.48639269e-03 +4.08192369e-04 +5.35754894e-04 -1.11998008e-04 +2.39928504e-05 -2.50727258e-04 +1.63857464e-03 -4.03984101e-04 +1.38772035e-03 +3.80428210e-05 +1.82138028e-05 +1.21737295e-03 +1.17332034e-03 -2.45042145e-04 +2.89443485e-03 -2.17350971e-05 +3.54059489e-06 -9.66142470e-05 +3.22079798e-03 -6.70570007e-04 +8.03298131e-03 
#Parameter# /_1 {1,1,16,1} 257 ZERO_GRAD
-1.17775425e-02 +1.15119163e-02 +1.60134509e-02 -6.08609570e-03 +2.22331757e-04 +2.32728105e-03 +1.32456301e-02 -2.62169377e-03 +2.75793727e-02 -5.10514341e-03 -8.35638435e-04 +8.69227108e-03 +2.03746930e-03 +9.16822255e-03 -2.36441105e-04 +2.53033824e-02 
