#Parameter# /_0 {320,40} 204801 ZERO_GRAD
+7.62394816e-03 -2.87664812e-02 -3.04180887e-02 +1.43983960e-02 +6.30137278e-03 +1.08336965e-02 -4.31759981e-05 -4.58547212e-02 -7.85771236e-02 -1.29763130e-02 +9.43580177e-03 +7.44267693e-03 -3.03410385e-02 -8.50254893e-02 -5.43618575e-02 -4.63895984e-02 -4.66244295e-02 -3.20565440e-02 -3.73934582e-02 +9.38968267e-03 -4.27185446e-02 -6.32662401e-02 -7.94511437e-02 -1.02698710e-02 -1.64841302e-02 -4.98843677e-02 -2.20079795e-02 -3.45717631e-02 +1.94235817e-02 +2.67037284e-02 +1.22491205e-02 +4.04821262e-02 +2.27188114e-02 +5.29723689e-02 +1.86640583e-02 +3.79300937e-02 +2.99129076e-02 +4.91504148e-02 -4.00708383e-03 +2.22142041e-02 -2.43150089e-02 +1.87247321e-02 -1.24256797e-02 -4.62423963e-03 +2.52827723e-03 -5.37613407e-02 -8.80356804e-02 -6.69433624e-02 -6.32503256e-02 -2.15071067e-02 -2.19620969e-02 -4.98979911e-02 -7.43525401e-02 -5.79403453e-02 -5.20501137e-02 -5.19317314e-02 -2.76253056e-02 +3.46547179e-02 -9.88097047e-04 +2.23050099e-02 -6.03561476e-03 +3.72933522e-02 +2.77222171e-02 +3.10644321e-02 +4.43241186e-02 +6.51630983e-02 +9.46076736e-02 +5.36760762e-02 +7.74630234e-02 +9.05291662e-02 +1.27423748e-01 +7.47045428e-02 +1.01060599e-01 +4.73994613e-02 +4.34877835e-02 +5.90619296e-02 +9.79662091e-02 +8.52798447e-02 +1.08566187e-01 +1.03517309e-01 +1.08066693e-01 +8.06124359e-02 +7.46017471e-02 +5.70449345e-02 +5.20100929e-02 +7.48537406e-02 +4.34800759e-02 +6.58481047e-02 +4.72176671e-02 +5.83959511e-03 +4.15013209e-02 +6.01233169e-02 +4.45959195e-02 +3.68839838e-02 +4.33061905e-02 +1.68594010e-02 +3.78934890e-02 +4.04110588e-02 +6.89461976e-02 -1.87812299e-02 -2.41158735e-02 +2.09604930e-02 -2.00324357e-02 -3.43526378e-02 -4.91404049e-02 -2.66188812e-02 -6.40446916e-02 -7.59390742e-02 -1.85098555e-02 -7.06110075e-02 -4.24089730e-02 -5.00877248e-03 -4.63378280e-02 -4.06555608e-02 +1.45089179e-02 -9.51959658e-03 -3.09570972e-02 +1.73997656e-02 -4.13374864e-02 -2.09313985e-02 -5.93380257e-02 -9.81611758e-03 -4.36543301e-02 -1.20153278e-02 -3.48432176e-02 +2.20776089e-02 -1.02216881e-02 +2.44414657e-02 -2.13761050e-02 -8.48536789e-02 -5.89767173e-02 -4.38495204e-02 -5.31445369e-02 -9.04234946e-02 -7.96768293e-02 -8.83323997e-02 -1.09415099e-01 -1.62864655e-01 -1.25284791e-01 -5.65969013e-02 -1.59700990e-01 -1.27893150e-01 -1.56492606e-01 -1.48473084e-01 -1.52268067e-01 -1.59458861e-01 -1.79994419e-01 -1.91111252e-01 -1.98516726e-01 -1.26817569e-01 -1.84301078e-01 -1.47905931e-01 -1.44682616e-01 -8.80657360e-02 -4.77976166e-02 -7.20377937e-02 -1.35013293e-02 -3.08892652e-02 -4.77245413e-02 +8.07174221e-02 +8.68766382e-02 +4.36775759e-02 +4.83925864e-02 +8.38493928e-02 +9.76582542e-02 +4.56362516e-02 +9.23091248e-02 +1.11620300e-01 +1.46544233e-01 +1.29379719e-01 +1.80378288e-01 +9.89233032e-02 +1.27652884e-01 +1.48079842e-01 +1.34155050e-01 +1.50950998e-01 +1.77258968e-01 +1.52327925e-01 +1.43186629e-01 +1.69738457e-01 +1.33226871e-01 +1.24777064e-01 +1.27123117e-01 +1.91297755e-01 +1.20357215e-01 +1.49017975e-01 +1.61863580e-01 +1.59715936e-01 +8.65984485e-02 +2.13275746e-01 +1.71162039e-01 +1.94891766e-01 +1.67693123e-01 +1.17740318e-01 +1.16125174e-01 +1.11517772e-01 +1.00241460e-01 +1.07837282e-01 +1.18212305e-01 +1.49836272e-01 +6.39870465e-02 +8.70703533e-02 +6.18835203e-02 +9.52419490e-02 +4.87220921e-02 +1.31145678e-02 +4.21280041e-03 -4.17478004e-04 -1.09796608e-02 -5.39487340e-02 -6.79875771e-03 -5.27507141e-02 -7.33103156e-02 -8.65298212e-02 -6.63116276e-02 -1.34030893e-01 -1.11988500e-01 -1.99329540e-01 -1.43405080e-01 -1.64032102e-01 -1.63759679e-01 -2.00901330e-01 -2.05656394e-01 -1.62171096e-01 -1.91081181e-01 -2.36735672e-01 -2.57572889e-01 -3.05167943e-01 -2.81196415e-01 -2.74655759e-01 -3.06542546e-01 -2.84053534e-01 -2.65627950e-01 -2.24944562e-01 -2.35189617e-01 -2.33757675e-01 -1.68790758e-01 -1.66986227e-01 -1.27379850e-01 -1.08750440e-01 -7.66862780e-02 -1.05680667e-01 -1.14001915e-01 -2.34884452e-02 -1.15439966e-02 +1.18601769e-02 +1.10600730e-02 +1.18026294e-01 +8.47947076e-02 +9.74792242e-02 +1.13025241e-01 +1.18732877e-01 +1.56269684e-01 +1.58586144e-01 +2.29853347e-01 +1.58985078e-01 +1.67807713e-01 +2.10990265e-01 +1.98754609e-01 +2.09459513e-01 +2.26183042e-01 +2.18136057e-01 +1.90556079e-01 +1.41170502e-01 +1.72616377e-01 +1.72431409e-01 +1.62216827e-01 +2.06691906e-01 +1.12125270e-01 +1.75062254e-01 +1.63439050e-01 +1.59822524e-01 +1.23532288e-01 +7.26396739e-02 +4.67062481e-02 +1.18714392e-01 +3.18203121e-02 +6.17464185e-02 -7.19586387e-03 +6.07110448e-02 +1.47796413e-02 -1.19872615e-02 -3.86513956e-02 +5.55916317e-03 -6.98583573e-02 -6.85064793e-02 -3.56333964e-02 -7.05529898e-02 -1.33046538e-01 -1.01270534e-01 -1.46699756e-01 -1.52070418e-01 -1.34634286e-01 -9.56038237e-02 -9.03055370e-02 -1.03845082e-01 -1.02253795e-01 -8.51027295e-02 -1.10906050e-01 -7.10249916e-02 -1.03250489e-01 -9.27365199e-02 -9.23561379e-02 -6.39382601e-02 -8.10942724e-02 -2.23488901e-02 -8.79698694e-02 -2.01732498e-02 +2.44302098e-02 -2.35395730e-02 -4.64531407e-02 -2.95746122e-02 +8.74387682e-04 +8.39000288e-03 -3.39095145e-02 -7.12947547e-02 -1.31991133e-02 -1.31516019e-02 +2.21615285e-02 +2.02167896e-03 -5.58062792e-02 -2.70807166e-02 -5.64847700e-02 -4.05945033e-02 -1.62767861e-02 -5.28483577e-02 -9.91078559e-03 +1.21457409e-02 -5.52988797e-03 +8.84754770e-03 +2.04890631e-02 +3.33164260e-02 +5.62767219e-03 +3.76224332e-02 +2.10589706e-03 +2.69440431e-02 +9.25323740e-02 -4.76117572e-03 -1.65784266e-02 +3.08950730e-02 -9.91977099e-03 -1.16039813e-02 +3.16883139e-02 +2.74317749e-02 -3.69276793e-04 -1.56524163e-02 -1.06663499e-02 -3.01137641e-02 +2.44274605e-02 +1.45885097e-02 +3.90520878e-02 -1.28543619e-02 -2.86399741e-02 -7.05148792e-03 -2.96671353e-02 +1.51373688e-05 +2.01302078e-02 +1.25265745e-02 +1.84014514e-02 +4.59924079e-02 +5.50709888e-02 +4.37090024e-02 +5.18109277e-02 +2.49214470e-02 +6.76249117e-02 +7.39281476e-02 +4.37272452e-02 +7.80014917e-02 +9.10217836e-02 +5.80695383e-02 +4.97035496e-02 +2.35332772e-02 +5.50570488e-02 +6.29746392e-02 +7.84315988e-02 +2.56996565e-02 +7.98459575e-02 +5.08319102e-02 +3.61890532e-02 +2.74456087e-02 +3.58747616e-02 +9.98862088e-03 +2.78271418e-02 +3.78874205e-02 -1.97897125e-02 -2.29295722e-04 -3.18455808e-02 -5.15703373e-02 -4.33203094e-02 +2.24300660e-02 -4.48696055e-02 -8.40067398e-03 -3.67354117e-02 -4.63583916e-02 -5.65347299e-02 -8.98475498e-02 -1.22674279e-01 -8.60765353e-02 -1.11158662e-01 -1.12486787e-01 -1.06370479e-01 -1.14781134e-01 -8.94387737e-02 -1.20132625e-01 -1.04762800e-01 -1.18439980e-01 -1.11092195e-01 -1.12042747e-01 -1.21167958e-01 -1.34653151e-01 -9.98428464e-02 -1.00923844e-01 -1.23494267e-01 -7.20644146e-02 -6.21551275e-02 -9.79183987e-02 -4.18650433e-02 -2.74808034e-02 -3.46050523e-02 -4.02245037e-02 +1.27979675e-02 +1.33311246e-02 +1.79202091e-02 +1.37504200e-02 +6.79911971e-02 +6.61447123e-02 +8.55954140e-02 +6.77400306e-02 +6.61484674e-02 +8.10699612e-02 +7.96344429e-02 +9.82301757e-02 +8.79142061e-02 +1.12281635e-01 +6.49995729e-02 +6.19446896e-02 +5.13343774e-02 +4.76263091e-02 +6.38466775e-02 +4.39909548e-02 +5.80463074e-02 +1.69891324e-02 +1.90221332e-02 +3.49555053e-02 -1.42548373e-02 -2.01489180e-02 +1.84404068e-02 +1.07037965e-02 +2.29949504e-02 -2.42131520e-02 +1.63702015e-02 -4.88800975e-03 -2.70662233e-02 -3.31573887e-03 +2.53011696e-02 +1.49737261e-02 -4.38401513e-02 -1.48983058e-02 +9.31332726e-03 -4.07526409e-03 -4.34325039e-02 +4.91313525e-02 +3.31820138e-02 +5.88715971e-02 +4.85665798e-02 +6.35586679e-02 +7.15813935e-02 +3.00279260e-02 +4.08579223e-02 +5.77363670e-02 +7.97354355e-02 +4.73628640e-02 +6.99625462e-02 +2.64561791e-02 +9.14444216e-03 +3.37906927e-02 +3.09573635e-02 +6.22299612e-02 +4.57574837e-02 +2.05389336e-02 -3.64600541e-03 +1.07548782e-03 +4.39067967e-02 -1.50965098e-02 +2.90756002e-02 +3.20144482e-02 +2.58224718e-02 +3.66388522e-02 +3.18562868e-03 +1.27088279e-02 +3.98620702e-02 +2.91533638e-02 +2.83763930e-02 +4.65530828e-02 +4.06510383e-02 +5.17524034e-02 +1.13939699e-02 -6.67212252e-03 +1.34382164e-02 +7.77548039e-03 -6.81372508e-02 -5.06170429e-02 -5.43033816e-02 -8.38001147e-02 -8.38023648e-02 -1.30760685e-01 -1.43208578e-01 -1.74957722e-01 -1.77339703e-01 -1.60403147e-01 -1.69765219e-01 -1.44634858e-01 -1.70155197e-01 -1.53247029e-01 -1.52663827e-01 -1.50658295e-01 -1.53778851e-01 -1.77921906e-01 -1.64455712e-01 -1.53532073e-01 -1.18967518e-01 -1.15004160e-01 -6.93732277e-02 -1.10813506e-01 -9.68104005e-02 -7.89880082e-02 -7.81179443e-02 -5.38992546e-02 -5.64477369e-02 -1.31628439e-02 +2.31928211e-02 +3.76743972e-02 +1.56487972e-02 +5.30133843e-02 +1.02633625e-01 +1.02830924e-01 +1.20048448e-01 +1.65537536e-01 +1.35301337e-01 +1.95433199e-01 +1.85995087e-01 +1.82452515e-01 +1.89021707e-01 +1.96199328e-01 +2.24985242e-01 +2.09525928e-01 +2.32402191e-01 +2.31948063e-01 +2.75141627e-01 +2.91210711e-01 +2.31536508e-01 +2.42556766e-01 +2.32270733e-01 +2.27491111e-01 +1.89875454e-01 +2.25059628e-01 +2.25118607e-01 +2.06249073e-01 +1.59950286e-01 +1.15322739e-01 +1.15720160e-01 +1.19393483e-01 +3.59579623e-02 +1.21143945e-02 +8.34468938e-03 +1.31856799e-02 -4.57768003e-03 -9.94177721e-03 -2.93074753e-02 -2.53263097e-02 -5.27538061e-02 -6.88682646e-02 -1.14073299e-01 -1.38999611e-01 -1.22354470e-01 -1.37152314e-01 -1.22722082e-01 -1.40039131e-01 -1.34578437e-01 -1.52944356e-01 -1.95296004e-01 -1.44825652e-01 -2.03875124e-01 -1.97652966e-01 -1.57365307e-01 -1.61824033e-01 -1.92657754e-01 -1.67745516e-01 -1.72529355e-01 -1.52426600e-01 -1.75617278e-01 -1.71708629e-01 -1.83406338e-01 -2.01203078e-01 -1.74773872e-01 -1.45029545e-01 -1.28183424e-01 -1.48925692e-01 -1.43243015e-01 -8.32274482e-02 -7.10170418e-02 -7.51210600e-02 -8.85275304e-02 -6.24293387e-02 -1.72438305e-02 -7.53971115e-02 -4.05224711e-02 -7.95461908e-02 -3.02639902e-02 -2.68479250e-02 +2.39374284e-02 -1.71806440e-02 +1.11490497e-02 +2.82566976e-02 +1.49876801e-02 +8.08692724e-02 +8.37066993e-02 +8.83787349e-02 +5.18188216e-02 +8.33794102e-02 +7.45943263e-02 +6.72848970e-02 +6.89169616e-02 +1.05775639e-01 +1.28272206e-01 +1.59519047e-01 +1.30839795e-01 +1.34294078e-01 +1.25234440e-01 +1.43738598e-01 +1.65359065e-01 +1.00793473e-01 +1.47297695e-01 +1.37272000e-01 +1.29755765e-01 +1.09104007e-01 +1.34195149e-01 +1.26409665e-01 +9.64331254e-02 +1.00075908e-01 -1.10028811e-01 -7.91468471e-02 -9.02041122e-02 -6.75222129e-02 -1.09994203e-01 -6.34317845e-02 -1.17590055e-01 -7.12942928e-02 -1.00887969e-01 -3.47566940e-02 -6.47791475e-02 -6.91713467e-02 -5.05733453e-02 -2.51983572e-02 -1.65936910e-02 +1.55386922e-03 +3.50373015e-02 +3.21431905e-02 +4.15651090e-02 +5.10896891e-02 +6.60804734e-02 +1.01731300e-01 +6.91930652e-02 +7.65829757e-02 +1.00815512e-01 +1.12425365e-01 +1.25081167e-01 +1.23032384e-01 +1.30407840e-01 +1.45291343e-01 +1.44452482e-01 +1.49998546e-01 +1.31814152e-01 +9.57435146e-02 +1.12539567e-01 +1.26011804e-01 +1.16846882e-01 +1.03716075e-01 +8.95598307e-02 +8.57471302e-02 +1.04422897e-01 +5.03721051e-02 -1.14042033e-02 +1.93869006e-02 -9.42231435e-03 +4.21497114e-02 -3.45670758e-03 -6.69954345e-03 +9.42075346e-03 -3.02001983e-02 -5.27805872e-02 -8.58598854e-03 -2.65886970e-02 -2.15940997e-02 -1.08798100e-02 -6.92142099e-02 -1.80115141e-02 -6.66402504e-02 -2.40888316e-02 -1.27095897e-02 -5.40326759e-02 -3.46597396e-02 -1.71299819e-02 -2.04049423e-02 +1.80851948e-02 -6.42350921e-03 -6.33764639e-02 -3.65328901e-02 -5.14322259e-02 -1.91268194e-02 -6.65970966e-02 -5.27234040e-02 -8.99468586e-02 -8.09901208e-02 -9.29585993e-02 -4.62181978e-02 -7.66332150e-02 -2.94454098e-02 -3.92249264e-02 -7.35363066e-02 -5.48133552e-02 -4.82524671e-02 -1.09598532e-01 -4.72002290e-02 -8.82138386e-02 -3.67539339e-02 -5.61846569e-02 -3.62904519e-02 -8.43845606e-02 -3.71900350e-02 -6.74376357e-03 -3.87892239e-02 -6.65223971e-02 -1.98612642e-02 -3.07588931e-02 -4.65187319e-02 -4.82328273e-02 -2.38510570e-03 -9.70541127e-03 -6.47316128e-02 -5.12343533e-02 -3.57489623e-02 -5.26340641e-02 -1.97474994e-02 -4.18727696e-02 -7.01924507e-03 -2.96906512e-02 -5.36716394e-02 +2.96011847e-02 +2.89982315e-02 -2.72283535e-02 +2.10786723e-02 -2.35430221e-03 +5.66237979e-02 +5.90841174e-02 +2.63106916e-02 +3.18816118e-02 +6.09345734e-02 +4.97778840e-02 +5.91310672e-02 +2.96871476e-02 +8.76983032e-02 +1.22193411e-01 +1.10084333e-01 +6.82774261e-02 +8.44239146e-02 +1.28498331e-01 +1.30601540e-01 +1.12155668e-01 +9.31558236e-02 +5.70688173e-02 +1.02880560e-01 +1.38566718e-01 +1.07601494e-01 +1.50049716e-01 +6.55148104e-02 +8.73275101e-02 +6.53931871e-02 +1.17127873e-01 +6.87858313e-02 +1.81116574e-02 +1.39921252e-02 +4.25980575e-02 +2.28816532e-02 +2.32368279e-02 +1.98917687e-02 -3.56060751e-02 +3.02029420e-02 -1.28978281e-03 -2.46432666e-02 -4.77128476e-02 +5.30797197e-03 -5.10944016e-02 -7.89571851e-02 -9.03286189e-02 -8.20044354e-02 -4.58716564e-02 -9.77448151e-02 -8.72900784e-02 -1.04369499e-01 -1.41017348e-01 -1.09550297e-01 -1.01742029e-01 -1.32412806e-01 -9.85479951e-02 -9.74205360e-02 -7.99595118e-02 -1.01992115e-01 -6.07904494e-02 -4.98977862e-02 -3.22862007e-02 -2.48895269e-02 -3.68538871e-02 -5.16497679e-02 -4.22660559e-02 +7.08437245e-03 +2.24347338e-02 +3.68423038e-03 +2.95183919e-02 +3.91750969e-03 +5.25595136e-02 +4.33064625e-02 +5.46413623e-02 +7.05662295e-02 +7.57162794e-02 +1.03053018e-01 +1.31331354e-01 +1.44071788e-01 +8.52394551e-02 +1.58680260e-01 +9.76106301e-02 +1.33108124e-01 +1.38270915e-01 +1.19922057e-01 +1.05836593e-01 +1.28325433e-01 +1.03155524e-01 +1.07001118e-01 +1.44165829e-01 +5.00832871e-02 +1.22286029e-01 +1.15630403e-01 +6.92763254e-02 +8.18626508e-02 +3.81489359e-02 +7.90685341e-02 +7.97167495e-02 +6.10298058e-03 +1.98647543e-03 +1.20183295e-02 +3.12111317e-03 -4.12372760e-02 -1.11729028e-02 -7.53552020e-02 -5.24197109e-02 -5.30191734e-02 -9.38497856e-02 -1.03580706e-01 -1.03586964e-01 -1.38641447e-01 -1.10293970e-01 -1.65217221e-01 -1.48406118e-01 -1.39938340e-01 -1.35156676e-01 -1.50579244e-01 -2.02726945e-01 -1.99622661e-01 -2.07603320e-01 -1.96173102e-01 -2.01081887e-01 -1.77602187e-01 -1.99273169e-01 -2.49793962e-01 -1.86995178e-01 -1.75665110e-01 -1.26597792e-01 -1.35220066e-01 -1.24892965e-01 -1.15532190e-01 -7.75178373e-02 -9.35816169e-02 -7.59092942e-02 -5.95979504e-02 -6.49778098e-02 -1.83166992e-02 -3.23305503e-02 -1.99317895e-02 -5.76890539e-03 +3.42849232e-02 +5.53712100e-02 +3.79544981e-02 +6.06058016e-02 +1.05662182e-01 +6.15885481e-02 +1.38640732e-01 +1.32995188e-01 +1.17931671e-01 +1.27080396e-01 +1.11541159e-01 +1.34287715e-01 +9.17109773e-02 +1.12975687e-01 +9.91092399e-02 +1.03206351e-01 +1.03649542e-01 +1.16831154e-01 +1.20378740e-01 +9.81450826e-02 +1.18410125e-01 +8.53143409e-02 +7.81312436e-02 +1.05644524e-01 +1.40983313e-01 +1.33458853e-01 +9.77996811e-02 +6.60985187e-02 +9.11525115e-02 +6.24950230e-02 +6.10164739e-02 +7.14938492e-02 +1.32659152e-01 +7.17413947e-02 +1.11381367e-01 +1.00757584e-01 +2.18365937e-02 +7.31795058e-02 +6.48327768e-02 +6.50767833e-02 +9.62560251e-02 +7.46868774e-02 +5.11918515e-02 +5.93304038e-02 +4.90478575e-02 +1.76901016e-02 +1.36318104e-02 +1.67120323e-02 -5.73974045e-04 +5.26547320e-02 +2.13980153e-02 -2.91337892e-02 +3.34008150e-02 +8.59970693e-03 +2.51796022e-02 -4.66971425e-03 +1.15038892e-02 -8.59117042e-03 -7.90684484e-03 -3.00142877e-02 -5.82816415e-02 -6.54594526e-02 -6.97811842e-02 -5.97102158e-02 -1.17493898e-01 -1.04711756e-01 -8.55329931e-02 -8.30088705e-02 -1.14261270e-01 -1.29902527e-01 -1.29444405e-01 +4.91595976e-02 +5.27941473e-02 +1.55304950e-02 +5.35833500e-02 +2.67904960e-02 +6.79483637e-02 +9.91776660e-02 +6.49741068e-02 +7.63968304e-02 +4.55803312e-02 +7.11382404e-02 +5.19641750e-02 +6.18289001e-02 +9.42457914e-02 +8.65946636e-02 +4.85863872e-02 +3.36531959e-02 +6.05434999e-02 +6.24225996e-02 +1.12978723e-02 +4.98478115e-02 +5.47794849e-02 -3.99297429e-03 -2.79301703e-02 +4.94477823e-02 +5.59752099e-02 +4.66515459e-02 +3.07713449e-02 -1.14704072e-02 -4.30940650e-02 -5.23411408e-02 -4.60777394e-02 -1.94491930e-02 -5.76662980e-02 -3.85886505e-02 -7.83843696e-02 -8.24678689e-02 -8.84675458e-02 -1.02433339e-01 -1.29280746e-01 -1.28071606e-01 -1.38807788e-01 -1.96344882e-01 -1.36437804e-01 -1.16886102e-01 -1.42601281e-01 -1.35106385e-01 -1.18947223e-01 -1.02504447e-01 -1.17188357e-01 -9.03574154e-02 -7.26663768e-02 -6.31812289e-02 -7.12923631e-02 -5.87871112e-02 -2.74518523e-02 -5.28102592e-02 -8.83187167e-03 -3.08994316e-02 -9.48389713e-03 -3.56098935e-02 -3.60502489e-02 +2.15603132e-02 -4.70916834e-03 +5.97138293e-02 +1.20628709e-02 +2.57790815e-02 +2.56864447e-02 +2.87081786e-02 +2.47961618e-02 +2.80405879e-02 +1.24476058e-02 +1.45629263e-02 +1.19005749e-02 +3.31213959e-02 +2.70300452e-02 +4.24702913e-02 +3.44303735e-02 +3.47166732e-02 +6.87445104e-02 +4.09171432e-02 +5.76700717e-02 +4.63699065e-02 +5.86983114e-02 +5.75291812e-02 +6.15718961e-02 +6.62795976e-02 +5.80827221e-02 +4.97536175e-02 +8.57796147e-02 +3.26486342e-02 +5.51190823e-02 +9.25189704e-02 +7.60458782e-02 +9.51119587e-02 +9.06102955e-02 +9.52927172e-02 +1.22998603e-01 +6.45336881e-02 +9.62750986e-02 +5.85410632e-02 +8.71219710e-02 +1.12973176e-01 +1.29898593e-01 +1.21542774e-01 +7.78987557e-02 +8.68854374e-02 +6.89012334e-02 +7.92585760e-02 +6.65390790e-02 +8.10036808e-02 +8.37858990e-02 +3.14627700e-02 -1.53042329e-03 -3.09469905e-02 +2.27599847e-03 +4.46269289e-02 -2.62394175e-02 -5.98187633e-02 -4.22975756e-02 -9.21898708e-02 -1.04714923e-01 -9.19962451e-02 -9.76464748e-02 -1.23759486e-01 -1.13646142e-01 -1.38045534e-01 -1.47472367e-01 -1.47908211e-01 -1.87144473e-01 -1.85811818e-01 -1.87754199e-01 -2.15164572e-01 -2.05215469e-01 -1.83488429e-01 -1.92953140e-01 -2.14878395e-01 -1.57174051e-01 -1.47771895e-01 -1.39785722e-01 -1.45789430e-01 -1.57374471e-01 -1.20536141e-01 -9.76265371e-02 -8.34436938e-02 -7.06231222e-02 -6.93454221e-02 -3.14414799e-02 -5.08838221e-02 +2.20986977e-02 +5.32061607e-02 +5.45075573e-02 +6.62513152e-02 +1.05682060e-01 +1.40088275e-01 +1.63777471e-01 +1.58280402e-01 +1.70253813e-01 +1.77470371e-01 +1.79375604e-01 +1.99178115e-01 +2.48801380e-01 +1.95685431e-01 +1.97999448e-01 +2.08391353e-01 +1.73186585e-01 +1.69675380e-01 +1.93683967e-01 +1.91266075e-01 +1.33243605e-01 +1.39426559e-01 +9.30597186e-02 +1.09962948e-01 +6.68515265e-02 +5.99547662e-02 +3.80939990e-02 +2.61157323e-02 -1.80754345e-02 -3.55239521e-04 -6.21274635e-02 -2.09415667e-02 -2.39779502e-02 -2.74208747e-02 -7.70170689e-02 -8.26432705e-02 -8.47650766e-02 -1.04058698e-01 -1.32965043e-01 -1.01588540e-01 -1.36837959e-01 -1.35920197e-01 -1.34335876e-01 -1.22778632e-01 -8.14289525e-02 -9.15383175e-02 -9.33588520e-02 -7.24631920e-02 -6.72682598e-02 -2.23997980e-02 -5.64386286e-02 -2.74734711e-03 -6.38817623e-03 -1.07428962e-02 -1.07945474e-02 +2.13996917e-02 -1.83834496e-03 +2.82393731e-02 +1.12275202e-02 +8.01343620e-02 +3.04927714e-02 +4.58951183e-02 +6.42793775e-02 +6.44820184e-02 +8.89878422e-02 +6.76334277e-02 +8.39653909e-02 +7.36903474e-02 +6.61244020e-02 +5.76363802e-02 +5.12970835e-02 +7.32339844e-02 +9.39126238e-02 +6.42174780e-02 +7.42454156e-02 +4.40904722e-02 +4.17419039e-02 -5.58132865e-03 +7.24493712e-02 +9.89064109e-03 +5.57821058e-02 +2.87224017e-02 +1.65529642e-02 +2.19879430e-02 +1.98421460e-02 +4.68894988e-02 +3.64042334e-02 -3.91053734e-03 +1.11987507e-02 -1.04076006e-02 +6.68199873e-03 +6.68925187e-03 -3.41977105e-02 -1.09966146e-02 -8.27208310e-02 -6.37418702e-02 -4.12043789e-03 -4.78336662e-02 -5.45789413e-02 -4.60679755e-02 -8.52866769e-02 -9.27055255e-02 -1.17147304e-01 -9.51177180e-02 -8.17650035e-02 -8.78082812e-02 -3.68174352e-02 -5.23095503e-02 -9.92085505e-03 -7.09528252e-02 -5.75146750e-02 -1.25550926e-02 -4.59652096e-02 -1.69232476e-03 -2.50600018e-02 -1.34483473e-02 -3.15518049e-03 -2.35059205e-02 -1.35045489e-02 +6.24288991e-02 +3.84960300e-03 +2.04277318e-02 -1.78236626e-02 +2.01670965e-03 +4.61741202e-02 +3.33727784e-02 +2.77743791e-03 -6.57711586e-04 -1.45221790e-02 +1.04517695e-02 +4.44711000e-03 +3.17022577e-02 +1.88513696e-02 -1.12677226e-02 +2.17999890e-03 -8.80657416e-03 -5.52040758e-03 +6.85359212e-03 +3.90191330e-03 -2.98927370e-02 +9.73712001e-03 +2.65646866e-03 -4.21783188e-03 +3.48660275e-02 +1.93683412e-02 +2.51703188e-02 -3.24217905e-03 +4.30405065e-02 -3.11463084e-02 +5.51022030e-02 +2.60696486e-02 +3.78515124e-02 +1.20503977e-02 +2.21933704e-02 +1.53837213e-02 +4.50731181e-02 +2.01951079e-02 +2.79325130e-03 +4.86216415e-03 -6.45217765e-03 +1.15332741e-03 -2.85391323e-03 +2.81390715e-02 -7.35730072e-03 -7.55733298e-03 -1.12239299e-02 -1.80323031e-02 -3.95601131e-02 -1.49141354e-02 -3.27347070e-02 -4.45692614e-02 +1.16508016e-02 -2.82021649e-02 -6.80831969e-02 -2.97977701e-02 -7.09877759e-02 -3.46696079e-02 -6.62723370e-03 -1.67243611e-02 -7.15662837e-02 -3.07223164e-02 +1.29686091e-02 +2.78883521e-02 -2.00490896e-02 +7.12854322e-04 +2.03427859e-02 -7.17123691e-03 +5.83219305e-02 +7.69063830e-02 +5.22021502e-02 +4.55577075e-02 +2.44812332e-02 -6.01544557e-03 -2.77429633e-03 +2.13485714e-02 +3.63063991e-05 +5.83681203e-02 -2.95774005e-02 +1.36780704e-03 +6.65392727e-02 +5.26711456e-02 +6.03054278e-02 +4.03264761e-02 +6.52764291e-02 +8.33526179e-02 +5.16768321e-02 +6.73625916e-02 +1.66293141e-02 +7.05273300e-02 +9.72729996e-02 +1.84476078e-02 +1.25547666e-02 +5.91081753e-02 +9.23624486e-02 +3.41702588e-02 +5.29728793e-02 +5.02054691e-02 -5.02908370e-03 +2.76200473e-03 +6.17823331e-03 -3.54077294e-02 +9.99618880e-03 -3.36645134e-02 -2.66617481e-02 -5.16933948e-02 +1.07366387e-02 +2.47542243e-02 -6.20601932e-03 +2.21158471e-03 -2.42774766e-02 -1.57461334e-02 -3.03053316e-02 -4.12153751e-02 -3.40378024e-02 -5.07763177e-02 -4.53578867e-02 -3.67769450e-02 -3.02659068e-02 -3.16417143e-02 -2.69137695e-02 -5.54644205e-02 +2.67918110e-02 -4.58319187e-02 +1.02293715e-02 -6.10927530e-02 +1.24535048e-02 -4.98184152e-02 -3.58014368e-02 +8.27199221e-03 -1.92583837e-02 -4.39796634e-02 +1.71195511e-02 -8.60173069e-03 -3.14907581e-02 -4.94720414e-02 -1.59723517e-02 -6.83433488e-02 -5.10073565e-02 -7.16524273e-02 -2.76882593e-02 -1.87606104e-02 -3.92582566e-02 -9.15253311e-02 -1.98245216e-02 -6.84070438e-02 -1.02676429e-01 -1.02550499e-01 -7.18045011e-02 -6.53951317e-02 -1.12807639e-02 -6.07560053e-02 -7.75739402e-02 -7.34732673e-02 -8.35164934e-02 -3.53276394e-02 -2.81313546e-02 -3.56025398e-02 +9.62780043e-03 +6.74561085e-03 +2.59120297e-03 -1.51958456e-03 +4.81770486e-02 +7.68143237e-02 +6.15298599e-02 +7.65172914e-02 +6.83707371e-02 +1.27638876e-01 +9.74502861e-02 +1.46967456e-01 +6.15605414e-02 +6.83931112e-02 +1.07202284e-01 +9.86627787e-02 +1.06481589e-01 +1.36367247e-01 +1.29156470e-01 +1.09154977e-01 +1.08233444e-01 +1.16218291e-01 +1.81355700e-01 +6.01860061e-02 +9.99848098e-02 +9.78470668e-02 +8.23884532e-02 +1.24750026e-01 +4.42471355e-02 +8.10380578e-02 +7.66519755e-02 +1.43818688e-02 -2.44731735e-03 +4.33541127e-02 +3.52427810e-02 +3.38845104e-02 +1.02241654e-02 -1.13442522e-02 +3.08153313e-02 -5.33275753e-02 -3.25371288e-02 -1.06207795e-01 -7.13541061e-02 -1.75781678e-02 -8.77398849e-02 -9.50351208e-02 -6.91530555e-02 -6.93841651e-02 -2.98349559e-02 -1.06878191e-01 -6.33251369e-02 -5.69905713e-02 -9.23902467e-02 -2.64287437e-03 -3.09129562e-02 -7.78700635e-02 -1.03196986e-02 -2.79026106e-02 -2.08133291e-02 -1.84540860e-02 +3.23054520e-03 -7.77581036e-02 -5.25502488e-02 +4.64164168e-02 +3.82198952e-03 -4.36854623e-02 -2.64668819e-02 +1.10525563e-02 -5.84256649e-02 -6.44525513e-02 -3.98725607e-02 -4.64585796e-02 -6.11374490e-02 -4.00613770e-02 -5.64409457e-02 -6.32085353e-02 -5.65052219e-02 -2.64132228e-02 -6.78558946e-02 -4.87958565e-02 -7.93952122e-03 -6.93777204e-02 -1.33162096e-01 -2.13001743e-02 -3.23808901e-02 -1.82390760e-03 +8.73404369e-03 +3.14779137e-03 -3.85853946e-02 -5.41926874e-03 -2.00174954e-02 -5.19792549e-03 +2.49305051e-02 +4.92353439e-02 +4.15049829e-02 +2.22882908e-02 +5.04359342e-02 +1.58033241e-02 +2.94887703e-02 -2.93670036e-02 -1.99689493e-02 -5.51065356e-02 +4.61803144e-03 -3.12132156e-03 +3.27532552e-02 +1.56380925e-02 +3.45832028e-04 +3.75792682e-02 +1.81997642e-02 +6.60407543e-03 -1.21531319e-02 +1.05792591e-02 +3.29183154e-02 -1.85471047e-02 +1.81743857e-02 +4.28029755e-03 -1.01757608e-02 +1.47053087e-02 +1.44613180e-02 -1.31964013e-02 +3.81650291e-02 +5.00179492e-02 +5.44977821e-02 +5.06799407e-02 +6.32177219e-02 +6.02223128e-02 +9.44709107e-02 +9.04417932e-02 +6.93398565e-02 +5.32219037e-02 +1.10783450e-01 +6.27549738e-02 +1.11856200e-01 +9.55389887e-02 +9.90234539e-02 +9.43403170e-02 +9.73795429e-02 +5.99516816e-02 +5.80554903e-02 +8.10369998e-02 +9.41681191e-02 +1.07677616e-01 +1.20285556e-01 +2.70466916e-02 +4.12030257e-02 +2.99244020e-02 +4.68962379e-02 -1.09321168e-02 -1.52715147e-02 +1.81430709e-02 -1.04458174e-02 -1.37271713e-02 -1.10998296e-03 -3.61482501e-02 -3.64712775e-02 +2.76239328e-02 +1.41840735e-02 -2.76749451e-02 -1.77392587e-02 -2.85015143e-02 -4.92436811e-02 -5.56611083e-02 -8.39499980e-02 -4.12508920e-02 -6.85452297e-02 -4.57670353e-02 -5.16701005e-02 -3.66554484e-02 -9.20934677e-02 -5.02395704e-02 -2.71940380e-02 -2.69991974e-03 -5.22521250e-02 -3.50858532e-02 -2.87211165e-02 -1.67295430e-02 -4.16580588e-02 -2.68309899e-02 -1.39110330e-02 -5.83456494e-02 -3.92252058e-02 -5.76742552e-02 +1.31488554e-02 -2.40952857e-02 -3.59960981e-02 -2.97990572e-02 -7.42085800e-02 -8.15301947e-03 +1.68528277e-02 +1.75961163e-02 -2.39968728e-02 +2.95224637e-02 -3.51713635e-02 -2.13411404e-04 -5.04550561e-02 -4.65514399e-02 -5.95509894e-02 -3.69042717e-02 -3.37391570e-02 -3.67583819e-02 -6.27470538e-02 -2.77148131e-02 -4.31728968e-03 -2.73005664e-02 -5.07416856e-03 -6.45770133e-02 -2.46993336e-03 -9.52221453e-03 -6.95646703e-02 -5.55788763e-02 -5.81715722e-03 -1.89865232e-02 -2.31833328e-02 -1.04240351e-03 -1.03852656e-02 -2.00590342e-02 -1.25150080e-03 -3.65975425e-02 -3.57253179e-02 -2.97844633e-02 -3.82396840e-02 -1.22573059e-02 -9.74879880e-03 +8.30184016e-03 +1.13435155e-02 +2.08451832e-03 +2.66509894e-02 +1.21256765e-02 +2.73519587e-02 +4.90405224e-02 -2.27234475e-02 -3.19743413e-04 -3.21786329e-02 -1.88681353e-02 +2.14763489e-02 +3.68921570e-02 +3.37141939e-02 +1.77140739e-02 +4.27982472e-02 +3.66284959e-02 +2.90494375e-02 +4.77679297e-02 +1.75889358e-02 +9.64459404e-03 -9.88227874e-03 -8.84580798e-03 -2.40584444e-02 -1.20696323e-02 -2.84402370e-02 +1.96128637e-02 -2.40110215e-02 +7.42294686e-03 -1.67681708e-03 -5.69661297e-02 -4.02041264e-02 -3.54284830e-02 -3.87950763e-02 -1.03559449e-01 -5.28727919e-02 -5.42931855e-02 -8.08681697e-02 -1.25572696e-01 -1.27949432e-01 -1.24842793e-01 -1.42000705e-01 -1.41254917e-01 -1.00900061e-01 -1.09864064e-01 -7.87765309e-02 -1.21317394e-01 -9.68716070e-02 -8.47769529e-02 -6.46913946e-02 -1.11060806e-01 -4.81394753e-02 -3.63774747e-02 -6.38541654e-02 -9.86972451e-03 -4.13005091e-02 +1.49229367e-03 +9.73181683e-04 +7.54336501e-03 -3.88920940e-02 +1.06271859e-02 +1.33621572e-02 +1.45618459e-02 +2.50131749e-02 +4.82973456e-02 +6.10766970e-02 +3.53846140e-02 +5.37711829e-02 +1.29767237e-02 +1.83399450e-02 +4.74923067e-02 +7.79155493e-02 +3.56534943e-02 +3.36393677e-02 +3.25655825e-02 +4.55006445e-03 +7.74661591e-03 +3.24901827e-02 +2.68277945e-04 +5.76021187e-02 +6.10656068e-02 +7.56274536e-02 +4.88272347e-02 +8.87856856e-02 +2.10289154e-02 +8.62673819e-02 +8.42284337e-02 +1.05530053e-01 +8.02097172e-02 +4.48915884e-02 +6.75120130e-02 +9.52824429e-02 +8.02855194e-02 +1.32273778e-01 +9.75816250e-02 +1.01788677e-01 +1.05296843e-01 +1.21728100e-01 +1.53271288e-01 +1.13631181e-01 +1.35078728e-01 +1.60666257e-01 +1.08701415e-01 +1.18618511e-01 +1.50248274e-01 +7.28296340e-02 +9.14747417e-02 +1.10791035e-01 +9.93512794e-02 +6.59213811e-02 -2.38907244e-02 +4.17500995e-02 +9.51568596e-03 -4.25126025e-04 +4.32337672e-02 -1.00835571e-02 -3.55761088e-02 -2.56383736e-02 -4.40226309e-02 -6.47431239e-02 -2.83450610e-03 -6.75007552e-02 -9.14515182e-02 -1.01831235e-01 -9.45512652e-02 -1.50670782e-01 -1.56856209e-01 -1.13971509e-01 -1.35928392e-01 -1.64692253e-01 -1.68664947e-01 -1.56541869e-01 -2.06402630e-01 -1.76759228e-01 -2.38477945e-01 -2.29818448e-01 -1.60069063e-01 -1.74962312e-01 -1.76390111e-01 -2.37643480e-01 -2.53216684e-01 -1.88842908e-01 -1.81329936e-01 -1.51752800e-01 -1.69602081e-01 -1.41513169e-01 -7.22368062e-02 -9.92854685e-02 -8.07712600e-02 -9.75611433e-02 -8.52845311e-02 -5.13771474e-02 -7.73788095e-02 -1.05022769e-02 +2.16379240e-02 +1.84266157e-02 +3.51916663e-02 +5.57506606e-02 +6.67346641e-02 +6.09966107e-02 +1.28606632e-01 +1.58312306e-01 +1.89701036e-01 +1.75592452e-01 +2.08782345e-01 +1.85364440e-01 +1.93143308e-01 +2.12615058e-01 +2.23689869e-01 +2.09641278e-01 +2.26394981e-01 +1.73186406e-01 +2.03121617e-01 +1.45470411e-01 +1.67907357e-01 +1.97106197e-01 +1.72508165e-01 +1.56073406e-01 +1.35846451e-01 +1.47792414e-01 +7.66649246e-02 +8.02370682e-02 +8.77866745e-02 +3.16911191e-02 +5.24593797e-03 -1.77580956e-02 -4.44062846e-03 -5.72314262e-02 -3.89946997e-02 -7.64646381e-02 -5.10364845e-02 -9.21493173e-02 -1.39521495e-01 -1.30328596e-01 -1.75921023e-01 -1.18236452e-01 -1.36208341e-01 -1.81472272e-01 -1.56417847e-01 -1.40822381e-01 -1.79173440e-01 -1.64308697e-01 -1.62294179e-01 -1.33429021e-01 -1.13401651e-01 -1.41445696e-01 -1.24605566e-01 -1.18988618e-01 -6.85874820e-02 -1.18877262e-01 -6.82907104e-02 -6.58299923e-02 -2.84169000e-02 -4.27065231e-02 -2.10836884e-02 -2.41164267e-02 -1.32692903e-02 +1.73973236e-02 +1.40695935e-02 +6.92535713e-02 +6.52380213e-02 +3.82433720e-02 +1.03828944e-01 +1.21863157e-01 +1.01314187e-01 +1.18506879e-01 +9.02518779e-02 +8.32727179e-02 +5.62630035e-02 +7.65432268e-02 +6.16593882e-02 +1.02237388e-01 +9.18381363e-02 +9.89858583e-02 +8.76673609e-02 +9.31891501e-02 +1.08054526e-01 +1.13766097e-01 +7.89665058e-02 +1.14334866e-01 +1.01646788e-01 +1.59291402e-01 +8.75930339e-02 +1.51720449e-01 +1.29780397e-01 +1.35727182e-01 +1.50276974e-01 +1.47431210e-01 +1.05392501e-01 +6.65750057e-02 +1.21261872e-01 +9.02822837e-02 +1.37263998e-01 +1.14172287e-01 +1.31985724e-01 +8.16417858e-02 +6.01536855e-02 +4.24266756e-02 +5.92244230e-02 +3.94438170e-02 -1.95197873e-02 +9.63438861e-03 -5.63112041e-03 -2.16927193e-02 -7.45363981e-02 -8.37801099e-02 -8.81647468e-02 -1.00719579e-01 -1.39973521e-01 -1.00020349e-01 -1.62503004e-01 -1.43187404e-01 -1.55235156e-01 -1.69123918e-01 -1.96688801e-01 -1.78534314e-01 -2.01482043e-01 -2.30633169e-01 -2.42511153e-01 -2.01014400e-01 -2.47191459e-01 -2.19946072e-01 -2.19383091e-01 -1.79580644e-01 -1.99388102e-01 -2.12029070e-01 -1.42584607e-01 -1.66433632e-01 -1.35727823e-01 -1.40920386e-01 -6.67185485e-02 -4.39029001e-02 -4.91930544e-02 -7.17201456e-02 -2.69598030e-02 +2.37644780e-02 +4.83513810e-03 +7.11163953e-02 +9.49483290e-02 +9.75415930e-02 +9.09569412e-02 +1.17649809e-01 +1.02303937e-01 +9.15978625e-02 +9.26622525e-02 +1.16173320e-01 +1.71013296e-01 +1.29749119e-01 +9.94633064e-02 +6.89098984e-02 +7.22087622e-02 +9.81304422e-02 +9.76041630e-02 +1.08896129e-01 +1.11408360e-01 +7.89432079e-02 +1.09912522e-01 +7.74113312e-02 +5.65832034e-02 +2.51307208e-02 +8.74550119e-02 -1.69894961e-03 +4.39090058e-02 +2.43799798e-02 +6.61100610e-04 -4.14008711e-04 -1.19238412e-02 +5.09435870e-03 -4.42102477e-02 -3.14968042e-02 -2.24642213e-02 -3.51152979e-02 -6.16993271e-02 -6.20851740e-02 -6.97430745e-02 -6.51980713e-02 -7.77698159e-02 -8.32917392e-02 -7.69430995e-02 -9.13421959e-02 -7.13435858e-02 -5.64250909e-02 -3.65705565e-02 -2.77668778e-02 -5.06129153e-02 -7.89262876e-02 -2.41524056e-02 -3.48558910e-02 -3.50694209e-02 -7.60071799e-02 -2.28556022e-02 -2.64110323e-03 +1.88377518e-02 +1.22265681e-03 +6.45826850e-03 +1.69437435e-02 +1.70993861e-02 +4.38481346e-02 +5.73704438e-03 +4.46067750e-02 +4.49260660e-02 +4.36919257e-02 +7.12904260e-02 +2.48401407e-02 +3.19111012e-02 +2.46693213e-02 -2.07512509e-02 +1.91514995e-02 -2.78824102e-02 +1.43248467e-02 +1.90625470e-02 -3.21181864e-02 -2.01140111e-03 -1.91767216e-02 -1.86691713e-02 -8.69397968e-02 -5.31258173e-02 -6.36209697e-02 -5.81208579e-02 -7.93928355e-02 -1.21921645e-02 -4.01096418e-02 -4.08222564e-02 -5.15536331e-02 -5.09770960e-02 -1.01326615e-01 -6.13934360e-02 -5.35852760e-02 -5.59114702e-02 +8.81367549e-03 +4.66349476e-04 +4.27567512e-02 -1.14949318e-02 -2.80823000e-02 +5.84794879e-02 -3.21327709e-03 +3.47886011e-02 +3.48432362e-02 +2.14239229e-02 +3.63479331e-02 +5.25410026e-02 +6.30306825e-02 +6.71876445e-02 +1.19683564e-01 +1.06981315e-01 +8.26877803e-02 +6.25056475e-02 +9.84720066e-02 +1.04714751e-01 +1.02511510e-01 +6.53734729e-02 +1.15340747e-01 +1.16353780e-01 +1.34315029e-01 +7.75253698e-02 +6.20213449e-02 +8.53622183e-02 +3.20510790e-02 +1.02579996e-01 +8.12112913e-02 +7.31379241e-02 +4.74211983e-02 +6.33620173e-02 +8.27613175e-02 +2.37135943e-02 +3.83848958e-02 +1.45958327e-02 -3.91430408e-02 -5.76564483e-03 -1.74472649e-02 -8.02882984e-02 -3.13530862e-02 -3.01169511e-02 -6.75884411e-02 -2.37246174e-02 -5.36084771e-02 -9.08132643e-02 -9.72668380e-02 -8.03947747e-02 -1.09081484e-01 -5.24245165e-02 -4.20072377e-02 -5.41066751e-02 -5.21205477e-02 -2.93326750e-02 -2.29346864e-02 -2.68111527e-02 -1.07771531e-02 -2.50688400e-02 +2.40216739e-02 -1.41442608e-04 -1.08297030e-02 -1.27199749e-02 +2.55640745e-02 +4.82156128e-02 -6.43238367e-04 +1.72889140e-02 +3.83208692e-02 +6.17830046e-02 +3.16599682e-02 +4.91694212e-02 +1.83838364e-02 +6.26604185e-02 +3.42939049e-02 -2.18662750e-02 -1.56157482e-02 -5.89938834e-03 +1.33042224e-02 -2.07398571e-02 -5.04708849e-02 -1.53305819e-02 -6.84186518e-02 -6.28257170e-02 -6.90644681e-02 -6.95316494e-02 -8.49336535e-02 -7.96522349e-02 -9.14127454e-02 -1.15157299e-01 -8.89973268e-02 -1.16638049e-01 -1.02861077e-01 -1.48971781e-01 -1.08471826e-01 -9.40959379e-02 -8.25113431e-02 -7.43415579e-02 -7.15386271e-02 -1.07790448e-01 -9.01551023e-02 -1.05042323e-01 -8.98848772e-02 -3.20271887e-02 -1.01552475e-02 -3.30070965e-02 -1.50259379e-02 -2.82327947e-03 +2.18189601e-02 +5.45587651e-02 +4.50365879e-02 +4.79258075e-02 +5.87465912e-02 +6.22549951e-02 +3.25965807e-02 +3.09976824e-02 +5.90795502e-02 +6.92177713e-02 +2.20488124e-02 +2.94981413e-02 +5.52025437e-03 +5.08559421e-02 +3.64765935e-02 +3.19172964e-02 -1.57198496e-02 +2.67262403e-02 -6.24751858e-03 -7.96454959e-03 -9.90532571e-04 -4.68761800e-03 -1.89814791e-02 +2.54345089e-02 +1.08368313e-02 -4.91390703e-03 +2.79146396e-02 +4.92834812e-03 +7.27205956e-03 -7.55746709e-03 +2.58613601e-02 +1.92012675e-02 +2.09476613e-02 +6.29559830e-02 +5.99583238e-02 +7.62262046e-02 +6.58631399e-02 +8.42840150e-02 +1.07420869e-01 +1.10729679e-01 +1.28081337e-01 +9.65289846e-02 +1.27835274e-01 +1.63055092e-01 +1.03708290e-01 +1.65397197e-01 +1.50884345e-01 +1.21654518e-01 +9.38871503e-02 +1.29037216e-01 +9.76221934e-02 +1.00072421e-01 +1.28744692e-01 +7.04060122e-02 +7.76636153e-02 +2.72078887e-02 +1.04707032e-02 +3.74112763e-02 +5.41292988e-02 -5.02531342e-02 -2.84771975e-02 -2.46675387e-02 -2.42773574e-02 -3.47961932e-02 -5.81727773e-02 -8.91275555e-02 -1.19944677e-01 -1.15026325e-01 -1.31149545e-01 -1.22422360e-01 -1.04668915e-01 -1.34705588e-01 -1.84148669e-01 -1.97528332e-01 -1.54350773e-01 -2.37376153e-01 -2.28564978e-01 -1.75574973e-01 -1.71684504e-01 -2.13595212e-01 -1.78368419e-01 -1.56653404e-01 -2.02510789e-01 -1.77118525e-01 -1.55431971e-01 -1.22280777e-01 -1.16768122e-01 -1.27835408e-01 -8.12175199e-02 -2.99899802e-02 -9.15698409e-02 -4.72715916e-03 -2.32553836e-02 +2.52821930e-02 +5.90481097e-03 +4.52058539e-02 +8.10429156e-02 +4.65193428e-02 +8.65274072e-02 +1.22651473e-01 +7.69079626e-02 +1.26369759e-01 +1.12911232e-01 +1.26205087e-01 +1.35425717e-01 +1.06676325e-01 +1.64835885e-01 +1.40905932e-01 +1.35232076e-01 +1.51494637e-01 +1.18977919e-01 +1.09188966e-01 +1.08637430e-01 +1.38561323e-01 +1.07138850e-01 +1.18545800e-01 +8.21317509e-02 +1.09789513e-01 +5.08694537e-02 +7.06102103e-02 +9.07004476e-02 +5.47726639e-02 +3.75216119e-02 +6.00228310e-02 +3.54485773e-02 +4.58169207e-02 +4.30604704e-02 +4.93820533e-02 +6.64794073e-02 +7.64175802e-02 +7.08552226e-02 +6.74234480e-02 +2.12319307e-02 +2.93144472e-02 -1.22388877e-01 -7.59269074e-02 -1.07784308e-01 -8.51835907e-02 -9.82349589e-02 -1.49737909e-01 -9.05211195e-02 -9.89892930e-02 -8.61325637e-02 -9.36949849e-02 -9.19115096e-02 -9.18005705e-02 -9.34473351e-02 -6.74332082e-02 -8.93423855e-02 -3.34149227e-02 -3.06276511e-02 -1.97927598e-02 -3.54624912e-02 +5.57692572e-02 +3.77934910e-02 +1.17572704e-02 +1.06291443e-01 +4.76969182e-02 +6.33279532e-02 +8.77482519e-02 +1.05507791e-01 +9.85749364e-02 +1.54865608e-01 +1.47910163e-01 +1.73531651e-01 +1.90632805e-01 +1.67189211e-01 +1.60522118e-01 +1.32376269e-01 +1.64849028e-01 +1.69102833e-01 +1.69207916e-01 +1.50214195e-01 +1.65918767e-01 +1.67170405e-01 +1.40941679e-01 +1.55375510e-01 +1.14759244e-01 +8.02328214e-02 +1.19918354e-01 +1.22186095e-01 +9.83800590e-02 +7.16025159e-02 +2.58614533e-02 +7.49224797e-02 +1.18249720e-02 -1.06777092e-02 -1.65494233e-02 +2.09033154e-02 -8.88368953e-03 -4.77617122e-02 -2.57480443e-02 -4.75537218e-03 -4.07959670e-02 -3.55812199e-02 -5.78914881e-02 -8.54703262e-02 -3.70337330e-02 -3.66062783e-02 -5.46769127e-02 -6.52743727e-02 -4.63395342e-02 -3.94893549e-02 -7.47218132e-02 -3.20231915e-02 -9.38920379e-02 -6.00291379e-02 -8.75590220e-02 -2.39604693e-02 -5.40678985e-02 -7.01365694e-02 -5.42401411e-02 -1.03413090e-01 -7.98723027e-02 -7.11171851e-02 -4.94108722e-02 -6.70059547e-02 -9.45779532e-02 -1.09166346e-01 -1.00999288e-01 -1.13498725e-01 -1.14192426e-01 -1.40790775e-01 -1.54168770e-01 -1.40638605e-01 -1.12379126e-01 -1.44065261e-01 -1.34837896e-01 -1.08493827e-01 -1.29351467e-01 -1.12001374e-01 -1.21769205e-01 -1.02722228e-01 -1.37730047e-01 -8.62248391e-02 -1.11897826e-01 -9.15025547e-02 -9.43901539e-02 -2.37036683e-02 -3.87166142e-02 -5.85999852e-03 +3.27833481e-02 -4.60498556e-02 +1.87478829e-02 -4.69564751e-04 +4.47137142e-03 +6.59378394e-02 +6.80773780e-02 +5.14151566e-02 +9.01446715e-02 +7.81288370e-02 +7.32011497e-02 +1.41027570e-01 +1.22146875e-01 +1.19815566e-01 +1.16928153e-01 +1.14792153e-01 +1.77138135e-01 +1.41602069e-01 +1.51569024e-01 +1.59378037e-01 +1.00950666e-01 +1.53496489e-01 +1.52928442e-01 +1.49952084e-01 +1.45285785e-01 +1.64169714e-01 +7.60102347e-02 +1.18960947e-01 +1.31669223e-01 +1.01035021e-01 +1.09572247e-01 +6.89548552e-02 +7.35529065e-02 +6.56010807e-02 +2.74145249e-02 +7.17904940e-02 +6.17112592e-02 +4.29228880e-02 +4.69911620e-02 +3.52430604e-02 -3.35347168e-02 -5.56918513e-03 -1.65369455e-02 -4.47357781e-02 -3.40104215e-02 -5.49776740e-02 -1.76026300e-02 -5.68253919e-02 -3.59823555e-02 -4.70879897e-02 -3.78346555e-02 -7.31638595e-02 -4.84425388e-02 -6.15976416e-02 -1.08705990e-01 -8.13840181e-02 -7.22118616e-02 -8.64824578e-02 -6.67554662e-02 -4.97263968e-02 -8.61122385e-02 -8.58739018e-02 -8.24335665e-02 -8.54315087e-02 -1.32804751e-01 -5.51625900e-02 -9.97402370e-02 -6.80052862e-02 -7.26362765e-02 -5.89052811e-02 -9.08443332e-02 -6.63356408e-02 -2.99100671e-02 -4.62975092e-02 -6.23156838e-02 -4.02640663e-02 -4.12798487e-03 +1.67724036e-03 +1.98132694e-02 +3.54136378e-02 -6.94913231e-03 +7.85690770e-02 +8.53955895e-02 +5.93972243e-02 +5.06871827e-02 +6.92611709e-02 +1.01677544e-01 +7.19115585e-02 +4.48804162e-02 +8.99966210e-02 +1.24852546e-01 +4.83085476e-02 +1.00422271e-01 +8.52047801e-02 +4.64962125e-02 +3.35029885e-02 +3.94753627e-02 +5.10286242e-02 +4.74096835e-02 -9.50284116e-03 +8.54448825e-02 -2.87540630e-02 -8.91211722e-03 -5.72836166e-03 +1.22981695e-02 -2.61374637e-02 -4.07505631e-02 -1.60691999e-02 -1.29349520e-02 -6.68037087e-02 -5.21394610e-02 -1.11019127e-01 -8.38437900e-02 -1.40937150e-01 -1.36226669e-01 -1.78248942e-01 -1.30229190e-01 -1.44336820e-01 -1.81717902e-01 -1.15494505e-01 -1.57672316e-01 -1.94215849e-01 -1.41476601e-01 -1.87271774e-01 -1.70484021e-01 -1.46293402e-01 -1.45115510e-01 -1.51471689e-01 -1.62560895e-01 -1.62232772e-01 -1.02628164e-01 -1.25133604e-01 -9.92909372e-02 -7.11920038e-02 -7.84441605e-02 -8.51545855e-03 -2.84901671e-02 +1.80938002e-02 +2.56982781e-02 +9.64846984e-02 +9.56164598e-02 +1.32282272e-01 +1.60778672e-01 +1.28138438e-01 +1.71900615e-01 +2.23057985e-01 +2.14008331e-01 +2.43345007e-01 +2.02468932e-01 +2.43596658e-01 +2.18125403e-01 +2.49545187e-01 +2.76416868e-01 +2.48373687e-01 +2.79868454e-01 +2.24792078e-01 +2.09346607e-01 +2.25889817e-01 +1.95482507e-01 +2.32929498e-01 +1.78750873e-01 +1.74960732e-01 +1.23929307e-01 +1.15392596e-01 +1.09613523e-01 +7.89356530e-02 +7.59852231e-02 +2.07848419e-02 +3.59119922e-02 +2.67339908e-02 +2.47762650e-02 +1.98838999e-03 -5.81564717e-02 -7.66411573e-02 -7.03347027e-02 -9.98580456e-02 -1.00977719e-01 -6.85945526e-02 -1.25836730e-01 -1.50336713e-01 -1.30685568e-01 -1.44719809e-01 -1.52373701e-01 -1.41771302e-01 -2.06191644e-01 -1.81242228e-01 -1.41320169e-01 -1.37421206e-01 -1.59887463e-01 -1.61088109e-01 -1.21865951e-01 -8.88469517e-02 -1.39210209e-01 -1.06702730e-01 -1.09786607e-01 -1.35993958e-01 -1.35098115e-01 -1.29757926e-01 -9.91934612e-02 -9.51972082e-02 -5.00941202e-02 -6.15692176e-02 -4.73417528e-02 -1.31086381e-02 -8.70038271e-02 -5.14880149e-03 -2.89868899e-02 -2.18049274e-03 +3.01329140e-02 +1.21769076e-02 -2.23407941e-03 +2.09322926e-02 +1.28044384e-02 +3.32883783e-02 +1.77076962e-02 +1.93959214e-02 +3.98075655e-02 +2.89782174e-02 +3.91534865e-02 +4.55793887e-02 -1.12391664e-02 +1.63333025e-03 +5.23960032e-03 -1.42587442e-02 +7.61089753e-03 -4.26882990e-02 -2.44961083e-02 -2.88881827e-02 -5.13840318e-02 +2.70595290e-02 -2.10725423e-02 +2.69020218e-02 +3.12556215e-02 -4.03078366e-03 -1.78103745e-02 -9.21741035e-03 +1.16870003e-02 -2.61955634e-02 -2.48624049e-02 +8.02293234e-03 -2.35227477e-02 +2.27727881e-03 +6.82831882e-03 -2.81750807e-03 +2.14771274e-02 +2.03018058e-02 +2.34385952e-02 +3.07065193e-02 -2.88720541e-02 +3.59118991e-02 -5.86224813e-03 -2.75945272e-02 +5.41853011e-02 +3.15282531e-02 +3.98304574e-02 +2.87195537e-02 +8.59784484e-02 +4.30256352e-02 +1.41177149e-02 +2.97467615e-02 +9.50739905e-02 +7.21305236e-02 +7.78075084e-02 +8.51480365e-02 +8.43867809e-02 +3.75505276e-02 +5.84654100e-02 +4.70386893e-02 +6.60561398e-02 +6.12283126e-02 +6.29768148e-02 +4.81061861e-02 +7.59480745e-02 +2.32470483e-02 +1.03267180e-02 +2.49404088e-02 +3.43443280e-05 +3.00535988e-02 +2.87543260e-03 -7.01866578e-03 -2.80013103e-02 +1.93581060e-02 -1.92398969e-02 -2.35409345e-02 -1.91105176e-02 -3.49347144e-02 -5.02448194e-02 -6.24294467e-02 -4.12759557e-02 -4.40406017e-02 -2.19408460e-02 +1.48265539e-02 -3.09781041e-02 -6.34165928e-02 -2.65590958e-02 -1.10315746e-02 -1.76300611e-02 +1.34153161e-02 +3.86537705e-03 +1.18379686e-02 +2.92738639e-02 -5.63163357e-03 -2.39205640e-02 -2.08267197e-02 +1.28106668e-03 -4.51926552e-02 +1.61606204e-02 -4.68858071e-02 -5.40166534e-02 -6.00930750e-02 -5.68388179e-02 -4.36149761e-02 -6.37720376e-02 -9.16499570e-02 -7.49400854e-02 -1.36255324e-01 -9.21633840e-02 -1.15038067e-01 -1.06207497e-01 -1.38290748e-01 -1.77056402e-01 -1.14481814e-01 -1.38216168e-01 -1.56553879e-01 -1.10909171e-01 -1.10211402e-01 -1.32182270e-01 -7.32635707e-02 -1.02221996e-01 -1.11357376e-01 -1.05254643e-01 -7.40263462e-02 -9.26283468e-03 -7.83586800e-02 -3.29272188e-02 -2.26775780e-02 -3.54930721e-02 +6.13395264e-03 +2.58135740e-02 +3.28549407e-02 +3.87835726e-02 +6.24583475e-02 +6.17773691e-03 +7.29148388e-02 +1.05584331e-01 +1.03719786e-01 +8.82654563e-02 +1.59850672e-01 +1.59835070e-01 +1.24273084e-01 +1.32084221e-01 +1.90640748e-01 +1.85178131e-01 +1.90946043e-01 +2.34938726e-01 +2.26640627e-01 +2.96254605e-01 +2.73652166e-01 +2.29176447e-01 +2.42739931e-01 +2.40840480e-01 +2.81575322e-01 +2.93188900e-01 +2.40472630e-01 +2.24891320e-01 +2.10736156e-01 +2.05685854e-01 +1.71636790e-01 +1.11379698e-01 +1.14556216e-01 +8.00531209e-02 +7.02667460e-02 +6.32164180e-02 +1.37719624e-02 +1.89980473e-02 -4.24572527e-02 -5.62982298e-02 -7.58586004e-02 -8.31137896e-02 -1.07630454e-01 -1.16110437e-01 -1.09226063e-01 -1.93475410e-01 -1.98643684e-01 -2.47628808e-01 -2.39975035e-01 -2.69762486e-01 -2.33335197e-01 -2.56935149e-01 -2.46096447e-01 -2.69326448e-01 -2.49960750e-01 -2.62846053e-01 -2.13242903e-01 -2.39291564e-01 -1.77092135e-01 -1.97792694e-01 -2.17995390e-01 -1.94936767e-01 -1.77394539e-01 -1.37910143e-01 -1.48996353e-01 -7.57139027e-02 -9.62465927e-02 -1.00263707e-01 -5.03456965e-02 -2.69719306e-02 -1.83361433e-02 -4.19720449e-02 +4.43885894e-03 +4.17475076e-03 +2.75263973e-02 +2.20306851e-02 +4.65569124e-02 +8.80637467e-02 +6.81146830e-02 +9.87801552e-02 +8.17767158e-02 +4.67748716e-02 +1.17092177e-01 +1.02579281e-01 +9.49875340e-02 +1.36063740e-01 +1.18397832e-01 +1.22744858e-01 +9.69637334e-02 +8.43300521e-02 +1.30463362e-01 +1.23107500e-01 +1.20295167e-01 +8.28224570e-02 +1.40088350e-01 +1.14326373e-01 +1.16587766e-01 +9.58084464e-02 +1.14689037e-01 +1.34283438e-01 +1.37293085e-01 +1.48173258e-01 +1.02342971e-01 +1.20476320e-01 +8.28253254e-02 +7.92811438e-02 +1.08122841e-01 +6.60196468e-02 +3.95969190e-02 +5.29784709e-02 +3.87935452e-02 +5.84863685e-02 +4.31662574e-02 +6.01876490e-02 +4.73659709e-02 +3.83666828e-02 -4.15566796e-03 +1.72075499e-02 -1.04781371e-02 -1.25981821e-02 -2.64240298e-02 -5.79498932e-02 -6.68851957e-02 -2.69788727e-02 -1.02473237e-01 -8.10095146e-02 -1.37992069e-01 -1.17406435e-01 -1.52431071e-01 -1.60598576e-01 -1.50474191e-01 -1.80131719e-01 -1.77026898e-01 -1.65178105e-01 -1.33981943e-01 -1.83536604e-01 -1.51336774e-01 -2.20931739e-01 -2.14979708e-01 -2.13108554e-01 -1.71501502e-01 -1.68283612e-01 -1.48328587e-01 -1.53516948e-01 -1.66007221e-01 -9.13025364e-02 -1.24054149e-01 -1.23925202e-01 -1.20411120e-01 -9.13080052e-02 -5.77192493e-02 -5.20902947e-02 -3.91562618e-02 +8.40181857e-03 -1.19822016e-02 +6.87141865e-02 +6.76677004e-02 +8.61812904e-02 +1.04244314e-01 +1.28897205e-01 +1.26185536e-01 +1.41595155e-01 +1.83815271e-01 +1.78212062e-01 +1.55487731e-01 +1.79028571e-01 +1.60523966e-01 +1.69700548e-01 +1.62988767e-01 +1.76064640e-01 +1.85348555e-01 +1.45468965e-01 +1.87100530e-01 +1.61029518e-01 +1.78157836e-01 +9.96206701e-02 +7.29147568e-02 +9.65094715e-02 +1.15980506e-01 +6.46714568e-02 +4.60645407e-02 +7.14241117e-02 -3.95695861e-05 -1.02694305e-02 -3.06376838e-03 +1.17129963e-02 -6.94671832e-03 +4.73260821e-04 +1.29619110e-02 -4.09432361e-03 -2.33108979e-02 -8.58276784e-02 -4.31066640e-02 -3.89450230e-02 -9.58862435e-03 -7.41868420e-03 +5.46909869e-02 +9.93873328e-02 +7.31176808e-02 +1.28473148e-01 +1.26056120e-01 +1.08793415e-01 +1.53121546e-01 +1.27848446e-01 +1.36701211e-01 +1.61338478e-01 +1.15931854e-01 +2.21517339e-01 +1.52289703e-01 +1.61720783e-01 +1.59386560e-01 +1.34654149e-01 +1.89795628e-01 +1.29065648e-01 +8.61525834e-02 +1.18144289e-01 +1.22018062e-01 +4.88505438e-02 +8.48360062e-02 +3.44188623e-02 +1.91645417e-02 -5.94390221e-02 -5.32313809e-02 -5.71111627e-02 -8.03990290e-02 -4.71641570e-02 -6.14354014e-02 -1.14777312e-01 -1.33988351e-01 -1.84349597e-01 -1.53220117e-01 -1.39038205e-01 -1.61983475e-01 -1.55907556e-01 -1.36787266e-01 -1.36663258e-01 -1.44893959e-01 -1.21767014e-01 -1.40396327e-01 -1.08301409e-01 -4.80000377e-02 -7.83794895e-02 -1.05308242e-01 -7.46705681e-02 -3.13161984e-02 -8.30152631e-02 -1.69342607e-02 -7.41326809e-03 +8.61398410e-04 -5.35092838e-02 -4.94038947e-02 -5.05245142e-02 -5.52971438e-02 +5.05759381e-03 -1.90480135e-03 -1.73671711e-02 +2.72152713e-03 +4.99028014e-03 -1.17993285e-03 +1.52516821e-02 +1.51972112e-03 -1.04425959e-02 +2.90664639e-02 -1.48735652e-02 +2.48207636e-02 +2.08449289e-02 +1.16290897e-02 -1.24339703e-02 -1.74416061e-02 +6.72287941e-02 +1.02628942e-03 -5.86355813e-02 -4.31949720e-02 +2.32242816e-03 +3.62487347e-03 +1.44534996e-02 +8.43961816e-03 -3.35054807e-02 +4.30994295e-02 +4.86669363e-03 +9.69055016e-03 +2.95583438e-02 +4.35736030e-02 +5.36608249e-02 +2.45257572e-04 +1.62743591e-02 -4.44016419e-03 +4.99591418e-02 +2.12547351e-02 +6.24801479e-02 +6.49957284e-02 +1.71439387e-02 +1.63621455e-02 +7.14042708e-02 -8.17040075e-03 +4.96692881e-02 +2.86791176e-02 +2.78670136e-02 +3.58746313e-02 -4.12591686e-03 +5.49263284e-02 +2.08917595e-02 +1.11973798e-02 +4.78393435e-02 -2.66062450e-02 +1.61951408e-02 +1.80922095e-02 +1.79731846e-02 +4.86096218e-02 -1.47375865e-02 +3.06615140e-02 +3.12139653e-02 -4.45128046e-03 -3.01929172e-02 -2.55178250e-02 +5.72527293e-04 -1.52566964e-02 -2.02392917e-02 +6.62615243e-03 +2.26769354e-02 -1.67803932e-02 -1.57512017e-02 -1.24275601e-02 +2.09468119e-02 -1.73996575e-02 -2.75941398e-02 -1.25495102e-02 +2.67984495e-02 +5.06138913e-02 +1.96003933e-02 +2.83269305e-03 +3.60962823e-02 +1.95848960e-02 +2.14275308e-02 -1.35324737e-02 +2.05355901e-02 +2.12428663e-02 +3.26259322e-02 +4.28950079e-02 +1.59357977e-03 -6.47598552e-03 +2.51622386e-02 +3.25969458e-02 -1.22461614e-04 +2.53409334e-02 +3.34910713e-02 +1.11044608e-02 +2.29377137e-03 +2.79481076e-02 +2.82745957e-02 -2.35623866e-02 +9.72966664e-03 -6.40438963e-03 -9.13462974e-03 +2.30995286e-02 -3.08663957e-02 -2.13832632e-02 -2.64622141e-02 -3.23494412e-02 -4.42326851e-02 -6.06568111e-03 -7.30779916e-02 -3.59243639e-02 -1.33426012e-02 -1.24669364e-02 -9.87826288e-03 -1.75615232e-02 -2.44335122e-02 +2.77976040e-03 -1.30742127e-02 +9.02993977e-03 +3.34962197e-02 +4.85588200e-02 -2.67491750e-02 -4.40582782e-02 -9.38280835e-04 +1.49216196e-02 +2.43427623e-02 +1.83640774e-02 -7.01837428e-03 -8.77165608e-03 -1.65848937e-02 -2.38155369e-02 -7.26071745e-02 -3.76173481e-02 -7.52161890e-02 -7.29993433e-02 -8.72581154e-02 -1.00367188e-01 -1.22667558e-01 -1.33019388e-01 -1.26112536e-01 -1.25781804e-01 -1.33038759e-01 -1.21007450e-01 -1.13712400e-01 -1.41153768e-01 -1.64813131e-01 -1.36632130e-01 -1.53322235e-01 -1.00543477e-01 -9.84887183e-02 -1.28865048e-01 -1.20609306e-01 -8.51125121e-02 -1.07977003e-01 -7.01079369e-02 -2.96013132e-02 -3.61958556e-02 +3.14296894e-02 +4.58597057e-02 -1.84717104e-02 +6.25810921e-02 +9.03954506e-02 +8.64945278e-02 +1.40313819e-01 +1.71691120e-01 +1.70035094e-01 +1.35824427e-01 +1.65407866e-01 +2.02414081e-01 +2.19248235e-01 +2.53944010e-01 +2.27045596e-01 +2.53857970e-01 +3.11925024e-01 +3.13035905e-01 +3.14861447e-01 +2.89280832e-01 +3.01462770e-01 +2.71957487e-01 +2.66696990e-01 +1.99304953e-01 +2.33797118e-01 +2.22555786e-01 +1.95582971e-01 +1.88101515e-01 +1.80503607e-01 +9.47914869e-02 +7.40086138e-02 +1.15823582e-01 +4.81872633e-02 +1.69175223e-03 +5.48966266e-02 -5.15039777e-03 -3.46476771e-02 -7.30985627e-02 -1.19904190e-01 -1.37006745e-01 -1.81761652e-01 -1.66461512e-01 -2.15797663e-01 -2.05059886e-01 -1.87091082e-01 -1.88073888e-01 -2.39206821e-01 -2.53732413e-01 -2.40324154e-01 -2.52042800e-01 -2.67602801e-01 -2.79788643e-01 -1.86471149e-01 -2.22133726e-01 -1.95283145e-01 -1.95553631e-01 -1.89353913e-01 -1.10291637e-01 -7.75696933e-02 -1.35008097e-01 -1.20038807e-01 -1.15723222e-01 -4.02106196e-02 -7.20427278e-03 -2.57899370e-02 -1.00501198e-02 -2.11358238e-02 +2.01125089e-02 +4.35967445e-02 +3.49660777e-02 +5.64389713e-02 +4.47575226e-02 +5.17827868e-02 +7.49713928e-02 +6.98170960e-02 +3.76509950e-02 +3.50289010e-02 +4.84102517e-02 +1.70936175e-02 +8.01698044e-02 +6.02562726e-02 +9.08291191e-02 +8.63347426e-02 +1.02953106e-01 +5.09567857e-02 +6.61167577e-02 +1.09124154e-01 +1.07962124e-01 +5.25722057e-02 +6.41068444e-02 +6.26574233e-02 +6.86443001e-02 +9.00268182e-02 +7.66700655e-02 +6.54723048e-02 +1.23193823e-02 +8.75138491e-02 +6.70549348e-02 +1.08423131e-02 +1.83570124e-02 +6.07796945e-02 +1.44687071e-02 +2.27789264e-02 -2.28639618e-02 +2.56061982e-02 -3.39010172e-02 -4.04637605e-02 -1.02448344e-01 -1.47441909e-01 -8.57261121e-02 -1.32888108e-01 -8.21691006e-02 -6.43908083e-02 -9.60492864e-02 -8.20234790e-02 -4.79405634e-02 -6.57221824e-02 +1.82922557e-03 -3.02462019e-02 -6.50031567e-02 -4.65927199e-02 -3.86376232e-02 +6.40202221e-03 +1.98968891e-02 +2.26710588e-02 +2.90254820e-02 -8.13257042e-03 -3.62822041e-02 +6.40025884e-02 +5.32858893e-02 +1.31364137e-01 +4.94075343e-02 +6.23560362e-02 +7.81850219e-02 +9.31863934e-02 +6.49840683e-02 +5.83436564e-02 +1.78199951e-02 +2.82696430e-02 -1.47533529e-02 +3.03652324e-02 +7.42795914e-02 -2.99611827e-04 +3.04413270e-02 +1.53605668e-02 +4.57799286e-02 +3.18272039e-02 +4.17299233e-02 +1.41539527e-02 +3.92951705e-02 +8.17044824e-03 +3.00448127e-02 +1.18300943e-02 -3.40795331e-02 -3.13155092e-02 -7.03379288e-02 +7.37641519e-03 -4.26155552e-02 -3.21820639e-02 -5.58594987e-02 -1.38324471e-02 -3.96864042e-02 -1.14217578e-02 +3.17623913e-02 -3.29374708e-02 -4.25269939e-02 -3.46290842e-02 +5.00632189e-02 +6.97306404e-03 +1.19736670e-02 +1.69272013e-02 -2.52988003e-03 +6.04089573e-02 +2.73325946e-02 +1.72620639e-02 +4.47927192e-02 -4.57896851e-03 -7.57700810e-03 +5.78928031e-02 +5.03032990e-02 +3.46379131e-02 +7.31866434e-02 +6.86261952e-02 +6.39358684e-02 +6.82530552e-02 +2.52243038e-02 +1.97681021e-02 -2.18688454e-02 -8.56482144e-03 +4.24275696e-02 -2.23512426e-02 +3.50098200e-02 -1.64814945e-02 -1.63102187e-02 -1.84374992e-02 +8.33273027e-03 -5.32092787e-02 -5.06843254e-02 -5.48836514e-02 -1.04503587e-01 -1.08758993e-01 -1.40775949e-01 -7.31593147e-02 -1.18629232e-01 -1.58784613e-01 -1.04963265e-01 -5.74319512e-02 -1.37719452e-01 -1.06788158e-01 -1.54663384e-01 -1.62664786e-01 -1.59597501e-01 -1.32911265e-01 -1.04944512e-01 -1.42211914e-01 -6.56435043e-02 -1.31924942e-01 -7.47863576e-02 -1.22537307e-01 -1.33412778e-01 -4.90354933e-02 -1.64992046e-02 -6.16751052e-02 -5.53434948e-04 +4.00590412e-02 +3.80884558e-02 +1.05400115e-01 +8.71296450e-02 +1.06565334e-01 +1.45488679e-01 +7.38240778e-02 +1.81982532e-01 +2.11019352e-01 +1.88879415e-01 +2.78174311e-01 +2.45140105e-01 +2.47240245e-01 +2.47402310e-01 +2.34558567e-01 +2.27455109e-01 +2.75377601e-01 +2.15574458e-01 +2.35328496e-01 +2.14323059e-01 +1.73070848e-01 +1.54905841e-01 +1.52569130e-01 +1.67379424e-01 +1.67168513e-01 +5.98139502e-02 +7.85387456e-02 +4.81117740e-02 +1.89750176e-02 -1.32225016e-02 -2.75152680e-02 -3.96572948e-02 -7.46996477e-02 -4.23960537e-02 -1.82148293e-01 -1.26860499e-01 -1.61620662e-01 -1.57175481e-01 -2.05363482e-01 -2.09147051e-01 -2.22187266e-01 -1.76496178e-01 -2.25065917e-01 -1.67012334e-01 -1.81946531e-01 -1.96288452e-01 -1.34731740e-01 -1.77112371e-01 -1.95968390e-01 -1.38343975e-01 -1.18235804e-01 -1.36039555e-01 -1.21376760e-01 -1.03783898e-01 -3.34022716e-02 -1.29139274e-01 -4.09099832e-02 -9.84689668e-02 -8.95218030e-02 -4.80087623e-02 +2.24861186e-02 +5.68517484e-03 +5.69453239e-02 +4.65218537e-02 +7.27986870e-03 +1.11796809e-02 +8.32919702e-02 +4.11596075e-02 +8.64341184e-02 +6.25591949e-02 +1.38115898e-01 +6.73938468e-02 +9.90414396e-02 +1.14156403e-01 +9.82000157e-02 +1.35528579e-01 +1.14400528e-01 +9.52807814e-02 +1.22581363e-01 +1.07652113e-01 +8.42544362e-02 +1.27989843e-01 +9.75598991e-02 +5.69205955e-02 +8.79883990e-02 +1.17423259e-01 +8.25778693e-02 +5.63573167e-02 +8.42844620e-02 +6.39208406e-02 +3.42617705e-02 +5.61857708e-02 +5.04066162e-02 +2.48009842e-02 +6.05807686e-03 -1.58855226e-02 -1.83726549e-02 +3.38941813e-02 -3.53818908e-02 -1.46547435e-02 -3.06838676e-02 +1.27621582e-02 -4.26424891e-02 -1.27324024e-02 -6.00796677e-02 +1.21193565e-02 -6.60053492e-02 -5.54894432e-02 -3.21876779e-02 -3.99243608e-02 -8.49449113e-02 -1.70408618e-02 -1.34612516e-01 +9.45736840e-03 -8.62568840e-02 -7.46130794e-02 -3.51709127e-02 -3.88941877e-02 -3.92505974e-02 -1.53906606e-02 -3.73515263e-02 -6.13612905e-02 -4.32941224e-03 -6.54078647e-02 +8.06481577e-03 +2.65423022e-03 +2.06464771e-02 -4.48974855e-02 +2.76572723e-03 -3.61699574e-02 -1.90487858e-02 -9.17104036e-02 -3.93794738e-02 -2.89142393e-02 +1.60452817e-02 -2.09065396e-02 -3.90781797e-02 -2.25172583e-02 -2.29803305e-02 -6.62389472e-02 -4.88016009e-02 +1.05911661e-02 -2.00066883e-02 -3.35008278e-02 +8.44658539e-03 +7.42289284e-03 +1.39047876e-02 -2.85499059e-02 +1.17387832e-03 +6.22634171e-03 -1.45272771e-02 -1.57768633e-02 +5.88827692e-02 +2.22518924e-03 +1.74010247e-02 +4.61337082e-02 +2.03631585e-03 +2.84716655e-02 -2.13766284e-02 +4.87352349e-02 -1.01937270e-02 +2.08150037e-02 +3.41716297e-02 +4.91196439e-02 +2.09501423e-02 +5.05124629e-02 +5.10575362e-02 -2.70347185e-02 +2.12499648e-02 +7.98275769e-02 +8.03377363e-04 +8.36836696e-02 +5.69657683e-02 +5.40647702e-03 +1.25947580e-01 -2.46026348e-02 +1.07177347e-02 +2.08441820e-02 +5.52701168e-02 +4.84368317e-02 +7.24465176e-02 -6.60001533e-03 -3.07802390e-02 -1.51522066e-02 -6.85936445e-03 +6.03424460e-02 +1.83109418e-02 +3.09794974e-02 +3.71298715e-02 -1.75486580e-02 +7.73267820e-03 +7.80741902e-05 -8.40159040e-03 -1.23322131e-02 +5.46267349e-03 -2.48218589e-02 -4.80208546e-02 -4.66735065e-02 -7.66530186e-02 -5.09450957e-02 -4.93423007e-02 +2.77988072e-02 +2.42176428e-02 -1.87583677e-02 -6.79326877e-02 -2.53917966e-02 -3.99013609e-02 -1.49111934e-02 -6.47400767e-02 -7.48234913e-02 -8.24196488e-02 -1.00458926e-02 -3.83574106e-02 -5.12129255e-02 -3.36071961e-02 -6.67816401e-02 -6.88889474e-02 -3.53385098e-02 -7.98321590e-02 -5.37682474e-02 -8.72640684e-02 -1.84472818e-02 -2.57988200e-02 +5.73817594e-03 -9.72896442e-03 -1.83148198e-02 +2.50631589e-02 +7.52243027e-02 +6.85160756e-02 +1.06579110e-01 +6.08104467e-02 +1.05836503e-01 +1.16105698e-01 +1.93084687e-01 +2.08078548e-01 +1.20756492e-01 +1.53410301e-01 +1.63345337e-01 +1.93676159e-01 +2.15416133e-01 +2.06578836e-01 +1.52985096e-01 +1.61896497e-01 +1.38088018e-01 +1.30805656e-01 +4.50648926e-02 +9.13127735e-02 +1.22802265e-01 +2.43104324e-02 +2.86703221e-02 +3.50879803e-02 +2.22861059e-02 +1.52100204e-02 -7.12669939e-02 -7.61528611e-02 -7.02262297e-02 -8.02083388e-02 -2.88530365e-02 -1.12375654e-01 -6.55740127e-02 -6.29970729e-02 -8.59535560e-02 -8.71342942e-02 -9.99749973e-02 -7.77673274e-02 -9.31979641e-02 -8.64058807e-02 -8.08167607e-02 -5.79624586e-02 -9.02194232e-02 -1.01904981e-01 -6.96731806e-02 -8.39178041e-02 -1.05998717e-01 -9.80033576e-02 -8.33347961e-02 -3.69176380e-02 -9.34955105e-02 -9.07475501e-02 -7.92056248e-02 -1.07066095e-01 -3.03911921e-02 -3.71397398e-02 -4.87880595e-02 -7.87068009e-02 -5.27824610e-02 -1.80171442e-03 -2.36162581e-02 -1.94624357e-03 -2.96777170e-02 -3.45786065e-02 -4.77965847e-02 +1.94608606e-02 +7.99476542e-03 -3.65681089e-02 -4.07438800e-02 -6.58218265e-02 -4.14328016e-02 -1.00256853e-01 -1.93355307e-02 +1.87102787e-03 -5.56952395e-02 +2.09072009e-02 -1.04263658e-02 -2.05991808e-02 -3.24107446e-02 -3.88921835e-02 +1.55676594e-02 +4.26120013e-02 -4.70533455e-03 -7.46732549e-05 +2.94250213e-02 +4.19571763e-03 +3.91096510e-02 +2.05888860e-02 +5.62653691e-02 +8.23534355e-02 +7.02121332e-02 +7.38630220e-02 +1.10653698e-01 +1.20504275e-01 +9.27181542e-02 +1.38511717e-01 +1.34079918e-01 +8.55663046e-02 +1.37026176e-01 +1.39891475e-01 +1.38038918e-01 +8.02018717e-02 +1.49076328e-01 +1.18392192e-01 +1.10169947e-01 +7.70936087e-02 +1.03206493e-01 +7.31560886e-02 +9.23215896e-02 +7.09938258e-02 +4.82249558e-02 +9.20714214e-02 +2.70077493e-02 +3.34393159e-02 +7.33878985e-02 +2.18566246e-02 -3.24665904e-02 +2.28769090e-02 +1.20331189e-02 +6.52683852e-03 -5.70482910e-02 -3.52042466e-02 -2.73547154e-02 +6.04273286e-03 -2.38793064e-02 -2.83813439e-02 -2.18724716e-03 -6.44764900e-02 -2.88556218e-02 -3.94675508e-02 -6.07999116e-02 -2.81254277e-02 -7.29770511e-02 -2.84305960e-02 -2.00430676e-02 -1.04330398e-01 -1.21872962e-01 -1.11286074e-01 -9.15681273e-02 -8.23705196e-02 -1.55774906e-01 -1.13396414e-01 -1.29710019e-01 -1.09783150e-01 -9.24301669e-02 -1.49353459e-01 -7.58656859e-02 -1.61531717e-01 -1.41236857e-01 -1.35460705e-01 -1.67290658e-01 -1.24836057e-01 -9.48782638e-02 -9.27937627e-02 -5.26318327e-02 -6.62898496e-02 -5.19481897e-02 -3.66161913e-02 -5.86831458e-02 -2.25219596e-02 +7.63193378e-03 +4.22470160e-02 +5.33037111e-02 +6.27334639e-02 +1.20506130e-01 +1.24184519e-01 +1.37309700e-01 +1.51596084e-01 +1.93022519e-01 +1.83810398e-01 +1.58954293e-01 +2.06830889e-01 +2.09982291e-01 +1.76895484e-01 +2.16723815e-01 +1.89566508e-01 +1.99930951e-01 +1.84805527e-01 +1.48276955e-01 +1.08880587e-01 +1.47346810e-01 +1.30448580e-01 +1.30705252e-01 +7.68470690e-02 +8.11838433e-02 +3.45959514e-02 +1.35888311e-03 +1.13943256e-02 -4.08082828e-02 -6.38331622e-02 -3.53797600e-02 -5.90195395e-02 -1.37205958e-01 -9.88153219e-02 -1.23788826e-01 -1.44453108e-01 -1.70318693e-01 -1.67660341e-01 -1.97740376e-01 -2.08482236e-01 -1.94134772e-01 -1.61910057e-01 -1.87465206e-01 -2.26608559e-01 -1.94793165e-01 -1.69890121e-01 -1.05955951e-01 -1.27688855e-01 -1.48581266e-01 -1.35143727e-01 -9.59815830e-02 -5.13752736e-02 -8.87860507e-02 -8.01022872e-02 -3.86042073e-02 -5.15140593e-02 -2.58202255e-02 -2.00126152e-02 -3.70004959e-02 +5.31479120e-02 -1.89538591e-03 +3.52225676e-02 +4.22626920e-03 +3.49615477e-02 +5.13405986e-02 +9.52278450e-02 +2.89849397e-02 +4.12165746e-02 +1.09877340e-01 +7.53494054e-02 +7.18919411e-02 +1.11252718e-01 +7.53853023e-02 +9.23345312e-02 +9.62597057e-02 +1.18537642e-01 +3.95142436e-02 +1.12541810e-01 +8.53753388e-02 +1.03770733e-01 +1.55881047e-01 +1.05546765e-01 +1.14335597e-01 +1.34191617e-01 +1.21607147e-01 +8.03131014e-02 +1.29830673e-01 +1.22373186e-01 +3.39284502e-02 +6.88543320e-02 +5.95262609e-02 +6.81156889e-02 +5.85427657e-02 +3.85478586e-02 +2.62951404e-02 +7.71346837e-02 +5.56832254e-02 +6.24255501e-02 +4.71337475e-02 +1.83211872e-03 +2.28158496e-02 -6.09477125e-02 +2.94582713e-02 -2.42928471e-02 +2.17091944e-03 -6.11601137e-02 -4.85408641e-02 -6.73153847e-02 -3.50019857e-02 -6.04592599e-02 -7.07930848e-02 -4.81563397e-02 -4.16777134e-02 -6.13025017e-02 -5.48519231e-02 -8.41900408e-02 -8.19360688e-02 -5.23289964e-02 -5.84634207e-02 -3.31097282e-02 -4.21245471e-02 +1.45454211e-02 -3.53122391e-02 -3.10139209e-02 -1.03157103e-01 +4.77111572e-03 -1.88733637e-02 -5.01247533e-02 -1.96251944e-02 -2.21111011e-02 -6.58370927e-02 -5.10519594e-02 -4.57553342e-02 -8.51536244e-02 -7.37626031e-02 -3.32309380e-02 +1.12669736e-01 +9.63537395e-02 +1.14366323e-01 +1.22660547e-01 +1.14527620e-01 +1.40226766e-01 +1.41929284e-01 +1.11130826e-01 +1.09575659e-01 +1.34785503e-01 +9.01961997e-02 +1.12167329e-01 +7.59897679e-02 +1.02366552e-01 +6.17093742e-02 +6.95813447e-02 +6.95033222e-02 +9.76790711e-02 +2.93807201e-02 +3.43702547e-02 +4.90021110e-02 +3.32092308e-02 +4.01811115e-02 +1.20441457e-02 +6.88776467e-03 +1.30291667e-03 +4.65497514e-03 -2.63759308e-02 -2.44328454e-02 -2.04427429e-02 -3.31420638e-02 -2.39533260e-02 -2.65280940e-02 -3.34095992e-02 -3.22071016e-02 -4.00013998e-02 -5.62028885e-02 -3.13921571e-02 -1.63881332e-02 -5.02860397e-02 -4.02514301e-02 -2.99387909e-02 +1.71603486e-02 -4.45420016e-03 -2.68954094e-02 +8.68563261e-03 -2.31421385e-02 -6.33110199e-03 -3.49867456e-02 -4.83329557e-02 +3.47340517e-02 -2.21862197e-02 -4.40629646e-02 -1.92529839e-02 -3.08072362e-02 -3.17972265e-02 -2.81303711e-02 -8.56592432e-02 -4.54770550e-02 -8.13700557e-02 -7.30451941e-02 -8.23437572e-02 -8.21882859e-02 -1.10893846e-01 -9.45556462e-02 -1.06916517e-01 -8.70457664e-02 -1.32481769e-01 -1.39786020e-01 -1.27967715e-01 -1.23869024e-01 -1.22555755e-01 -1.14195347e-01 -1.43127874e-01 -8.67074132e-02 -8.28031227e-02 -1.13112427e-01 -5.79425879e-02 -9.64409113e-02 -8.02213475e-02 -5.20094931e-02 -2.00653635e-02 -5.54585457e-02 -2.45831758e-02 +1.17968144e-02 +4.10488527e-03 +3.52545157e-02 +5.31054586e-02 +6.23916946e-02 +8.26921463e-02 +7.18687102e-02 +1.11365519e-01 +1.14964291e-01 +1.12705782e-01 +1.20256297e-01 +1.63998052e-01 +1.31103590e-01 +1.29144743e-01 +1.62182748e-01 +1.47637606e-01 +1.56127423e-01 +1.24864779e-01 +1.39505953e-01 +1.42695189e-01 +1.15100265e-01 +1.41914859e-01 +1.30939960e-01 +1.36449009e-01 +1.21668272e-01 +1.07893296e-01 +1.05361439e-01 +8.63872990e-02 +8.01555216e-02 +8.01114962e-02 +7.16352612e-02 +3.64352614e-02 +4.09251899e-02 +6.39623329e-02 +1.50902336e-02 +1.66433807e-02 -3.06699704e-02 -1.34329749e-02 -2.06167735e-02 -4.45826687e-02 -6.62141293e-02 -6.62829056e-02 -1.32983074e-01 -1.04782045e-01 -1.04079492e-01 -1.35714218e-01 -1.38052851e-01 -1.19081177e-01 -1.39478743e-01 -1.48345381e-01 -1.38308093e-01 -1.46341458e-01 -1.42939121e-01 -1.28761753e-01 -1.56618923e-01 -1.30639359e-01 -1.19856477e-01 -1.43902525e-01 -1.21333823e-01 -9.18109789e-02 -9.22014639e-02 -7.02219009e-02 -9.25872847e-02 -5.49205244e-02 -5.26593737e-02 -1.97008327e-02 -4.83994954e-04 -3.07148974e-02 -3.10777384e-03 +1.49184959e-02 +2.89682634e-02 +6.06399379e-04 +4.60069440e-02 +5.81889637e-02 +2.21158769e-02 +7.00078234e-02 +9.53189582e-02 +7.06843510e-02 +7.06868917e-02 +8.86899307e-02 +6.13552146e-02 +6.20512739e-02 +8.29566345e-02 +6.69273213e-02 +6.41230941e-02 +9.52803046e-02 +6.82237968e-02 +9.45175365e-02 +6.87151402e-02 +7.66860470e-02 +5.08900322e-02 +5.20348214e-02 +5.97280450e-02 +3.98089737e-02 +1.13311568e-02 +2.51909271e-02 +5.62659763e-02 +1.62433889e-02 +1.89573802e-02 +7.69323763e-03 +1.98589228e-02 +2.34398637e-02 +4.35981750e-02 +4.16817255e-02 -6.06322382e-03 +8.99051037e-03 -1.71623342e-02 +9.68165230e-03 -2.38127876e-02 +1.11931833e-02 -2.09751278e-02 -4.92326729e-02 -3.40874791e-02 -1.28738908e-02 -4.53080274e-02 -8.04187637e-03 -1.62820143e-04 -2.81777233e-02 -1.93491310e-03 -1.56122008e-02 -3.37404013e-02 +8.03453941e-03 -2.07348689e-02 -8.46574083e-03 -5.30455472e-05 -3.84500687e-04 -5.64359594e-03 -6.30814489e-03 +3.37579288e-02 -1.41000086e-02 -5.36853634e-03 +1.63535383e-02 -2.66952626e-03 -2.43636058e-03 +5.07436600e-03 +8.39947164e-03 +7.04679824e-03 +1.47154722e-02 -2.52472959e-03 +1.77608039e-02 -1.04710199e-02 -2.07549948e-02 +1.34264480e-03 -1.92972608e-02 -1.37984175e-02 -1.99377369e-02 -2.96180230e-02 -5.59038809e-03 -1.48327341e-02 -5.57588530e-04 -2.41265935e-03 -2.03099065e-02 -3.53660993e-02 -1.76127534e-02 -4.91927192e-02 -3.88376005e-02 -4.75702547e-02 -7.56039619e-02 -5.33062778e-02 -6.94615617e-02 -8.41393471e-02 -8.91778171e-02 -6.05041534e-02 -5.20403907e-02 -7.39806294e-02 -5.85704483e-02 -7.99555555e-02 -5.01993336e-02 -5.54907881e-02 -5.84389344e-02 -5.87270260e-02 -5.55256791e-02 -4.94583212e-02 -3.82640660e-02 -1.91219524e-02 -3.91687676e-02 +1.47828562e-02 -7.90298358e-03 -1.99706815e-02 -2.78750667e-03 -1.15504730e-02 -1.54064940e-02 +3.37754972e-02 +1.37835639e-04 +4.80247336e-03 +3.12461983e-02 +4.44567166e-02 +2.29600407e-02 +4.49448973e-02 +4.01950218e-02 +3.12242787e-02 +6.40751272e-02 +5.94441369e-02 +8.49072412e-02 +1.04278862e-01 +6.48508295e-02 +5.20058498e-02 +4.97955382e-02 +9.34516340e-02 +6.17868379e-02 +7.39795044e-02 +6.41245395e-02 +8.14593807e-02 +7.96842724e-02 +9.31539088e-02 +6.71013445e-02 +6.16677254e-02 +6.23688512e-02 +5.36045879e-02 +5.15223928e-02 +4.25731838e-02 +2.68933252e-02 +1.83273535e-02 +4.13958319e-02 +3.46896984e-02 +6.77908584e-03 +2.35830061e-03 +1.17413681e-02 -3.89295444e-03 -3.92617248e-02 -1.18491147e-02 -3.31649445e-02 -3.29878591e-02 -3.91099676e-02 +5.54951001e-03 -4.28157076e-02 -1.22030415e-02 -5.00266738e-02 -4.05088700e-02 -3.21444646e-02 -2.74166297e-02 -4.06538174e-02 -2.62194071e-02 -5.06771915e-03 +4.99384943e-03 -1.02580218e-02 -5.72127104e-03 -3.06080002e-02 -6.76196069e-02 -1.39957275e-02 -3.36437486e-02 -3.82238589e-02 -5.26891835e-02 -5.96761778e-02 -3.17018479e-02 -4.27652523e-02 -5.23254015e-02 -5.79409115e-02 -3.59860808e-02 -1.81428157e-02 -1.68543123e-02 -6.23328332e-03 -2.51808017e-02 -5.05217956e-03 -3.91425006e-03 -5.52259348e-02 +1.23139564e-02 +2.33797487e-02 -1.98082272e-02 +6.12356281e-03 +6.69765770e-02 +5.95175214e-02 +7.15584308e-02 +4.57967110e-02 +8.60584229e-02 +8.06756839e-02 +5.11496477e-02 +1.05587497e-01 +9.57609564e-02 +8.02925155e-02 +1.04097039e-01 +7.26358593e-02 +1.11932375e-01 +1.03678912e-01 +1.01737112e-01 +1.28597245e-01 +1.48573190e-01 +1.23541772e-01 +8.97670761e-02 +9.83388573e-02 +1.27949148e-01 +1.38075992e-01 +1.23630635e-01 +1.17095180e-01 +1.36536404e-01 +1.09141469e-01 +1.29556209e-01 +1.05523504e-01 +1.22118302e-01 +1.08717836e-01 +1.22899123e-01 +7.58030713e-02 +7.63631687e-02 +7.01112971e-02 +5.87754846e-02 +3.35116908e-02 +6.41214103e-02 +3.15269940e-02 +4.83192317e-02 +6.11336045e-02 +1.07080154e-02 +2.62271855e-02 +3.76243982e-03 -3.69444378e-02 -5.88733666e-02 -8.66616592e-02 -7.86419138e-02 -1.02841683e-01 -1.21885478e-01 -1.13011062e-01 -1.09469809e-01 -1.45876542e-01 -1.80091649e-01 -1.75769538e-01 -1.43447518e-01 -2.05482140e-01 -1.52466640e-01 -1.87408760e-01 -1.97482660e-01 -1.73302785e-01 -2.01154947e-01 -2.22384796e-01 -1.83098793e-01 -1.55791551e-01 -1.86103955e-01 -1.46635547e-01 -1.74518436e-01 -1.59589306e-01 -1.74854323e-01 -1.91744298e-01 -2.05415115e-01 -1.83450162e-01 -1.63485721e-01 -1.43637970e-01 -1.36007220e-01 -1.14863634e-01 -1.37802958e-01 -1.67172626e-01 -1.06973022e-01 -6.52632937e-02 -1.05725609e-01 -7.30650946e-02 -4.37823907e-02 -5.39173465e-03 -9.81715322e-03 +3.45154926e-02 +4.36444841e-02 +5.08950353e-02 +4.44535911e-02 +9.83941853e-02 +9.28388238e-02 +1.06307261e-01 +1.38332099e-01 +1.42165750e-01 +1.28697038e-01 +1.04913451e-01 +1.23199925e-01 +1.55863717e-01 +2.10747853e-01 +1.85033992e-01 +2.03072265e-01 +2.10371375e-01 +1.81502149e-01 +2.01893747e-01 +1.70456812e-01 +1.66879281e-01 +1.75644442e-01 +2.00500146e-01 +1.40713587e-01 +1.77284911e-01 +2.12014839e-01 +1.43261984e-01 +1.67750046e-01 +1.45360678e-01 +1.37763575e-01 +1.53655753e-01 +1.66098863e-01 +1.24107346e-01 +1.41463146e-01 +1.05706438e-01 +1.45942643e-01 +1.35335997e-01 +1.02153622e-01 +1.45315245e-01 +8.31695423e-02 +7.96036124e-02 +9.36984718e-02 +6.20445870e-02 +2.38104351e-02 +1.04910964e-02 -1.30778644e-02 +4.72573675e-02 -3.04164807e-03 -8.17731693e-02 -7.05470517e-02 -9.11903456e-02 -9.03972238e-02 -1.27159208e-01 -1.48592800e-01 -1.39565587e-01 -1.24555469e-01 -1.44560337e-01 -1.99576467e-01 -1.12042651e-01 -1.39949173e-01 -1.64432347e-01 -1.28831461e-01 -1.27210811e-01 -1.12780720e-01 -1.09219946e-01 -1.20403133e-01 -1.53451964e-01 -9.23917666e-02 -1.24571458e-01 -9.39094350e-02 -1.01427890e-01 -4.17393483e-02 -2.76697036e-02 -4.65017464e-03 -4.20458168e-02 -3.02224848e-02 -1.70967262e-02 -2.26250365e-02 -2.00630017e-02 +4.91958868e-04 +1.97089314e-02 -6.21832013e-02 -5.35522997e-02 -2.22292021e-02 -2.40466744e-02 -2.39806361e-02 +9.32923984e-03 -3.55758481e-02 -3.41187865e-02 +2.20020656e-02 -3.66996452e-02 -1.84525903e-02 -1.82057510e-03 -8.17968100e-02 -2.35222392e-02 -2.50135195e-02 -3.95207815e-02 +4.12602816e-03 -6.35914132e-02 -2.89783198e-02 -3.64831388e-02 -3.81703041e-02 -4.32033353e-02 -1.40754385e-02 +1.43161044e-02 -1.96923763e-02 -4.15114453e-03 +1.78657006e-02 +2.73107346e-02 +7.37229316e-03 -1.50874415e-02 +8.76155198e-02 +6.81638941e-02 +9.96923074e-02 +3.57604474e-02 +6.03896566e-02 +7.00049773e-02 +6.07228950e-02 +9.12828892e-02 +1.00314096e-01 +5.07746674e-02 +5.84607981e-02 +8.97972882e-02 +9.86868888e-02 +3.56979519e-02 +6.15775585e-02 +4.30913232e-02 +6.85415715e-02 +5.14091142e-02 +7.02184252e-03 +1.07627437e-02 -1.53894341e-02 +2.74081435e-02 +5.75198978e-02 -2.81665511e-02 -1.04788868e-02 +2.80611347e-02 -2.07460299e-02 -1.18578726e-03 +1.28267603e-02 -2.72249430e-02 +4.07587364e-03 -1.15788374e-02 -4.63187397e-02 +4.35609259e-02 -7.71985156e-03 +4.91822734e-02 +2.57232925e-03 +3.21966708e-02 +1.28084626e-02 +2.51138303e-02 +4.29766886e-02 -1.89690068e-02 +3.50078829e-02 +4.00100872e-02 -1.60543863e-02 +1.52374661e-04 -1.28314495e-02 -5.72915655e-03 +1.78066827e-02 +1.98745579e-02 -2.27381773e-02 -5.41112125e-02 +9.84867197e-03 -2.90738977e-02 -1.62132997e-02 -4.29365784e-02 -6.40972927e-02 -6.19281903e-02 -5.67207448e-02 -6.39949366e-02 -4.48349230e-02 -1.43030109e-02 -7.10156634e-02 -1.10954037e-02 -3.20236795e-02 -1.82653312e-02 +8.41808331e-04 -3.86435129e-02 -1.67395286e-02 -2.24147271e-03 -2.78774556e-03 +1.75336003e-02 -1.52116679e-02 -3.04023772e-02 -2.44713426e-02 -1.50685012e-02 -1.40022219e-03 -2.55179796e-02 +2.80596316e-02 +1.68425590e-02 +3.32201533e-02 -2.57339198e-02 +9.61893983e-03 +3.63541543e-02 +3.34666818e-02 +3.43248397e-02 +3.91159430e-02 -3.86992586e-03 -2.18816679e-02 -4.78596501e-02 -1.50610898e-02 -1.89867076e-02 -9.98111535e-03 -6.73021525e-02 +1.83081292e-02 +1.89900398e-03 -2.72332113e-02 -2.46517975e-02 -3.44574898e-02 -9.99747659e-04 -4.53425013e-02 -4.31267992e-02 -4.96833734e-02 -4.33196165e-02 -7.19582066e-02 -3.94805223e-02 -1.20327305e-02 -6.41630664e-02 -4.08990681e-02 -3.46787944e-02 -1.94937363e-02 -1.77135672e-02 -6.25006706e-02 -9.94199514e-03 -4.25679274e-02 +3.47079686e-03 +6.46853028e-03 -9.12379008e-03 +7.92232808e-03 +3.91407199e-02 +2.00514272e-02 +6.71168715e-02 +8.96849781e-02 +7.38524124e-02 +8.96212757e-02 +1.19082034e-01 +1.41679570e-01 +1.46268636e-01 +1.18466087e-01 +9.28107649e-02 +8.48302543e-02 +1.38180643e-01 +1.14525542e-01 +8.88936967e-02 +8.87122005e-02 +5.20630889e-02 +7.17741251e-02 +4.21271175e-02 -9.08930320e-03 +1.31060015e-02 +3.75422426e-02 -7.36659858e-03 -3.88683304e-02 -4.76857610e-02 -4.13914509e-02 -5.15008867e-02 -5.55759743e-02 -9.03163552e-02 -9.70590040e-02 -7.53453001e-02 -4.98226397e-02 -4.41218913e-02 -1.18073955e-01 -7.48987123e-02 -5.50015606e-02 -6.10549338e-02 -3.09592932e-02 -8.42829868e-02 -5.98338768e-02 -6.50631711e-02 -4.41183038e-02 -7.14852661e-02 -5.35719208e-02 -2.55655982e-02 -4.67402376e-02 -6.75684074e-03 -4.53522950e-02 -3.22332717e-02 -1.77441556e-02 -4.02673744e-02 -3.01089715e-02 -3.76914665e-02 -2.35725753e-02 -7.25496486e-02 -4.08603484e-03 -7.10138120e-03 -1.47758052e-02 -1.24081327e-02 -4.53302115e-02 -1.71059323e-03 -2.08154358e-02 -2.49848943e-02 -2.02809982e-02 -1.55951986e-02 -3.68234068e-02 -3.44378278e-02 -3.98665518e-02 -5.29280156e-02 -3.18615921e-02 -4.44048829e-02 -6.75521418e-02 -1.04212323e-02 -2.19162810e-03 -1.99297965e-02 -3.74793671e-02 -2.99093984e-02 -2.99744029e-02 -4.07129042e-02 -2.39392743e-02 -1.88309234e-02 -4.31918092e-02 -1.53915463e-02 -7.95480562e-04 -5.74776195e-02 -1.48109887e-02 -3.06254514e-02 -1.26178786e-02 +5.03727905e-02 +4.29424644e-02 +2.69689653e-02 +5.76554164e-02 +4.31271344e-02 +6.43494949e-02 +5.45083657e-02 +5.44348210e-02 +5.92075326e-02 +1.04057215e-01 +1.01222508e-01 +1.24209337e-01 +1.23296410e-01 +1.03853099e-01 +1.02977708e-01 +1.07098185e-01 +1.23371139e-01 +1.37171701e-01 +1.51884899e-01 +1.01749472e-01 +1.34660468e-01 +1.19534299e-01 +1.43970937e-01 +1.51705712e-01 +1.12363055e-01 +9.34671536e-02 +8.07660222e-02 +9.61974263e-02 +1.05697609e-01 +4.12477516e-02 +5.59984222e-02 +6.00918829e-02 +5.02650291e-02 +3.68440077e-02 -2.38616485e-02 -4.84089600e-03 +6.06479123e-02 -1.48283383e-02 -5.31720417e-03 -1.87111795e-02 -2.50401665e-02 -5.33010997e-02 -1.75470356e-02 -1.44504951e-02 -8.67930576e-02 -6.25266284e-02 -7.63912275e-02 -7.26022273e-02 -6.33608028e-02 -6.59218356e-02 -9.43243504e-02 -1.01431131e-01 -9.32026580e-02 -7.72886798e-02 -8.70997831e-02 -1.47479922e-01 -7.46456832e-02 -1.37520656e-01 -1.71920314e-01 -1.13111235e-01 -1.27749667e-01 -1.13641679e-01 -1.68583617e-01 -1.20060258e-01 -1.91411927e-01 -1.51835322e-01 -1.34239927e-01 -1.44048393e-01 -1.43732056e-01 -9.82802883e-02 -1.39806315e-01 -8.67571980e-02 -7.94648379e-02 -6.31515160e-02 -7.63742253e-02 -3.57256159e-02 -7.80384056e-03 -4.27081101e-02 +2.29231417e-02 +1.48567092e-02 +5.74394614e-02 +9.52520147e-02 +8.62710550e-02 +8.25999826e-02 +6.17965683e-02 +9.60339531e-02 +1.40961140e-01 +1.06024399e-01 +1.15489610e-01 +1.20179087e-01 +1.46687746e-01 +1.31214172e-01 +1.66022852e-01 +1.55590802e-01 +1.35754466e-01 +9.74935517e-02 +1.08115271e-01 +9.15059671e-02 +9.72712710e-02 +5.08465394e-02 +8.99155438e-02 +3.68108377e-02 +5.19171953e-02 +3.04690376e-02 +3.39118503e-02 +7.26540992e-03 -1.39959436e-02 +5.14524095e-02 -1.20026823e-02 -1.56421028e-02 -1.77752934e-02 -2.70290468e-02 -6.63527194e-03 -1.34965777e-02 -2.72055101e-02 -3.62766869e-02 -2.18234062e-02 -1.47899743e-02 -3.03332452e-02 -1.46082265e-03 -3.92769910e-02 -3.77364643e-02 -2.26790234e-02 -1.58079211e-02 -4.72774543e-02 -1.40594235e-02 -6.23294571e-03 -2.70628203e-02 -1.68831274e-02 -7.01503605e-02 -1.71738267e-02 -6.30883276e-02 -2.35800166e-02 -4.87733707e-02 -6.98022321e-02 +1.55839592e-03 -4.64771502e-02 -2.71603335e-02 -1.41654443e-02 +5.77401137e-04 +1.50628230e-02 -1.07195843e-02 +3.04203723e-02 -1.89040955e-02 +1.48696946e-02 +1.16495835e-02 -7.13680359e-03 +6.02565613e-03 +1.75257511e-02 +1.97011940e-02 +2.40072515e-02 +1.18698357e-02 +5.70153398e-03 +4.49115522e-02 -1.25283012e-02 -2.32877154e-02 +1.19439012e-03 -5.86746307e-03 -3.51021141e-02 +2.82081105e-02 -1.75516289e-02 +9.56334732e-03 +1.52981875e-03 -3.02537158e-02 -3.16469781e-02 -9.98718664e-03 -2.67353505e-02 -1.78356152e-02 -2.82443259e-02 -2.24385150e-02 -3.25931469e-03 +1.40622705e-02 -6.20978186e-03 -9.14932322e-03 -9.06630943e-04 +1.31585374e-02 -2.19250098e-03 -2.54971981e-02 +1.98785728e-03 +6.69452967e-03 +6.89212559e-03 +3.12612876e-02 +5.24211377e-02 +1.66850761e-02 +4.29164283e-02 +1.78944413e-02 +4.73630391e-02 +5.37721254e-02 +5.34358993e-02 +5.89966699e-02 +3.02568357e-02 +7.00949132e-02 -5.29844267e-03 +3.35890017e-02 +2.43305955e-02 +3.73673439e-02 +1.47138629e-02 +1.09576769e-02 +5.34797050e-02 +4.95476695e-03 +3.44715677e-02 -2.83849705e-02 +5.24377730e-03 +7.06916954e-03 -3.91943846e-03 +8.47572740e-03 -3.07493322e-02 +1.97968259e-02 +2.95587257e-02 -3.53373145e-03 -3.92001402e-03 +2.65069269e-02 +1.29818944e-02 -6.92525355e-04 +7.57951275e-05 -2.85421289e-03 +6.53054938e-02 -3.32699381e-02 -6.45923242e-03 -2.83405967e-02 -6.90641347e-03 -5.05318455e-02 +1.63059812e-02 -4.64182645e-02 -2.25344934e-02 -8.46445039e-02 -6.51206747e-02 -6.44565672e-02 -9.87584889e-02 -2.16822829e-02 -1.03896491e-01 -6.77266270e-02 -8.06787536e-02 -6.53767139e-02 -3.40803564e-02 -4.55598198e-02 -3.71707305e-02 -7.20020533e-02 -4.97511551e-02 -5.47558516e-02 -4.10741121e-02 -6.20465074e-03 -5.84850088e-02 -3.13952006e-02 -1.01391533e-02 +3.01435422e-02 -1.93089861e-02 -3.60249244e-02 -2.67351996e-02 -2.72389352e-02 -4.38899314e-03 -3.62029299e-02 +1.83455231e-05 +4.76524961e-04 -4.01834324e-02 -6.46436960e-03 -1.09320227e-02 -2.96046045e-02 +4.49379981e-02 +2.25081462e-02 -2.80345771e-02 +4.28572595e-02 +6.59570680e-04 +5.30474223e-02 +8.20314139e-02 +1.25677781e-02 +4.09209393e-02 +6.39499947e-02 +5.23963608e-02 +4.71384972e-02 -2.63628047e-02 +3.05382628e-02 +3.82028781e-02 +2.87453365e-02 +1.39668968e-03 -5.85273840e-03 +4.34903093e-02 -6.42112941e-02 +4.84876428e-03 -2.66140010e-02 +1.03811827e-02 -3.22873518e-03 +1.76727877e-03 +7.41006201e-03 -2.19402350e-02 -1.85274091e-02 -2.40794197e-02 +8.70109163e-03 +1.04539599e-02 +4.97241095e-02 +5.67504168e-02 +2.67312471e-02 +1.91352759e-02 +3.05424798e-02 +3.08256764e-02 +2.15711761e-02 +5.75222857e-02 +1.94620136e-02 +3.04346383e-02 +2.52821315e-02 +2.51007136e-02 -1.81444027e-02 +6.76379576e-02 +8.51687603e-03 +8.25303420e-03 +3.06139905e-02 +2.83335745e-02 -2.03279909e-02 -5.61001711e-02 -6.63642362e-02 -3.03928461e-02 +3.50843556e-03 -3.97995077e-02 -6.59723803e-02 -3.56353559e-02 -4.23676483e-02 -6.96577430e-02 -2.71015558e-02 -3.21771726e-02 -6.06887117e-02 -5.81760518e-03 -2.63011139e-02 +4.03492451e-02 +6.44375745e-04 -7.15516182e-03 +2.07585860e-02 +3.39217074e-02 +4.34061000e-03 +2.91156713e-02 +3.02943140e-02 -4.93925856e-03 +8.19408670e-02 +6.18636198e-02 +9.34182014e-03 +2.20699739e-02 +6.56532198e-02 +1.68860909e-02 +5.55134602e-02 +7.15183094e-02 +1.63618885e-02 +4.48342301e-02 +4.47153673e-02 +7.87048712e-02 +2.63745654e-02 +6.79269210e-02 +4.62764166e-02 +6.65408075e-02 +1.12031095e-01 +1.70460586e-02 +6.43952340e-02 +3.22569013e-02 +9.05173644e-02 +7.01629296e-02 +4.64927293e-02 -1.95806138e-02 +4.59842198e-02 +9.57162958e-03 +1.37815429e-02 -1.03696994e-02 -4.86944094e-02 -8.45564678e-02 -7.63455629e-02 -7.10297152e-02 -1.09912716e-01 -8.09393227e-02 -1.20807514e-01 -1.90445855e-01 -1.52138129e-01 -1.74719885e-01 -1.49318606e-01 -2.15333506e-01 -1.91475213e-01 -1.86627761e-01 -1.75355047e-01 -1.54728964e-01 -1.58817679e-01 -1.44799486e-01 -1.04553640e-01 -1.18642114e-01 -6.07719235e-02 -8.62117931e-02 -2.38505788e-02 -1.17545761e-02 -1.59424618e-02 +1.30520936e-03 +7.51961395e-02 +8.00314993e-02 +1.21955425e-01 +1.02478079e-01 +1.64744496e-01 +1.18472308e-01 +9.51318294e-02 +1.47906408e-01 +1.37145236e-01 +1.91066876e-01 +2.04132169e-01 +1.56925797e-01 +1.47173166e-01 +1.55993566e-01 +1.83516756e-01 +1.61396563e-01 +9.27173346e-02 +1.51364729e-01 +9.38202068e-02 +6.35304600e-02 +7.70775154e-02 +5.84720634e-02 +3.32651250e-02 +1.84961390e-02 +4.71946178e-03 +9.04903654e-03 +6.54550895e-05 -2.88188774e-02 +9.90412198e-03 -3.36043090e-02 -4.67739403e-02 -5.84542342e-02 -1.25341207e-01 -7.14692846e-02 -1.21696971e-01 -1.68413073e-01 -1.51801154e-01 -1.55147985e-01 -8.32584798e-02 -1.29123956e-01 -8.10703710e-02 -1.16473116e-01 -9.61476937e-02 -1.08990721e-01 -1.17282353e-01 -1.35955706e-01 -1.14159480e-01 -1.13875367e-01 -6.48189113e-02 -7.82318786e-02 -2.37244200e-02 -7.78619349e-02 -2.81927660e-02 -7.25304261e-02 -5.50607638e-03 +1.06833987e-02 +1.65539458e-02 +3.54538299e-02 +1.63350496e-02 +2.30505895e-02 +8.10045227e-02 +3.49488035e-02 +8.33185390e-02 +5.19625694e-02 +6.77060857e-02 +1.14845678e-01 +9.96009484e-02 +1.51096120e-01 +1.32565513e-01 +1.17987350e-01 +1.33932635e-01 +1.33386075e-01 +1.70249313e-01 +1.63964435e-01 +1.63772240e-01 +1.55446082e-01 +1.14851095e-01 +1.47861645e-01 +1.39812052e-01 +1.10767312e-01 +8.59908089e-02 +1.36458576e-01 +9.61219072e-02 +9.96430814e-02 +1.15249731e-01 +8.85954946e-02 +6.96282387e-02 +3.89857553e-02 +5.75942434e-02 -3.14990664e-03 +1.16111233e-03 +1.64131932e-02 -1.06194932e-02 -3.19144055e-02 +3.04344227e-03 -4.57759202e-02 -3.45772579e-02 -1.44053549e-02 -6.85565174e-02 -7.79010952e-02 -5.73258242e-03 -3.23171797e-03 -4.21750396e-02 -9.54540223e-02 -1.13408975e-01 -5.92371412e-02 -1.16985805e-01 -1.11926496e-01 -1.21997006e-01 -1.16523623e-01 -9.52505991e-02 -9.82201695e-02 -1.40929863e-01 -1.16924256e-01 -1.63983941e-01 -1.31496072e-01 -1.62367105e-01 -1.12867959e-01 -1.58175811e-01 -1.69622213e-01 -2.02929541e-01 -1.12200260e-01 -1.02809556e-01 -1.34919494e-01 -1.25305578e-01 -1.33531213e-01 -8.96215141e-02 -8.32603723e-02 -6.95084780e-02 -5.62826395e-02 -1.68360639e-02 -1.24858385e-02 -4.54297848e-02 +1.09142985e-03 -7.30421534e-03 +3.63169275e-02 -1.55077502e-02 +1.92830376e-02 +4.07112613e-02 +1.09316139e-02 +5.60170822e-02 +4.80843373e-02 +7.30350167e-02 +8.56127217e-02 +6.86426461e-02 +6.00127019e-02 +5.08262068e-02 +6.67271987e-02 +4.60319147e-02 +4.56604287e-02 +7.35072698e-03 +7.97403157e-02 +2.26441305e-02 +6.59481287e-02 +8.31495002e-02 +8.79328400e-02 +4.10043970e-02 +7.54725859e-02 +5.82393371e-02 +4.91106100e-02 +1.34997845e-01 +9.47367251e-02 +6.06633127e-02 +4.55226228e-02 +7.79274330e-02 +1.62004396e-01 +9.54437107e-02 +9.88659859e-02 +5.58214486e-02 +1.12442300e-01 +3.81114595e-02 +2.96095684e-02 +6.77466244e-02 +2.03205682e-02 +5.16706705e-02 +5.97387291e-02 +4.14777920e-02 +1.73317716e-02 -6.12254366e-02 -7.16873165e-03 -8.62469245e-03 -4.16520163e-02 -1.05770223e-01 -1.11150406e-01 -8.14120993e-02 -1.23607963e-01 -1.47215247e-01 -7.97098950e-02 -8.68630260e-02 -1.56228036e-01 -1.89190090e-01 -1.19446382e-01 -1.48240060e-01 -1.31175727e-01 -1.55263841e-01 -1.95983976e-01 -1.27548575e-01 -1.28861040e-01 -8.70580524e-02 -8.52315873e-02 -8.40039104e-02 -9.57735442e-03 -1.28871128e-01 -3.95536683e-02 -9.15533155e-02 -9.37143937e-02 -7.06301555e-02 -5.63139804e-02 -2.61510536e-02 -2.35425588e-02 +1.99060626e-02 +2.62501221e-02 -5.63082006e-03 +9.27611347e-03 +8.13790485e-02 +1.18796602e-02 -1.78282429e-03 -2.12257073e-04 +3.82169895e-03 -1.16326977e-02 +2.51527745e-02 +8.56272317e-03 -6.10337360e-03 -2.37393565e-02 -1.33576700e-02 -8.11965438e-04 -3.56321260e-02 +2.12843884e-02 -1.43316453e-02 +1.49484212e-02 +2.98151392e-02 +9.14628524e-03 -5.05979080e-03 -4.32440750e-02 -5.46476664e-03 -3.81668634e-03 -2.71840505e-02 +3.86778568e-03 +3.26044299e-02 +4.49157180e-03 +4.42178361e-02 +4.24742699e-02 +1.90429036e-02 +1.60724074e-02 +4.56025600e-02 +3.45347635e-02 +9.75434259e-02 +9.47370194e-03 -8.25383235e-03 +8.43998045e-02 +6.93919659e-02 +6.46984950e-02 +7.17138425e-02 -1.26012499e-02 +3.72824669e-02 +5.81526309e-02 +6.86954558e-02 +1.01010121e-01 +1.32392466e-01 +1.40836611e-01 +1.13475069e-01 +1.00833781e-01 +1.43530652e-01 +1.51432380e-01 +1.06648155e-01 +1.57491207e-01 +1.01313487e-01 +8.80284682e-02 +2.08454635e-02 +9.55789536e-02 +8.70881975e-02 +3.95818017e-02 +2.74233557e-02 +1.06010623e-01 +1.86287761e-02 +1.10503867e-01 +1.05699763e-01 +1.06367975e-01 +1.10486493e-01 +9.16382149e-02 +2.64049750e-02 +1.08027503e-01 +1.05160467e-01 +1.60021298e-02 -5.23730703e-02 +2.29352806e-02 +8.01194925e-03 +3.53948101e-02 -4.59259264e-02 +4.47744429e-02 -3.37496102e-02 -7.58829117e-02 -6.94234520e-02 -1.06698409e-01 -1.26389012e-01 -1.01285458e-01 -1.33767948e-01 -1.61135733e-01 -1.67217806e-01 -1.95981175e-01 -1.87504187e-01 -1.61796033e-01 -1.67969808e-01 -1.82681978e-01 -1.90258026e-01 -2.12696314e-01 -1.95159942e-01 -1.18802935e-01 -1.27753913e-01 -8.45178291e-02 -9.80146080e-02 -6.61730319e-02 -6.23738468e-02 -4.14302014e-02 -4.86098640e-02 +6.12102561e-02 +9.30891633e-02 +7.46113509e-02 +4.79076654e-02 +7.94968084e-02 +1.47093788e-01 +1.68774247e-01 +1.34784713e-01 +1.54408038e-01 +1.79794192e-01 +1.50609314e-01 +1.76129594e-01 +8.81888196e-02 +1.44104138e-01 +1.32972986e-01 +1.30254984e-01 +1.32939637e-01 +3.91330160e-02 +5.48515841e-02 -4.17224690e-02 +6.87596016e-03 -9.76981893e-02 -4.45565097e-02 -1.15610242e-01 -1.58066496e-01 -1.09905422e-01 -2.12999716e-01 -2.05095783e-01 -1.79960638e-01 -2.62331426e-01 -2.21012861e-01 -1.79121375e-01 -2.12485954e-01 -2.55975366e-01 -1.78668454e-01 -2.10047856e-01 -1.70545712e-01 -2.30932415e-01 -2.05683351e-01 -2.11838096e-01 -1.60187125e-01 -1.26661316e-01 -9.08114091e-02 -2.05096398e-02 -5.58869839e-02 -8.17960799e-02 -3.33433002e-02 +1.44440532e-02 -7.45362695e-03 +7.45492354e-02 +2.96485089e-02 +1.65646628e-01 +1.59990728e-01 +2.65586078e-01 +2.29836628e-01 +2.75413364e-01 +2.19215035e-01 +2.67510086e-01 +2.68052101e-01 +3.00182730e-01 +2.82283425e-01 +3.17745328e-01 +2.91004419e-01 +2.90242255e-01 +2.98317045e-01 +3.11516076e-01 +2.77958989e-01 +2.59793580e-01 +1.82221875e-01 +2.72047579e-01 +2.86915183e-01 +2.14046970e-01 +2.79044688e-01 +1.86558560e-01 +1.44764066e-01 +1.50869533e-01 +9.18313786e-02 +6.04881682e-02 +7.67138228e-02 +2.50381082e-02 +7.57603720e-02 +8.29231739e-03 -4.04034071e-02 -2.65229344e-02 -6.40364513e-02 -1.55706048e-01 -1.55634299e-01 -1.28551230e-01 -1.40475705e-01 -1.92080870e-01 -1.58667490e-01 -1.86857894e-01 -1.69616356e-01 -1.58242315e-01 -1.70886308e-01 -1.92123681e-01 -2.27955788e-01 -2.54429609e-01 -2.22964376e-01 -1.68117031e-01 -1.45805821e-01 -1.95035294e-01 -1.42481804e-01 -2.06605688e-01 -1.39435083e-01 -1.08054742e-01 -1.31218210e-01 -9.64346156e-02 -7.65147433e-02 -1.05749980e-01 -3.28833573e-02 -8.83178487e-02 -1.13294713e-01 -7.57890269e-02 -4.44922373e-02 -6.80670440e-02 -3.24978642e-02 -1.03504814e-01 -8.94978829e-03 -7.88216367e-02 -1.05773928e-02 -5.50395362e-02 -4.01430093e-02 -7.39677474e-02 +5.25457435e-04 -8.81797448e-02 -4.46094759e-02 +2.37522349e-02 +3.99640724e-02 +2.49284804e-02 +2.15031463e-03 +6.70660511e-02 +9.34777185e-02 +1.26041815e-01 +5.58766956e-03 +9.87364650e-02 +1.23594113e-01 +1.09263733e-01 +1.35177359e-01 +1.14268117e-01 +9.02284980e-02 +1.41784072e-01 +1.07559957e-01 +8.92874673e-02 +8.55870992e-02 +1.61876887e-01 +6.31262287e-02 +1.16885133e-01 +8.73288065e-02 +1.07696973e-01 +8.03492069e-02 +9.19139683e-02 +7.48016238e-02 +3.52836363e-02 +6.59691095e-02 +1.31454036e-01 +6.31498992e-02 +1.44314677e-01 +1.11654550e-01 +1.29177183e-01 +1.19386725e-01 +1.76650107e-01 +1.19482055e-01 +1.35213122e-01 +1.21699706e-01 +1.13326892e-01 +9.43096876e-02 +9.42195281e-02 +1.01645969e-01 +6.68273047e-02 +3.14645804e-02 +7.75045007e-02 +4.03539836e-02 +8.89511872e-03 -4.72662188e-02 -2.90920474e-02 -4.74037454e-02 -2.01882049e-02 -3.69430482e-02 -2.06550844e-02 -8.62614959e-02 -1.20326519e-01 -6.94524273e-02 -8.21745545e-02 -8.14571157e-02 -1.30561605e-01 -1.51697338e-01 -6.80079088e-02 -1.08894885e-01 -9.17278007e-02 -1.23508938e-01 -1.13751478e-01 -1.04316011e-01 -1.14249192e-01 -6.93355277e-02 -1.38097540e-01 -1.09533809e-01 -1.05358802e-01 -1.27260089e-01 -1.06695898e-01 -8.82234499e-02 -1.04921497e-01 -9.26336572e-02 -1.28290281e-01 -9.02120993e-02 -5.99552579e-02 -9.43603516e-02 -8.08464214e-02 -1.12391964e-01 -6.25337735e-02 -4.97507788e-02 -2.77002174e-02 -2.03549750e-02 +1.15577201e-03 -4.31177393e-03 +3.73371504e-02 -4.65203915e-03 +8.53397250e-02 +6.75413683e-02 +2.36218721e-02 +3.17140296e-02 +5.89449666e-02 +6.79938495e-02 +5.75055517e-02 +1.14559740e-01 +9.40396488e-02 +1.28872946e-01 +1.28872320e-02 +1.18353009e-01 +8.20184126e-02 +1.07219815e-01 +9.93544832e-02 +7.88026527e-02 +2.31268629e-02 +1.09258778e-02 +1.70904584e-02 +3.02731786e-02 +3.97419855e-02 +5.91081642e-02 +2.09680349e-02 -1.93374860e-03 -2.13914812e-02 -4.53004912e-02 -4.15591821e-02 -1.63124632e-02 -7.39978701e-02 -5.84145375e-02 -5.10119908e-02 -2.08903197e-02 -3.20269279e-02 -3.21161374e-02 -6.73247948e-02 -5.27795739e-02 -3.31314765e-02 -3.64529416e-02 -5.85306250e-02 -3.82915288e-02 -6.18455186e-02 -2.56779864e-02 -4.03287858e-02 -5.09140678e-02 -5.74376108e-03 -5.23392949e-03 -2.46583223e-02 -1.61769544e-03 -4.78579290e-03 +2.14722250e-02 +6.00991361e-02 +2.52902936e-02 +2.36450154e-02 +3.43440473e-02 +6.41375184e-02 +8.68765265e-02 +6.66472614e-02 +1.24203660e-01 +8.90522376e-02 +5.92064597e-02 +1.00027181e-01 +9.44658667e-02 +1.39294356e-01 +7.80540854e-02 +5.08908071e-02 +5.55595458e-02 +6.31121695e-02 +5.52157313e-02 +1.01332545e-01 +3.61708105e-02 +6.17574155e-02 +7.35464245e-02 +8.60123783e-02 +3.56472395e-02 +5.63772907e-03 +2.57365406e-02 +1.91156417e-02 -2.94067874e-03 -2.96055991e-02 +7.01361224e-02 +1.51928898e-03 +4.78892289e-02 -9.44280159e-03 +3.86819877e-02 +5.73069032e-04 -3.73220891e-02 -4.07183059e-02 -6.26470102e-03 -7.13754892e-02 -6.97282031e-02 -4.22854014e-02 -6.28942996e-02 -6.26474321e-02 -9.25920680e-02 -5.91794029e-02 -1.24030404e-01 -8.14338475e-02 -9.68579799e-02 -1.32697031e-01 -1.22933336e-01 -8.56792703e-02 -1.06182672e-01 -1.09206147e-01 -4.37162369e-02 -5.18385507e-02 -9.67915729e-02 -4.02361080e-02 -6.23073354e-02 -8.31000954e-02 -5.81503771e-02 -3.27154547e-02 -1.93089601e-02 -5.60171045e-02 -2.78257430e-02 +9.40508582e-03 +6.50488446e-03 +7.19345640e-03 -2.35398058e-02 -1.96689889e-02 +2.60524247e-02 -9.38636716e-03 +1.37099978e-02 -1.59584526e-02 +1.26409000e-02 +4.73391227e-02 +2.53210068e-02 -1.16927186e-02 -7.04122521e-03 -5.07126823e-02 -6.38106018e-02 -5.93223376e-03 -4.30014543e-02 -3.50789800e-02 -5.71464822e-02 -5.16223758e-02 -9.79995206e-02 -1.09921515e-01 -8.74124691e-02 -1.15285128e-01 -9.17449519e-02 -9.81465504e-02 -5.86581603e-02 -8.43957290e-02 -9.37704295e-02 -1.04957372e-01 -9.21129882e-02 -1.22867823e-01 -7.41192549e-02 -8.10882747e-02 -8.64714012e-02 -5.46361879e-02 -4.09768596e-02 -8.55603255e-03 +2.75962148e-02 +3.87879387e-02 +1.94693878e-02 +9.26916301e-02 +1.06291294e-01 +1.47755101e-01 +1.72388673e-01 +1.74652070e-01 +2.36429006e-01 +2.11661622e-01 +1.89679012e-01 +2.10563064e-01 +2.49054477e-01 +2.23051295e-01 +2.09596679e-01 +2.02811271e-01 +2.29637221e-01 +1.97264254e-01 +2.60504007e-01 +1.91071585e-01 +2.24334493e-01 +2.00818330e-01 +1.80271238e-01 +1.56533107e-01 +1.65715918e-01 +1.16366722e-01 +1.37943476e-01 +1.17082298e-01 +1.19229004e-01 +8.55727792e-02 +9.52639803e-02 +5.67185991e-02 +7.76731670e-02 +1.08362168e-01 +7.52107203e-02 +1.86301041e-02 +5.31077385e-02 +1.09824790e-02 -3.92153710e-02 -3.42763476e-02 -6.56626225e-02 -3.63844447e-02 -9.88016278e-02 -1.33938894e-01 -1.44499227e-01 -1.02632947e-01 -1.47824317e-01 -1.67696610e-01 -1.32695347e-01 -1.73905984e-01 -1.93867356e-01 -1.93394452e-01 -2.11162001e-01 -2.03952506e-01 -2.10078388e-01 -1.76062271e-01 -2.12251842e-01 -1.84690341e-01 -1.94011852e-01 -1.43456921e-01 -2.12460682e-01 -1.55944243e-01 -1.42260566e-01 -1.75386846e-01 -1.48980632e-01 -1.37941241e-01 -8.49336088e-02 -1.12931326e-01 -1.23661585e-01 -4.99379262e-02 -3.59731801e-02 -2.24038139e-02 -5.07781245e-02 -5.16199991e-02 -1.41688557e-02 -3.77049744e-02 +3.78851686e-03 -3.33248265e-02 -3.58277671e-02 +1.69999003e-02 +1.09681068e-02 -1.01132719e-02 -1.30153606e-02 +6.43755449e-03 +4.29661795e-02 +6.24453202e-02 +5.89271598e-02 +3.07487119e-02 +8.75382498e-02 +1.04600161e-01 +6.94411397e-02 +8.96798819e-02 +1.06948897e-01 +9.15532112e-02 +1.03900939e-01 +9.44188982e-02 +4.40882631e-02 +6.73420578e-02 +6.51096851e-02 +7.97393844e-02 +8.48733038e-02 +1.47845000e-01 +1.16618641e-01 +6.74039796e-02 +3.63417864e-02 +4.14459370e-02 +2.93122008e-02 +9.99538153e-02 +3.12950648e-02 +7.24348053e-02 +5.24813794e-02 +1.01225577e-01 +3.94063778e-02 +8.30319449e-02 +7.34504461e-02 +4.84483317e-02 +2.11792924e-02 +5.13346568e-02 +9.50350463e-02 +7.09535182e-02 +4.43556346e-02 +7.88557529e-02 +3.81926373e-02 -1.60184652e-02 +6.04424365e-02 +4.51272577e-02 +5.44990301e-02 +5.90121970e-02 +5.01504466e-02 +4.24171761e-02 +1.02845766e-02 +2.09494121e-02 -2.63863541e-02 -6.37716353e-02 -5.16215898e-02 -7.70510510e-02 -4.57512699e-02 -2.73036528e-02 -8.64502117e-02 -6.76636919e-02 -7.63231292e-02 -1.07901275e-01 -4.65518273e-02 -8.98600966e-02 -6.56025335e-02 -7.75374174e-02 -1.12423003e-01 -3.09343301e-02 -1.00349300e-01 -1.07694037e-01 -1.09479129e-01 -1.06041238e-01 -7.64028355e-02 -7.77119845e-02 -7.12050498e-02 -7.23982006e-02 -5.69101982e-02 -4.46973816e-02 -7.29757845e-02 -7.39057511e-02 -4.23463481e-03 -9.96966511e-02 -6.59008250e-02 +2.35596001e-02 -5.58880754e-02 -3.06843463e-02 +2.17003897e-02 -8.02585930e-02 -2.52824444e-02 -2.43776105e-02 -4.65813205e-02 -2.54067481e-02 -5.37742004e-02 -1.73479747e-02 -2.51745433e-02 -3.75023880e-03 +4.61960994e-02 -8.00172985e-03 -4.36491594e-02 -1.33568095e-02 -4.07404043e-02 -2.76766880e-03 -4.58102413e-02 -3.45555544e-02 -2.08622683e-02 +6.33892119e-02 +2.09221290e-03 +4.07299660e-02 +3.90658621e-03 +2.73973923e-02 +5.10893911e-02 +7.79008493e-02 +4.06308137e-02 +7.82627240e-02 +1.01588838e-01 +7.77749494e-02 +8.00242648e-02 +1.06534243e-01 +1.61882579e-01 +1.79011971e-01 +1.63245648e-01 +1.71486601e-01 +2.08604470e-01 +2.15732142e-01 +1.54913649e-01 +1.69740975e-01 +1.86329857e-01 +1.72242716e-01 +1.50608703e-01 +1.69720650e-01 +1.53060377e-01 +1.05430521e-01 +9.00983289e-02 +1.35400981e-01 +7.31582269e-02 +6.46155924e-02 +6.63554445e-02 +2.09895205e-02 +3.23515646e-02 +1.80847030e-02 -4.22709212e-02 -3.24652046e-02 -6.23671487e-02 -1.75747108e-02 -8.25440213e-02 -7.51080438e-02 -1.15705132e-01 -9.36522260e-02 -1.25549898e-01 -9.35493410e-02 -1.06742866e-01 -1.68430120e-01 -1.33499295e-01 -1.21134035e-01 -1.62081763e-01 -1.94935411e-01 -1.66554719e-01 -1.68226138e-01 -1.58605993e-01 -1.45648092e-01 -1.51290193e-01 -1.74578637e-01 -1.48463815e-01 -1.24983683e-01 -7.59295747e-02 -1.29140571e-01 -8.23958367e-02 -7.56087825e-02 -1.06969625e-01 -4.93028723e-02 -5.58464006e-02 -7.84567222e-02 -6.51547089e-02 -3.15132402e-02 -5.18250093e-02 -2.48408597e-02 -9.49813798e-03 -3.97166423e-03 +4.68880087e-02 -7.14081666e-03 +7.34793721e-03 +5.83842956e-02 -9.70354304e-03 +6.52137548e-02 +3.24012600e-02 +4.65513282e-02 +4.45535742e-02 +6.72916099e-02 +3.70495096e-02 +2.71823797e-02 +1.03754550e-01 +8.78611058e-02 +2.41166335e-02 +6.26425818e-02 +7.56840855e-02 +7.60589838e-02 +7.88414627e-02 +6.64935783e-02 -3.88115156e-03 +1.93100031e-02 +2.01577637e-02 +2.83873118e-02 +4.42259200e-02 -4.95319255e-02 +2.54089870e-02 +9.77343880e-03 -5.85131720e-03 -1.00795738e-02 -1.30891590e-03 -7.16081560e-02 -6.19560480e-02 +1.71989072e-02 -1.11362599e-02 -4.95829321e-02 -5.33577800e-02 -9.31441132e-03 -5.50131053e-02 -3.72347538e-03 +2.73962952e-02 +3.93973887e-02 -1.71932857e-02 +6.51159734e-02 +6.17140010e-02 +3.12098376e-02 +6.75782338e-02 +8.14012215e-02 +7.95380101e-02 +1.25802502e-01 +7.27266371e-02 +1.27112374e-01 +1.01659805e-01 +9.21345875e-02 +8.06719735e-02 +9.60591733e-02 +1.20049097e-01 +9.73945484e-02 +1.23417929e-01 +8.81108791e-02 +7.15544745e-02 +1.17189907e-01 +1.33775011e-01 +7.32885301e-02 +4.19815667e-02 +8.35013464e-02 +7.98749402e-02 +8.83237273e-02 +2.03785114e-03 +3.26369666e-02 +3.31281461e-02 +3.78221907e-02 +1.53290620e-02 +3.11927181e-02 -1.56885795e-02 -1.33171014e-03 -7.75697455e-02 -3.21117267e-02 -2.78046615e-02 -1.06615648e-01 -7.24224523e-02 -8.45665187e-02 -1.39765844e-01 -1.33526832e-01 -1.19841300e-01 -1.62259862e-01 -8.37566257e-02 -1.16065457e-01 -1.42922938e-01 -1.23835385e-01 -1.06830321e-01 -1.28133625e-01 -9.40085873e-02 -1.17739983e-01 -1.11194611e-01 -4.79980558e-02 -7.51132593e-02 -1.23174347e-01 -5.88995367e-02 -3.03295832e-02 -6.29243702e-02 -2.70497147e-02 -1.12856440e-02 -1.40709495e-02 +2.54594837e-03 -3.55579667e-02 -1.18436515e-02 +3.68068814e-02 +6.00389317e-02 +1.09529495e-02 +4.14556377e-02 -1.42062251e-02 -2.27956814e-04 +3.39160748e-02 +5.76844392e-03 -4.01732931e-03 -8.43247771e-03 +2.82698385e-02 -3.02335564e-02 +1.83109054e-03 -8.70122481e-03 +5.14236419e-03 -1.72700882e-02 -2.48810966e-02 +9.93178226e-03 -4.19017207e-03 -2.40887199e-02 -3.48722488e-02 +2.36863680e-02 -2.84211282e-02 +3.75906527e-02 +4.32866774e-02 +9.14585617e-05 -2.43926812e-02 +1.17972801e-02 +2.80963145e-02 +4.20013070e-02 -1.19860666e-02 +2.55467482e-02 +3.19555104e-02 +7.95616955e-02 +9.38638076e-02 +7.48338103e-02 +2.38248855e-02 +4.59812544e-02 +1.02789581e-01 +3.00807115e-02 +6.32554889e-02 +9.38454568e-02 +1.00575246e-01 +9.46353897e-02 +6.46785647e-02 +5.74851781e-02 +4.82567139e-02 +2.85818316e-02 +2.90739145e-02 +3.69890332e-02 +7.07285758e-03 -3.30093727e-02 +3.75432223e-02 -1.51027720e-02 -6.94853766e-03 -3.32571678e-02 -7.60923838e-04 +8.41386802e-03 +3.16553749e-02 -3.81826144e-03 -1.15985237e-02 +4.14014645e-02 -2.03141235e-02 +3.54344994e-02 +1.66547708e-02 -3.25736888e-02 +1.48117607e-02 +2.39148531e-02 +4.22567353e-02 +2.86652204e-02 -1.57119485e-03 +2.52826475e-02 +2.74122600e-02 +1.74645986e-02 +4.57132086e-02 -1.41389864e-02 +2.79301144e-02 -3.30526265e-03 +2.57548187e-02 +1.19423345e-02 -2.41992576e-03 +2.75596827e-02 -7.56558683e-03 +8.67031887e-03 +2.75764801e-02 +1.82752541e-04 -1.67593937e-02 -5.67442514e-02 -2.52641588e-02 -3.07170805e-02 -5.29385470e-02 -4.88428399e-02 -4.39897925e-02 -8.81588385e-02 -5.16219363e-02 -9.11879987e-02 -9.53496024e-02 -7.95441121e-02 -7.03533813e-02 -1.03256285e-01 -8.95669088e-02 -6.20423518e-02 -7.05990493e-02 -1.04962431e-01 -7.41894394e-02 -5.77738956e-02 -7.45115280e-02 -6.34457394e-02 -5.39354533e-02 -5.97587228e-02 -8.95057395e-02 -6.19766079e-02 -6.31058291e-02 -6.85088262e-02 -2.59074029e-02 -8.98512155e-02 -4.06278186e-02 -3.23652513e-02 -7.90505484e-02 -3.37824002e-02 -3.01997345e-02 -1.07948035e-02 -6.08470403e-02 -1.21677862e-02 -3.38446274e-02 -6.19165017e-04 +2.12549474e-02 -2.69100815e-03 +2.61615351e-04 +1.18536307e-02 +1.74114760e-02 -1.87415071e-02 +2.33117808e-02 +3.84488925e-02 +6.66459352e-02 +2.69492473e-02 +7.14921355e-02 +5.98867200e-02 +4.63723280e-02 +4.15287763e-02 +3.24544795e-02 +6.28811046e-02 +6.34487346e-02 +8.52084756e-02 +7.64941201e-02 +1.05513044e-01 +7.64265582e-02 +1.07979238e-01 +6.00047335e-02 +1.22247905e-01 +1.23255707e-01 +1.29396886e-01 +1.07883915e-01 +7.79088810e-02 +7.38848001e-02 +9.21421424e-02 +1.26465783e-01 +1.41190574e-01 +9.39629227e-02 +1.22985192e-01 +1.01642676e-01 +1.01265870e-01 +1.13721080e-01 +1.28451318e-01 +9.31410342e-02 +1.27399996e-01 +1.29144803e-01 +1.08376808e-01 +8.51689205e-02 +9.66085345e-02 +1.04197301e-01 +6.94718435e-02 +6.86515644e-02 +4.33883704e-02 +4.64498699e-02 +1.78838354e-02 +3.96116115e-02 +4.68370225e-03 +2.20378377e-02 -1.09682856e-02 -2.39448305e-02 -6.88700750e-02 -1.46658253e-02 -5.90652600e-02 -1.19538717e-01 -8.27427953e-02 -1.27310127e-01 -1.12517886e-01 -1.07140653e-01 -9.64173004e-02 -1.72146574e-01 -1.37781933e-01 -1.01398148e-01 -1.07944071e-01 -1.36244938e-01 -1.26794592e-01 -1.09500706e-01 -1.00741327e-01 -1.40934840e-01 -1.42214015e-01 -1.13263078e-01 -9.13329050e-02 -1.16071783e-01 -1.12380102e-01 -8.86043236e-02 -8.76753554e-02 -8.25980380e-02 -6.78804591e-02 -5.35322726e-02 -9.87004042e-02 -7.43636340e-02 -9.38916355e-02 -6.86363950e-02 -8.43664557e-02 -6.90714940e-02 -5.33372387e-02 -3.59047614e-02 -2.91200951e-02 -3.60281579e-02 -6.16628816e-03 -4.50773127e-02 +2.29357556e-02 +5.50650358e-02 +2.28382330e-02 +7.35501796e-02 