#Parameter# /_0 {1,3,1,16} 769 ZERO_GRAD
+1.93409786e-01 -1.42581478e-01 +2.09473416e-01 -1.17408335e-02 +5.03743533e-04 -1.36498585e-01 -1.31421462e-01 -3.92103307e-02 +8.56337920e-02 -1.44028977e-01 -1.86174795e-01 -2.14827862e-02 +5.60690649e-02 -5.68227060e-02 +4.95591611e-02 -2.50732690e-01 -1.18564896e-01 +9.86790210e-02 -1.18226022e-01 -1.16172329e-01 -9.73766446e-02 -1.26246899e-01 -1.92686528e-01 +4.75743525e-02 -5.92686944e-02 +9.90480185e-02 -8.05722550e-02 -1.82091482e-02 -9.10194516e-02 -2.17033222e-01 -1.47882849e-01 +1.11894794e-01 -1.63898140e-01 +1.23476557e-01 +1.09940954e-01 +2.62121428e-02 +1.52701318e-01 +1.41108721e-01 -8.95875990e-02 +1.04778931e-01 +1.80731371e-01 +6.30768687e-02 +9.74290669e-02 -1.06526241e-01 +9.60836187e-02 +1.71100404e-02 +9.56328437e-02 +1.82586744e-01 
#Parameter# /_1 {1,1,16,1} 257 ZERO_GRAD
-1.63073748e-01 +7.47498944e-02 +8.09847116e-02 -2.83883452e-01 +1.68741405e-01 -8.06234404e-02 -4.28426638e-02 +1.53392375e-01 -2.96843141e-01 -2.04280794e-01 +1.97213992e-01 +3.09535742e-01 -4.24358761e-03 +5.28177619e-02 +1.52403027e-01 +1.97806939e-01 
