#Parameter# /_1 {1,8} 129 ZERO_GRAD
-3.71955298e-02 -2.43721865e-02 -5.52746430e-02 +1.76489800e-02 +3.71210612e-02 +4.48017158e-02 -4.89297695e-02 -4.29082895e-03 
#Parameter# /_2 {1} 17 ZERO_GRAD
-2.22880065e-01 
#Parameter# /simple-rnn-builder/_0 {8,320} 40961 ZERO_GRAD
-2.01967694e-02 +3.88150178e-02 -1.30300313e-01 +1.29496068e-01 -7.99161289e-03 -1.05733216e-01 -7.45466724e-02 -3.41900215e-02 -5.16596064e-02 +4.46114913e-02 +1.96095463e-02 +1.32050468e-02 +2.09118966e-02 -4.36073840e-02 -6.32645888e-03 -1.19179282e-02 -1.58804767e-02 +1.60004184e-01 +2.25211885e-02 -1.51848897e-01 +9.45591480e-02 -1.48118585e-01 -3.46809626e-02 +1.33527845e-01 +1.09931327e-01 +7.21040219e-02 -1.62285343e-01 -4.52315621e-02 +7.57143572e-02 -4.76306863e-02 +1.59613776e-03 +1.11826044e-02 +1.45818934e-01 -1.08680338e-01 -6.68127239e-02 +1.39624223e-01 +3.41928490e-02 -9.86370817e-02 -2.96969488e-02 -1.41265066e-02 -6.60764128e-02 +1.25916183e-01 -1.81093022e-01 -1.24365233e-01 -9.68800485e-02 +4.61680740e-02 +9.13647190e-02 +2.68950164e-02 -3.21436999e-03 -2.14640126e-02 -8.10113177e-03 -6.55521974e-02 +1.95761383e-01 +1.68797940e-01 +1.50074199e-01 -1.71534806e-01 +1.39892092e-02 +2.76409043e-03 -1.78223893e-01 +2.34295931e-02 -2.46399939e-02 -4.51208279e-02 -9.33741480e-02 -1.64285284e-02 +4.39584255e-02 +8.39395076e-02 +3.05672772e-02 -9.70628038e-02 -1.05371274e-01 +1.50994416e-02 +2.67898273e-02 +2.95843109e-02 +8.11819732e-02 -4.82604094e-02 -5.57508990e-02 -5.36477119e-02 +1.30998656e-01 +1.35303155e-01 +1.60736173e-01 -9.81340706e-02 +2.01447736e-02 -4.22436483e-02 +6.05058372e-02 +2.31890716e-02 +6.03407435e-02 +2.03237422e-02 +1.08275063e-01 -6.58811675e-03 -1.31993471e-02 -1.03495168e-02 +2.30961461e-02 -5.98219447e-02 +4.86704856e-02 +7.97256529e-02 +9.98698398e-02 -5.78094870e-02 +7.60846585e-02 +4.34197709e-02 +7.70396460e-03 -1.24176107e-02 +7.07221702e-02 +4.68361862e-02 +1.17710143e-01 -6.55545946e-03 -6.59616068e-02 -5.53090610e-02 -8.56962055e-02 +7.78592080e-02 +9.76708457e-02 -1.41447723e-01 +4.42969315e-02 -1.42233506e-01 +9.71259773e-02 +2.09771488e-02 -1.60584897e-01 +1.34827290e-02 -3.02884467e-02 +4.55792136e-02 +4.57288548e-02 +5.10882214e-02 +1.03332780e-01 -9.99461338e-02 -1.41757265e-01 -7.26273581e-02 -5.99947870e-02 -1.78985804e-01 +6.48703650e-02 +4.51655639e-03 +4.01026793e-02 +1.48499692e-02 +2.00383668e-03 -2.77554691e-02 +2.05671087e-01 +4.24320810e-03 +8.27967748e-02 +3.96511257e-02 -4.82492335e-02 -1.30689144e-01 +2.50728428e-02 -1.85898952e-02 +1.02988958e-01 +3.36451940e-02 +1.04501136e-01 -1.03568975e-02 +5.44107147e-02 -8.71505141e-02 -1.44849345e-01 +1.94773246e-02 -7.19219148e-02 -1.30489990e-01 -4.19480540e-02 +5.32352254e-02 -8.81640911e-02 -1.34971082e-01 +2.61802524e-02 +1.27061233e-01 +1.16840988e-01 -1.65142976e-02 +5.24514019e-02 -4.04351279e-02 +1.31910875e-01 -1.19131446e-01 -3.24364752e-02 -7.20277475e-03 +3.09363399e-02 +1.82485692e-02 +6.25638962e-02 -1.15309218e-02 +5.43535911e-02 +7.75753111e-02 +6.90060109e-02 +1.06733076e-01 -9.68837962e-02 +9.52876955e-02 +7.08517283e-02 -1.21639371e-01 +7.32736364e-02 -1.44561753e-01 +1.00613357e-02 +3.77276656e-03 -9.56336930e-02 +1.29776327e-02 -8.25496688e-02 +1.16882473e-01 +1.92757294e-01 +6.96588159e-02 -1.50679380e-01 +7.02975690e-02 -1.11925401e-01 -8.85125622e-02 +1.03822656e-01 +1.12266771e-01 -4.53541894e-03 -2.51294281e-02 -1.48976013e-01 +2.39240807e-02 +1.00028187e-01 -6.93464652e-02 +3.62602659e-02 -4.00241688e-02 +1.74404196e-02 +1.38184810e-02 -8.52593258e-02 +1.63015231e-01 -1.01241827e-01 -1.35656819e-03 +1.09029099e-01 +8.64232183e-02 -5.89164980e-02 -1.57317638e-01 +7.58895129e-02 +1.04921255e-02 -1.44811884e-01 -1.31938368e-01 -9.47142839e-02 -1.45413026e-01 -8.61886963e-02 -1.66076832e-02 +1.65650591e-01 -1.10765450e-01 -1.26320049e-01 +4.54605967e-02 -5.93955778e-02 -7.03333318e-02 +3.95305874e-03 +4.20916714e-02 -5.58554083e-02 +7.36965239e-02 +1.04906239e-01 -3.26485746e-02 +2.02437416e-02 -7.59313852e-02 +3.25758941e-03 -2.20347252e-02 +1.11011170e-01 -5.69045581e-02 +5.31832594e-03 +8.38458687e-02 -1.07905880e-01 -1.16366874e-02 +8.90148059e-02 -1.71249062e-01 +7.79715925e-02 -6.87098727e-02 +1.24924183e-01 -5.77221811e-02 +1.30247936e-01 +7.10444013e-03 +7.03078061e-02 +2.39784550e-02 +7.33522847e-02 -1.25240339e-02 -7.04846978e-02 -1.65347643e-02 +1.15153380e-01 +3.06532276e-03 +1.76761612e-01 -6.40512332e-02 +7.18725398e-02 -2.99992748e-02 -3.38856019e-02 -7.49970451e-02 -9.14838910e-02 -1.05057545e-01 +1.16100803e-03 -5.47223128e-02 -2.78201457e-02 -1.21668063e-01 +1.09481637e-03 +1.12947367e-01 -5.37049631e-03 -8.55663940e-02 -7.53124878e-02 +6.03872277e-02 -1.59201901e-02 +1.10828653e-01 +6.67249933e-02 +1.21968120e-01 +5.57361320e-02 -7.92565849e-03 -5.85315302e-02 -9.71346162e-03 -1.25175878e-01 -7.22771212e-02 -2.13849358e-02 -5.69809861e-02 -1.29093006e-01 -8.90361816e-02 -1.12789590e-02 +4.46846969e-02 +3.54805216e-02 -1.02585495e-01 +1.24070542e-02 -9.45270285e-02 -3.19223218e-02 +1.18763313e-01 +8.70280992e-03 -4.50441539e-02 -6.53893352e-02 -2.07475349e-02 +7.18661845e-02 +1.05126780e-02 +2.53931563e-02 -1.84596144e-02 -1.52871357e-02 -1.51618093e-01 +2.82473955e-02 +1.00549281e-01 +1.54868647e-01 -8.12882483e-02 -6.88988045e-02 -1.17441751e-01 -1.43632968e-03 -8.94161165e-02 +1.59151498e-02 -4.40244861e-02 +3.20927016e-02 +1.26440525e-01 -2.90938541e-02 +1.09004840e-01 -7.38433823e-02 -9.45007652e-02 +3.80189754e-02 -6.86713606e-02 +2.40416732e-02 +1.00140087e-01 -2.07871944e-02 -9.97822806e-02 +1.72372445e-01 -7.30311265e-03 +5.16194291e-02 -1.16203338e-01 +9.17501096e-03 +9.13901925e-02 -1.00786276e-01 -3.24166082e-02 -7.05418661e-02 +7.11871497e-03 +8.03911909e-02 +3.76441069e-02 -9.07073840e-02 +8.83661956e-02 +1.00873783e-01 -2.12881081e-02 -4.53574001e-04 +1.80465560e-02 +1.95613176e-01 -1.34292513e-01 +1.74838856e-01 -6.64751828e-02 -4.76360507e-02 -9.22202766e-02 +1.24353826e-01 +9.38900262e-02 +5.29244430e-02 -7.58655369e-02 +7.47020915e-02 +4.15732488e-02 -1.24951355e-01 -6.90947846e-02 +5.98027594e-02 +3.32319923e-02 +1.03778854e-01 -1.72875375e-02 -5.10059260e-02 +5.35786040e-02 -6.42428622e-02 -1.00936599e-01 +5.94162084e-02 -1.28104135e-01 -9.62522104e-02 -9.83474627e-02 +3.25710624e-02 +3.76557466e-03 +2.85431501e-02 +6.11708201e-02 -5.04575148e-02 -1.27971433e-02 +1.23270527e-01 -4.54284586e-02 -9.37167108e-02 -1.39627177e-02 +8.85280669e-02 +1.18404545e-01 +6.14230186e-02 -1.03595860e-01 +2.88287587e-02 +8.77402648e-02 +1.55844957e-01 -1.18329385e-02 -7.72692710e-02 +3.63016762e-02 +8.65510702e-02 -3.68632376e-02 -4.93770316e-02 -8.46876875e-02 +7.35123605e-02 -5.04368963e-03 +1.03621230e-01 +6.78317547e-02 -7.17276186e-02 +1.65913079e-03 +8.17072093e-02 -1.25501767e-01 -5.43514043e-02 -1.46722928e-01 +1.58656076e-01 -6.01977892e-02 +1.00711726e-01 +1.15176283e-01 -1.17939733e-01 -6.28331229e-02 -4.91261529e-03 -8.45019370e-02 -1.18957631e-01 +1.01577826e-02 -3.54821123e-02 -7.01221377e-02 -8.79371017e-02 -8.06759670e-02 -1.14338711e-01 -5.56643978e-02 -1.31185472e-01 +1.57731012e-01 +1.17886700e-01 +4.35621627e-02 -9.36420187e-02 +1.06954621e-02 -7.34402463e-02 -1.49619535e-01 -1.71641279e-02 -8.01702067e-02 -9.36070457e-02 +1.38085470e-01 -1.01506509e-01 -2.21078377e-02 +7.03180954e-02 +3.20458747e-02 +1.50139272e-01 -6.05803393e-02 +2.34855041e-02 -1.36842549e-01 -1.10396452e-01 +1.17498018e-01 +2.99861245e-02 -1.42818063e-01 +5.56056984e-02 +2.20161304e-03 +1.96227461e-01 +1.03352629e-01 +1.22386366e-01 +1.67396031e-02 +6.69109896e-02 +3.39975841e-02 +1.57235652e-01 +1.21242546e-01 -7.16158152e-02 -5.40951639e-02 +1.59217089e-01 -7.58342594e-02 +2.75532398e-02 -6.98778545e-03 +1.28532842e-01 +1.90734476e-01 +1.30592927e-01 -9.65735018e-02 +1.54459566e-01 +2.28671618e-02 +5.32600693e-02 -8.95850137e-02 -2.03332454e-02 +1.92983031e-01 +2.62724385e-02 -1.61559358e-01 -1.90450670e-03 +5.57153970e-02 -7.04881698e-02 -1.69466123e-01 -1.44482600e-02 +3.61053483e-03 -9.94126201e-02 +7.57182315e-02 +1.14023507e-01 -6.66437065e-03 +9.56509635e-02 +1.88760050e-02 +2.40795948e-02 +2.56026201e-02 -1.25551850e-01 -6.78556366e-03 -1.17740147e-02 +1.22261673e-01 +2.80793896e-03 +8.49914700e-02 +9.88921449e-02 +2.02397838e-01 +5.10229431e-02 -5.96467480e-02 -2.66997702e-02 +1.44436240e-01 +2.85698730e-03 +1.04712080e-02 -5.59245646e-02 +1.01137996e-01 -9.16923881e-02 -2.64843032e-02 +1.17947578e-01 -5.51478975e-02 -3.99901345e-02 -2.85426117e-02 -5.34717925e-02 +1.61736324e-01 +7.96656534e-02 -1.31066382e-01 -7.22440556e-02 -2.41181552e-02 +1.10440217e-01 -5.69630936e-02 -3.75068597e-02 -4.44662422e-02 +1.18257783e-01 +1.52938575e-01 -1.01816311e-01 +8.63064975e-02 +6.33865446e-02 -6.99267462e-02 +5.21307066e-02 +4.49779704e-02 -4.63171909e-03 -6.30295724e-02 +1.45435750e-01 +6.26768619e-02 -1.20023809e-01 -3.11394725e-02 -7.07962960e-02 -2.37462297e-02 +6.01124279e-02 -7.34560713e-02 +1.24351047e-01 -2.96375379e-02 +8.54772776e-02 +5.16643897e-02 +9.77174416e-02 -3.07676047e-02 -8.63424838e-02 -1.20661460e-01 +9.68045667e-02 -1.14101641e-01 -1.20751865e-01 +2.43290253e-02 -6.85275346e-02 +1.46944731e-01 +7.31254518e-02 +1.27453074e-01 -7.20916092e-02 +7.68948346e-02 -9.94586423e-02 +9.69618633e-02 +1.48302674e-01 +6.23722970e-02 +4.86115217e-02 -3.61482874e-02 +6.42259941e-02 -3.98891009e-02 -1.20417234e-02 -3.37967835e-03 -8.41477215e-02 -3.73596177e-02 -1.01624906e-01 +1.03556372e-01 +1.32151887e-01 -1.42037541e-01 -1.40566900e-01 -7.27528185e-02 +4.55511585e-02 +6.07485659e-02 -1.49921492e-01 +5.10731116e-02 -4.72889505e-02 -1.55401856e-01 +2.96553280e-02 -1.29913151e-01 +9.17544588e-02 +1.48000261e-02 -9.87437814e-02 -4.61844495e-03 -5.63687354e-04 +7.11188614e-02 +2.34816186e-02 +7.58679807e-02 -1.82587519e-01 +8.37825984e-02 +1.63084537e-01 +8.39753635e-03 -3.77350226e-02 +5.67225516e-02 -2.28949077e-02 +9.03837383e-02 +6.67799339e-02 -8.61777440e-02 -2.08306909e-02 +1.06379122e-01 +1.25487804e-01 +1.01200931e-01 +2.66832188e-02 -1.51203815e-02 +8.04111511e-02 -4.59505012e-03 -1.25121132e-01 -4.45729829e-02 +7.47377798e-02 -1.18157007e-01 +1.54776618e-01 -1.46233991e-01 -1.00845411e-01 +5.85397817e-02 -7.36403689e-02 +6.05245400e-03 +1.40105471e-01 -8.93582478e-02 +9.32447463e-02 +7.97107443e-02 -9.19622406e-02 +3.47374827e-02 +3.57881188e-02 +6.03607707e-02 +2.82917917e-03 -5.29796742e-02 +6.12742864e-02 -3.79308499e-03 +6.88371956e-02 +2.79812496e-02 -1.11604981e-01 -1.42822275e-03 +6.61691325e-03 -1.44030556e-01 +1.22331299e-01 +4.05338146e-02 +8.64806846e-02 +3.96685153e-02 -3.42500247e-02 +2.16538142e-02 +4.09420244e-02 -4.78157699e-02 -3.96912880e-02 -2.16383353e-01 -1.22433908e-01 +9.97723043e-02 +7.89956078e-02 +3.58909294e-02 -7.65477717e-02 -7.64775425e-02 -6.54221103e-02 -5.90367755e-03 +1.01133607e-01 -9.52387601e-02 +2.89579406e-02 -1.25805914e-01 +6.81464672e-02 +1.85615662e-02 -3.74336243e-02 -1.33757874e-01 -1.29854321e-01 -5.64109534e-02 -4.35382910e-02 +3.69977988e-02 -9.43037868e-03 +1.59369521e-02 -8.16494748e-02 +4.89122160e-02 -1.61966920e-01 -1.63817346e-01 +8.32672641e-02 -8.59429538e-02 -3.63810472e-02 +1.32095262e-01 +4.62472588e-02 +7.92207196e-03 -9.78405178e-02 +1.23144582e-01 +7.50139430e-02 -2.84107272e-02 +6.68764189e-02 -6.98653003e-03 +3.64671089e-02 +3.07967085e-02 +1.53352022e-01 -8.35980847e-02 -1.01615332e-01 -5.97398903e-04 -7.58345351e-02 -5.75025752e-02 -8.42474550e-02 -2.61221249e-02 -1.44811645e-01 -6.90930262e-02 +1.34707689e-02 -7.53308088e-02 -7.08368272e-02 +9.33599621e-02 -2.67423205e-02 -1.11591063e-01 -9.08739567e-02 +7.37900212e-02 +6.91321716e-02 +7.19090849e-02 +5.81319742e-02 -7.91833103e-02 -5.04536033e-02 -1.31194085e-01 -1.98324695e-02 -1.44218996e-01 -7.07090227e-03 +4.95877638e-02 +5.69502078e-02 +1.36416480e-01 -7.03719333e-02 -1.79071836e-02 -8.54076371e-02 -8.03940073e-02 +1.07286699e-01 +7.27634951e-02 -1.06112383e-01 +4.44680415e-02 -1.50069356e-01 -1.53425515e-01 -9.82543901e-02 -1.23912118e-01 -1.25492662e-01 -1.22129349e-02 +9.62244198e-02 +2.17173826e-02 -1.04656406e-01 -1.88515484e-01 -1.24684133e-01 -3.53183672e-02 +5.53010963e-02 -1.05373770e-01 +4.04359773e-02 +5.50141521e-02 +1.06219530e-01 +8.15482065e-02 -1.25237644e-01 -8.61944035e-02 +8.08701366e-02 +1.08959883e-01 +1.29090205e-01 -6.97676539e-02 +1.18280590e-01 -8.47966075e-02 -1.55185759e-01 +3.80277075e-02 +1.34848535e-01 -6.44146204e-02 -2.57097892e-02 +1.65109992e-01 -1.50149480e-01 +4.99150977e-02 +2.40923651e-02 -9.94204730e-02 +2.11307760e-02 -1.08210591e-03 +5.57798333e-02 +1.85247838e-01 +1.24329545e-01 -1.06033482e-01 +4.14626114e-02 +2.79143527e-02 -2.96269376e-02 -1.10830612e-01 -1.49064288e-02 -1.06267249e-02 -2.85707954e-02 -1.03639327e-01 +1.76993221e-01 -7.55145177e-02 -1.83974236e-01 -4.29884531e-02 +1.79606248e-02 +6.95644021e-02 +9.80404764e-03 -3.19659114e-02 +1.53893596e-02 -1.11853741e-01 -2.21833333e-01 +3.01126409e-02 -1.82661545e-02 -7.39148781e-02 -1.71166211e-01 -8.84253457e-02 -3.70149575e-02 +1.46835640e-01 +4.66596782e-02 -2.90169045e-02 +9.71949771e-02 -7.56197944e-02 -2.53029708e-02 +1.23249805e-02 -1.38920043e-02 +8.32669586e-02 -2.39483267e-02 +4.40128520e-02 +5.12731681e-03 +4.81582731e-02 +3.18650603e-02 +1.44766152e-01 -1.20374471e-01 -9.54392403e-02 -1.73798010e-01 -5.98638542e-02 -2.92699155e-03 -4.45679277e-02 +1.06573544e-01 -9.94964838e-02 -9.47517678e-02 -6.06194558e-03 -2.10336328e-01 -6.04352579e-02 -1.65145416e-02 -2.47275904e-02 -6.64683431e-02 -3.91837619e-02 -5.86329028e-02 -6.30513653e-02 -7.17408061e-02 -9.22378004e-02 +1.51872844e-01 -8.89379457e-02 +6.39825538e-02 +1.50588691e-01 -1.14924885e-01 -1.12884521e-01 -7.95101002e-02 -1.15047961e-01 +1.13034017e-01 +6.90268576e-02 -5.31765111e-02 +1.61522165e-01 -1.68809667e-02 -1.24944694e-01 -1.42636672e-01 -3.38595584e-02 -5.61956353e-02 +5.95643707e-02 +1.72007233e-02 +3.17281447e-02 -2.62325257e-02 +1.44414723e-01 -8.39111805e-02 +1.27078786e-01 -5.85457869e-02 +5.79585657e-02 -1.63035411e-02 +6.49732351e-02 -7.34894052e-02 -3.05412579e-02 -1.25218585e-01 -4.66879643e-02 +1.29474178e-01 -1.09146349e-01 +3.62151563e-02 +1.60816044e-01 +3.90572910e-04 +1.33573905e-01 -1.97263081e-02 +8.51496384e-02 +3.87947597e-02 +3.96612249e-02 -7.56011680e-02 +5.21452948e-02 +3.21797878e-02 +1.57909423e-01 -8.91509205e-02 -4.35784534e-02 -1.45156682e-01 -1.29281759e-01 -4.66547012e-02 -4.03939858e-02 +2.07999386e-02 +2.82328445e-02 +1.14213921e-01 -8.78056139e-02 -1.20443925e-01 -9.91244465e-02 +3.64333764e-02 +6.33836985e-02 +2.55873799e-02 -1.21324249e-01 -5.44179305e-02 +1.00816764e-01 -6.24262802e-02 -1.19500048e-01 -2.62379423e-02 +6.64452910e-02 +8.61153752e-02 +4.53544557e-02 -9.46238264e-02 +7.00365156e-02 -1.49962485e-01 -1.25169670e-02 -4.60861847e-02 +1.29984200e-01 -7.28074461e-02 +8.16541985e-02 +1.98078342e-02 +1.36932954e-01 -1.24921218e-01 +3.39289084e-02 +1.58725783e-01 -1.03659444e-01 -8.10118914e-02 +6.18386455e-02 +2.61981077e-02 +9.33192391e-03 -1.24204598e-01 +1.13954708e-01 -4.25143652e-02 +1.53409123e-01 +5.23045883e-02 -8.58239364e-03 +7.11736381e-02 +4.34549637e-02 -5.45859337e-02 +9.54207405e-02 -1.14682525e-01 +1.12793706e-01 +2.12905407e-02 -1.56996176e-01 +6.33148327e-02 -3.15708145e-02 -1.21205151e-01 -5.55612380e-03 +9.93907452e-02 +8.09380785e-02 -7.12554678e-02 -2.51774136e-02 -6.75296364e-03 -8.64262208e-02 -1.06549561e-01 -5.11561148e-02 -3.04294471e-02 +1.68216735e-01 +5.01468889e-02 -8.83092880e-02 -1.35008246e-01 -8.92814547e-02 -1.08283736e-01 -5.55840619e-02 -1.29409820e-01 -2.45285574e-02 +9.15535316e-02 -1.98173500e-03 +3.11931800e-02 +3.04520037e-02 -1.90812320e-01 +1.53878078e-01 +1.33032026e-02 +1.45451322e-01 +1.41363472e-01 +1.31943509e-01 -7.40853325e-02 -1.38869449e-01 -1.15862533e-01 +1.22025043e-01 -1.32315710e-01 +8.31919839e-04 +5.69559541e-03 -3.04289740e-02 -1.63499955e-02 +8.92611742e-02 -8.54935870e-02 -1.06566578e-01 -1.50657281e-01 +9.24185105e-03 +1.93574280e-02 -1.47880852e-01 +1.96953520e-01 +6.25910759e-02 +1.40075563e-02 -1.30578186e-02 -3.90430726e-02 -7.70248065e-04 +9.99567807e-02 +1.24329530e-01 +1.39768749e-01 +1.02226749e-01 -1.59492791e-01 -1.03689447e-01 -3.08937505e-02 -1.43387979e-02 +1.03182569e-01 +8.79718065e-02 -8.10710192e-02 -4.04160060e-02 -7.84088224e-02 -1.36957467e-01 -2.09677499e-02 -1.44468978e-01 +1.13201663e-01 -1.94125995e-02 -2.49091070e-02 -1.98638573e-01 -1.37153223e-01 +9.63390693e-02 +5.83771355e-02 +8.06686580e-02 -9.05868337e-02 +8.76803789e-03 -4.97450819e-03 +9.37483534e-02 +5.32253124e-02 +6.85543567e-02 +8.30117147e-03 +1.28860489e-01 +4.50296812e-02 -1.09466456e-01 +1.55078202e-01 -1.50510073e-01 +1.44512177e-01 -1.22451954e-01 -1.65269151e-02 +4.62434292e-02 -6.63317367e-02 -1.18410952e-01 +1.69852823e-01 -9.75626037e-02 +6.26950711e-02 -1.00082852e-01 -3.89713496e-02 +5.15331700e-02 -6.87165409e-02 +4.88758832e-02 +6.09441362e-02 +4.73546237e-02 -1.51537314e-01 -1.60930902e-01 -1.00059532e-01 -6.82861060e-02 +9.84604564e-03 +6.51950017e-02 -7.32613951e-02 +6.85757678e-03 +4.30277474e-02 -1.15243763e-01 +4.81226817e-02 -1.04455061e-01 -1.12184092e-01 -1.13235660e-01 +1.06124073e-01 +1.21387571e-01 +3.97215337e-02 -1.56872422e-01 -1.38876751e-01 +1.57704577e-01 -1.72944501e-01 -1.24602087e-01 -8.13881010e-02 +1.55437499e-01 +2.44979300e-02 -1.58976927e-01 +1.15782969e-01 -2.78017223e-02 -3.89366709e-02 -1.10810339e-01 +1.17414325e-01 +8.86970386e-02 -8.97092298e-02 -1.93071336e-01 -1.37494251e-01 +2.02272329e-02 -1.30984783e-01 +1.33945672e-02 +4.38552871e-02 -1.60292089e-01 -3.67440842e-02 -7.61012807e-02 -8.56190338e-04 -1.21724140e-03 -5.95177747e-02 -5.44844493e-02 +5.43761142e-02 -1.05324835e-01 +6.03172816e-02 -7.29475394e-02 -6.87635839e-02 -1.06896892e-01 +1.13411814e-01 +2.97659710e-02 +6.38045594e-02 -1.29554585e-01 -3.76428813e-02 -1.30359188e-01 +9.62780714e-02 -1.54793233e-01 +1.13559306e-01 +5.17433845e-02 -2.00349446e-02 -7.93403983e-02 +1.00463130e-01 +3.73903327e-02 +1.05890043e-01 -2.94024521e-03 -4.68893796e-02 +3.42210680e-02 -3.67974006e-02 +8.21209028e-02 -9.70179588e-03 -7.20705986e-02 -4.70034629e-02 -1.19301409e-01 -6.63105175e-02 -1.52868256e-01 +1.50775582e-01 +1.09730564e-01 -1.42739683e-01 +1.90836098e-03 -6.40642792e-02 -7.70945624e-02 +9.18219462e-02 -9.59046260e-02 +2.27457657e-02 +2.41487082e-02 +2.15614848e-02 -1.59688309e-01 -1.59952238e-01 -1.01819076e-01 +7.13677481e-02 +1.51652023e-01 +2.08565444e-02 +3.25732864e-02 +2.38644686e-02 -6.20143823e-02 -1.34222656e-01 -1.19719051e-01 +4.85195294e-02 +4.62378561e-03 -3.65983918e-02 +4.75142896e-02 -6.83296025e-02 -1.06283806e-01 +1.59399748e-01 +7.09874928e-02 -2.02137362e-02 -1.34680420e-03 -8.30352604e-02 +1.74744241e-02 -4.32011634e-02 -2.28190003e-03 +7.28877708e-02 -6.70118704e-02 -4.35423143e-02 +2.05826014e-02 -9.19473991e-02 +6.88979179e-02 -1.76028833e-01 +8.51413086e-02 +8.51989165e-03 +3.00596785e-02 +1.21626750e-01 +1.26806833e-02 +2.68645957e-02 -1.29996181e-01 -1.22558482e-01 +4.72664349e-02 +9.23125297e-02 -1.12126820e-01 +8.63068476e-02 +1.20502189e-01 -5.89762479e-02 -1.31018192e-01 -3.77042107e-02 -1.78852662e-01 -1.07945226e-01 -4.45808433e-02 -1.81764159e-02 -5.79370782e-02 -6.31670328e-03 -3.81282233e-02 -5.16158752e-02 +1.26756579e-02 -9.68410671e-02 +7.34065548e-02 +2.44671955e-05 -8.79313499e-02 +6.73200041e-02 +3.35212536e-02 -1.05336554e-01 +5.60921021e-02 +1.59376904e-01 +9.99132022e-02 +1.93086024e-02 +1.15114585e-01 +6.27571419e-02 -2.38448679e-02 +1.98721979e-02 -1.25187680e-01 +8.05628374e-02 +1.56303346e-01 +6.33678660e-02 -9.16030109e-02 +2.22959686e-02 +3.29577848e-02 -1.05595507e-01 +9.27197281e-03 -2.54519042e-02 +1.20106936e-01 +9.66347456e-02 -1.23094983e-01 -1.38822243e-01 -2.40096394e-02 -8.52385312e-02 -1.36760091e-02 +1.34133575e-02 -7.47857392e-02 +1.35728806e-01 +1.29902318e-01 +7.23345205e-02 +1.22516751e-01 -7.46474117e-02 -1.03709660e-01 -2.62745582e-02 -5.52425981e-02 +8.04513097e-02 +4.13065702e-02 -1.06769122e-01 -6.03890233e-02 -2.80293524e-02 +1.55013809e-02 -5.45963272e-02 +1.23119079e-01 -4.77216728e-02 -8.18457529e-02 -2.24700570e-02 -8.82020593e-03 +9.24993604e-02 -2.33049560e-02 -8.03223625e-02 -9.47727263e-02 +2.81666033e-02 +5.42179905e-02 -1.03437724e-02 -1.33783102e-01 +4.16777246e-02 -2.72657033e-02 +1.59380481e-01 -4.32590730e-02 +6.64428398e-02 -1.70872323e-02 -1.03081549e-02 +4.78627048e-02 -1.58307806e-01 -4.95127402e-04 +1.75918132e-01 -7.02489167e-02 -2.15677526e-02 +1.02964649e-02 +3.46047170e-02 -8.14320073e-02 +1.27439592e-02 -1.27474694e-02 -1.46955371e-01 -6.88933907e-03 -9.32184979e-02 +6.97767511e-02 -9.46236551e-02 -1.20723382e-01 +1.08906198e-02 -8.73347521e-02 -1.00081556e-01 +1.44324213e-01 -7.60576949e-02 +6.32932931e-02 +4.89796996e-02 +1.08518280e-01 +5.90790808e-02 -1.19739808e-01 -4.06363793e-02 +5.45796677e-02 -8.96988660e-02 +4.28490005e-02 -7.79931694e-02 +2.92673111e-02 -6.07837513e-02 -1.35716513e-01 -6.13010935e-02 +1.38420716e-01 -1.49794132e-01 -3.69784571e-02 -9.77440849e-02 -9.17714238e-02 +5.62879257e-02 -1.45958170e-01 +1.46146148e-01 +1.44778803e-01 -4.02546413e-02 +1.81434583e-02 +6.34187236e-02 +1.06503017e-01 -1.80391327e-01 +9.55707580e-02 +8.52042716e-03 -1.48451850e-01 +7.86120594e-02 +1.02320813e-01 +7.92248473e-02 +4.37287688e-02 +4.64055873e-02 -7.98841193e-02 +1.54041834e-02 -5.50297610e-02 +1.54489309e-01 -1.47094429e-01 +1.19045883e-01 -5.56354485e-02 +2.10209060e-02 -8.49401057e-02 -5.43480106e-02 -1.70426950e-01 -7.84216300e-02 -1.00810379e-01 +1.17328100e-01 -9.18788686e-02 -1.26822799e-01 +2.57919938e-03 +9.18365568e-02 +2.28588399e-03 -6.97821677e-02 +8.55033398e-02 -4.71670218e-02 +7.22529069e-02 +8.45199376e-02 +1.09102681e-01 -3.33433226e-02 +7.41635710e-02 +2.01631784e-02 +6.73422357e-03 +6.62588179e-02 +5.59284985e-02 +7.30580613e-02 +1.86774489e-02 -4.65284027e-02 +1.19964331e-01 -7.06029236e-02 -5.51962256e-02 -5.77971675e-02 +3.82312946e-02 +1.12211026e-01 +2.08620690e-02 -4.17086668e-02 +7.35801607e-02 +5.95561676e-02 +8.10959190e-02 +1.88633993e-01 -1.17528915e-01 +4.14298177e-02 +1.34366348e-01 +5.62337488e-02 -4.35763635e-02 -6.84719905e-02 +9.41671878e-02 -7.81123415e-02 +1.17298916e-01 +1.11949980e-01 -1.08293757e-01 -7.19281062e-02 +4.64914478e-02 +7.85975531e-02 -5.02983853e-02 +7.75380656e-02 +1.31620303e-01 -3.31173129e-02 -7.04629645e-02 -1.24324016e-01 -5.41026592e-02 +1.48092108e-02 -4.95259427e-02 +7.83377811e-02 +5.42517640e-02 -1.00689255e-01 -6.47725463e-02 -2.83393525e-02 +1.00707434e-01 -5.90366796e-02 +8.42717886e-02 -3.59373167e-02 +8.65030959e-02 +3.48850945e-03 -8.73354524e-02 +3.39024477e-02 +3.78159098e-02 -4.98084538e-02 -7.51979500e-02 -1.17737480e-01 +5.39934263e-02 +3.01888399e-02 -5.68378940e-02 +7.52576962e-02 +8.34494643e-03 -1.13222666e-01 +1.37065902e-01 -5.57780713e-02 -5.99979982e-02 +8.26090798e-02 +3.23547125e-02 -2.77340738e-03 -5.31199612e-02 +8.90297666e-02 +1.70502421e-02 +4.09555845e-02 +1.52285146e-02 +4.70298491e-02 +1.11599892e-01 +1.04673728e-01 +9.56821516e-02 +6.82805181e-02 +5.98115176e-02 -9.31450054e-02 +1.46404654e-01 +3.70947942e-02 -1.19960934e-01 -8.23543817e-02 +1.54629886e-01 -9.59483534e-02 +2.70084068e-02 +1.57539219e-01 -1.30498126e-01 -7.64529854e-02 -1.04639374e-01 +8.66542906e-02 +3.85259651e-02 +5.48970373e-03 -5.55484593e-02 +3.97606716e-02 -5.30665666e-02 -3.81873325e-02 -3.98259610e-02 +4.07575332e-02 -1.98414978e-02 -1.23960629e-01 -8.31499919e-02 -1.16227455e-02 -1.83007121e-02 +5.39083406e-02 +1.39655033e-02 +1.51873007e-02 +1.15579076e-01 +3.13046128e-02 -3.87302749e-02 -5.91353439e-02 +9.54429677e-04 -2.07093861e-02 -1.29342988e-01 -3.70671265e-02 +1.09116316e-01 -3.72290015e-02 -6.62249029e-02 +2.56278384e-02 -6.22625574e-02 -2.74185520e-02 +1.07711688e-01 +5.04330695e-02 +3.12865041e-02 -9.22074318e-02 +6.73993081e-02 +3.75859551e-02 +1.02818824e-01 +7.11336806e-02 -5.48081025e-02 +1.97397675e-02 +6.51974082e-02 +7.03172013e-03 -8.95358771e-02 -1.58433691e-02 +1.53506279e-01 -3.80621031e-02 -7.36790076e-02 -3.31736505e-02 +6.62551373e-02 +2.20564827e-02 +1.52145745e-02 -8.55777860e-02 +5.95800858e-03 -1.03736848e-01 -7.35744312e-02 -8.48552361e-02 -2.19600480e-02 -1.32308109e-02 -9.84600652e-03 +1.05506025e-01 -9.27778408e-02 +1.08472362e-01 -6.48962287e-03 +1.46109685e-01 -6.05885079e-03 +4.99930058e-04 +2.14450993e-02 +7.63280913e-02 +8.91787931e-02 +9.13268030e-02 -1.14822894e-01 -3.56782712e-02 +1.23298816e-01 -9.14420858e-02 +4.56399396e-02 -2.25222316e-02 -1.26109898e-01 -1.97041351e-02 +8.67563412e-02 +9.38579962e-02 +9.43916291e-02 +7.70164356e-02 -9.94219929e-02 -1.07255764e-01 +1.36532098e-01 +8.00279602e-02 +2.19482873e-02 -1.54377948e-02 +1.96108911e-02 +1.04059540e-01 +1.15564063e-01 +7.55085051e-02 +6.50220811e-02 +1.19547874e-01 -1.22408390e-01 -4.65251692e-02 +5.40751182e-02 -2.48238328e-03 -9.40602869e-02 -6.58344328e-02 +2.52755452e-02 +2.35952623e-02 +1.00315161e-01 -1.56101119e-03 +9.53503698e-03 -3.16462144e-02 -2.41480954e-02 +1.31244247e-03 +1.22657135e-01 +7.72185847e-02 +7.93069899e-02 +6.82878271e-02 +1.26400754e-01 +7.77401999e-02 -7.33253509e-02 -7.53531158e-02 +5.21828122e-02 +1.24409394e-02 +1.48553357e-01 +1.43424660e-01 +4.30092588e-02 +5.93233146e-02 -1.14855357e-01 -1.41062319e-01 -1.21398107e-03 +5.07328399e-02 -8.72575771e-03 +2.37224288e-02 +6.30765110e-02 +6.40308410e-02 +3.31030115e-02 +4.03321721e-02 -3.79178040e-02 -6.20287023e-02 +8.67209211e-02 +4.46255505e-02 -1.10571235e-01 +1.05942145e-01 -1.41277537e-01 +5.38426489e-02 -3.01632863e-02 +5.33400178e-02 -1.65374260e-02 +3.48632559e-02 -5.76233640e-02 -6.58825412e-02 +1.00236349e-01 -4.59311996e-03 -1.22644432e-01 -2.41348799e-02 -1.01965651e-01 -5.03662648e-03 +7.69507289e-02 -2.57479399e-02 +5.37343584e-02 -1.13105187e-02 -4.57891598e-02 -9.58126411e-02 +1.41571864e-01 +1.05263613e-01 +4.99999076e-02 -2.04390790e-02 -3.00385784e-02 -8.59678686e-02 -1.47451544e-02 -6.29359409e-02 -6.62534637e-03 +2.13830415e-02 -1.24210410e-01 +1.54145239e-02 +3.56888622e-02 +9.36129987e-02 +8.32265690e-02 -5.26403412e-02 +1.10755950e-01 +4.71944623e-02 +1.10212266e-01 +7.33321607e-02 -5.48334327e-03 -2.89449431e-02 +1.11663431e-01 -1.57744765e-01 +1.47951454e-01 -6.63708244e-03 -4.43431921e-02 +1.05835378e-01 +3.62903960e-02 -5.18593937e-02 +1.51005477e-01 -5.12456484e-02 -8.38252623e-03 -1.23745233e-01 +5.63781708e-03 -4.74906452e-02 -1.99414883e-03 -9.58907157e-02 +7.76038039e-03 -9.36071426e-02 +4.91513275e-02 +3.41421030e-02 -1.61795840e-01 +2.17446536e-02 +8.32543895e-02 +3.59769315e-02 -3.89811434e-02 -7.63837397e-02 -2.66526313e-03 +8.13529938e-02 -1.32989541e-01 +6.25077039e-02 -3.02835717e-03 +3.95350493e-02 -5.86094223e-02 -1.09541342e-01 -2.43785791e-02 +1.13211729e-01 -1.02210209e-01 -6.86481670e-02 -5.39744124e-02 -7.62133449e-02 +1.06061958e-02 -1.28915548e-01 -1.25837303e-03 +6.62462115e-02 -2.88665444e-02 -3.46052013e-02 -1.24745637e-01 -9.82670933e-02 +5.52913547e-02 +8.82724673e-02 +2.65856851e-02 -5.40236570e-02 +4.42946516e-02 +8.91736075e-02 -7.26664886e-02 +3.36022377e-02 +1.44729719e-01 +3.94314416e-02 +8.40981305e-02 +1.91255810e-03 +4.78556231e-02 +1.60906110e-02 -2.86160838e-02 +7.88002610e-02 -7.83384964e-02 +3.61524336e-02 -5.95300570e-02 -1.47103101e-01 +4.77259755e-02 -4.18030992e-02 +5.75741529e-02 -1.18530134e-03 +1.21927939e-01 -5.43006361e-02 -3.12500037e-02 +5.04431427e-02 +3.85425575e-02 -1.13217607e-01 -1.09345913e-01 +8.96320567e-02 -1.03225119e-01 -7.89331794e-02 +1.38047129e-01 -6.20289966e-02 -4.31740955e-02 -8.68342668e-02 -8.00228789e-02 +6.12173323e-03 -4.16468196e-02 -8.63990635e-02 +1.12523176e-01 +8.14421028e-02 -9.93905813e-02 +9.36154649e-02 +4.33044657e-02 -8.94060940e-05 +8.90851840e-02 -1.18393108e-01 -1.25085443e-01 +5.75789958e-02 +5.16607501e-02 -9.87201184e-02 +1.93229094e-02 +4.28852718e-03 -2.44602393e-02 +2.03693891e-03 -8.60604048e-02 +2.72222143e-02 +6.90430030e-02 +1.15445433e-02 -1.52015343e-01 -9.96230468e-02 +1.28856879e-02 +5.53386882e-02 -9.05776620e-02 +8.11492205e-02 +3.98329087e-02 -4.14104275e-02 -4.48147729e-02 +1.67370646e-03 -4.42037210e-02 -9.28397253e-02 -1.00753065e-02 +5.26382253e-02 -4.14434746e-02 -1.10482804e-01 +1.61090285e-01 -1.25859126e-01 -5.22253960e-02 -1.49893150e-01 -4.13727351e-02 -1.03483938e-01 -3.65964174e-02 -5.71066737e-02 +1.44422129e-01 +7.54769566e-03 +9.93908104e-03 +4.30316627e-02 -8.89106421e-04 -8.69142935e-02 +1.47808937e-03 -3.04753543e-03 -6.75732195e-02 -1.69515088e-02 -1.03295498e-01 +6.01403741e-03 -2.50767581e-02 +2.75167148e-03 -3.51890922e-02 -1.89200282e-01 +1.41028464e-02 -7.02610537e-02 -1.06335491e-01 +6.52276957e-03 +2.10160688e-02 -6.28496781e-02 +8.40130150e-02 -1.04401290e-01 +9.75838751e-02 +6.89815804e-02 -4.42454778e-02 +7.20732957e-02 +5.89150842e-03 +5.51811270e-02 +8.07030275e-02 -4.31126915e-02 -1.63832698e-02 -1.20559514e-01 -4.40411195e-02 +6.16140775e-02 -1.96672250e-02 +7.33731017e-02 +9.59647074e-02 +5.58671542e-03 -1.45190075e-01 +9.08778608e-02 +8.63037035e-02 +1.90895069e-02 -1.21616550e-01 +1.41711280e-01 +8.73127282e-02 +9.26509127e-02 +5.86948311e-03 -6.10521808e-02 -9.70624536e-02 +6.85252398e-02 -1.03949727e-02 -6.89352453e-02 -8.15952942e-02 +4.61729541e-02 -3.08445785e-02 -9.92743820e-02 -2.38611981e-01 -5.14839068e-02 -2.43053697e-02 +1.25040501e-01 -9.06391293e-02 -1.62001595e-01 -8.33240151e-02 +1.25165522e-01 -9.06512588e-02 -5.41330688e-02 -3.01401000e-02 +9.85588655e-02 -4.97004054e-02 -1.48142993e-01 +4.81121019e-02 +1.23369455e-01 +7.59388953e-02 -1.38596192e-01 -3.02618351e-02 -1.07926264e-01 -8.32151845e-02 +8.53396207e-02 +1.18623059e-02 -8.62164795e-02 -7.21684620e-02 +1.51411787e-01 -5.60634844e-02 -1.81595311e-02 +5.88432625e-02 +4.46153581e-02 +9.48357210e-03 -6.28806353e-02 -2.34939642e-02 +1.71756729e-01 +1.30195305e-01 -6.44675046e-02 -1.03746809e-01 -8.31298456e-02 -5.82237802e-02 -1.30049959e-01 +5.18006496e-02 -3.23394546e-03 -4.78305407e-02 -8.79032910e-02 -3.90242413e-02 +5.27422428e-02 -1.05270654e-01 +1.17387734e-01 -2.05080733e-02 +1.01451278e-01 +4.48230803e-02 +1.29361853e-01 +2.62316074e-02 -1.54303432e-01 -1.92652166e-01 -5.96895032e-02 -1.15928449e-01 -2.50793472e-02 +1.10817440e-01 -8.66092555e-03 -1.73620611e-01 +6.18226780e-03 -1.31042197e-01 +8.36381540e-02 -1.13854095e-01 +1.43534049e-01 -8.54671597e-02 +1.10254928e-01 -1.28031343e-01 +7.65217692e-02 -1.59965590e-01 -9.77648273e-02 +1.37149081e-01 -1.76128764e-02 +1.45227760e-01 -1.32220211e-02 -1.11464605e-01 -9.17470083e-02 +5.03305122e-02 +8.11990798e-02 -1.27509326e-01 +2.71058511e-02 +8.19868967e-03 +8.55649337e-02 +4.99910265e-02 -1.49067819e-01 -1.10496067e-01 +3.50780226e-02 +1.01712150e-02 +1.23668596e-01 +7.32677206e-02 -1.36977628e-01 -2.84650028e-02 -1.52912140e-02 +6.01607189e-02 +9.68286321e-02 +7.94835836e-02 +1.39903203e-02 +1.12960577e-01 -5.36272079e-02 +1.29269026e-02 +1.18444234e-01 -1.23725958e-01 +2.02675778e-02 +1.15396731e-01 +1.37940422e-01 +1.36039510e-01 -3.59191149e-02 -3.43725570e-02 -1.83735341e-02 +1.57446768e-02 -3.40643246e-03 +1.70796484e-01 -5.65732308e-02 -2.05869619e-02 +6.52852729e-02 +5.66177256e-02 +1.36483490e-01 -1.03305750e-01 +1.02871142e-01 -5.84530681e-02 +8.82899314e-02 -3.95493284e-02 -4.80395034e-02 +1.14007585e-01 +1.16217442e-01 -4.99662273e-02 -7.15638474e-02 +1.45738050e-01 +9.48995948e-02 +1.41886756e-01 -3.36484350e-02 +2.29965150e-02 -9.78806056e-03 +4.43557464e-02 -4.26069424e-02 -8.28505233e-02 -1.48802716e-02 +6.71505034e-02 +6.15892597e-02 -3.84882763e-02 -3.14559042e-02 -7.31542632e-02 +8.81428793e-02 +1.48014262e-01 +1.75798520e-01 -3.41915004e-02 -8.95099863e-02 +9.62755978e-02 -8.35957974e-02 +1.12277865e-01 -3.94120105e-02 +5.43007720e-03 +3.26045305e-02 +9.18568522e-02 +8.47353712e-02 +9.88934860e-02 +5.54798022e-02 +1.08232617e-01 +1.01364523e-01 -1.04003184e-01 +5.38111776e-02 -7.87119716e-02 -2.43287608e-02 -5.77909946e-02 +1.62207708e-01 -1.67954396e-02 +1.08620062e-01 -5.22249714e-02 -1.41656203e-02 +7.34160915e-02 -1.55118126e-02 +2.68457364e-03 -1.87661704e-02 +3.75042334e-02 +7.77973756e-02 +8.08096007e-02 +1.33107260e-01 -6.03279285e-02 +3.77865545e-02 -4.42298055e-02 -3.95554043e-02 -1.55358970e-01 +1.03088878e-01 +1.07851155e-01 +1.09587973e-02 +7.75562078e-02 -1.04083113e-01 -5.68798743e-02 -1.26139581e-01 +8.76672789e-02 +1.17893979e-01 +6.92178532e-02 -2.09959168e-02 +1.03486339e-02 -7.85564110e-02 +1.69248566e-01 +1.28453702e-01 -2.53368896e-02 +1.06561318e-01 +1.48608819e-01 -3.22419070e-02 +1.29653201e-01 -1.98928326e-01 +1.65573135e-02 +2.04004571e-02 +9.91646647e-02 -5.96320145e-02 +6.55983686e-02 -3.19106132e-02 -1.40656531e-01 -1.79599598e-01 -1.17160916e-01 -9.91175789e-03 +9.69377235e-02 +1.35838874e-02 -6.60548955e-02 -1.84458524e-01 +3.25923339e-02 +5.07593937e-02 +1.04433835e-01 +5.08975424e-02 +1.96101330e-02 -8.18814337e-02 -7.72204474e-02 -6.48822412e-02 +6.01114780e-02 -1.81563661e-01 +2.51640491e-02 -7.92527497e-02 +1.35502160e-01 -2.29299646e-02 -6.86022192e-02 -1.98405668e-01 -5.99596687e-02 -1.31707504e-01 -5.69588020e-02 -2.80961376e-02 -8.52644816e-02 +1.74939662e-01 -8.25496316e-02 -8.80551711e-02 -7.52381608e-02 -4.04804423e-02 -8.90634656e-02 -6.87991232e-02 +8.33763629e-02 +5.57880988e-03 -5.26417792e-02 +6.70379996e-02 +6.87466487e-02 -1.44585997e-01 -4.39736880e-02 +1.04604580e-01 -6.97254809e-03 -6.24565259e-02 +8.88207853e-02 +6.48233518e-02 -9.57196802e-02 -3.89922177e-03 +9.35483351e-02 +1.14312604e-01 +1.01923354e-01 +1.24557972e-01 -1.13641590e-01 -7.60588655e-03 -1.14321500e-01 -1.48803657e-02 +1.04716934e-01 -7.01494887e-02 +3.07122320e-02 +1.44784942e-01 +1.35593995e-01 +1.27758324e-01 +4.75254506e-02 -6.78247586e-02 +5.33748791e-02 -7.93928057e-02 -1.49012953e-01 -1.02156714e-01 -3.77150737e-02 +1.66656692e-02 -1.49000913e-01 +2.42155194e-02 +3.64326835e-02 -1.81027353e-02 -7.57347494e-02 -3.02694011e-02 -8.13745186e-02 -4.75502647e-02 +2.42198445e-02 +6.37496784e-02 +4.56571281e-02 +4.92607206e-02 -5.57819270e-02 +7.86252394e-02 -1.05169296e-01 -1.21213742e-01 -7.43432194e-02 +6.83542434e-03 +7.06098005e-02 +9.93050709e-02 -9.02230386e-03 -6.06486723e-02 +8.47107172e-02 -1.49571511e-04 -9.84896719e-02 -7.97344893e-02 +9.69807655e-02 +2.58368114e-03 +1.11101173e-01 +7.40739778e-02 -4.45324145e-02 +3.18764872e-03 +7.80379102e-02 -9.58639011e-02 -7.26483464e-02 -6.15636148e-02 +1.51884302e-01 +1.08289294e-01 +2.48493464e-03 -1.30576268e-01 +1.00165531e-02 +1.09329015e-01 +9.37169790e-02 +9.20940042e-02 -1.25578523e-01 +5.38217686e-02 -1.91984959e-02 +2.59165373e-02 +7.76882917e-02 +1.06257476e-01 -6.44971505e-02 -5.11486605e-02 +6.26674071e-02 +7.77142420e-02 +2.46040039e-02 -3.12360916e-02 -2.60578021e-02 +3.87520455e-02 +4.27987091e-02 +7.10059144e-03 -4.91736531e-02 +1.51645228e-01 +1.56832207e-02 -1.40581533e-01 -8.71728957e-02 +7.18057081e-02 +8.91204551e-03 +8.65363926e-02 +8.10349509e-02 -2.74576768e-02 +1.58796683e-01 -6.94917589e-02 -1.42781422e-01 +1.49209946e-01 -1.69821922e-02 -1.21170329e-02 +7.78754875e-02 +1.53978929e-01 +1.12988785e-01 +9.98378396e-02 -1.32413268e-01 +8.11505504e-03 +8.94533172e-02 +7.86465183e-02 -2.44981069e-02 +5.89843355e-02 +6.63114637e-02 +5.68960160e-02 -6.28890935e-03 +2.90244352e-02 -8.13079923e-02 -1.01919509e-01 +1.57453269e-01 -4.43252660e-02 +3.76046635e-02 -1.44724995e-01 -3.62398513e-02 +1.34353533e-01 +1.59375802e-01 -5.08089513e-02 +1.20042518e-01 +1.78366099e-02 +1.69240817e-01 -5.20260036e-02 -2.49415021e-02 -2.84170136e-02 +1.01393722e-02 -2.17329506e-02 +1.01205267e-01 +2.48863194e-02 -7.95264766e-02 -5.50289489e-02 -4.69427295e-02 +6.27505733e-03 +8.06268528e-02 +5.17067313e-02 -1.03980466e-03 -1.00093801e-02 -8.79613217e-03 +3.62913683e-02 +8.45649019e-02 -4.79399078e-02 -1.07499868e-01 -9.09943432e-02 +1.20034941e-01 -1.06124595e-01 -3.56444754e-02 +4.29124534e-02 -1.04623996e-01 -4.11051996e-02 +2.51119342e-02 -1.03250511e-01 -3.70431095e-02 -9.83340666e-03 +1.79042995e-01 -7.93347582e-02 -8.06696117e-02 -4.23033983e-02 -1.14389151e-01 +1.19192570e-01 +6.34521469e-02 -1.53937452e-02 +7.19989240e-02 -9.26573500e-02 +7.79677033e-02 +1.51017681e-01 -3.96312624e-02 -9.15543288e-02 -1.28543764e-01 +1.13464892e-01 -3.73785160e-02 -2.68549211e-02 -6.91414103e-02 +1.85541168e-01 +9.28092226e-02 -1.36069998e-01 -4.77502346e-02 +1.50437560e-02 +4.90430295e-02 -2.23427508e-02 -1.28572106e-01 +1.39334783e-01 +5.97291067e-02 -3.16036120e-02 +1.26098558e-01 +1.35517344e-01 +1.22885764e-01 -5.16352206e-02 +1.12506539e-01 -1.18315682e-01 -5.51659018e-02 +1.32342339e-01 +1.28311202e-01 +6.02989532e-02 -1.33776456e-01 -1.30438907e-02 -3.77210267e-02 -3.94726135e-02 -2.04322282e-02 -6.77161440e-02 -2.67874915e-02 -1.17512554e-01 +1.47610426e-01 +6.87622130e-02 -6.87109903e-02 -1.00164503e-01 -2.15400327e-02 -1.55117989e-01 +4.35183942e-02 +1.48619249e-01 +8.78412575e-02 -5.16234450e-02 +4.94213812e-02 +9.01793614e-02 +5.55271842e-02 -1.57885730e-01 +1.15604244e-01 -7.71028101e-02 +1.26659483e-01 +3.11836717e-03 -4.23965640e-02 +1.45585224e-01 +1.22386828e-01 -1.23705350e-01 +3.31927314e-02 -1.12906436e-03 -2.04486120e-02 +1.46987205e-02 +1.01069454e-02 +1.70415908e-01 +8.58367383e-02 -1.11394718e-01 -1.23013072e-01 +6.71861321e-02 +1.40428215e-01 +1.52557343e-01 +1.67710893e-02 -9.98983439e-03 -5.26578240e-02 +3.66159827e-02 -6.14711978e-02 -1.51608363e-01 +2.05909107e-02 +1.76600173e-01 +6.78651109e-02 -2.55183633e-02 +1.01704448e-01 -8.68981108e-02 -6.28859401e-02 +3.04718185e-02 +1.45643055e-01 -1.67153962e-02 -1.58453986e-01 +3.43803279e-02 -1.05392545e-01 -1.91944137e-01 +1.01560049e-01 -4.17246148e-02 -2.05141474e-02 +1.10229338e-02 -1.05946511e-01 -6.02363460e-02 -4.02938873e-02 +8.47656652e-02 -3.82278487e-02 -9.41988528e-02 -2.53867568e-03 +1.08417846e-01 +5.05889282e-02 +4.86027338e-02 -1.34313971e-01 -1.72041431e-01 -1.12175822e-01 +5.78894801e-02 -8.51567537e-02 -8.27218220e-02 -1.16128258e-01 +4.00307588e-02 -3.26950774e-02 -1.89131051e-01 +8.66853669e-02 +9.62027349e-03 -9.81396995e-03 -1.45900801e-01 +9.34465751e-02 +8.50736871e-02 +1.28043473e-01 +3.61954831e-02 -3.07858232e-02 -5.38463816e-02 +2.85020787e-02 -5.62443323e-02 -3.11452821e-02 -4.78242598e-02 -9.29676183e-03 +1.46204159e-02 -1.68211386e-01 -4.55480330e-02 -2.18220660e-03 +1.42427105e-02 +1.60703793e-01 +5.95363975e-02 -9.69193727e-02 +6.81013539e-02 -1.04742646e-01 -3.68066132e-02 -1.13261521e-01 +2.82680988e-02 +2.71109398e-02 -7.55846426e-02 -5.80196790e-02 -5.62580340e-02 -1.48237392e-01 -6.09549768e-02 -1.03833228e-01 +9.92896184e-02 -1.03782497e-01 -1.21369779e-01 +8.31647143e-02 +1.07898608e-01 +8.92355815e-02 -2.26731732e-01 -1.16428584e-01 +5.34664243e-02 +7.90012479e-02 -1.59613252e-01 -2.68466119e-02 -2.82920748e-02 +6.73916191e-02 -5.04230782e-02 -2.55020317e-02 -1.43448049e-02 +9.34623852e-02 -6.19292725e-03 -9.46396738e-02 -1.20082654e-01 -2.76462696e-02 -3.21045555e-02 -1.25102893e-01 -1.00898206e-01 +1.28061518e-01 -1.38737289e-02 -1.45817906e-01 +2.42538285e-02 -1.79713741e-02 +6.58603013e-03 +2.16433452e-03 +9.22858901e-03 +8.06025639e-02 +6.32530171e-03 -1.50835127e-01 -1.30773634e-01 -3.90412025e-02 -1.54467434e-01 -7.11939624e-03 +1.88542649e-01 +2.00661600e-01 -1.46350503e-01 -1.12893179e-01 -9.85343233e-02 +1.22805117e-02 +4.88830693e-02 -8.85733366e-02 -8.32762942e-02 -6.96034506e-02 +1.46067627e-02 +2.37578042e-02 +8.03025365e-02 -9.11714807e-02 -1.06888637e-01 -1.51732787e-01 +9.41420794e-02 +3.22314352e-02 +3.88070242e-03 -4.42073047e-02 -1.42686041e-02 +5.26584126e-02 +1.58939082e-02 -1.98763371e-01 +4.55141589e-02 +1.06974699e-01 +1.88400075e-02 -1.72877103e-01 +3.14264335e-02 +9.34554413e-02 -1.32826686e-01 -3.50546725e-02 +1.62562072e-01 -1.03406861e-01 -1.82075310e-03 +1.03975867e-03 +5.65806925e-02 +1.42645985e-01 -7.24351481e-02 +3.46140401e-03 +1.76896125e-01 +1.25143021e-01 -9.37056914e-02 -9.05554742e-02 -1.32235527e-01 +1.10336710e-02 -7.39460737e-02 +3.16906255e-03 -1.61750957e-01 +1.02391519e-01 -2.76855677e-02 -6.98203361e-03 +2.53932574e-03 +2.26107147e-02 -9.68608335e-02 -2.28785485e-01 +4.39323895e-02 -7.74892466e-03 -9.74492729e-02 -3.48149203e-02 +1.24674752e-01 -1.09685287e-01 -1.02814153e-01 -1.32599659e-02 +7.41279200e-02 +3.54383998e-02 -7.97573552e-02 +2.59788637e-03 +1.41000897e-01 +1.47920996e-01 +1.07175604e-01 -2.27028802e-02 +1.87087432e-01 +7.53825307e-02 +1.05723336e-01 -1.99459605e-02 -7.89590552e-02 -7.83004016e-02 +1.53457075e-01 -2.29584984e-02 -1.10118473e-02 +5.23602813e-02 +9.58379805e-02 -9.22500789e-02 -3.02882046e-02 -3.70344333e-02 +1.31618515e-01 -2.85074338e-02 +8.66414234e-02 +7.85587505e-02 +5.95953257e-04 -1.14635400e-01 +1.34899328e-02 +1.15066990e-01 +1.25178590e-01 -7.53664598e-02 -6.32029250e-02 -1.40192941e-01 +1.11675680e-01 +3.45183387e-02 +2.95859817e-02 -1.07348479e-01 -2.38657985e-02 -8.20990577e-02 -4.94889915e-02 +4.99104559e-02 -1.73466839e-02 +6.80454895e-02 +6.84361681e-02 -7.83366244e-03 -6.88620657e-02 -3.81016098e-02 -5.72687248e-03 -5.88626564e-02 +4.65965942e-02 -1.30250946e-01 +1.44421339e-01 +2.29701120e-02 -7.39992335e-02 -2.93892995e-02 -6.92420639e-03 +1.64045263e-02 +2.39104703e-02 -8.60375166e-03 -4.35779523e-03 -2.31996644e-02 +9.00837630e-02 +7.40103796e-02 -6.42324314e-02 -9.52944979e-02 +5.26036252e-04 +7.66084790e-02 +7.34653398e-02 +1.14954650e-01 +6.61264136e-02 -2.09353846e-02 -1.23739406e-01 -7.51470327e-02 -1.32953608e-02 -2.63305157e-02 +1.90777063e-01 +8.08869228e-02 
#Parameter# /simple-rnn-builder/_1 {8,8} 1025 ZERO_GRAD
+3.87273639e-01 -6.03259563e-01 -4.55007702e-01 -3.64899486e-02 +3.43008995e-01 +5.34320712e-01 +2.27051154e-01 -4.34735626e-01 +1.52263761e-01 -6.23262823e-02 -3.97154763e-02 +5.76112986e-01 -5.18371880e-01 +3.40107739e-01 +3.05995196e-01 +3.17769438e-01 -4.62923884e-01 +5.13883173e-01 -4.46680665e-01 +1.35396123e-01 -5.76275527e-01 -2.18505606e-01 +5.38556755e-01 -4.44210857e-01 -1.49730459e-01 -5.37652910e-01 -2.76260823e-01 -4.08138543e-01 +5.85958719e-01 +1.08040355e-01 +3.18422198e-01 +1.77975476e-01 -3.46257627e-01 +2.27808014e-01 -5.56499064e-01 +1.20143615e-01 +4.80376780e-01 +5.57073116e-01 +5.19083619e-01 -6.41546538e-03 +5.94188690e-01 -4.98202406e-02 +6.11840665e-01 +5.92023492e-01 +5.12278795e-01 +3.03822041e-01 -6.36740550e-02 +6.44876063e-02 -2.53897667e-01 -5.26285693e-02 -5.00037074e-01 -3.28872144e-01 -9.28420201e-02 +3.76031429e-01 +5.58683693e-01 +3.62718254e-02 -3.68851960e-01 -2.44629737e-02 -1.89466149e-01 -5.97207606e-01 +8.77534449e-02 +2.06367701e-01 +1.37291282e-01 +3.42757642e-01 
#Parameter# /simple-rnn-builder/_2 {8} 129 ZERO_GRAD
+1.06395734e-03 +6.01342708e-06 -1.78813725e-03 -4.08819498e-04 -5.99810388e-04 -9.60849167e-04 +1.44680496e-03 +2.36185384e-04 
#Parameter# /simple-rnn-builder/_3 {8,8} 1025 ZERO_GRAD
+6.93638325e-01 +5.32289565e-01 -1.24596916e-01 +2.46295720e-01 -1.34066179e-01 +4.06565517e-01 -4.77751404e-01 +6.50813103e-01 +4.22210097e-01 +1.12461857e-01 -2.64629811e-01 +5.44803917e-01 -4.20414001e-01 +3.76207918e-01 -1.21747518e+00 -6.11649930e-01 +1.40827894e-01 -4.11530465e-01 -3.08742344e-01 -1.03799522e+00 -3.71994704e-01 -3.20481837e-01 -4.42265451e-01 +4.03770059e-01 -3.50654632e-01 +2.67339200e-01 -1.63836524e-01 -1.10636979e-01 -1.71625629e-01 +4.01947558e-01 +1.97405979e-01 +1.90077368e-02 -8.19910765e-02 +4.87431377e-01 -3.91950309e-02 +1.17327496e-01 +4.36608762e-01 -1.15796462e-01 +5.64968109e-01 -3.91168594e-01 -4.85414982e-01 -1.10070750e-01 +3.31396610e-01 +4.13495570e-01 -2.99301445e-01 +5.13730764e-01 -5.93405664e-01 +5.11858225e-01 -2.89531112e-01 -2.48787314e-01 +4.91217703e-01 +4.60203081e-01 -6.63262665e-01 -6.36386797e-02 +1.65584281e-01 +5.54832518e-01 +4.42174911e-01 +3.96329053e-02 +2.37681121e-01 +1.48783043e-01 -1.70399249e-01 -1.82939842e-01 +3.31784904e-01 -2.72561014e-01 
#Parameter# /simple-rnn-builder/_4 {8,8} 1025 ZERO_GRAD
+9.36007872e-02 -2.96295099e-02 -1.95149347e-01 +5.89503229e-01 +1.32724373e-02 +8.19581598e-02 +5.78874528e-01 -3.64113808e-01 -6.04412377e-01 -3.17877412e-01 +2.97201484e-01 -1.59388274e-01 -1.70945451e-01 +5.71636379e-01 +2.89951146e-01 +3.64792906e-02 -2.14686468e-01 +3.00687611e-01 +3.10909718e-01 +5.93087494e-01 -5.48085511e-01 -2.39934057e-01 -3.55235010e-01 -3.04325342e-01 +3.02838206e-01 +5.93769968e-01 -1.00612916e-01 +5.33971012e-01 +1.11585915e-01 -4.22222793e-01 -5.43560088e-01 -5.56756377e-01 +8.71476904e-02 +2.29013324e-01 +1.91741616e-01 +2.72793114e-01 -5.41367054e-01 -4.80128288e-01 -1.41382262e-01 -3.59945416e-01 +2.67869234e-01 -3.92578900e-01 +4.42474842e-01 -3.98507684e-01 +2.63133179e-02 -3.49941403e-01 +3.48501116e-01 +4.49147373e-01 +5.35446525e-01 -2.84506321e-01 +3.53668958e-01 +1.81775227e-01 -2.08864793e-01 -2.56679356e-01 -1.64367378e-01 -3.75375092e-01 +4.98519510e-01 +4.13917869e-01 +5.49336255e-01 -2.60799319e-01 +5.26806533e-01 +5.78610897e-01 -2.96854734e-01 +1.62509233e-01 
#Parameter# /simple-rnn-builder/_5 {8} 129 ZERO_GRAD
-6.10217825e-02 +2.45980565e-02 -3.65020819e-02 +6.44124746e-02 -2.32383460e-02 -9.25505608e-02 +6.02286398e-01 +7.74906715e-03 
#Parameter# /simple-rnn-builder/_6 {8,8} 1025 ZERO_GRAD
-1.69545963e-01 +5.21408141e-01 -1.18026324e-01 +3.18332255e-01 +6.01625085e-01 +2.55013973e-01 -5.31163871e-01 +4.28968668e-02 +2.52923876e-01 -4.79009211e-01 -4.88041610e-01 +4.50764716e-01 +5.38762987e-01 -2.83149093e-01 +1.30796945e-02 +2.02610195e-02 +2.52767444e-01 +1.32271230e-01 +1.48812681e-01 +5.60396731e-01 -4.42749560e-01 +3.70923907e-01 +4.18881387e-01 +3.17086838e-02 +4.55420688e-02 -4.66404170e-01 -7.66292572e-01 +6.12089872e-01 +4.31779265e-01 -3.55285168e-01 +5.41049123e-01 +3.60992625e-02 -2.02679649e-01 -1.91051811e-01 -1.33169428e-01 -4.10795450e-01 -3.05688888e-01 -1.66669086e-01 -2.68656373e-01 -5.22514641e-01 +4.49882597e-02 -2.96041459e-01 +1.08654331e-02 +4.70757306e-01 -4.98330981e-01 +4.50863570e-01 -2.79148966e-01 +5.09563208e-01 +7.22322762e-01 +6.76929533e-01 +1.99124843e-01 +5.99725842e-01 -4.83397365e-01 -7.32409358e-01 +6.83602035e-01 -2.36972794e-01 +2.60286093e-01 -3.07191819e-01 -2.51679182e-01 -3.02021950e-01 +3.38353574e-01 -3.56281549e-01 -1.99316263e-01 +2.11849928e-01 
#Parameter# /simple-rnn-builder/_7 {8,8} 1025 ZERO_GRAD
+4.30115223e-01 +5.05844772e-01 -3.10743749e-01 +1.83026969e-01 +6.85704499e-02 -5.25436699e-01 -5.30806258e-02 +3.23261619e-01 -4.51858968e-01 +2.60527283e-01 +5.80396913e-02 +4.03841764e-01 -1.78739250e-01 +1.24019213e-01 -2.42180139e-01 +4.59286779e-01 +5.16715527e-01 -3.63016874e-01 +4.79250371e-01 -3.60699415e-01 +3.59849334e-01 +1.53681710e-01 +1.37848720e-01 -3.42210621e-01 +5.14040217e-02 -3.62002283e-01 -6.52965605e-02 +4.42476898e-01 -5.50569773e-01 -5.78029633e-01 -8.90955999e-02 -5.54232419e-01 -2.44946778e-01 +4.48647320e-01 +3.83816846e-02 -8.49933326e-02 +5.79556823e-01 -3.59220564e-01 +2.29070783e-01 +1.24161199e-01 -1.59308851e-01 -5.84793210e-01 -7.46660978e-02 +8.15068707e-02 -4.77272660e-01 +5.54978192e-01 -8.80386233e-02 +3.75829071e-01 +2.25495875e-01 +2.17307121e-01 +3.20959270e-01 -3.79442960e-01 -5.69219530e-01 -3.68855417e-01 -6.85932636e-02 -3.10974211e-01 -2.85661072e-01 -6.02158368e-01 +4.20532137e-01 -8.84254870e-04 -7.35583901e-02 -2.80162752e-01 -2.77496189e-01 -2.64764279e-01 
#Parameter# /simple-rnn-builder/_8 {8} 129 ZERO_GRAD
+1.28340989e-01 +7.31905038e-03 +4.25524414e-02 -8.72784387e-03 -4.58982177e-02 -2.04210281e-01 +9.67303067e-02 +2.42681708e-02 
#Parameter# /simple-rnn-builder/_9 {8,8} 1025 ZERO_GRAD
+3.38858664e-01 -1.38749003e-01 +1.16639649e-02 +1.44013643e-01 +2.18926147e-01 +3.69377255e-01 +5.37828743e-01 +2.68677562e-01 -4.66330647e-01 -4.48775262e-01 -2.45724946e-01 -4.67558265e-01 -1.33083299e-01 -1.68737397e-01 +2.15124264e-01 +6.88095996e-03 +5.99027388e-02 +2.64675796e-01 -3.58531207e-01 -3.86182934e-01 -5.58150887e-01 +3.07008237e-01 -3.48631069e-02 -3.29346895e-01 -6.30056322e-01 +2.79138386e-01 +1.51572943e-01 +4.12975438e-02 -1.26839980e-01 +1.13129400e-01 -4.14717346e-01 +2.05667615e-01 +2.19579518e-01 -6.19538605e-01 +2.73597658e-01 +1.02262221e-01 +4.71838862e-02 +7.44861141e-02 -5.50194561e-01 +9.59198102e-02 -2.75736600e-01 -4.66804326e-01 -5.99978790e-02 +4.69563194e-02 -5.94192883e-03 -6.35519326e-01 -4.04638648e-01 -4.02087122e-01 -5.52146137e-01 +4.11497742e-01 +4.70592469e-01 -2.15899691e-01 +3.21852006e-02 +5.21963716e-01 -1.94787495e-02 +1.85704708e-01 +1.18021883e-01 +6.21026196e-02 +1.27995312e-01 +5.85819304e-01 +5.98148584e-01 +6.61668880e-03 -3.84761930e-01 +3.89796108e-01 
#Parameter# /simple-rnn-builder/_10 {8,8} 1025 ZERO_GRAD
-4.50158358e-01 -1.47075281e-01 +2.49053866e-01 -4.93789405e-01 +3.04143667e-01 +2.58684307e-01 -4.93621826e-01 -5.52806199e-01 +1.22879453e-01 -4.00341034e-01 -8.98602754e-02 +2.37399697e-01 -3.11815143e-01 -2.77213097e-01 +5.12134969e-01 +7.82930199e-03 +1.95757151e-01 +1.51522728e-02 -5.54588377e-01 +4.16123211e-01 -1.60803571e-01 -4.05764520e-01 -2.06132054e-01 +1.61109954e-01 -5.32230973e-01 +2.59000331e-01 +1.96997792e-01 +4.34098780e-01 -4.55121189e-01 -4.90720198e-03 +3.19501072e-01 +5.56257144e-02 -5.10451615e-01 -3.08082014e-01 -1.69642255e-01 +4.71694827e-01 -2.94973135e-01 +2.36862488e-02 -4.18946624e-01 -2.70591885e-01 +1.72373489e-01 +5.21553636e-01 -2.27520615e-01 -1.04718722e-01 +4.50145751e-01 +5.00671268e-01 -4.66545761e-01 -6.56271428e-02 -4.35454041e-01 -1.13877542e-01 +8.70728642e-02 -2.07120478e-01 +2.25113273e-01 +3.94370735e-01 -4.74685609e-01 +4.01479006e-01 -3.35193515e-01 +5.00514686e-01 +5.87091029e-01 -2.19976455e-01 -4.85451430e-01 -2.51236945e-01 -3.77275079e-01 -3.31839591e-01 
#Parameter# /simple-rnn-builder/_11 {8} 129 ZERO_GRAD
-6.62852898e-02 +2.02125050e-02 -1.44157019e-02 -1.08447738e-01 -5.95721044e-02 +2.25651741e-01 +1.23598889e-01 +1.43527359e-01 
#Parameter# /simple-rnn-builder/_12 {8,8} 1025 ZERO_GRAD
+1.65934414e-01 +3.14763039e-01 +1.75477877e-01 -2.26260111e-01 +2.31326348e-03 -3.12474579e-01 -4.36294079e-01 -1.24475092e-01 -7.04729557e-01 -3.57771844e-01 +4.07383263e-01 +2.19052866e-01 +4.63433526e-02 -5.04414916e-01 -1.53538004e-01 -2.54295886e-01 +1.30045071e-01 +1.78248644e-01 +3.61865401e-01 +2.18345940e-01 -1.91662699e-01 +5.86088359e-01 +1.88067675e-01 +3.09174567e-01 -2.92636424e-01 +2.98006892e-01 -3.95149499e-01 +7.22587928e-02 -1.15530699e-01 +1.24049045e-01 -2.53016233e-01 +3.25950474e-01 -2.20050886e-01 +4.81043071e-01 +2.05652595e-01 -1.15346283e-01 -4.62393612e-01 +6.23104796e-02 +2.80869722e-01 +2.39837319e-01 -9.05557498e-02 -2.88514853e-01 +3.79423857e-01 +2.26911426e-01 -3.24123576e-02 -3.70183200e-01 +1.26133770e-01 +2.69916415e-01 -3.38588178e-01 -3.49422634e-01 -4.05659109e-01 +6.55427814e-01 +6.96499944e-02 -3.57480109e-01 +3.45676303e-01 +1.45116359e-01 -4.77986306e-01 -6.11297302e-02 -2.69014865e-01 +3.62875611e-02 +1.24343604e-01 +5.10881282e-02 +6.36316001e-01 +5.69575071e-01 
#Parameter# /simple-rnn-builder/_13 {8,8} 1025 ZERO_GRAD
+1.57854065e-01 +1.40098661e-01 -4.22097355e-01 +2.20321819e-01 +3.82898510e-01 -1.69141471e-01 -4.05629694e-01 -4.39702421e-01 +5.26157796e-01 +4.37103838e-01 -7.10429028e-02 +1.06724590e-01 +5.19205689e-01 +4.34606791e-01 +9.59943235e-02 +2.72580236e-01 +4.28587079e-01 -5.47012091e-01 +2.92576820e-01 -4.77046639e-01 -4.74508196e-01 -4.27722692e-01 -1.44888297e-01 +4.40892488e-01 +2.86472082e-01 +6.08992636e-01 +4.04174417e-01 -4.34163153e-01 -2.43708879e-01 -5.97176492e-01 +4.53923374e-01 -9.17389803e-03 -3.22560310e-01 +4.28453505e-01 +4.36694026e-02 +2.99130797e-01 -4.34073597e-01 +4.78968680e-01 -1.64657414e-01 +3.03338766e-01 -2.01414987e-01 +5.47080159e-01 -6.66382760e-02 +4.66289580e-01 -5.72687209e-01 +4.32130158e-01 +5.96250653e-01 -1.74423710e-01 -7.39673376e-02 +6.02535248e-01 +4.37104195e-01 +3.18828881e-01 +4.63394821e-01 -9.03684720e-02 -4.92766738e-01 +5.02691925e-01 +4.35992688e-01 +3.80303115e-01 +4.87921894e-01 +3.32851410e-01 -9.04415771e-02 -5.72731435e-01 +5.74831545e-01 +6.97826967e-02 
#Parameter# /simple-rnn-builder/_14 {8} 129 ZERO_GRAD
+8.77744183e-02 -1.48590356e-01 +5.19609172e-03 +9.87800211e-02 -1.97550524e-02 -1.44238144e-01 +1.84392780e-01 +1.37820244e-01 
#Parameter# /simple-rnn-builder/_15 {8,8} 1025 ZERO_GRAD
-1.72763348e-01 +1.29418314e-01 -1.88710511e-01 +4.86938357e-02 +1.21702462e-01 -3.70267063e-01 +4.68463004e-01 +5.31253278e-01 +2.24742845e-01 +4.12696511e-01 +6.57247752e-02 -3.87411922e-01 -4.84789461e-01 +1.88486978e-01 +4.89178658e-01 -4.27894920e-01 +2.18747273e-01 -3.97173047e-01 -3.60366255e-01 +1.52351689e-02 +3.22833151e-01 +5.14473975e-01 -3.57237719e-02 +1.71183553e-02 -4.13882593e-03 +1.28248766e-01 +4.64452296e-01 +5.00376821e-01 -2.47937232e-01 -4.71022069e-01 +3.59027535e-01 +4.10003155e-01 +2.77891725e-01 +6.14370741e-02 -3.52122188e-01 +2.27750912e-02 -3.80356252e-01 +3.33287537e-01 +4.37088698e-01 +2.30164248e-02 -4.41170216e-01 -6.33964896e-01 +1.11566909e-01 -1.02279887e-01 +2.10672125e-01 +2.70659864e-01 -3.17179531e-01 -2.76170254e-01 -4.02565807e-01 -3.56575102e-02 -2.04239637e-01 +1.01790123e-01 +5.97598433e-01 -5.69760725e-02 -4.68782276e-01 -1.93218395e-01 -1.00541763e-01 -5.32036312e-02 -2.05906570e-01 +3.46449375e-01 +5.88772118e-01 -3.20114464e-01 -1.51178375e-01 -2.06577718e-01 
#Parameter# /simple-rnn-builder/_16 {8,8} 1025 ZERO_GRAD
-5.75032711e-01 -1.47576436e-01 +1.25055671e-01 +4.68659818e-01 -3.93373817e-01 +2.51519382e-01 -2.57071946e-02 +4.44041431e-01 -3.27524662e-01 +3.57373148e-01 +2.85295963e-01 +2.22112745e-01 +5.38783491e-01 +3.52467209e-01 +1.40118590e-02 +1.58063427e-01 -7.23680109e-02 +5.05041838e-01 -3.97175044e-01 +3.56048703e-01 -2.86785424e-01 +5.01531124e-01 -3.26751858e-01 +9.07556619e-03 +5.65814435e-01 -4.48256820e-01 +1.07792228e-01 -4.96550977e-01 +4.43901867e-01 +2.40117729e-01 -4.06222284e-01 -6.10733628e-01 +5.77214181e-01 +1.97158977e-02 -5.05052924e-01 -4.67838570e-02 +1.02114394e-01 +1.07595123e-01 -5.02545357e-01 +3.01180296e-02 -3.27419758e-01 +2.44212762e-01 +6.01481438e-01 +5.66742480e-01 -1.03902213e-01 +3.63782823e-01 -5.98705351e-01 -6.29033148e-02 +3.04509699e-01 -5.10251880e-01 -7.52931386e-02 -5.86625516e-01 -9.73972492e-04 -5.24527095e-02 -8.12185183e-03 -5.26683569e-01 +6.07819736e-01 +3.05903703e-01 +3.57345253e-01 -2.26017356e-01 +1.06183805e-01 -1.25550002e-01 -4.56940621e-01 -3.57007295e-01 
#Parameter# /simple-rnn-builder/_17 {8} 129 ZERO_GRAD
-3.35770547e-02 +4.15103650e-03 -8.30453727e-03 +3.20582800e-02 +1.69389442e-01 -1.03759758e-01 +7.15391934e-02 +1.21677786e-01 
#Parameter# /simple-rnn-builder/_18 {8,8} 1025 ZERO_GRAD
-5.68742394e-01 -3.10705692e-01 -2.30638593e-01 +2.61882395e-01 -5.17956167e-02 -2.79278979e-02 +2.28982106e-01 +1.93972245e-01 +1.63020536e-01 -4.45533022e-02 +3.23302567e-01 -1.83517784e-01 +3.86098564e-01 +4.06253219e-01 -2.45727599e-01 -3.57426375e-01 -3.16268682e-01 -3.01657587e-01 -1.46795213e-01 +2.63667554e-01 +4.06368077e-01 +4.76437718e-01 +1.42663553e-01 +1.88020706e-01 -3.62827986e-01 -1.62533686e-01 -1.79134488e-01 +1.62602872e-01 +2.82880366e-02 -2.76332378e-01 -3.89738142e-01 +2.60890633e-01 -3.15079778e-01 -2.59053707e-01 -4.34056282e-01 +3.79146338e-02 -5.57982810e-02 +4.65093821e-01 +4.18514490e-01 -3.34523827e-01 +2.16811031e-01 -1.40659705e-01 +2.40827173e-01 -1.75919026e-01 +4.70386237e-01 +1.33912608e-01 -3.79100084e-01 +1.41337797e-01 -4.28476483e-02 +3.94161940e-01 +7.45428279e-02 +2.10678026e-01 -2.79356856e-02 +1.56339854e-01 +5.05777262e-02 +4.38875053e-03 +1.14056602e-01 +3.83821607e-01 +2.68293202e-01 -2.81937033e-01 +3.71877611e-01 +9.78538543e-02 +1.70071810e-01 +2.72705734e-01 
#Parameter# /simple-rnn-builder/_19 {8,8} 1025 ZERO_GRAD
+5.60711622e-01 -3.97718638e-01 -1.42314442e-04 +3.94505560e-01 -5.49013138e-01 +3.89163911e-01 -4.49637741e-01 +4.86333847e-01 +4.12220538e-01 -1.86965406e-01 +2.20875233e-01 +1.80646777e-01 +4.37192887e-01 +4.16275039e-02 +2.02368289e-01 +2.66796768e-01 +4.72343080e-02 -1.11430496e-01 -9.70698074e-02 -1.66343585e-01 +6.42281622e-02 +2.45814905e-01 -2.62527347e-01 -2.56630421e-01 +1.42396063e-01 +3.49917978e-01 +4.67088580e-01 -6.05088294e-01 +5.76195009e-02 -3.36042419e-02 +4.58251268e-01 -4.06430811e-01 -3.87289435e-01 -4.57305878e-01 +4.69400138e-01 -3.18013698e-01 +1.94276556e-01 -2.62983203e-01 -2.69399792e-01 +1.00167692e-01 +3.04203391e-01 -4.27716039e-02 -5.86790979e-01 -5.29974282e-01 -1.46505252e-01 +4.58552331e-01 +1.92760333e-01 -1.84944645e-01 -4.61114675e-01 +3.80478024e-01 +1.43090293e-01 +2.78942078e-01 -6.16585836e-02 -5.13944089e-01 -2.40455214e-02 +4.51335728e-01 +3.59440386e-01 -5.80386817e-01 -4.65567052e-01 -1.73318043e-01 -3.46255191e-02 -7.93917477e-02 -3.62556922e-04 -2.18806729e-01 
#Parameter# /simple-rnn-builder/_20 {8} 129 ZERO_GRAD
-1.78254861e-03 +9.83439013e-02 -8.35256577e-02 +4.52978984e-02 +3.82244438e-02 +5.07586524e-02 -1.82288662e-02 +2.65677050e-02 
#Parameter# /simple-rnn-builder/_21 {8,8} 1025 ZERO_GRAD
-4.50255051e-02 -9.56540033e-02 +2.57457882e-01 +3.23065519e-01 +1.27681270e-01 +2.12201118e-01 -1.43268377e-01 +8.53452384e-02 -1.63612396e-01 +1.72037482e-01 +8.53575170e-02 +8.92314538e-02 -3.91952693e-03 +1.51708862e-02 +7.15631172e-02 +1.10913720e-02 +1.02457292e-01 -1.09459639e-01 -4.09518450e-01 -3.32924277e-01 +4.78846878e-02 -1.32829607e-01 -5.40261157e-02 -6.65948773e-03 -3.44610699e-02 -6.27334714e-02 +1.73379540e-01 +1.41040623e-01 +1.23795398e-01 -1.08295195e-01 +2.03013476e-02 +3.11164409e-02 -4.34716279e-03 -1.08467810e-01 +2.11834088e-02 +3.70909274e-01 -1.16808619e-02 +8.27603880e-03 +2.87482459e-02 -1.02339253e-01 -5.34916781e-02 -3.09773963e-02 +7.30794072e-02 -2.86869287e-01 -4.07729000e-02 +2.99205244e-01 -1.30728588e-01 +2.64352597e-02 +1.51177034e-01 -1.56600848e-01 -2.62651205e-01 -2.09796295e-01 +8.79267603e-02 +1.64758414e-01 -6.61796182e-02 +1.55857190e-01 +9.68148038e-02 -1.21563852e-01 +7.91987255e-02 -1.98107108e-01 +9.14630741e-02 +1.73013121e-01 -1.98974505e-01 +8.48473161e-02 
#Parameter# /simple-rnn-builder/_22 {8,8} 1025 ZERO_GRAD
+3.73168916e-01 -2.55040526e-01 -1.58923224e-01 -3.32198113e-01 +8.16295817e-02 -2.48052225e-01 +1.27105236e-01 +5.64635694e-01 +4.18369800e-01 +1.40961677e-01 +4.18972850e-01 -1.90915719e-01 -3.90344650e-01 -1.64961100e-01 +4.27176654e-01 +2.73615688e-01 -6.08848989e-01 +3.67702872e-01 -4.60714906e-01 +6.51838854e-02 -5.35718441e-01 -4.58059043e-01 -3.88474762e-01 -2.47386426e-01 -4.76638786e-02 +1.83638632e-01 -4.64417130e-01 -4.43020821e-01 +5.31512164e-02 +1.22350052e-01 -1.28880605e-01 +1.87921718e-01 +3.72398913e-01 -5.62989414e-01 -5.03619015e-01 +5.85758090e-01 -2.51451254e-01 -3.78554761e-01 +2.58576035e-01 -8.02269876e-02 -1.26137901e-02 +3.74818087e-01 +5.03514588e-01 +3.16310078e-01 -2.13946432e-01 +2.73686707e-01 +5.93096733e-01 +7.15806242e-03 -4.84867394e-02 +1.79708585e-01 +1.38926715e-01 +5.82782924e-01 -4.03448671e-01 +2.66608417e-01 +2.12845325e-01 +4.57025737e-01 -1.15876190e-01 -5.37674129e-03 +1.06160589e-01 +1.70315757e-01 +1.26510426e-01 -4.76110786e-01 +3.66895407e-01 +2.31198519e-01 
#Parameter# /simple-rnn-builder/_23 {8} 129 ZERO_GRAD
+2.07989179e-02 -3.88353467e-02 -2.94512343e-02 +2.56946459e-02 +2.18398403e-02 -3.04493289e-02 -2.76699755e-02 -9.46795102e-03 
#LookupParameter# /_0 {320,1} 5121 ZERO_GRAD
+9.14761648e-02 +2.42953114e-02 -7.96456039e-02 +7.67517239e-02 -2.97257863e-02 -5.37122339e-02 +1.27358726e-04 +2.14716163e-03 -6.33078068e-02 +3.88614833e-02 -5.85890338e-02 -8.84600170e-03 +3.27365734e-02 +1.89583760e-03 +7.32785612e-02 +8.25208053e-02 +4.09611836e-02 -1.71291549e-02 +7.94204026e-02 -6.80038780e-02 -7.39744306e-03 -5.65593913e-02 +4.96423878e-02 -3.20954956e-02 -1.40869962e-02 -8.61307010e-02 -1.44923362e-03 -1.55916333e-03 -8.26050937e-02 -8.62230659e-02 -5.12868352e-02 +1.49531085e-02 +5.35794422e-02 -9.58916098e-02 +5.84920645e-02 -4.53896401e-03 +9.08143725e-03 +6.33588955e-02 -4.13753130e-02 -2.27597747e-02 -5.36369793e-02 -3.39822732e-02 +3.97620350e-02 -4.09930013e-02 +5.55966124e-02 -4.17736471e-02 -3.10965665e-02 +7.28850216e-02 +4.02394608e-02 +5.94136789e-02 -9.56235677e-02 +7.78543875e-02 +8.80359933e-02 -7.85636529e-02 +6.08919933e-03 +9.15909559e-02 -5.22396304e-02 +6.19962215e-02 +7.82045275e-02 -3.76395099e-02 +6.41153455e-02 +4.00212631e-02 +1.98363829e-02 +1.72447935e-02 +2.98494529e-02 +8.74893814e-02 -5.20719588e-02 -4.26126048e-02 +5.54422103e-02 -7.68061578e-02 +1.22455414e-02 -8.22489560e-02 +1.49876787e-03 +8.43237266e-02 -5.80630712e-02 -7.82711580e-02 -9.18260142e-02 +4.03681584e-02 -2.04870850e-02 +9.07312632e-02 +9.46786106e-02 -1.06691681e-02 -6.19805828e-02 +7.30476677e-02 -4.39828541e-03 +1.70066152e-02 +5.21389842e-02 +5.32210618e-02 +8.90131667e-02 -5.12651838e-02 -2.87941024e-02 -5.48031405e-02 -1.33793093e-02 +5.83384698e-03 -4.22009975e-02 -8.77828002e-02 -8.11818913e-02 +5.78846708e-02 +2.73198560e-02 +6.66292086e-02 -9.50040892e-02 +7.59175792e-02 +7.75729399e-03 -2.06793807e-02 +7.67348707e-02 +6.83444440e-02 -7.58656785e-02 -4.39709909e-02 -2.89661884e-02 -4.39122505e-02 +5.40312789e-02 -8.47859085e-02 +3.78110819e-02 +2.79220231e-02 -6.13454990e-02 -5.78626841e-02 +2.87879091e-02 +7.96570480e-02 -4.75105606e-02 -3.93664353e-02 +8.81475285e-02 +8.56365114e-02 -5.74092530e-02 -3.84376422e-02 -4.79419529e-03 +4.91853580e-02 -1.29495058e-02 +1.22734392e-02 +8.28669295e-02 -2.97833197e-02 +5.80569655e-02 +5.24498448e-02 +9.57529768e-02 -2.65141800e-02 -1.11726122e-02 -2.88112257e-02 -5.76604754e-02 -5.20097576e-02 +2.57398076e-02 +3.17529663e-02 -6.31961459e-03 -9.63425636e-02 +5.89671060e-02 +4.53216806e-02 +8.16434808e-03 +5.87368794e-02 +2.50628106e-02 +4.88032922e-02 -1.88114475e-02 -2.69244723e-02 -6.51931390e-02 +7.42326230e-02 -7.71091804e-02 +8.39425847e-02 +4.32196259e-02 -1.67629030e-02 -9.54956859e-02 +5.93940578e-02 -2.04004124e-02 -7.19628036e-02 +7.00181024e-03 -3.66283096e-02 -4.50579487e-02 -8.18234086e-02 -9.65746194e-02 -2.90242047e-03 -8.70428011e-02 -7.07262903e-02 -7.45453089e-02 -4.91075329e-02 -5.21485199e-05 +7.77412951e-02 +9.03010834e-03 -9.13035125e-02 -8.08657520e-03 +5.85645512e-02 -8.01350642e-03 -1.21015208e-02 -6.74617067e-02 +3.94058116e-02 -9.20205042e-02 +7.13331029e-02 +2.73778345e-02 -9.02078897e-02 +1.29941916e-02 +3.51113752e-02 -4.16732058e-02 -2.03605387e-02 -7.84234777e-02 -6.97186515e-02 +8.92215818e-02 +9.20169279e-02 -1.79895014e-02 -3.34069654e-02 +9.65500847e-02 +6.43874556e-02 -2.88073700e-02 +7.15192333e-02 -2.32463732e-04 -7.30453879e-02 +7.74390483e-03 -4.00561206e-02 -9.17666184e-04 +7.07607418e-02 -1.85035430e-02 +9.15021375e-02 +7.53726959e-02 +2.27351617e-02 +2.77447775e-02 -1.64919049e-02 -8.10957104e-02 -4.47366312e-02 -3.47827859e-02 -1.25302859e-02 +1.64817013e-02 +1.19477361e-02 -3.52765806e-02 -8.12871978e-02 -6.69477060e-02 +3.58229619e-04 +4.42427881e-02 -4.18496020e-02 -8.59691203e-02 +1.88902754e-03 +5.38440719e-02 +8.78654867e-02 -8.17646179e-03 +5.78749515e-02 +5.99682443e-02 -4.63414490e-02 +8.13355669e-02 -4.02001245e-03 -4.89909425e-02 -6.46094307e-02 -9.60360169e-02 +2.90944297e-02 +7.79432207e-02 -9.15843844e-02 +6.45320937e-02 +3.70317176e-02 +6.41559660e-02 +8.65829214e-02 -7.64849931e-02 -1.68391764e-02 +4.43858355e-02 -4.94130701e-02 +4.85965200e-02 +5.94272316e-02 -4.38931286e-02 -8.68532956e-02 -2.59049796e-02 +5.23447283e-02 +7.36458153e-02 -4.33850847e-02 +6.13576360e-02 -7.27619380e-02 +1.14759980e-02 -7.01857805e-02 -5.24433143e-02 -7.65949041e-02 +9.18665752e-02 +4.29327860e-02 -8.84828195e-02 +9.45138931e-02 +6.20445497e-02 +4.95938882e-02 -1.45748705e-02 -1.00271972e-02 +3.73187065e-02 +7.91935474e-02 +2.09942227e-03 +7.72900581e-02 +5.30748516e-02 +4.87083085e-02 -9.44819897e-02 +6.50679022e-02 +3.26564014e-02 -2.01817658e-02 +2.77695358e-02 +6.13396093e-02 +6.67341724e-02 +5.59954233e-02 +3.57295275e-02 -8.11131671e-02 -1.48192225e-02 +8.45077485e-02 -3.46327685e-02 -1.77796092e-02 -5.67433983e-02 -3.94486524e-02 -1.40763316e-02 -1.40617937e-02 +4.53274958e-02 -3.93644460e-02 -1.16453888e-02 +1.89863201e-02 +4.23755758e-02 -9.46487114e-02 -3.01372390e-02 +7.46032894e-02 +1.63875055e-02 -7.75154587e-03 -4.32471186e-02 -8.71943235e-02 -7.06557930e-02 +3.15042138e-02 -7.95441866e-02 -5.98725826e-02 -4.54647057e-02 -7.04580098e-02 -3.45897563e-02 -1.86138824e-02 -4.41332981e-02 +5.70166390e-03 -2.01732758e-02 +8.10399279e-02 -6.77522644e-02 -6.37534931e-02 +6.59313425e-02 +3.94577757e-02 
