#Parameter# /_0 {320,8} 40961 ZERO_GRAD
-4.51388620e-02 -6.26358539e-02 -7.61493072e-02 -7.15348497e-02 -8.00058991e-02 -8.05341974e-02 -8.68337080e-02 -9.07347724e-02 -1.01536117e-01 -1.02411479e-01 -1.03259549e-01 -1.04074553e-01 -9.33549255e-02 -7.87864625e-02 -6.10004999e-02 -5.11604249e-02 -4.08570580e-02 -2.86746398e-02 -1.69398189e-02 +7.45418016e-03 +2.80983169e-02 +2.64071673e-02 +2.07462255e-02 +1.55497529e-02 +2.51888633e-02 +3.60407196e-02 +3.06022484e-02 +1.66687220e-02 +5.44273574e-03 +5.30680269e-03 +4.99405712e-03 -1.05603328e-02 -2.73176264e-02 -4.07797992e-02 -4.98281308e-02 -4.67146300e-02 -5.67585677e-02 -6.82318956e-02 -7.06937984e-02 -6.59343004e-02 -6.07844591e-02 -6.36613891e-02 -7.62667581e-02 -6.86011389e-02 -5.14897108e-02 -4.25894409e-02 -2.79321801e-02 -5.71661163e-03 +8.82226601e-03 +1.23427790e-02 +4.45678383e-02 +5.91734312e-02 +6.80873170e-02 +9.41963866e-02 +1.13556229e-01 +1.15830526e-01 +1.28086880e-01 +1.47009611e-01 +1.56642050e-01 +1.51540294e-01 +1.35918245e-01 +1.38505787e-01 +1.57391042e-01 +1.43832028e-01 +1.29948109e-01 +1.17438562e-01 +1.09774046e-01 +1.00112237e-01 +7.88734704e-02 +8.20347443e-02 +7.07963109e-02 +6.69501424e-02 +6.43630102e-02 +4.79586981e-02 +4.41558622e-02 +3.55022624e-02 +1.91522911e-02 +1.37844468e-02 +1.79763548e-02 -1.32912882e-02 -2.95723788e-02 -3.83435227e-02 -4.80626971e-02 -5.82282245e-02 -5.45603223e-02 -6.74710944e-02 -5.57579622e-02 -5.70863895e-02 -4.83623743e-02 -4.94547114e-02 -4.67524454e-02 -4.49786484e-02 -4.15570177e-02 -5.42776175e-02 -5.25583737e-02 -6.22769147e-02 -6.99193627e-02 -6.14628159e-02 -6.21887594e-02 -7.82733932e-02 -9.85888466e-02 -9.53548923e-02 -9.06682983e-02 -9.20173451e-02 -8.24495554e-02 -6.24021441e-02 -6.38526529e-02 -5.28055094e-02 -3.73163931e-02 -1.74519308e-02 +2.91802804e-03 +5.45389624e-03 -1.60693396e-02 -2.80154608e-02 -1.09764813e-02 -1.42723089e-02 -1.60449166e-02 -2.59282272e-02 -5.28050438e-02 -4.09983434e-02 -3.64564657e-02 -4.57598753e-02 -5.36816791e-02 -3.47835235e-02 -5.22171371e-02 -6.47442788e-02 -6.53387606e-02 -6.40679076e-02 -7.80443028e-02 -6.80212453e-02 -5.59974015e-02 -5.89611642e-02 -5.12768030e-02 -5.28994948e-02 -4.91053462e-02 -5.09712622e-02 -4.45164815e-02 -2.42330786e-02 -7.04729976e-03 +1.65868159e-02 +3.13041955e-02 +5.27946055e-02 +5.95082082e-02 +5.70161864e-02 +7.20413327e-02 +7.96385407e-02 +8.25553983e-02 +1.05367415e-01 +1.18668057e-01 +1.26267597e-01 +1.30070537e-01 +1.20092511e-01 +1.09820344e-01 +9.76932868e-02 +7.83901811e-02 +6.96313605e-02 +5.63354790e-02 +3.39695178e-02 +3.01879067e-02 +3.13567221e-02 +3.11305150e-02 +2.52640340e-02 +6.80358568e-03 +9.51362867e-03 +1.72803476e-02 +1.73637215e-02 +1.84956472e-02 +1.95765719e-02 +1.72526278e-02 +3.41252498e-02 +4.03382927e-02 +4.65875641e-02 +8.57177675e-02 +8.46460164e-02 +8.34128112e-02 +7.32530206e-02 +6.62428141e-02 +9.09815282e-02 +1.07856549e-01 +1.23995759e-01 +1.40280724e-01 +1.47297844e-01 +1.53681740e-01 +1.57814607e-01 +1.26529187e-01 +1.14701979e-01 +1.08009018e-01 +8.08599964e-02 +4.06249091e-02 +1.42564224e-02 +1.54650956e-02 +1.47713302e-03 -5.96157461e-03 -4.91123535e-02 -7.57584125e-02 -1.07713975e-01 -1.14370227e-01 -1.24889992e-01 -1.34878814e-01 -1.38925016e-01 -1.49998948e-01 -1.37608647e-01 -1.56106114e-01 -1.62314370e-01 -1.54159784e-01 -1.68091327e-01 -1.81071490e-01 -2.05581889e-01 -2.06260234e-01 -1.88065007e-01 -1.89464450e-01 -1.95521757e-01 -1.87565342e-01 -1.90836459e-01 -1.82314500e-01 -1.82328805e-01 -1.66910410e-01 -1.33096784e-01 -1.10510923e-01 -9.29406062e-02 -7.95161501e-02 -4.51121069e-02 -1.34858564e-02 +4.03168146e-03 +4.27038176e-04 +1.97975580e-02 +3.53047438e-02 +5.77559285e-02 +6.00906238e-02 +5.77598102e-02 +7.83334225e-02 +9.16194096e-02 +9.15027037e-02 +1.12052090e-01 +1.14666536e-01 +1.11501269e-01 +1.07170746e-01 +1.10367812e-01 +8.82551074e-02 +9.21656564e-02 +1.04292601e-01 +1.00288354e-01 +9.37372297e-02 +8.16153362e-02 +9.63437036e-02 +8.87429714e-02 +8.56606290e-02 +7.75630400e-02 +7.44104013e-02 +8.59851167e-02 +6.62626475e-02 +6.35930300e-02 +6.18664138e-02 +6.39666319e-02 +7.05151260e-02 +6.57121614e-02 +6.33265600e-02 +9.23825651e-02 +1.02845728e-01 +1.14177123e-01 +1.16631553e-01 +1.04530022e-01 +8.49613547e-02 +8.33395571e-02 +7.82223791e-02 +8.77259523e-02 +7.57625401e-02 +6.49117827e-02 +6.02855682e-02 +4.90769967e-02 +5.00426032e-02 +3.45424712e-02 +1.56708267e-02 -4.82901419e-03 -2.15398464e-02 -4.37978208e-02 -4.20650318e-02 -6.01257458e-02 -6.47038743e-02 -8.68156552e-02 -1.22096352e-01 -1.27913609e-01 -1.33256540e-01 -1.56256631e-01 -1.66579783e-01 -1.87473223e-01 -1.89410031e-01 -1.96429074e-01 -1.92690939e-01 -2.07912013e-01 -2.05174074e-01 -1.78875104e-01 -1.74705744e-01 -1.62673697e-01 -1.38782412e-01 -1.15938023e-01 -1.15926430e-01 -9.25756618e-02 -8.67528096e-02 -7.02534989e-02 -4.73836809e-02 -4.55305800e-02 +1.85021514e-03 +3.04683298e-02 +4.77761403e-02 +6.09299168e-02 +6.97695017e-02 +7.31322765e-02 +7.52359033e-02 +9.21268761e-02 +9.61057767e-02 +9.11630541e-02 +9.66133401e-02 +1.11328676e-01 +1.15004145e-01 +1.27316222e-01 +1.24108441e-01 +1.28320485e-01 +1.18040599e-01 +9.33064297e-02 +7.66856745e-02 +8.22332054e-02 +8.14647600e-02 +8.50023329e-02 +8.41229111e-02 +8.57195854e-02 +8.89224708e-02 +9.26356688e-02 +1.08307756e-01 +1.02405615e-01 +8.69879648e-02 +8.10492635e-02 +7.78419152e-02 +6.83569387e-02 +4.57784906e-02 +4.27855663e-02 +4.90292720e-02 +6.23292364e-02 +8.21365118e-02 +8.94691646e-02 +8.02781433e-02 +7.18019009e-02 +7.12298006e-02 +6.32915050e-02 +5.54612242e-02 +4.81912903e-02 +3.51722799e-02 +4.19047885e-02 +5.11302426e-02 +4.45575193e-02 +3.85389924e-02 +3.66918370e-02 +3.38015035e-02 +2.12658271e-02 +1.87651142e-02 +1.41355395e-02 +1.02167437e-03 -5.71470615e-03 -1.82002280e-02 -3.02223321e-02 -2.78973095e-02 -3.14999633e-02 -5.91759942e-02 -6.12067729e-02 -6.53934032e-02 -6.60834014e-02 -6.85040951e-02 -7.16772228e-02 -6.74374104e-02 -6.93598166e-02 -6.82590753e-02 -6.60072938e-02 -7.49894157e-02 -7.94109553e-02 -8.78831297e-02 -8.66812766e-02 -8.69340301e-02 -1.01677835e-01 -1.11996941e-01 -1.20239764e-01 -1.17298476e-01 -1.14087790e-01 -1.09440133e-01 -1.09525062e-01 -1.04027696e-01 -1.07961699e-01 -1.04916640e-01 -9.94120687e-02 -9.95308459e-02 -1.00874238e-01 -1.03903346e-01 -1.00846581e-01 -7.26663023e-02 -6.02969527e-02 -5.63660413e-02 -4.73780520e-02 -2.75514796e-02 -9.70906392e-03 -1.18115814e-02 -7.97542091e-03 +1.67886564e-03 +1.49666630e-02 +2.37903427e-02 +3.92584503e-02 +5.18023670e-02 +6.03980571e-02 +7.19632506e-02 +7.95464590e-02 +9.53445509e-02 +1.13013111e-01 +1.29617885e-01 +1.46399319e-01 +1.56056747e-01 +1.61212325e-01 +1.60029203e-01 +1.58400238e-01 +1.60809845e-01 +1.60540700e-01 +1.68419063e-01 +1.55043870e-01 +1.40367687e-01 +1.34188294e-01 +1.33807868e-01 +1.28753155e-01 +1.29343390e-01 +1.24897569e-01 +1.19712405e-01 +1.17948867e-01 +1.13125645e-01 +1.08568318e-01 +9.46119055e-02 +7.29822665e-02 +6.48643970e-02 +6.17133193e-02 +4.79565933e-02 +2.23775338e-02 -2.67399126e-04 -2.19045114e-02 -4.26920727e-02 -5.97333461e-02 -8.58946890e-02 -1.13846026e-01 -1.20137513e-01 -1.22757703e-01 -1.28163829e-01 -1.22753330e-01 -1.31286234e-01 -1.38483077e-01 -1.33260354e-01 -1.20835029e-01 -1.18976220e-01 -1.17400043e-01 -1.06600568e-01 -1.10334478e-01 -1.17651708e-01 -1.09536871e-01 -1.01184271e-01 -8.83936509e-02 -8.88082385e-02 -9.56002921e-02 -9.96682495e-02 -8.86611938e-02 -8.37659761e-02 -7.93376267e-02 -8.32828134e-02 -8.11659992e-02 -7.51194209e-02 -6.82599917e-02 -6.57099858e-02 -6.22188300e-02 -6.84686601e-02 -6.01875409e-02 -4.32256721e-02 -2.85503827e-02 -2.31492817e-02 -1.96681712e-02 +5.68048703e-03 +1.78373661e-02 +1.83852669e-02 +3.18114161e-02 +3.67580093e-02 +4.55124713e-02 +5.57458326e-02 +6.23417683e-02 +6.78772554e-02 +7.70923793e-02 +9.79679450e-02 +1.04750894e-01 +9.81520042e-02 +9.91884023e-02 +1.16806589e-01 +1.23566009e-01 +1.27607971e-01 +1.22201450e-01 +1.14144713e-01 +1.12364545e-01 +1.12017058e-01 +1.05279550e-01 +1.00915276e-01 +8.42604637e-02 +7.57231563e-02 +6.34473711e-02 +4.94563095e-02 +2.97775567e-02 +1.21725937e-02 +8.05513875e-04 -6.54777512e-03 -1.08631812e-02 -9.26331431e-03 -6.62085321e-03 -2.38386635e-03 -5.51579520e-03 -6.33649109e-03 +1.02236224e-02 +1.80422030e-02 +2.70938296e-02 +3.59436460e-02 +4.49987650e-02 +3.75103913e-02 +4.35229167e-02 +3.98783311e-02 +2.74041500e-02 +1.88630596e-02 +1.32309692e-03 -1.17775938e-02 -1.76984482e-02 -4.90312241e-02 -7.38695636e-02 -8.04402828e-02 -8.17582533e-02 -7.89991096e-02 -7.71953315e-02 -8.86745825e-02 -8.90174806e-02 -7.50172362e-02 -8.17504153e-02 -7.17556104e-02 -6.05732836e-02 -5.54807521e-02 -5.10483272e-02 -4.77990694e-02 -3.80394980e-02 -3.33634913e-02 -2.93668918e-02 -3.39839272e-02 -3.79744731e-02 -3.41450237e-02 -3.12571563e-02 -3.54244262e-02 -3.88983972e-02 -3.65879461e-02 -3.67460214e-02 -3.70543078e-02 -4.27452698e-02 -4.79178540e-02 -4.61957604e-02 -3.26967761e-02 -2.54205391e-02 -2.37896349e-02 -2.29795538e-02 -1.10132750e-02 -1.91279454e-03 +1.09878713e-02 +2.61302870e-02 +4.38290462e-02 +4.51605171e-02 +5.61442785e-02 +5.84612265e-02 +5.93428090e-02 +6.88467175e-02 +6.03040457e-02 +5.14627807e-02 +4.55260389e-02 +4.18134071e-02 +2.32938826e-02 +5.91218006e-03 -6.62994804e-03 -2.57331319e-03 +1.65667925e-02 +2.59621106e-02 +3.07488311e-02 +3.40445600e-02 +2.97879428e-02 +3.63563038e-02 +4.79253270e-02 +7.18853101e-02 +7.98777491e-02 +7.66426623e-02 +7.49736354e-02 +7.90465549e-02 +8.07750672e-02 +6.76487684e-02 +5.11608385e-02 +4.07663696e-02 +3.58967893e-02 +2.43348721e-02 +1.68390237e-02 +1.43398605e-02 +9.84899607e-03 -2.86233524e-04 -8.32450669e-03 -9.16221179e-03 +1.10006833e-03 +2.32561002e-03 +8.14611034e-04 +8.26568250e-03 +1.51067916e-02 +1.42028332e-02 +1.26355384e-02 +4.78771795e-03 +8.48938338e-03 +1.84990112e-02 +2.11247746e-02 +1.22987609e-02 -6.34980574e-03 -8.72656610e-03 -2.07843389e-02 -3.99931557e-02 -5.35713173e-02 -6.50492758e-02 -6.70945421e-02 -7.40580484e-02 -8.08702186e-02 -8.42098072e-02 -8.37414563e-02 -7.34014511e-02 -7.19192475e-02 -7.06260055e-02 -6.89783692e-02 -7.27251694e-02 -6.49973303e-02 -7.08503947e-02 -6.88416734e-02 -5.58512583e-02 -3.94691750e-02 -3.56075801e-02 -4.07759845e-02 -4.56589609e-02 -4.10428308e-02 -2.82203052e-02 -1.37390159e-02 -2.43557841e-02 -3.62145379e-02 -2.97758356e-02 -2.85235215e-02 -3.43919769e-02 -5.13985157e-02 -5.40166460e-02 -4.55239899e-02 -4.46606204e-02 -4.11758237e-02 -3.84035818e-02 -2.96555292e-02 -3.15018222e-02 -3.99404056e-02 -4.02418934e-02 -4.24040072e-02 -4.25304063e-02 -4.67867777e-02 -4.77601886e-02 -3.87373045e-02 -2.87874043e-02 -3.68294716e-02 -3.83398160e-02 -2.12377068e-02 -1.44328242e-02 -4.68351785e-03 +6.62232749e-03 +5.42440498e-03 +1.55673521e-02 +2.23263241e-02 +4.15314697e-02 +2.92249937e-02 +2.39603352e-02 +3.91632579e-02 +4.57628667e-02 +4.89522815e-02 +5.01881689e-02 +4.22256514e-02 +4.54103425e-02 +6.50850162e-02 +6.58098832e-02 +6.17694929e-02 +6.53029159e-02 +6.23018891e-02 +4.82549369e-02 +4.32318971e-02 +3.14650424e-02 +2.84425411e-02 +1.49091622e-02 +1.10452538e-02 +8.95547029e-03 +1.40504139e-02 +1.80920213e-02 +5.07384492e-03 -9.81531292e-03 -1.28811533e-02 -4.34080372e-03 -3.53910681e-03 -9.97489505e-03 -2.88575850e-02 -4.26775701e-02 -3.45194377e-02 -3.23804580e-02 -3.29553038e-02 -3.83135714e-02 -3.95529866e-02 -3.12187877e-02 -1.86528973e-02 -5.30756544e-03 +5.98566514e-03 +1.40690133e-02 +3.49738412e-02 +4.87622581e-02 +5.19456193e-02 +5.53087592e-02 +5.20365275e-02 +4.15553302e-02 +3.33450772e-02 +2.04496682e-02 +3.32116485e-02 +2.16516815e-02 +1.09670796e-02 +1.04508745e-02 +1.05812801e-02 +8.30896758e-03 +5.32092480e-03 +7.69169012e-04 -1.74371675e-02 -3.34086567e-02 -3.44814248e-02 -2.01292746e-02 -2.47566830e-02 -3.61150391e-02 -5.59676588e-02 -4.68979776e-02 -2.99441498e-02 -3.82421575e-02 -5.27697653e-02 -6.14095703e-02 -6.09717295e-02 -5.57349660e-02 -5.33161499e-02 -4.97864224e-02 -3.63154709e-02 -1.91505495e-02 -1.58875901e-02 -1.00294808e-02 +1.19856920e-03 +8.78023356e-03 +1.43429190e-02 +1.34281265e-02 +1.09922467e-02 +8.21006671e-03 +1.25958836e-02 +1.70589220e-02 +1.45352809e-02 +6.26678625e-03 -1.50298257e-03 -2.61727953e-03 +5.35578886e-03 +1.30968615e-02 +8.22998118e-03 +3.81623046e-03 +1.45167457e-02 +2.52131093e-03 -2.62777274e-03 +7.19358725e-03 +1.71162114e-02 +1.44958561e-02 +3.51184653e-03 +9.27311648e-03 +1.66388676e-02 +2.61608195e-02 +2.08702497e-02 +2.86064518e-04 -1.13135651e-02 +1.20011379e-03 +1.18658571e-02 +6.38316525e-03 -4.02698806e-03 -4.99728043e-03 -9.06332023e-03 -5.50534017e-03 -1.10992882e-02 -1.03461342e-02 +3.88356671e-03 +2.27839723e-02 +2.36126762e-02 +3.21804099e-02 +4.52677384e-02 +4.75897491e-02 +5.02752066e-02 +4.17678915e-02 +2.84384079e-02 +2.77867112e-02 +2.06594449e-02 +9.18573607e-03 +7.09916744e-03 -1.67959847e-03 -1.47318235e-02 -1.84825044e-02 -1.69946495e-02 -2.42373757e-02 -2.56331861e-02 -2.05285046e-02 -1.23766568e-02 -1.22844838e-02 -3.39031033e-03 +6.98762015e-03 +1.48946894e-02 +2.07586940e-02 +6.23251637e-03 -7.16121448e-03 -1.23513574e-02 -2.38116216e-02 -2.12743878e-02 -2.68247891e-02 -2.91362777e-02 -2.30862349e-02 -1.50876772e-02 -1.79894234e-03 -4.48875036e-03 -6.31818408e-03 -7.86339585e-03 -1.01026874e-02 -4.14526649e-03 -1.59204360e-02 -1.87480953e-02 -2.60595903e-02 -1.45928664e-02 +6.01491332e-03 +1.78035442e-02 +1.14399316e-02 +9.31051467e-03 +1.48207024e-02 +1.80304144e-02 +1.27908234e-02 +1.26356215e-04 -7.01388111e-03 -1.52609143e-02 -9.78197064e-03 -4.64223512e-03 -1.21208802e-02 -2.56449189e-02 -2.21132264e-02 -2.23669261e-02 -2.75401864e-02 -2.09502932e-02 -1.75363775e-02 -2.00948771e-02 -2.28109006e-02 -2.84842718e-02 -4.19937707e-02 -4.95077483e-02 -5.47780506e-02 -6.27142116e-02 -6.53629750e-02 -5.33401854e-02 -5.78714386e-02 -6.49406388e-02 -4.74975854e-02 -2.91868504e-02 -1.90421212e-02 -3.94952483e-03 +1.03316121e-02 +1.42186582e-02 +2.31381543e-02 +4.06984016e-02 +5.10133542e-02 +6.63289875e-02 +7.34708011e-02 +6.92331120e-02 +7.31932595e-02 +8.46358612e-02 +9.12728384e-02 +9.67938304e-02 +1.18122697e-01 +1.22113280e-01 +1.19903199e-01 +1.16212294e-01 +1.10972106e-01 +1.01565979e-01 +8.94909203e-02 +7.27872625e-02 +5.46667539e-02 +3.91093716e-02 +3.39806899e-02 +2.45795473e-02 +2.56302692e-02 +1.35561060e-02 -1.16886501e-03 -1.61348563e-02 -3.12676728e-02 -4.49450910e-02 -5.66206872e-02 -5.88471629e-02 -6.96149245e-02 -6.81359470e-02 -6.44261241e-02 -5.69944829e-02 -5.73678389e-02 -7.04987943e-02 -7.54633322e-02 -7.15708211e-02 -7.19432607e-02 -7.26120397e-02 -7.64961317e-02 -8.02833438e-02 -7.82852322e-02 -8.01435709e-02 -7.94035345e-02 -7.79979676e-02 -7.34784827e-02 -7.24836066e-02 -6.15854263e-02 -5.49608730e-02 -3.79772037e-02 -2.79620551e-02 -2.18114667e-02 -1.78593807e-02 -5.22944005e-03 -1.48362119e-03 -4.56007663e-03 -7.31504522e-04 -8.09281133e-03 -6.86039403e-03 -1.06991618e-03 -8.97663587e-04 -3.42035736e-03 -7.80897681e-03 -2.92255124e-03 +6.35521440e-03 +2.00404297e-03 +2.56685400e-03 -4.44302917e-04 -4.43683052e-03 -7.19288690e-03 +7.30033789e-04 +4.20559663e-03 +1.10705430e-02 +2.18356643e-02 +3.81396376e-02 +4.91844229e-02 +6.66784048e-02 +7.74449855e-02 +8.70987400e-02 +9.41142961e-02 +9.34677646e-02 +9.04683322e-02 +8.87756497e-02 +8.81782249e-02 +8.94237459e-02 +9.32190940e-02 +8.26926306e-02 +7.37689212e-02 +6.27646148e-02 +6.56603873e-02 +6.35195747e-02 +6.01415671e-02 -5.41389734e-02 -4.50181924e-02 -4.48994823e-02 -3.56186517e-02 -3.56249511e-02 -2.92902645e-02 -2.98105869e-02 -2.82000918e-02 -3.54985222e-02 -5.04943207e-02 -4.81206402e-02 -6.29348755e-02 -5.73739037e-02 -5.19025847e-02 -6.04198985e-02 -6.23465776e-02 -6.41681403e-02 -6.10817671e-02 -5.76511770e-02 -3.29953320e-02 -1.37166874e-02 -2.96187052e-03 +1.18347043e-02 +1.47121269e-02 +1.78728160e-02 +1.43279824e-02 +1.51840607e-02 +1.21536767e-02 +5.75555628e-03 +1.18610347e-02 +2.25412752e-03 -6.56977436e-03 -1.83029901e-02 -1.44258430e-02 -1.77458860e-02 -1.16851050e-02 -2.04815920e-02 -4.76758229e-03 +1.35418819e-02 +1.34179015e-02 +1.54941715e-02 -7.63106800e-04 +3.53286654e-04 -1.06242078e-03 +3.63414787e-04 +4.13273025e-04 +3.69066210e-03 +2.26744041e-02 +8.08694679e-03 +7.48990430e-03 +1.28932875e-02 +5.36197191e-03 +3.82466661e-03 +8.84855445e-03 +2.07397249e-02 +1.65381841e-02 +2.33297534e-02 +2.84687188e-02 +2.91040782e-02 +4.51953597e-02 +5.07143512e-02 +5.49544953e-02 +6.07347488e-02 +7.50522763e-02 +9.11163762e-02 +1.04161374e-01 +1.17257677e-01 +1.37457982e-01 +1.43900305e-01 +1.46517962e-01 +1.48400143e-01 +1.42200574e-01 +1.32925525e-01 +1.23431042e-01 +1.25513360e-01 +1.26529083e-01 +1.22842222e-01 +1.07788049e-01 +8.73706639e-02 +6.75128102e-02 +3.73928472e-02 +2.97461078e-02 +8.94132350e-03 -4.91078896e-03 -1.75519586e-02 -1.98899005e-02 -2.87605915e-02 -5.95797300e-02 -5.88877611e-02 -7.14635327e-02 -8.42038393e-02 -8.88147801e-02 -1.02610558e-01 -9.69561487e-02 -1.01913832e-01 -1.01944275e-01 -1.14135057e-01 -1.30628064e-01 -1.39106020e-01 -1.63659990e-01 -1.70624152e-01 -1.68130234e-01 -1.40398562e-01 -1.48348942e-01 -1.48168400e-01 -1.50074318e-01 -1.44270301e-01 -1.24961600e-01 -1.27899423e-01 -1.15038775e-01 -1.03158958e-01 -1.09177195e-01 -1.00382954e-01 -9.95425135e-02 -9.14621577e-02 -8.38104412e-02 -9.43242982e-02 -9.70799327e-02 -1.18365705e-01 -1.05464563e-01 -9.75163355e-02 -9.86595601e-02 -7.65025690e-02 -5.37010133e-02 -3.15421224e-02 -2.13249475e-02 +6.15253067e-03 +2.17128433e-02 +2.54859384e-02 +3.64877395e-02 +6.12278134e-02 +9.00030509e-02 +1.24869540e-01 +1.29142001e-01 +1.44677430e-01 +1.69325873e-01 +1.65320590e-01 +1.67150989e-01 +1.84254184e-01 +1.75289378e-01 +1.84583828e-01 +2.11832851e-01 +2.03513891e-01 +1.95876881e-01 +1.97909847e-01 +1.84575617e-01 +1.80655345e-01 +1.80354565e-01 +1.67383343e-01 +1.53572589e-01 +1.30217731e-01 +1.18685819e-01 +9.68873352e-02 +7.54613802e-02 +6.64130971e-02 +5.43959737e-02 +3.86670046e-02 +2.57149916e-02 +1.86889973e-02 +3.99449607e-03 -1.14202192e-02 -3.38047035e-02 -4.62176614e-02 -4.89962250e-02 -6.94350898e-02 -8.26632157e-02 -7.21879825e-02 -6.23796135e-02 -4.75847460e-02 -4.34787236e-02 -4.30810489e-02 -4.30925526e-02 -5.62040806e-02 -4.67216559e-02 -5.12385666e-02 -6.22033812e-02 -6.80333003e-02 -6.07457981e-02 -7.53924176e-02 -8.16780329e-02 -8.83810297e-02 -8.27390701e-02 -8.67519602e-02 -9.17811245e-02 -1.10655814e-01 -1.10653996e-01 -1.04033247e-01 -1.04151778e-01 -7.97290951e-02 -7.18550012e-02 -6.39216378e-02 -5.33749461e-02 -3.55238356e-02 -4.18162048e-02 -3.01503297e-02 -1.73948202e-02 -1.85475238e-02 -2.05090623e-02 -2.00697370e-02 -1.51132308e-02 -1.68144647e-02 -2.40611229e-02 -2.40872391e-02 -3.32048759e-02 -3.81550901e-02 -4.45015617e-02 -5.52457012e-02 -6.12255782e-02 -5.17631359e-02 -3.86737995e-02 -2.83612385e-02 -1.14696119e-02 +2.37059733e-03 +2.08144519e-03 +6.81856973e-03 +1.66736580e-02 +2.06990223e-02 +2.93246303e-02 +4.78470884e-02 +5.76538704e-02 +7.07445890e-02 +6.90352544e-02 +7.23993033e-02 +7.18878657e-02 +7.53676817e-02 +7.89008886e-02 +8.61939862e-02 +7.45299086e-02 +6.72657788e-02 +7.01861456e-02 +6.04813769e-02 +6.32936135e-02 +4.33988050e-02 +2.82961503e-02 +1.34448409e-02 +1.44290393e-02 +7.57253775e-03 +1.28894229e-03 +1.49741559e-03 +7.91766495e-03 +1.17062060e-02 +8.81702546e-03 +2.53655724e-02 +3.18705775e-02 +3.49447131e-02 +3.01302187e-02 +2.12003216e-02 +1.81105491e-02 +1.79078747e-02 +1.97487008e-02 +4.24005790e-03 +7.04039261e-03 +1.53824193e-02 +2.26732325e-02 +2.04105377e-02 +2.61807069e-02 +3.00282333e-02 +2.12708693e-02 +2.19161548e-02 +2.64583249e-02 +2.69704144e-02 +2.64475234e-02 +2.43397150e-02 +3.37504223e-02 +3.98274772e-02 +4.32201661e-02 +4.27079163e-02 +4.34800349e-02 +3.03077474e-02 +2.00885590e-02 -1.03330091e-02 -4.23182808e-02 -8.46796930e-02 -1.08805574e-01 -1.22934490e-01 -1.42467424e-01 -1.56060725e-01 -1.62424743e-01 -1.70400590e-01 -1.71594784e-01 -1.63215593e-01 -1.60983548e-01 -1.58169389e-01 -1.44385114e-01 -1.33830935e-01 -1.29973367e-01 -1.15666747e-01 -9.42851603e-02 -7.22921342e-02 -6.69820532e-02 -6.47829473e-02 -5.98744266e-02 -4.73932326e-02 -2.64449678e-02 -2.11405139e-02 -1.27707627e-02 -7.92831928e-03 +1.03902621e-02 +3.06923334e-02 +4.12170626e-02 +4.59724069e-02 +6.03909157e-02 +9.30114537e-02 +9.40561071e-02 +8.24220255e-02 +9.00354832e-02 +1.03152901e-01 +1.07823484e-01 +1.17317788e-01 +1.15339659e-01 +1.20219626e-01 +1.19956762e-01 +1.28033116e-01 +1.25358313e-01 +1.17139064e-01 +1.06678985e-01 +1.02419175e-01 +8.37939754e-02 +7.45667741e-02 +6.76850230e-02 +3.91007662e-02 +3.67948078e-02 +4.61662151e-02 +3.70025821e-02 +4.23037633e-02 +2.67482139e-02 +1.69991087e-02 +1.86909270e-02 +2.86466349e-02 +3.72055918e-02 +3.72979231e-02 +4.00089324e-02 +4.23858352e-02 +3.27030942e-02 +8.97970237e-03 -1.24906041e-02 -1.49065359e-02 -1.50012383e-02 -1.93818118e-02 -2.94466428e-02 -3.07828803e-02 -2.06914637e-02 -3.25787254e-02 -2.41873804e-02 -1.55148292e-02 -3.50007555e-03 +1.18669886e-02 +3.14350687e-02 +4.14656810e-02 +5.36321588e-02 +7.40411058e-02 +9.44044739e-02 +9.08678025e-02 +9.74088013e-02 +1.11917980e-01 +1.21384129e-01 +1.19268425e-01 +1.01589799e-01 +8.09157789e-02 +7.22401291e-02 +7.85766244e-02 +7.90072307e-02 +7.82665908e-02 +7.63869137e-02 +6.37272671e-02 +5.90307713e-02 +4.84709181e-02 +2.04847474e-02 +1.00035649e-02 -3.02548893e-03 -3.92758623e-02 -5.86531274e-02 -5.95655404e-02 -7.13267103e-02 -9.90293026e-02 -1.06573738e-01 -1.16280124e-01 -1.17779635e-01 -1.21799394e-01 -1.33734822e-01 -1.37147695e-01 -1.44864723e-01 -1.59352854e-01 -1.71690345e-01 -1.82440832e-01 -1.74413547e-01 -1.73602179e-01 -1.66949227e-01 -1.51271775e-01 -1.42836928e-01 -1.14887759e-01 -1.13125890e-01 -1.09398589e-01 -9.97066796e-02 -8.90561715e-02 -7.58539960e-02 -5.76447099e-02 -5.75541593e-02 -5.80214374e-02 -2.26220116e-02 -1.56075051e-02 +1.96787878e-03 +1.26567464e-02 +3.45114656e-02 +4.78951633e-02 +6.21016324e-02 +5.22185080e-02 +5.88936917e-02 +5.12294993e-02 +6.67116791e-02 +6.83291703e-02 +7.00160712e-02 +7.33740851e-02 +7.98526332e-02 +6.94176629e-02 +6.96299598e-02 +7.31601417e-02 +6.64689243e-02 +8.50981474e-02 +1.13529682e-01 +1.32234797e-01 +1.42770186e-01 +1.45377368e-01 +1.39086232e-01 +1.27550706e-01 +1.28318787e-01 +1.43352151e-01 +1.29338667e-01 +1.20610364e-01 +9.81044099e-02 +7.51490444e-02 +6.98617920e-02 +8.00621808e-02 +7.53081292e-02 +6.79078847e-02 +6.63434118e-02 +6.80471361e-02 +7.20250607e-02 +8.15429837e-02 +5.37753440e-02 +4.14309986e-02 +3.75837795e-02 +3.80534455e-02 +3.06943767e-02 +4.46502790e-02 +4.47782800e-02 +4.10210788e-02 +2.68291850e-02 +1.05838673e-02 -2.18271813e-03 -1.91921163e-02 -1.43911224e-02 -2.67783813e-02 -3.45119946e-02 -4.69037443e-02 -4.60764132e-02 -4.09973785e-02 -5.54541536e-02 -6.79575950e-02 -8.20531547e-02 -8.13346282e-02 -1.00104637e-01 -1.20337673e-01 -1.18055157e-01 -1.26472920e-01 -1.24803230e-01 -1.23813219e-01 -1.35878175e-01 -1.37947336e-01 -1.20270073e-01 -1.02287889e-01 -1.07887894e-01 -9.74843055e-02 -7.87025392e-02 -5.41801937e-02 -2.98081934e-02 -2.69017257e-02 -1.61806028e-02 -7.15593295e-03 +1.09826261e-02 +1.69879571e-03 -1.81860551e-02 -6.89929351e-04 +1.34149529e-02 +2.55648233e-02 +1.73883904e-02 -6.12892630e-03 -1.36469333e-02 -4.27065324e-03 -8.56599119e-03 -2.41475385e-02 -2.70078834e-02 -3.74507420e-02 -3.44013385e-02 -4.49823067e-02 -6.03029579e-02 -5.97951673e-02 -5.93785457e-02 -5.41287400e-02 -6.55504093e-02 -7.20412508e-02 -6.29342049e-02 -7.47388303e-02 -9.04434398e-02 -8.73663425e-02 -9.27858874e-02 -7.32170269e-02 -6.62253872e-02 -5.87282926e-02 -3.74032892e-02 -2.58102324e-02 +4.98532550e-03 +1.45455627e-02 +3.27057503e-02 +4.86325547e-02 +8.37720037e-02 +9.49195921e-02 +1.09355502e-01 +1.22226417e-01 +1.25003085e-01 +1.42893091e-01 +1.44357368e-01 +1.47598550e-01 +1.55580953e-01 +1.58830822e-01 +1.57012165e-01 +1.50493950e-01 +1.67587653e-01 +1.75805196e-01 +1.67410135e-01 +1.61879599e-01 +1.40765309e-01 +1.28992066e-01 +1.33280858e-01 +1.05149046e-01 +9.05453190e-02 +7.72195831e-02 +6.71135336e-02 +6.12514131e-02 +4.00087424e-02 +2.28495225e-02 +1.50380246e-02 +1.15267467e-02 -1.30230747e-02 -1.62106585e-02 -3.17096040e-02 -4.01683897e-02 -4.65205424e-02 -4.58903909e-02 -4.26849760e-02 -4.66500148e-02 -5.35326637e-02 -5.59023842e-02 -7.53042176e-02 -7.25703314e-02 -7.21119642e-02 -6.42895103e-02 -5.44918887e-02 -3.87383141e-02 -2.55038626e-02 -3.76827158e-02 -3.88897434e-02 -4.76961546e-02 -4.49720547e-02 -5.68215027e-02 -6.44894391e-02 -7.55619109e-02 -9.05004144e-02 -1.01184063e-01 -1.11129731e-01 -1.10016420e-01 -1.27893701e-01 -1.39947191e-01 -1.46864861e-01 -1.52073309e-01 -1.51646256e-01 -1.41074821e-01 -1.51649863e-01 -1.46666035e-01 -1.43825620e-01 -1.38666958e-01 -1.10668272e-01 -7.87618905e-02 -6.48824275e-02 -5.26407138e-02 -5.66540062e-02 -4.00633626e-02 -2.50180196e-02 -8.20497423e-03 +1.10844066e-02 +1.88321453e-02 +3.83194089e-02 +6.66005388e-02 +8.13337266e-02 +9.38025787e-02 +1.28590137e-01 +1.27876848e-01 +1.47924080e-01 +1.48808435e-01 +1.45153552e-01 +1.53992862e-01 +1.55718446e-01 +1.57170638e-01 +1.56191170e-01 +1.53309494e-01 +1.71604350e-01 +1.82236910e-01 +1.82381421e-01 +1.75635979e-01 +1.76627427e-01 +1.55581087e-01 +1.25369504e-01 +1.09197371e-01 +8.25653002e-02 +6.35847673e-02 +5.09272367e-02 +3.91735323e-02 +1.21888081e-02 +2.99196341e-03 -1.55491300e-03 -4.85987915e-03 +1.74664473e-03 -1.75811760e-02 -1.73245091e-02 -2.37905756e-02 -2.91623585e-02 -3.75462510e-02 -4.25239727e-02 -4.66724597e-02 -5.72979040e-02 -6.66835085e-02 -8.30573142e-02 -9.93959084e-02 -1.11042790e-01 -1.16447784e-01 -1.33469388e-01 -1.38953075e-01 -1.50853932e-01 -1.38480023e-01 -1.25280961e-01 +1.04409046e-02 +2.04951279e-02 +1.88674983e-02 +1.18704783e-02 -1.12058339e-03 -1.35308399e-03 -6.40501874e-03 -2.28132848e-02 -3.24293561e-02 -4.70291674e-02 -4.21338417e-02 -3.97322550e-02 -4.42489833e-02 -4.86712717e-02 -5.75434342e-02 -5.92565984e-02 -7.50325844e-02 -7.31890127e-02 -6.72568902e-02 -5.76736704e-02 -5.68100363e-02 -6.00767024e-02 -5.29916100e-02 -5.81386425e-02 -6.17313087e-02 -6.23398162e-02 -5.95208704e-02 -5.82733378e-02 -5.47490865e-02 -4.22654115e-02 -3.88024710e-02 -3.56255881e-02 -1.44176092e-02 +7.16602942e-03 +7.26463087e-03 +1.09559787e-03 +7.39063323e-03 +1.46852005e-02 +2.96186749e-02 +2.88115479e-02 +2.20343638e-02 +3.37948278e-02 +5.56160733e-02 +6.68089390e-02 +6.92587122e-02 +6.99145645e-02 +7.11392090e-02 +6.73467591e-02 +6.80503622e-02 +7.11745098e-02 +6.86758682e-02 +7.31711835e-02 +7.55764097e-02 +6.93725571e-02 +6.07081354e-02 +6.33034110e-02 +5.77096045e-02 +3.77771594e-02 +2.33773906e-02 +1.29897371e-02 +1.24414936e-02 +6.12065010e-03 +8.49700812e-03 -7.91892223e-03 -1.21862618e-02 -1.25523303e-02 -1.83135383e-02 -1.70166697e-02 -2.01065596e-02 -1.07518714e-02 -7.05695804e-03 -2.35202094e-03 -6.06210064e-03 -1.55292673e-03 -1.90505793e-03 -1.33688445e-03 -6.82451949e-03 -1.25301564e-02 -1.56792216e-02 -1.65515896e-02 -1.29955600e-03 -1.34519460e-02 -1.18363099e-02 -1.82150584e-02 -2.18279865e-02 -2.77025755e-02 -2.08444484e-02 -1.09669017e-02 -1.19711757e-02 -1.54899089e-02 -1.64662469e-02 -2.19880547e-02 -3.52697074e-02 -2.54752357e-02 -2.63389479e-02 -3.96503173e-02 -4.92777303e-02 -5.37527353e-02 -4.56620865e-02 -3.76540720e-02 -3.58758420e-02 -3.81371193e-02 -2.20909212e-02 -4.73798206e-03 +1.55016343e-04 -3.12164379e-03 +1.06257782e-03 +6.22961251e-03 +8.08911864e-03 +1.62556097e-02 +2.53975522e-02 +3.92826758e-02 +3.93802933e-02 +3.66110839e-02 +2.32397467e-02 +8.18521809e-03 -1.02844574e-02 -7.76396645e-03 -8.40721535e-04 -2.26184651e-02 -2.55307890e-02 -1.12112509e-02 -3.36362724e-03 -1.49293523e-02 -1.27574466e-02 +7.44851865e-03 +1.56385247e-02 +1.74025968e-02 +2.02129856e-02 +1.20687773e-02 +2.09512264e-02 +2.68158410e-02 +1.42469658e-02 +1.71777233e-02 +3.51549163e-02 +3.67733426e-02 +2.47384347e-02 +2.72770543e-02 +2.61963699e-02 +4.40195650e-02 +3.85477729e-02 +1.93752665e-02 +2.15562247e-02 +3.09748016e-02 +4.17227000e-02 +3.94031480e-02 +3.58316563e-02 +3.38426083e-02 +2.48353798e-02 +3.67732234e-02 +3.47824693e-02 +3.90614867e-02 +3.64512987e-02 +3.19352672e-02 +3.17403264e-02 +1.79819409e-02 +5.43853035e-03 -5.50707523e-03 -1.12315612e-02 -1.68713778e-02 -2.60057338e-02 -3.40336934e-02 -4.00726050e-02 -4.46530096e-02 -5.52378148e-02 -6.73661679e-02 -6.80050105e-02 -6.03291728e-02 -3.75662968e-02 -3.01999263e-02 -3.10884751e-02 -2.24790853e-02 -1.82030816e-02 -1.15221348e-02 -4.41833213e-03 -2.48784432e-03 -7.37005193e-03 -1.05769401e-02 -9.61063430e-03 -1.64929889e-02 -1.90764107e-02 -2.20240299e-02 -3.44344601e-02 -3.83055359e-02 -3.73566113e-02 -5.05491383e-02 -5.29514812e-02 -6.21255524e-02 -5.87192886e-02 -5.55673726e-02 -5.16952649e-02 -5.36891446e-02 -6.08258657e-02 -5.20851575e-02 -4.11287323e-02 -2.59200595e-02 -3.24481130e-02 -2.83647031e-02 -1.35715771e-02 +5.32709248e-03 +2.05964055e-02 +2.01541763e-02 +3.23337018e-02 +3.51079553e-02 +3.08890268e-02 +3.69718373e-02 +3.58730182e-02 +4.28828746e-02 +3.97836864e-02 +3.60724777e-02 +2.94464771e-02 +3.32750529e-02 +4.74083945e-02 +4.67736796e-02 +4.81976084e-02 +4.37524393e-02 +5.26663996e-02 +6.17909878e-02 +6.27423748e-02 +6.74036741e-02 +8.00932944e-02 +8.13444629e-02 +6.76098838e-02 +6.78553134e-02 +7.89245740e-02 +8.00300092e-02 +8.76515582e-02 +8.00350755e-02 +6.52802065e-02 +6.78107664e-02 +6.72853366e-02 +6.19717874e-02 +4.90358509e-02 +2.61990391e-02 +1.64425597e-02 +9.05972999e-03 +4.74444358e-03 -3.12301633e-03 -6.32754667e-03 -1.69637837e-02 -1.08146369e-02 -1.40404794e-02 -2.65212655e-02 -3.61271910e-02 -4.68017608e-02 -4.37567197e-02 -5.27096987e-02 -5.90270087e-02 -6.43313974e-02 -7.75865018e-02 -8.86317641e-02 -9.96856317e-02 -1.05423473e-01 -1.10963255e-01 -1.22185923e-01 -1.22704476e-01 -1.14507452e-01 -9.64403898e-02 -7.36186877e-02 -7.68676102e-02 -7.53517002e-02 -6.54005781e-02 -4.25359868e-02 -2.91638374e-02 -2.62932405e-02 -1.62077267e-02 -4.41014022e-03 +5.56148263e-03 +1.13931140e-02 +9.93242394e-03 -2.19057081e-03 +5.78633789e-03 -3.24350945e-03 -1.42699173e-02 -1.26651125e-02 -7.10673339e-04 +5.34007838e-03 +6.92661572e-03 -4.14706860e-03 -4.36071679e-03 +1.25454739e-02 +1.95014272e-02 +3.00788134e-02 +3.55214551e-02 +4.57469262e-02 +5.81907071e-02 +6.38758317e-02 +8.19924921e-02 +9.76275131e-02 +1.11451559e-01 +1.20423712e-01 +1.17348030e-01 +1.20919131e-01 +1.14552453e-01 +1.03637367e-01 +9.39767808e-02 +8.78489465e-02 +7.74348676e-02 +7.08126873e-02 +5.28965332e-02 +4.82736938e-02 +4.43348140e-02 +2.33117323e-02 +4.90530976e-04 +4.94860637e-04 -4.98687077e-05 -2.98240804e-03 -6.28372328e-03 -1.93400066e-02 -2.84417756e-02 -4.24638912e-02 -5.01519516e-02 -5.56831434e-02 -5.63360266e-02 -5.36647663e-02 -4.82433699e-02 -5.24130091e-02 -5.24503402e-02 -6.12025708e-02 -5.04986644e-02 -4.77827340e-02 -5.17397225e-02 -4.38804626e-02 -4.50836383e-02 -4.31656949e-02 -3.74644473e-02 -2.35627312e-02 -2.87822839e-02 -8.52055103e-03 +3.95485852e-03 +3.38592380e-03 +2.35360712e-02 +4.09111418e-02 +6.03525601e-02 +7.86081627e-02 +7.83410966e-02 +8.94764736e-02 +1.04634397e-01 +1.28534481e-01 +1.25727192e-01 +1.23440899e-01 +1.27001807e-01 +1.20200001e-01 +1.09198786e-01 +1.02447629e-01 +1.06668845e-01 +8.84907395e-02 +8.31421986e-02 +9.49338824e-02 +9.23684388e-02 +9.53250974e-02 +8.88354108e-02 +8.28271806e-02 +7.73839802e-02 +7.54757673e-02 +5.66656478e-02 +4.20730598e-02 +3.28892618e-02 +2.83380672e-02 +1.97148304e-02 +3.93992430e-03 +5.89854829e-03 -1.40489312e-02 -2.00068690e-02 -3.77562232e-02 -3.22791226e-02 -2.92097460e-02 -4.85488251e-02 -4.01224531e-02 -4.12954688e-02 -4.45170514e-02 -4.38955761e-02 -5.44434972e-02 -5.84584214e-02 -6.67867139e-02 -5.36366031e-02 -5.87457642e-02 -5.02864681e-02 -4.32079136e-02 -6.30033016e-02 -6.74771145e-02 -8.01632553e-02 -9.54921097e-02 -1.23266324e-01 -1.44017622e-01 -1.54759079e-01 -1.54783309e-01 -1.67991221e-01 -1.86849445e-01 -1.91711709e-01 -1.92974687e-01 -1.99609950e-01 -2.03195244e-01 -2.07463592e-01 -2.08662525e-01 -2.15935051e-01 -2.07608879e-01 -1.90257758e-01 -1.79259226e-01 -1.53033063e-01 -1.36347026e-01 -1.30423531e-01 -1.08661383e-01 -7.42256269e-02 -4.45518084e-02 -2.05724426e-02 +1.60950292e-02 +6.42720759e-02 +9.03404206e-02 +1.31044313e-01 +1.59486219e-01 +1.68974549e-01 +1.84326157e-01 +2.00714350e-01 +2.22033620e-01 +2.30655640e-01 +2.35723853e-01 +2.42513686e-01 +2.56427288e-01 +2.71839648e-01 +2.67590821e-01 +2.66643554e-01 +2.53228039e-01 +2.57897407e-01 +2.45776072e-01 +2.33655885e-01 +2.27394193e-01 +2.24672228e-01 +2.15011567e-01 +1.94707885e-01 +1.75726548e-01 +1.51919141e-01 +1.35127947e-01 +1.27224773e-01 +1.09651431e-01 +8.34133700e-02 +5.90878539e-02 +3.12321428e-02 +3.99915241e-02 +2.66680457e-02 +6.50682813e-03 +1.17032463e-02 +1.02178333e-02 +1.56446313e-03 +6.65931776e-03 +1.17309578e-02 +9.24645551e-03 -2.03288672e-03 -1.59126092e-02 -2.78239753e-02 -4.39400300e-02 -6.21774457e-02 -8.34874660e-02 -1.05022214e-01 -1.32492527e-01 -1.47293821e-01 -1.43723696e-01 -1.56868964e-01 -1.85511068e-01 -1.95143759e-01 -2.08911583e-01 -2.28996664e-01 -2.21645266e-01 -2.08188251e-01 -2.02025473e-01 -1.77087709e-01 -1.80774912e-01 -1.90250188e-01 -1.84653640e-01 -1.73589319e-01 -1.64457947e-01 -1.76628023e-01 -1.81430653e-01 -1.74023196e-01 -1.63367018e-01 -1.58885568e-01 -1.61886290e-01 -1.65748224e-01 -1.59080267e-01 -1.37704208e-01 -1.31928459e-01 -9.96941999e-02 -5.55664971e-02 -1.52651379e-02 +2.52285898e-02 +5.31364493e-02 +7.47514740e-02 +1.05887242e-01 +1.23018302e-01 +1.26778960e-01 +1.34901583e-01 +1.55298606e-01 +1.70210779e-01 +1.60137773e-01 +1.64969355e-01 +1.56481102e-01 +1.51040509e-01 +1.38242602e-01 +1.38647288e-01 +1.19856156e-01 +1.22368783e-01 +1.16679832e-01 +1.07528292e-01 +1.06284678e-01 +1.09058432e-01 +9.27804038e-02 +8.75468254e-02 +9.52385888e-02 +7.28057697e-02 +6.95553273e-02 +6.84912503e-02 +6.65806755e-02 +5.87849841e-02 +7.32901469e-02 +5.73036410e-02 +4.49133925e-02 +4.65113409e-02 +4.75776196e-02 +4.65206131e-02 +4.53300737e-02 +4.06983569e-02 +4.78901155e-02 +4.84701544e-02 +4.90234904e-02 +3.36719528e-02 +2.90651098e-02 +2.78970972e-02 +1.84571557e-02 +1.16067687e-02 +4.35529510e-03 -3.74378893e-03 -1.42190056e-02 -2.75797229e-02 -2.32989732e-02 -1.57443993e-02 -2.85609253e-02 -3.09972670e-02 -3.91512886e-02 -4.80400287e-02 -4.37304825e-02 -4.03445326e-02 -2.58450881e-02 -2.08219979e-02 -2.14612540e-02 -2.29271054e-02 -2.51707733e-02 -3.06890812e-02 -2.50397772e-02 -2.84094345e-02 -3.31848375e-02 -3.47707085e-02 -4.44518290e-02 -2.96419058e-02 -4.18135524e-02 -4.92654629e-02 -7.05463216e-02 -8.47047567e-02 -7.21467212e-02 -6.72505200e-02 -7.25817308e-02 -7.27184117e-02 -6.99591488e-02 -7.67818615e-02 -7.36069009e-02 -7.18058720e-02 -7.69071430e-02 -6.58866614e-02 -6.47932813e-02 -8.06327015e-02 -8.25086236e-02 -7.72502795e-02 -7.38151297e-02 -7.03346580e-02 -6.81740567e-02 -5.11393473e-02 -3.78605053e-02 -2.97324583e-02 -1.78213753e-02 +3.49117815e-03 +9.57670715e-03 +1.93689317e-02 +2.13205870e-02 +2.31043082e-02 +2.23178007e-02 +3.62061448e-02 +5.03938645e-02 +4.83801179e-02 +5.41396253e-02 +6.31254911e-02 +5.96871898e-02 +7.38911182e-02 +7.53679425e-02 +7.40842372e-02 +7.78492689e-02 +6.75645620e-02 +7.22042024e-02 +8.02851617e-02 +8.01318288e-02 +9.04551744e-02 +1.10666536e-01 +1.19610317e-01 +1.24396741e-01 +1.50893137e-01 +1.69090837e-01 +1.82227969e-01 +2.09998116e-01 +2.16458529e-01 +2.06477135e-01 +1.97827145e-01 +1.95227548e-01 +1.70690477e-01 +1.51448280e-01 +1.27158478e-01 +9.24033001e-02 +7.80941397e-02 +5.42124473e-02 +3.46881486e-02 +1.10042933e-02 -1.39864972e-02 -4.02453765e-02 -6.54543340e-02 -8.23373124e-02 -1.07317701e-01 -1.12429664e-01 -1.27650544e-01 -1.47182912e-01 -1.62693232e-01 -1.67937234e-01 -1.76178947e-01 -1.83697715e-01 -1.91217825e-01 -1.93948179e-01 -1.97879076e-01 -2.06257135e-01 -1.95991263e-01 -1.85930371e-01 -1.93141207e-01 -1.74363300e-01 -1.66925266e-01 -1.61030143e-01 -5.38236741e-03 +3.60860862e-03 -4.53225430e-03 -7.02172332e-03 +4.12646355e-03 +1.26650333e-02 +2.17905492e-02 +2.32785288e-02 +1.78363100e-02 +1.52570968e-02 +2.35067904e-02 +2.33451873e-02 +2.72091720e-02 +2.80761514e-02 +2.99124625e-02 +3.87541689e-02 +3.48522663e-02 +2.67151538e-02 +3.00401840e-02 +3.97607535e-02 +4.19947132e-02 +3.69234197e-02 +4.17461172e-02 +5.30587286e-02 +5.83427027e-02 +4.42173220e-02 +2.96285171e-02 +2.14757267e-02 +1.50168361e-02 +9.62042063e-03 +5.83871268e-03 +6.68604067e-03 +1.53714418e-02 +1.80930384e-02 +1.29719563e-02 +8.81065242e-03 +1.23544689e-02 -7.73108099e-04 -1.81506835e-02 -3.10516935e-02 -3.26822884e-02 -2.87754927e-02 -2.38771066e-02 -2.56302841e-02 -3.27687375e-02 -3.21961008e-02 -3.81437168e-02 -4.23427448e-02 -4.09868769e-02 -4.18787971e-02 -3.87161337e-02 -1.36819975e-02 +6.29182672e-03 +1.50604937e-02 +1.52395386e-02 +2.70775110e-02 +3.25947553e-02 +2.90816873e-02 +2.40476392e-02 +2.10618339e-02 +1.93231683e-02 +2.09674984e-02 +2.66741347e-02 +1.83649641e-02 +1.58471093e-02 +1.00759771e-02 -1.01705687e-02 -1.76238976e-02 -2.25125179e-02 -3.90563011e-02 -4.24155146e-02 -4.11948599e-02 -4.52271067e-02 -4.76496443e-02 -5.38753048e-02 -5.20314798e-02 -4.71810922e-02 -3.69481295e-02 -2.52242479e-02 -1.94626804e-02 -9.87387728e-04 +8.54035560e-03 +5.83124114e-03 +7.85920117e-03 +5.46049187e-03 +4.85523278e-03 +1.06512383e-02 +1.22339334e-02 +8.97573400e-03 +2.48118397e-03 -5.96369267e-04 -6.60806941e-03 -1.36953499e-02 -2.15353034e-02 -3.03184278e-02 -2.73209400e-02 -1.65114831e-02 -9.16634314e-03 -8.80279206e-03 -7.53981527e-03 -3.59650236e-03 +7.49928411e-03 +1.46897659e-02 +2.37865616e-02 +3.53151113e-02 +3.84512320e-02 +4.50347364e-02 +4.11434583e-02 +4.72913757e-02 +6.67814612e-02 +7.21401870e-02 +7.06972852e-02 +7.00452998e-02 +5.98744415e-02 +4.55776453e-02 +3.53234373e-02 +3.93107980e-02 +4.20185663e-02 +3.33484076e-02 +1.89686939e-02 +1.82380658e-02 +1.30229918e-02 +1.34035712e-02 -1.39459630e-03 -2.23233998e-02 -7.48285232e-03 +2.06902763e-03 -4.97434381e-03 -1.28335459e-02 -6.75671594e-03 -5.99946408e-03 -1.47263641e-02 -2.50054132e-02 -2.20759958e-02 -1.59658939e-02 -2.33957935e-02 -3.78900655e-02 -4.44905758e-02 -3.21810469e-02 -2.72948425e-02 -4.63870466e-02 -5.14245965e-02 -4.12068665e-02 -3.35422680e-02 -2.28395909e-02 -2.95118447e-02 -2.85272971e-02 -2.54170224e-02 -2.00410988e-02 -2.34276187e-02 -3.40438560e-02 -2.88517158e-02 -3.08719389e-02 -4.21865098e-02 -5.81654273e-02 -6.03720248e-02 -6.40398115e-02 -6.84150234e-02 -7.33719692e-02 -6.76593110e-02 -5.85540757e-02 -5.22206426e-02 -4.83511649e-02 -3.86117883e-02 -2.36849487e-02 -1.33070198e-03 +1.67997740e-02 +2.69239806e-02 +3.36379223e-02 +4.61467691e-02 +6.75865635e-02 +7.10516348e-02 +7.45364130e-02 +7.41663650e-02 +7.53707588e-02 +8.18373710e-02 +8.70538354e-02 +7.92510137e-02 +6.27820566e-02 +5.61077036e-02 +4.98796105e-02 +3.99611928e-02 +2.59132646e-02 +1.78071987e-02 +1.50493924e-02 +1.31521849e-02 +1.24958325e-02 +1.48524521e-02 +1.97640769e-02 +2.30386201e-02 +2.90169641e-02 +3.12772878e-02 +3.01681217e-02 +3.32497098e-02 +4.08630595e-02 +4.57488038e-02 +5.57684973e-02 +6.37799129e-02 +6.26600534e-02 +6.48455173e-02 +6.69916719e-02 +5.50893769e-02 +4.88107875e-02 +3.54916900e-02 +2.10650992e-02 +2.18679234e-02 +1.47030884e-02 +1.04944902e-02 +2.72941263e-03 -7.73270708e-03 -2.05786843e-02 -3.50375138e-02 -4.89321202e-02 -6.67672157e-02 -7.95011446e-02 -9.29529741e-02 -1.08628899e-01 -1.20238170e-01 -1.32576212e-01 -1.40827641e-01 -1.45603746e-01 -1.48911789e-01 -1.47031337e-01 -1.35194302e-01 -1.31000623e-01 -1.26746640e-01 -1.17505573e-01 -1.03692159e-01 -8.30092579e-02 -5.43064624e-02 -3.83321717e-02 -3.04830894e-02 -1.16385883e-02 +5.56387985e-03 +8.74264538e-03 +1.34177618e-02 +2.97457334e-02 +3.59720103e-02 +5.11296093e-02 +5.78040071e-02 +6.67613596e-02 +7.17408657e-02 +7.39216432e-02 +7.22401440e-02 +6.87408075e-02 +7.44339228e-02 +8.01124945e-02 +7.36914203e-02 +7.48240799e-02 +8.53675604e-02 +8.53313729e-02 +8.68468955e-02 +7.89743066e-02 +7.45458454e-02 +6.53959885e-02 +6.20983280e-02 +5.87866195e-02 +5.23260757e-02 +4.40205298e-02 +2.52634976e-02 +9.96922422e-03 +9.23216529e-03 +1.52940154e-02 +1.10815940e-02 +1.11285569e-02 +9.89665464e-03 +2.34841555e-02 +2.96811741e-02 +2.58830469e-02 +2.58380435e-02 +4.33246903e-02 +5.64527586e-02 +5.40794134e-02 +4.30259928e-02 +3.69375125e-02 +4.14484143e-02 +3.92714888e-02 +3.26017812e-02 +1.95385292e-02 +1.14520146e-02 +8.91941227e-03 +8.09511170e-03 +5.07513527e-03 -1.33172749e-02 -3.12847905e-02 -4.78104204e-02 -6.29415214e-02 -7.20655620e-02 -8.76878202e-02 -1.08161964e-01 -1.15147643e-01 -1.14085972e-01 -1.13213882e-01 -1.22698441e-01 -1.31291270e-01 -1.25389159e-01 -1.22379564e-01 -1.20528862e-01 -1.17211126e-01 -1.08487286e-01 -8.69117826e-02 -7.08304644e-02 -7.33128637e-02 -6.88216761e-02 -6.32999390e-02 -5.32927327e-02 -3.71879116e-02 -3.34124938e-02 -3.18391845e-02 -1.34391077e-02 +1.45081291e-02 +3.02352123e-02 +3.87225971e-02 +5.07434197e-02 +5.90846017e-02 +7.66535923e-02 +8.68599191e-02 +7.70470873e-02 +7.71805272e-02 +8.23084936e-02 
#Parameter# /_1 {320} 5121 ZERO_GRAD
-2.35909373e-02 -2.56891884e-02 -1.89059228e-02 -2.80685350e-03 -1.76252518e-03 -4.27682564e-04 +9.44699626e-03 +2.74124648e-02 +2.90454607e-02 +3.46012972e-02 +4.39739972e-02 +5.40333353e-02 +6.29496872e-02 +5.62566072e-02 +4.95069139e-02 +3.69480141e-02 +2.23164074e-02 +1.10779256e-02 +8.97982810e-03 +1.13316886e-02 +1.58053692e-02 +2.34653559e-02 +1.81357972e-02 +3.95979406e-03 -5.17849367e-05 -1.29360259e-02 -1.32436806e-03 +1.20167038e-03 -4.44156723e-03 -1.22614959e-02 -6.00804295e-03 +3.87679529e-03 +4.82911430e-03 +5.66872442e-03 -9.41494727e-05 +3.62992333e-03 +1.82756528e-04 -8.63844529e-03 -1.71885733e-02 -2.49848813e-02 -2.16000266e-02 -2.63504479e-02 -3.29141691e-02 -2.84715481e-02 -2.68931128e-02 -2.51263771e-02 -2.45936960e-02 -2.67262515e-02 -1.41798258e-02 -1.34133024e-03 +7.36054080e-03 +1.81482192e-02 +3.77780385e-02 +4.60753515e-02 +4.83374000e-02 +5.88831156e-02 +6.17636703e-02 +5.36712669e-02 +3.79521437e-02 +2.23107412e-02 +3.02270073e-02 +2.58675460e-02 +1.47782424e-02 +4.13953885e-03 -2.59542000e-03 +5.07873716e-04 -4.39833058e-03 -6.04586070e-03 -1.64879169e-02 -1.12880580e-02 +7.43604149e-04 +5.76057052e-03 -2.78046099e-03 -1.32145016e-02 -2.11115665e-04 +4.30933293e-03 -7.13425281e-04 -7.21140346e-03 -1.57931354e-02 -6.66047912e-03 +4.13009757e-03 +3.87261505e-04 -6.84248051e-03 -8.40409566e-03 -1.16908895e-02 -1.46712251e-02 -2.01079194e-02 -2.09133569e-02 -1.55544365e-02 -6.88014925e-03 -1.71872489e-02 -3.31289247e-02 -3.47594246e-02 -3.11597027e-02 -3.32360081e-02 -4.49225791e-02 -5.13405576e-02 -4.18902151e-02 -2.17114538e-02 -1.02407876e-02 -1.39802052e-02 -1.33912181e-02 -1.50428026e-03 +9.10366187e-04 +2.33237701e-03 +4.17567353e-04 -3.20026884e-03 +1.03756301e-02 +1.53101431e-02 +1.59946252e-02 +1.73324347e-02 +2.46059429e-02 +2.71262154e-02 +1.52028659e-02 +2.65012681e-02 +4.49641831e-02 +4.69504446e-02 +4.18431535e-02 +3.90126482e-02 +4.12184261e-02 +3.36780176e-02 +2.40083486e-02 +1.06689632e-02 +1.32643804e-02 +1.72754917e-02 +1.08628189e-02 +2.63382681e-03 -8.32232239e-04 -3.78820603e-03 -4.88565583e-03 -2.47499673e-03 -2.77133845e-03 +1.00038284e-02 +1.35244718e-02 +1.19394492e-02 +1.51066631e-02 +1.71390045e-02 +1.71031412e-02 +9.77690890e-03 +6.32599404e-04 +2.82317586e-03 +5.54995611e-03 -4.27356455e-03 -2.72371117e-02 -4.28900085e-02 -4.78383303e-02 -5.04549146e-02 -5.70253246e-02 -6.67804256e-02 -7.46960044e-02 -8.08224380e-02 -8.98239240e-02 -9.56286490e-02 -8.92396122e-02 -7.46876076e-02 -6.09125830e-02 -4.71171215e-02 -4.45183553e-02 -3.49702984e-02 -1.81609485e-02 -5.54584013e-03 +8.10032710e-03 +2.88881939e-02 +4.71996963e-02 +4.98685278e-02 +4.37929630e-02 +4.52058576e-02 +5.70207238e-02 +6.28246814e-02 +6.29563034e-02 +4.92543541e-02 +4.60474230e-02 +4.75905761e-02 +4.98908609e-02 +5.32152914e-02 +4.27783318e-02 +5.03440052e-02 +5.92436492e-02 +6.40631765e-02 +7.11349398e-02 +7.14972243e-02 +7.24839419e-02 +7.19045028e-02 +7.03482702e-02 +4.98377942e-02 +3.60086672e-02 +3.90004888e-02 +4.45156284e-02 +4.61892560e-02 +3.94189656e-02 +2.70222090e-02 +8.78415443e-03 -4.37874487e-03 -1.70598254e-02 -2.61084046e-02 -2.56079268e-02 -3.53919268e-02 -5.48657775e-02 -5.44568263e-02 -5.69984019e-02 -5.34227341e-02 -5.20999096e-02 -5.93137816e-02 -5.26755117e-02 -3.68075706e-02 -2.20753103e-02 -2.36060768e-02 -3.02763768e-02 -2.87344288e-02 -2.19456814e-02 -1.25580402e-02 -2.01320443e-02 -2.48509105e-02 -3.65156084e-02 -4.54637073e-02 -5.56225255e-02 -7.15749487e-02 -6.53783381e-02 -6.53843135e-02 -6.53174892e-02 -6.44887686e-02 -5.60238957e-02 -3.84798273e-02 -2.48171594e-02 -1.48508484e-02 -9.12835263e-03 -5.85777685e-03 -1.31821807e-03 -7.85736274e-03 -3.97399795e-04 +9.83682461e-03 +8.52534268e-03 +8.22051894e-03 +1.44427142e-03 +9.13091935e-03 +1.25139654e-02 +1.09437136e-02 +6.28498662e-03 +6.84740301e-03 +4.78245365e-03 +4.44753468e-03 +1.54289706e-02 +2.11881846e-02 +3.14979032e-02 +3.56901176e-02 +3.13840769e-02 +2.84035746e-02 +2.71269921e-02 +2.92949490e-02 +3.30402963e-02 +4.01121229e-02 +5.00552356e-02 +6.40841126e-02 +7.87862465e-02 +8.42883587e-02 +8.42237249e-02 +7.76953697e-02 +6.36330098e-02 +5.32963909e-02 +4.30317372e-02 +3.04848067e-02 +2.53564529e-02 +1.54087739e-02 +1.96526991e-03 -2.28148047e-03 -7.88871944e-03 -7.75756920e-03 +1.06802897e-03 +2.82771606e-03 +8.42025329e-04 -1.53850317e-02 -1.37114031e-02 -1.81345567e-02 -1.23094432e-02 -9.27842781e-03 -2.20620483e-02 -1.57934036e-02 -1.05789267e-02 +8.98945320e-04 -7.17549957e-03 -2.07042042e-02 -1.31457634e-02 -1.39432878e-03 -1.28974265e-03 -2.12057494e-02 -3.17118056e-02 -2.95769330e-02 -3.20353992e-02 -3.10366228e-02 -4.20961455e-02 -4.27665785e-02 -3.10624167e-02 -3.99915315e-02 -4.38836627e-02 -3.35399210e-02 -2.18108501e-02 -2.11850721e-02 -2.28482857e-02 -2.35770028e-02 -2.10934449e-02 -1.13956425e-02 -5.15581295e-03 -4.67803236e-03 -9.22151748e-03 -2.04115342e-02 -2.03125998e-02 -1.55950822e-02 -2.40433142e-02 -3.17457467e-02 -3.19356062e-02 -2.48891842e-02 -2.33510248e-02 -2.20946148e-02 -1.25862844e-02 -1.49110844e-02 -1.19144684e-02 -1.66943967e-02 -1.54712219e-02 -1.67746260e-03 +1.31490338e-03 
#Parameter# /simple-rnn-builder/_0 {8,320} 40961 ZERO_GRAD
+4.97709066e-02 +1.05695024e-01 +1.10111535e-01 +8.92309099e-03 -6.90963566e-02 -2.58001368e-02 -1.70914177e-03 -1.20791145e-01 -6.52257577e-02 +7.27042332e-02 +5.84534332e-02 -1.21392779e-01 +7.78000653e-02 -1.21065035e-01 +4.35490720e-02 +2.69302744e-02 -9.79295895e-02 +1.10749811e-01 +1.07151240e-01 +6.89427331e-02 +8.84132609e-02 -4.54911813e-02 +7.86334947e-02 +2.42696945e-02 -1.18386913e-02 +1.42242923e-01 +1.10256635e-01 +3.57094966e-02 -8.05341899e-02 +1.96065363e-02 -2.43465640e-02 +9.61037204e-02 -1.37698382e-01 -3.90438475e-02 +1.34237349e-01 +8.03651214e-02 -8.28076452e-02 +4.03842852e-02 -8.20295587e-02 -1.28087342e-01 +3.85555290e-02 -2.00237241e-02 +7.09605291e-02 +6.39407784e-02 -1.28289431e-01 -7.65691996e-02 -5.78753427e-02 +1.43554091e-01 -8.92272741e-02 +2.27970115e-04 +1.52973771e-01 +7.17643499e-02 -8.48206356e-02 -6.00411147e-02 +1.63690045e-01 +1.27870440e-01 -1.31711006e-01 -3.06298397e-02 +7.96273202e-02 -8.56495872e-02 -7.31124589e-03 -1.26396678e-02 +1.75752491e-02 +1.00287497e-01 -1.45138539e-02 -1.08775422e-01 -6.72647133e-02 -2.93697254e-03 -1.15627304e-01 -1.10533861e-02 +1.10644951e-01 +1.00863606e-01 +4.49261367e-02 -3.69715318e-02 -1.28435008e-02 -9.23127383e-02 -7.75153860e-02 -6.89681992e-02 +7.34303966e-02 -1.06547818e-01 -1.25100449e-01 +1.03361286e-01 +4.17928360e-02 -1.06526889e-01 +9.12484229e-02 +1.44852906e-01 -7.06348941e-02 +3.03088110e-02 -9.19956714e-02 -1.17492579e-01 -8.65378603e-02 +6.74337819e-02 -9.85160694e-02 -9.63598341e-02 -5.53908125e-02 +6.40607951e-03 -9.60453525e-02 -8.51663351e-02 -8.43642876e-02 -2.88861897e-02 +4.83266413e-02 +3.74156497e-02 -9.77612436e-02 -8.35698619e-02 +2.41806917e-02 -8.29938054e-02 -1.01503938e-01 +7.55385756e-02 +8.11581016e-02 -1.95376612e-02 -4.77691405e-02 -1.14216685e-01 -1.34663701e-01 -2.17300449e-02 -1.22196421e-01 -1.04178227e-01 -8.22786707e-03 +1.44648135e-01 -9.86922458e-02 -1.21670991e-01 -1.29229752e-02 +6.78552464e-02 -9.32808146e-02 +6.37722090e-02 +5.62568568e-02 -5.15134111e-02 +8.58943164e-02 -3.21956575e-02 -2.52291542e-02 -3.46194543e-02 +6.97205290e-02 +7.92023959e-04 +5.27800992e-02 +2.60312837e-02 +3.53074074e-02 +1.27061859e-01 -1.21026017e-01 -6.96430877e-02 -1.29500061e-01 -8.88643414e-02 +5.91519149e-03 +3.42117772e-02 -5.02587706e-02 -2.54157800e-02 -1.32390618e-01 -7.51496479e-02 -1.67300135e-01 +6.70423359e-02 -4.45263609e-02 -3.54144610e-02 -9.52520594e-02 +7.40023479e-02 +1.19906366e-01 +1.21517025e-01 -1.66909564e-02 -1.37220621e-01 +7.97824711e-02 -1.04123643e-02 -7.68848807e-02 +7.90007338e-02 -1.07899323e-01 +1.31760180e-01 -1.31089598e-01 +9.75810438e-02 +1.53733835e-01 +1.17082797e-01 -7.69146532e-03 +4.50781472e-02 -1.04324080e-01 +8.11642110e-02 +4.02896591e-02 -1.04654506e-02 +5.34455255e-02 +1.48797974e-01 -1.16289593e-02 +5.50662130e-02 -4.20563482e-02 -8.77470598e-02 -4.46338095e-02 -7.33871534e-02 +9.97576118e-02 -1.16360940e-01 +8.94627944e-02 -1.15531683e-01 +8.12726840e-02 -4.94401157e-02 -4.51427475e-02 +1.20460935e-01 +8.22517648e-02 +6.29888177e-02 -1.08394548e-01 -7.83416927e-02 -6.41496703e-02 -5.55442981e-02 -3.43839377e-02 -7.89655373e-02 -6.13341620e-03 +1.43355718e-02 -1.89006049e-02 -5.70956841e-02 +1.18432812e-01 -1.13621436e-01 -2.00694147e-02 -3.83934751e-02 +1.36115685e-01 -7.67155588e-02 +3.39817479e-02 +1.33392975e-01 -6.30466640e-02 +1.05668334e-02 -1.41573861e-01 -6.07432202e-02 +1.19568385e-01 +1.50880069e-01 +5.18458374e-02 -2.39520110e-02 +3.41826081e-02 -1.01354979e-01 -1.48625299e-01 -1.86984241e-02 -3.26471962e-02 -4.75877197e-03 -8.74888971e-02 -1.29635125e-01 -1.94607060e-02 -3.87552492e-02 -2.60869749e-02 +1.49258927e-01 +7.17200153e-03 -7.75050670e-02 +5.08921929e-02 +4.16467972e-02 -2.91034412e-02 -4.19731401e-02 -1.25702515e-01 +3.56206149e-02 +1.02237143e-01 +7.72888213e-03 -1.03742860e-01 -8.65808409e-03 +2.72105485e-02 +1.69349648e-02 -7.22984970e-02 -3.47368233e-02 +7.45566785e-02 +1.00750074e-01 +7.30350316e-02 +1.05070725e-01 -5.60963303e-02 +4.70780358e-02 -2.59266999e-02 -1.20254144e-01 -1.72527451e-02 -1.11911163e-01 +9.46702510e-02 +7.54651874e-02 +1.26844496e-01 -1.11588076e-01 +5.66673428e-02 -1.16866879e-01 -1.12604283e-01 +6.26424775e-02 -1.27295464e-01 +1.32617101e-01 +4.34200056e-02 -8.29047412e-02 -2.71674269e-03 -8.43976736e-02 -1.99680086e-02 -1.05745286e-01 +5.28831445e-02 +9.09570381e-02 +1.46665946e-01 -1.60494242e-02 +5.70071861e-02 +4.33279313e-02 -2.48660501e-02 +1.09904576e-02 +5.21662533e-02 -1.81120094e-02 +3.71608771e-02 +2.95481738e-02 +1.72208087e-03 -1.22116588e-01 -1.21546656e-01 +5.16108423e-02 -5.70525881e-03 -1.17202792e-02 +3.10628843e-02 +2.82936031e-03 +7.79173002e-02 +1.00526571e-01 +8.66055936e-02 +1.27953827e-01 +1.11938780e-02 +7.81339929e-02 -6.02465607e-02 +1.26433000e-01 -2.64319610e-02 -2.60550641e-02 +8.38103443e-02 -1.92003604e-02 -3.84284072e-02 -9.23479721e-02 +8.06699470e-02 -3.25819254e-02 -3.99576947e-02 +1.00541785e-01 -1.06361978e-01 +4.74201739e-02 -1.06371678e-01 +2.14784639e-03 -1.54730910e-02 -3.25817764e-02 +1.16745211e-01 +2.51780022e-02 -4.97438526e-03 -1.11671507e-01 -2.72683537e-04 +4.26105559e-02 +4.40422855e-02 -8.20171386e-02 -6.77085146e-02 +6.35510683e-02 -5.10672666e-02 +8.20363462e-02 -1.22286007e-01 +5.89189716e-02 +1.58059031e-01 -2.73064710e-02 -5.77889197e-02 -1.23912236e-02 +1.77371372e-02 +9.24370997e-03 +9.61941928e-02 -2.02311557e-02 +7.48540089e-02 -8.93268138e-02 -1.38553500e-01 +5.70793711e-02 -4.25714888e-02 -5.04922606e-02 -1.06035501e-01 -2.90554930e-02 -1.57848299e-01 +4.47859541e-02 -1.05323546e-01 -3.89284343e-02 -1.47509068e-01 +1.02788232e-01 -1.04844905e-01 -4.08155434e-02 -1.49855819e-02 +4.60481606e-02 -9.86639112e-02 -4.15528789e-02 -1.26449630e-01 -7.56562203e-02 -1.16704248e-01 +8.07212666e-02 +8.50740075e-02 -5.65616135e-03 +3.83781791e-02 -6.47780523e-02 -8.27769116e-02 -9.43046957e-02 -2.92065740e-02 -1.28888905e-01 -1.41708866e-01 +4.57657278e-02 -2.75933370e-02 -1.10814221e-01 -1.22428045e-01 +6.84964284e-02 -1.22040205e-01 +4.71152812e-02 -1.26093263e-02 -1.25624299e-01 +4.65188436e-02 +1.30887199e-02 +1.35348335e-01 +1.10257909e-01 +1.99463330e-02 +9.87170488e-02 +6.39598817e-02 +1.57962054e-01 +8.30093324e-02 -9.89788920e-02 +6.31470373e-03 -6.19917735e-02 -7.39409029e-02 -7.20564276e-02 -1.52208224e-01 -8.67327675e-02 -2.33000182e-02 -6.16336055e-02 -6.49032788e-03 +1.16941065e-01 -1.36223555e-01 -1.16186976e-01 +4.04533707e-02 -2.31111348e-02 -7.03045800e-02 -8.85892808e-02 +1.72202457e-02 +1.03885807e-01 -2.14713085e-02 -1.44936055e-01 -9.33504999e-02 -6.13358654e-02 +6.30035996e-02 -3.24141793e-02 -1.13543779e-01 +8.49851370e-02 -4.35535386e-02 +2.52849106e-02 -6.06797338e-02 -2.46771146e-02 -3.12976465e-02 +1.22967951e-01 -1.85320526e-02 -2.83828750e-02 -2.59201461e-03 -8.71049613e-03 -1.61601249e-02 -8.56947377e-02 -1.07036747e-01 -5.56077734e-02 -2.38313992e-02 +7.59903574e-03 -9.44031850e-02 -1.43818021e-01 +8.57728645e-02 +5.60843274e-02 -4.96689267e-02 -7.08105415e-02 +7.41975605e-02 -5.01920283e-03 -2.48315861e-03 +4.13769260e-02 +1.57689333e-01 +6.99632764e-02 -9.58400518e-02 -1.54677883e-01 +9.40492898e-02 +6.23041913e-02 +1.03871129e-01 +2.08636727e-02 +1.07047267e-01 -9.23834816e-02 +1.20587543e-01 -5.31188436e-02 +1.22682676e-01 -5.23735322e-02 +1.08874246e-01 +1.84063390e-02 -6.53380975e-02 -1.25752002e-01 +1.33648887e-01 -1.00165665e-01 -2.74093952e-02 +1.33722842e-01 +1.10650115e-01 -1.08072042e-01 +1.90652478e-02 -9.32258964e-02 +9.78081599e-02 -1.17407367e-01 +6.94886688e-03 +2.96897739e-02 +9.37516391e-02 -9.88692120e-02 +4.52043489e-02 -8.70331898e-02 -4.35707197e-02 -1.01993598e-01 +7.10205808e-02 -8.10893178e-02 +1.09952666e-01 +6.38601952e-04 +1.58846185e-01 +9.40513760e-02 +1.06004197e-02 -1.07717022e-01 -7.65482709e-02 -5.55546656e-02 -2.13402435e-02 -1.23796552e-01 -4.26020324e-02 +9.04540047e-02 +1.15584940e-01 -2.50195526e-02 +5.54422289e-02 -6.88453540e-02 +4.24362868e-02 +4.80221771e-02 +1.20279908e-01 -9.80362296e-02 +6.57860283e-03 -3.07378229e-02 +8.42383876e-02 +5.90534844e-02 +1.15872860e-01 +9.00761709e-02 -4.64278869e-02 +3.92084755e-02 -5.59465922e-02 +8.01414102e-02 -4.30497453e-02 +1.92365563e-03 +2.85403188e-02 -5.13381548e-02 +7.28495717e-02 -5.61683290e-02 +5.41330986e-02 +3.78919244e-02 +1.43572718e-01 +8.44982639e-02 +3.23020737e-03 -7.85567313e-02 -1.06349781e-01 -3.84457828e-03 +1.30795181e-01 -8.86143520e-02 -6.57711476e-02 -9.73694399e-02 -4.13866006e-02 +1.02084294e-01 -4.01827507e-03 -9.74771157e-02 -5.35972752e-02 -8.76585916e-02 +8.03929418e-02 +1.58886779e-02 +6.40307516e-02 +3.92015418e-03 +7.25283250e-02 -1.39758825e-01 +3.52050513e-02 +6.22922182e-02 +6.52738214e-02 +8.15827325e-02 -2.42566243e-02 +4.44218218e-02 -1.13932654e-01 +1.30343199e-01 +6.58261329e-02 +9.35607776e-02 +9.40880030e-02 +2.56861001e-02 -4.18000445e-02 -2.87398063e-02 +3.35517363e-03 +5.49197644e-02 +1.08548276e-01 +2.15797927e-02 -8.46370235e-02 +1.76061690e-02 -1.03875078e-01 +7.80066773e-02 -5.04077040e-02 -3.88126895e-02 +4.93133180e-02 +5.56144565e-02 +2.67183874e-02 +5.66211306e-02 +1.06899709e-01 +1.02904670e-01 +9.50275883e-02 -1.30279884e-01 -2.31539216e-02 +1.11447029e-01 -5.68466214e-03 -6.66879565e-02 -9.17850956e-02 -1.44287329e-02 +9.55039114e-02 +2.58893031e-03 +5.13869151e-02 +1.39136270e-01 -1.39173925e-01 +5.06875552e-02 -7.34283775e-02 -9.54393856e-03 +4.91718873e-02 -6.08924180e-02 -1.87794177e-03 +3.71190421e-02 -8.46223012e-02 +5.51674180e-02 +1.02997825e-01 +8.88781622e-02 -1.97989605e-02 -5.08903414e-02 -3.95488627e-02 +1.00636616e-01 -1.09612450e-01 +6.46691862e-03 -3.46154943e-02 -1.21596359e-01 -1.55588873e-02 -7.14902580e-02 +1.77068233e-01 -3.32358703e-02 +6.47023171e-02 +1.12897165e-01 +1.13182396e-01 -4.25446853e-02 -6.71500862e-02 -7.14965388e-02 +4.54060622e-02 +1.07963011e-01 +6.01269566e-02 -3.27549838e-02 -1.15854188e-03 -4.23606485e-02 +1.19487643e-01 -6.78328648e-02 +4.89494912e-02 +4.89417352e-02 +1.06922626e-01 -1.00434087e-01 +1.04431301e-01 -8.36784244e-02 +1.08442120e-01 +1.94740631e-02 +3.56687345e-02 +7.27506578e-02 -8.12844038e-02 +1.41081378e-01 +6.65123835e-02 -1.09498344e-01 -6.74380222e-03 -4.23140079e-02 +1.05451815e-01 -1.15602307e-01 -4.23813052e-02 +9.23571512e-02 +9.03585479e-02 +1.18930824e-01 -3.93736511e-02 -1.40810469e-02 +4.22542468e-02 +6.62303641e-02 -9.85527113e-02 +1.06100768e-01 +1.71611141e-02 -2.82387473e-02 +6.46426976e-02 -1.78002827e-02 -7.41885677e-02 -6.62656650e-02 +6.24128878e-02 +2.91842017e-02 +4.49731201e-03 +1.67142570e-01 -8.13729241e-02 +1.57039594e-02 -7.66046569e-02 +9.85753313e-02 -1.51327237e-01 -1.24033213e-01 -6.77899122e-02 -4.57704701e-02 +6.32321984e-02 -8.95650834e-02 -1.12763621e-01 -1.66860297e-02 +1.03418641e-01 -3.08046937e-02 +1.52007872e-02 +1.21712685e-01 +9.66136977e-02 +3.48138362e-02 -1.10187709e-01 +5.47100008e-02 -1.33304119e-01 +1.51750624e-01 +1.67484388e-01 +2.90388465e-02 -8.13000426e-02 -1.03372270e-02 +2.34246980e-02 -5.43175712e-02 -1.17609300e-01 -6.10678340e-04 +3.69912796e-02 +5.09460941e-02 -1.76638588e-01 +7.59596080e-02 -1.08807452e-01 +1.37789354e-01 +7.07557574e-02 +3.01513970e-02 +8.87254477e-02 +1.38674408e-01 +8.64729434e-02 +1.15195855e-01 -9.18398947e-02 -4.10714298e-02 -1.26586512e-01 +2.75949910e-02 -1.09570533e-01 +8.12814832e-02 +1.46921605e-01 -1.06503569e-01 -1.68088883e-01 -1.13190979e-01 -9.55503136e-02 -2.72269864e-02 +1.45529181e-01 -1.67916268e-02 +4.41993847e-02 +7.01603517e-02 -4.48009036e-02 -1.05907381e-01 -4.97880057e-02 -3.48425359e-02 +5.64800426e-02 -7.99579173e-02 +2.96187922e-02 +8.90130550e-02 -9.55046937e-02 +1.10903844e-01 -1.61303654e-02 -2.78995931e-02 +9.88341272e-02 +8.99581388e-02 +7.19386563e-02 +1.13519154e-01 -1.01619236e-01 -3.24830562e-02 +1.47175133e-01 +7.98345879e-02 -8.01093802e-02 -3.46260481e-02 -4.14641723e-02 -1.08172717e-02 -4.26773243e-02 +9.91769433e-02 +5.09156100e-02 -1.35916341e-02 +2.75148358e-02 +1.25940159e-01 -3.03188637e-02 +1.90278247e-03 -5.48785776e-02 +8.10435936e-02 +3.39957215e-02 +1.11002065e-01 +7.50948116e-02 +2.47486923e-02 +9.49561745e-02 -4.48732413e-02 -2.08977088e-02 -2.09093036e-04 +1.11790396e-01 -1.30791083e-01 -1.09545857e-01 -3.88878956e-02 -5.30687608e-02 +7.12304609e-03 -1.07598886e-01 -9.07261148e-02 -3.48189846e-02 +1.18706906e-02 -1.13493670e-02 +1.12852566e-01 -3.89553308e-02 -7.19623938e-02 -5.82135692e-02 -4.65825535e-02 -4.46714871e-02 +3.47275026e-02 -1.80538576e-02 -1.02430068e-01 +1.51817556e-02 -8.57655928e-02 -1.14566155e-01 +1.40610531e-01 +8.64424258e-02 +5.52842719e-03 +1.25430346e-01 +1.30967259e-01 +2.86077540e-02 -1.16728358e-01 -8.58596154e-03 -4.34532017e-02 +1.04560852e-01 -1.03391744e-02 +1.29462481e-01 -1.04517892e-01 -5.47240935e-02 +5.50481714e-02 -1.38778165e-01 -4.84673940e-02 -8.03418383e-02 -8.82145762e-02 +1.41026545e-02 +1.09767705e-01 -4.53832857e-02 +6.34972975e-02 -1.84727773e-01 -1.21239610e-01 -9.48789269e-02 -1.11764260e-01 -1.23266257e-01 +6.85550198e-02 +3.39112151e-03 -3.01258899e-02 -1.33090645e-01 +1.11739382e-01 +1.64607428e-02 -1.15035139e-01 +9.43215266e-02 +1.17893495e-01 +2.54817326e-02 +1.36376947e-01 +6.39600828e-02 -2.28055827e-02 +1.79811716e-02 -9.83062852e-03 +6.60687461e-02 -6.55948967e-02 +8.91939327e-02 +6.55769790e-03 +3.15048322e-02 +1.23255678e-01 +1.00799285e-01 +5.59968874e-02 -1.31631553e-01 -6.20014891e-02 +4.79438417e-02 -2.44580861e-02 -5.59172481e-02 -1.05142221e-02 +3.99845578e-02 +9.63589698e-02 +5.29381111e-02 -4.78041358e-02 +7.39156548e-03 +1.37339830e-02 +5.94072938e-02 +1.32139530e-02 -8.05205330e-02 +1.13024645e-01 -5.73125575e-03 -2.63652205e-02 +7.55959675e-02 +6.74906671e-02 -2.19096411e-02 +2.11439859e-02 -6.92683607e-02 +1.11519217e-01 -5.45030311e-02 -5.83263598e-02 -6.13685474e-02 +1.14751644e-01 +5.02840765e-02 +2.56145243e-02 -1.27385557e-01 -9.97290313e-02 -1.49187103e-01 -2.70302105e-03 +8.30961540e-02 +7.18435347e-02 -1.30982921e-01 +6.31639585e-02 -1.22209609e-01 -8.17753151e-02 -5.59640601e-02 -7.29069635e-02 +9.82300043e-02 +9.30909216e-02 -6.53962558e-03 +2.01277416e-02 -1.81299727e-02 +3.77554186e-02 -2.51889601e-02 -4.63698581e-02 -5.85856177e-02 +8.19828063e-02 +1.31270021e-01 +1.00882754e-01 -4.76477258e-02 -4.14684750e-02 -1.49684921e-01 -7.96329826e-02 +1.63271502e-02 -7.43138716e-02 +7.83762261e-02 +7.86334127e-02 +8.42164978e-02 -1.87382381e-02 +8.02336410e-02 -5.09026051e-02 +3.19634154e-02 -4.61828075e-02 -9.18351188e-02 -7.45468810e-02 -4.22794074e-02 -5.85431419e-03 -1.39944598e-01 +1.19283997e-01 -9.38417837e-02 -2.29080357e-02 -1.27150239e-02 -1.25028506e-01 -1.44318305e-02 -1.21550910e-01 -5.66177070e-02 +4.88380389e-03 +9.24013108e-02 -5.44535704e-02 +7.66559094e-02 +2.03937981e-02 +1.80616346e-03 +1.48679344e-02 +4.82815728e-02 +1.07803062e-01 +8.87570716e-03 +2.94174291e-02 -3.98854911e-02 +1.23367295e-01 +1.05622359e-01 -7.06995353e-02 +3.80388983e-02 -5.72513007e-02 +3.92139889e-02 +5.52934371e-02 -1.13819912e-01 +1.14813581e-01 +3.37336063e-02 -1.28858974e-02 +9.94307324e-02 -9.75703448e-02 +7.98894987e-02 -5.48431128e-02 +2.32327674e-02 -1.32276446e-01 +1.20280907e-01 -2.32715923e-02 -7.51470104e-02 +3.51187661e-02 -3.43089513e-02 -1.74280144e-02 +2.79486887e-02 +1.71474703e-02 +4.18237448e-02 +9.21868011e-02 +1.57009512e-02 -1.11805893e-01 +1.43390447e-01 +1.00721024e-01 -5.42683192e-02 -4.85937260e-02 +3.71826105e-02 -1.52737230e-01 -6.91398680e-02 +8.43244642e-02 -3.63923833e-02 +5.64538948e-02 +5.48562929e-02 -9.71675590e-02 +5.95791824e-02 -1.23656154e-01 +1.38166025e-02 +1.24181405e-01 +1.61572829e-01 +1.06502526e-01 -7.94057697e-02 -4.18593660e-02 -1.37018174e-01 -5.92849255e-02 +1.14544153e-01 -7.80406315e-03 +3.33322585e-02 +1.90294404e-02 +9.04392749e-02 +7.07913712e-02 +1.12726867e-01 -1.93690769e-02 -1.04837894e-01 +4.82380725e-02 +1.46658048e-01 +6.86473548e-02 -8.98185223e-02 +1.79128926e-02 +4.50711213e-02 -3.03564500e-02 +1.27365544e-01 +5.13726249e-02 +3.03972624e-02 +6.61442131e-02 +5.07480390e-02 -4.32777666e-02 +1.39221624e-01 +8.10607970e-02 +1.64638981e-02 +8.80861431e-02 -1.30480630e-02 -3.63683924e-02 +4.24793223e-03 -4.31797467e-03 +5.93057945e-02 +2.03197394e-02 -9.26030651e-02 -1.19231045e-01 -2.54269205e-02 +6.39524087e-02 -6.80750795e-03 +1.13773547e-01 -9.24108773e-02 +1.15022399e-01 +1.09686132e-03 +7.34401196e-02 -4.10862081e-03 -6.63803471e-03 +5.14978953e-02 +4.15463112e-02 -9.29938108e-02 +6.74902126e-02 -8.48968253e-02 +1.29959449e-01 -3.19799632e-02 -7.72611499e-02 +8.11030641e-02 +9.45614725e-02 -9.31904092e-02 -1.78852733e-02 -3.12115289e-02 +4.79419194e-02 +4.58389148e-02 +1.16962962e-01 -7.35159442e-02 -2.53450498e-02 -1.41561940e-01 +8.06412287e-03 +9.93309394e-02 +1.13166817e-01 -1.15091674e-01 -1.07632928e-01 -1.28116921e-01 -2.95004509e-02 -8.24465454e-02 +6.18987381e-02 +2.42883582e-02 -2.17656288e-02 -1.44958310e-02 -1.26388043e-01 -4.86483201e-02 +9.65434406e-03 +1.11831300e-01 +5.67784384e-02 -8.52410793e-02 +1.12285092e-01 -1.01506971e-01 +1.11599982e-01 -4.50604595e-02 -1.89226922e-02 +1.60385128e-02 -6.84986934e-02 -4.55661826e-02 -7.25338012e-02 -4.98808175e-03 -8.88553914e-03 -3.82584371e-02 -8.81438702e-02 +1.33323520e-01 +8.69556591e-02 -8.15865234e-04 +1.08104711e-02 -9.43183601e-02 -1.61566183e-01 -1.41351228e-03 -1.17332317e-01 +1.18975621e-02 -1.14755623e-01 +7.10165221e-03 +1.03373878e-01 -8.22258517e-02 +6.63323849e-02 +7.27693215e-02 -1.48675874e-01 +1.61958467e-02 -7.98028857e-02 -4.09227498e-02 -4.55402024e-02 -8.72396454e-02 +4.74054785e-03 -6.63235039e-02 -5.82154915e-02 +8.09884667e-02 +2.93387962e-03 +4.06456962e-02 -4.02512215e-02 +4.29926105e-02 -1.74867490e-03 -4.78841513e-02 -1.17934458e-01 -7.45301135e-03 -9.42313820e-02 -1.25633374e-01 -1.80928297e-02 +4.72132675e-02 -3.82065885e-02 +9.68722180e-02 +6.91989511e-02 -7.12016448e-02 -9.04750973e-02 +5.43370992e-02 +9.84121785e-02 -7.65061378e-02 +4.50795814e-02 -2.89715752e-02 -8.53209049e-02 -9.36140493e-02 +1.03713907e-01 -2.77473149e-03 -6.30396456e-02 +7.93719962e-02 -7.18470290e-02 -8.86635706e-02 +6.63682297e-02 +1.81531124e-02 -7.49844387e-02 -9.64313149e-02 +8.50029066e-02 -1.63867772e-01 +2.99491137e-02 -1.44126657e-02 +1.43118324e-02 -3.22240293e-02 +3.44657823e-02 -1.33106127e-01 +7.64458403e-02 -8.00340921e-02 +2.72267740e-02 -5.76949678e-02 -1.14285640e-01 -3.85886133e-02 -7.23852664e-02 -6.48743734e-02 -1.02332272e-01 +5.21386638e-02 +5.17925955e-02 -1.17425554e-01 -1.61923602e-01 -9.03465152e-02 -4.16780077e-02 +9.08696428e-02 -1.02170274e-01 +6.11616559e-02 -1.36248413e-02 +1.09598145e-01 +1.42298201e-02 -1.84038937e-01 +5.69718443e-02 -4.08016145e-02 -9.93517414e-03 +9.85332876e-02 +1.24008730e-01 +1.17769897e-01 +1.18846960e-01 +7.66000524e-03 -6.38129264e-02 +1.14194527e-02 -2.36407239e-02 +9.78168547e-02 -5.80269694e-02 -8.09261501e-02 -6.39402941e-02 -1.01898253e-01 -1.31876886e-01 +2.19871979e-02 -8.63167271e-02 +5.20955250e-02 -6.05650693e-02 +8.36339667e-02 +1.21915331e-02 -3.76470760e-02 +6.68129325e-02 +8.83496851e-02 -1.17667675e-01 +1.22684399e-02 -7.62974098e-02 +4.31274250e-02 -1.83249190e-02 +8.81353021e-02 -7.54507184e-02 +8.47021714e-02 -8.31048563e-02 +8.61734077e-02 -1.20203711e-01 +7.94732869e-02 +1.62629504e-02 +2.39584898e-03 -1.04802147e-01 +1.25856161e-01 +8.05253163e-02 -6.07803911e-02 +2.35481244e-02 -1.06290162e-01 +2.72311438e-02 -6.46022782e-02 -4.32782359e-02 -2.63330303e-02 -2.73751449e-02 +3.55777554e-02 -7.55609348e-02 +1.19340003e-01 -1.21963099e-01 +3.19291055e-02 -1.19482033e-01 -5.48802037e-03 +1.23146079e-01 -1.03694625e-01 +6.56854212e-02 +1.31472260e-01 -1.34299129e-01 +8.72265771e-02 -6.81089237e-02 +4.17120978e-02 +1.02867663e-01 -9.67469160e-03 +9.78355184e-02 -2.40129372e-03 -4.84104790e-02 -9.09393560e-03 +5.35990447e-02 -3.40501443e-02 +1.28378570e-01 -4.16020453e-02 -1.32366568e-01 -1.62708387e-02 +1.04598366e-01 +3.94536592e-02 -7.82628804e-02 -1.21956304e-01 +9.30406824e-02 +3.02120298e-02 +7.81775415e-02 +6.85556382e-02 -3.70386206e-02 +9.59933363e-03 +6.48770407e-02 +2.45719831e-02 +1.15964562e-01 -5.16217239e-02 +4.86073792e-02 -9.09672901e-02 +2.36856993e-02 +9.24141333e-02 -6.29727403e-03 -6.90288767e-02 +1.28938273e-01 +2.04383885e-03 -9.65564474e-02 -1.13529228e-01 +3.98606732e-02 +4.26312052e-02 +9.06434134e-02 +6.72106296e-02 +2.56228428e-02 -2.64728721e-02 -3.71141247e-02 -3.26069407e-02 -8.55364650e-02 -4.21384946e-02 -1.07487999e-01 -1.02717645e-01 +7.76061416e-02 -4.51277904e-02 -3.45302112e-02 -3.05126589e-02 +1.31200626e-01 +1.17443271e-01 -1.12823658e-01 +5.81787191e-02 +6.23571780e-03 +5.57460561e-02 -1.42402509e-02 +6.85525611e-02 +1.14779375e-01 +5.84445596e-02 -9.33669880e-02 +9.03855935e-02 +1.92048028e-02 +2.46455111e-02 -6.29400536e-02 -5.63967042e-02 +7.43116885e-02 +1.26823530e-01 +9.94917452e-02 +5.79451062e-02 +1.65466238e-02 +1.46300673e-01 -7.90299475e-02 +6.97996989e-02 -6.21514358e-02 +1.48617178e-01 +4.35078852e-02 -5.06678224e-02 +1.25561371e-01 -5.49171008e-02 +5.14629371e-02 -1.09562613e-01 +1.50134623e-01 +9.80101177e-04 +5.58964256e-03 -8.23967531e-02 -5.12303151e-02 -1.83118358e-02 -9.61555019e-02 -1.57176450e-01 -2.72865538e-02 -4.71358262e-02 +3.97796743e-02 +8.22274014e-02 +6.35937229e-02 +5.55006862e-02 -8.93594399e-02 +8.14407915e-02 -3.34530212e-02 -2.98639648e-02 -5.12281694e-02 +2.19845749e-03 +1.26636803e-01 +9.48064700e-02 +1.58038624e-02 +9.01093036e-02 +1.18605249e-01 +3.90054323e-02 -6.01995364e-02 -3.40818688e-02 +5.15202470e-02 +7.63771757e-02 +1.39271706e-01 +3.29828123e-03 +4.03836891e-02 -1.07763462e-01 +7.46352540e-04 -9.71945375e-02 -5.29309213e-02 -1.42325148e-01 +8.00299942e-02 +1.07180633e-01 +6.00259285e-03 +1.19685866e-01 +4.09978330e-02 -3.99382040e-02 -1.08848311e-01 +3.51492167e-02 +6.33626282e-02 -1.12970226e-01 +2.20964774e-02 +1.14804678e-01 -3.57662067e-02 -2.39902418e-02 +5.47127016e-02 -8.31840262e-02 +1.48063093e-01 +4.97955903e-02 +4.24016593e-03 -4.40883636e-02 +7.53906220e-02 +2.83228159e-02 +1.15854815e-01 -1.05204724e-01 +1.34421423e-01 +9.08266753e-02 +3.74074802e-02 -2.49320492e-02 +1.29473746e-01 -1.02564119e-01 -1.15798116e-01 +1.21897221e-01 +5.12256287e-02 -3.55705211e-04 +6.91839382e-02 +4.98586819e-02 +3.99871962e-03 +8.43599662e-02 +1.19527996e-01 -1.81453116e-02 +8.23610574e-02 -1.27550274e-01 +5.63869113e-03 +2.01848317e-02 +1.02676682e-01 -1.27502248e-01 +1.06077425e-01 -1.98150501e-02 -9.57426950e-02 -8.09696317e-02 +1.31351292e-01 +7.82079995e-02 -5.30927368e-02 +2.87681948e-02 +6.80371523e-02 +7.55290538e-02 +7.01548979e-02 -5.28481528e-02 -6.42606616e-02 +4.35936488e-02 +1.67370677e-01 +1.07087925e-01 -9.05231535e-02 -1.67571276e-01 +7.79752359e-02 +8.63916799e-02 +8.89196768e-02 -2.94335131e-02 -1.36311501e-01 -1.08584039e-01 +3.10643688e-02 -1.12245448e-01 +1.03791766e-02 +1.84893422e-02 -5.76215908e-02 -5.40420413e-02 +5.22698238e-02 +1.00013716e-02 +3.51678543e-02 +1.64807551e-02 +8.93224403e-02 -6.21793829e-02 -2.85630375e-02 -1.46232143e-01 -3.37171331e-02 +1.86353624e-02 +7.24561140e-03 -9.90907699e-02 -1.59660354e-02 -8.02914053e-02 +5.12141995e-02 +9.91324335e-02 -3.62309292e-02 -2.77358312e-02 +7.65776320e-04 -2.68387701e-02 -4.34161313e-02 +1.53494492e-01 +8.63987505e-02 -2.23272555e-02 -1.10157087e-01 +6.78157434e-02 -6.29004687e-02 -1.50375426e-01 -9.37716365e-02 -6.04087778e-04 -8.36593360e-02 +1.25813618e-01 +1.01452500e-01 -9.45994705e-02 -1.22184038e-01 -4.19564825e-03 +2.65457649e-02 +1.05581038e-01 -9.78296995e-02 -6.66761324e-02 -4.09805104e-02 -9.46508273e-02 +3.72246988e-02 +1.03885613e-01 -9.34159234e-02 -6.92787319e-02 -1.71777196e-02 -1.32863328e-01 +4.67191041e-02 +4.14903685e-02 -1.04616493e-01 -4.40309867e-02 -1.02444790e-01 +2.97602639e-02 +9.73767489e-02 +9.15192515e-02 +1.23697758e-01 +1.04827709e-01 -8.79158601e-02 -4.20419835e-02 -8.01478699e-03 -6.67075887e-02 +6.41298592e-02 +9.62824449e-02 -2.23052129e-02 +2.98544113e-02 -9.61263105e-02 +4.59072590e-02 +8.77400637e-02 +6.43066168e-02 +8.46094564e-02 -1.22031927e-01 -1.16499633e-01 -3.81880961e-02 +1.32318273e-01 +8.21875557e-02 -1.03785686e-01 +1.55468524e-01 -3.27665396e-02 +7.79070482e-02 +6.62408918e-02 -8.92898589e-02 +9.93050933e-02 -1.20586470e-01 +1.52026862e-01 +1.23621941e-01 +1.38068615e-04 +8.74296799e-02 +3.20991948e-02 -1.37314752e-01 +8.92912373e-02 +1.15623631e-01 -1.02211222e-01 -8.70507658e-02 -1.25412941e-01 +7.86716342e-02 -1.52750432e-01 +9.32827033e-03 -2.03120150e-02 -7.49411583e-02 +1.19731352e-01 +1.41189918e-01 +7.11472798e-03 +6.16109036e-02 -1.44862577e-01 +5.94785772e-02 -1.34779811e-01 +2.51310505e-03 +1.22368455e-01 -1.21639200e-01 +1.88514832e-02 -6.15655482e-02 -1.88450329e-02 +7.47986361e-02 +6.19758144e-02 -2.16700174e-02 -3.05125229e-02 -8.18469375e-02 -2.12468067e-03 -1.19991582e-02 +1.03145383e-01 -1.41494600e-02 -8.84370785e-03 +1.29405290e-01 +1.47406206e-01 -6.46867827e-02 +2.15457901e-02 +1.07673630e-01 +2.45279260e-02 +4.58443575e-02 -8.56020972e-02 -1.99571438e-02 -4.44418937e-02 +2.68987240e-03 +3.95190381e-02 +1.28979385e-01 -1.40183881e-01 +7.14103132e-03 +1.18015192e-01 -9.17313471e-02 -1.35583147e-01 +3.00037563e-02 -3.20329405e-02 -8.90387297e-02 -2.78841406e-02 -3.01153399e-02 +1.53284162e-01 +3.88538875e-02 +1.00580528e-01 -1.34012803e-01 -1.27351373e-01 -2.40841624e-03 +8.52993056e-02 -5.22391275e-02 +9.69708413e-02 +1.58651710e-01 +1.10169791e-01 -1.91655327e-02 -2.79104561e-02 -1.25037163e-01 -2.20196154e-02 +7.49664977e-02 -1.20494947e-01 +1.89151652e-02 +1.02742873e-02 -9.73021984e-02 -1.06815100e-01 -3.34655531e-02 -5.47378920e-02 -4.09260653e-02 +5.68711348e-02 -3.85780297e-02 +1.02877729e-02 +8.07088614e-02 -1.22140996e-01 -9.65716392e-02 +2.08295807e-02 -5.27894236e-02 -7.44023174e-02 -5.04410937e-02 -1.12869963e-01 -1.12817340e-01 +5.61802723e-02 -1.24006338e-01 -1.15850784e-01 -1.82425359e-03 +1.22870781e-01 +1.18721044e-02 -9.51888785e-02 +7.03818202e-02 -9.46161151e-02 -2.66277022e-03 +9.74862203e-02 +8.01873282e-02 +3.75357904e-02 -4.81984578e-02 -1.37063533e-01 +5.73691055e-02 -2.20646970e-02 -1.32446170e-01 +6.63334578e-02 -8.41435883e-03 +1.07156634e-02 -1.19163342e-01 -6.10519946e-02 +8.11220855e-02 +1.24461882e-01 +6.83135018e-02 -1.11873232e-01 -2.20778976e-02 +8.85525644e-02 +5.69184460e-02 +4.15736325e-02 -4.80527543e-02 +8.18464905e-02 +5.29456213e-02 +1.21546067e-01 -5.69324708e-03 -8.73229429e-02 +2.58436240e-03 -3.83063741e-02 +4.70151901e-02 +7.75769129e-02 +6.00990839e-04 +1.40946165e-01 -1.18964128e-01 -1.02636470e-02 -8.98023769e-02 -8.93658102e-02 -1.41540021e-01 -1.36214301e-01 +6.28079772e-02 -9.55578908e-02 +9.26871225e-02 +5.24308085e-02 +9.44396928e-02 +3.75420693e-03 -1.18840359e-01 -5.92839671e-03 +3.51866893e-02 +8.50089863e-02 +3.01802941e-02 -1.06679387e-01 +1.12007037e-01 -5.71243353e-02 -1.36183143e-01 -1.31582245e-01 +7.44915828e-02 -1.34661898e-01 +3.31820957e-02 +4.63324934e-02 -1.25597388e-01 -1.04147002e-01 -9.65895355e-02 -1.46837890e-01 -1.42835423e-01 +1.32440522e-01 +7.13633150e-02 +4.83795889e-02 +8.51817802e-02 +8.12327787e-02 -1.29518777e-01 -1.01367563e-01 +9.72523838e-02 -1.15182176e-01 -9.39003564e-03 +1.38301879e-01 -1.27521351e-01 +1.05873242e-01 -3.46141420e-02 +8.51553008e-02 +1.34532809e-01 -5.68765961e-03 +4.94385436e-02 +9.10613760e-02 -9.13457572e-02 -5.23635373e-02 +5.69646284e-02 +1.70929227e-02 +4.25808206e-02 -7.40448311e-02 -1.00215390e-01 +6.48012608e-02 +1.49383973e-02 -9.85137448e-02 +9.30936038e-02 +3.50962095e-02 -1.13332449e-02 +1.62408687e-02 -4.33053300e-02 -1.29105700e-02 -5.99730425e-02 -5.09699341e-03 -1.21817440e-01 -8.08806717e-02 -8.41027591e-03 -4.95051928e-02 +1.23381041e-01 +8.66915211e-02 -7.91942775e-02 -1.43314347e-01 -5.34877740e-03 -8.85800719e-02 +6.57799318e-02 +6.60882667e-02 +9.65303741e-03 +5.94141260e-02 +2.53566783e-02 +7.73486272e-02 +8.93631503e-02 +1.16261877e-01 -1.17225930e-01 +6.94218650e-02 -1.88606884e-02 +4.58149761e-02 -9.95533094e-02 +1.03083566e-01 -6.07011430e-02 -9.10238028e-02 +5.38807502e-03 +1.10890538e-01 +4.54253983e-03 +1.14083223e-01 +2.44543254e-02 +2.78115552e-02 +1.35995420e-02 +4.94687771e-03 +1.08268216e-01 -4.73163351e-02 -4.94075976e-02 -6.85245777e-03 -9.27812383e-02 +6.36759698e-02 -5.31787984e-02 -8.62117484e-02 +5.99513836e-02 -2.41618082e-02 +8.99620280e-02 -7.26562738e-02 +1.32579595e-01 -6.07197359e-02 +8.41320157e-02 -4.83536460e-02 +2.57631689e-02 -3.41829434e-02 -9.73393917e-02 +1.36825472e-01 -5.09058684e-02 -1.16315827e-01 -2.45059896e-02 +6.90027401e-02 -7.04611465e-02 +1.20461300e-01 -2.18689013e-02 -8.69228616e-02 +6.90153018e-02 +2.65259277e-02 -7.27742612e-02 -1.17174198e-03 +1.96872093e-02 -1.44107491e-01 -3.58270332e-02 +2.89888903e-02 -5.67582175e-02 -2.29374040e-02 +6.28435463e-02 +9.07826573e-02 +1.22199766e-01 +1.12108946e-01 +5.06796837e-02 -1.12926185e-01 -1.15407787e-01 -6.24967925e-02 +7.18165934e-02 -7.73191964e-03 +5.29099517e-02 -5.66372462e-02 +1.16356164e-01 +4.51729074e-02 -6.04202598e-02 +9.11708325e-02 +6.85291290e-02 +8.99142548e-02 -7.85888657e-02 -8.85299500e-03 -3.28735858e-02 +1.44935008e-02 -5.48636951e-02 +3.12790610e-02 +1.00642070e-01 +1.27941459e-01 -1.33624747e-01 +3.09798606e-02 +2.87619643e-02 -1.04769431e-01 -7.69751817e-02 -1.24657467e-01 +4.17640097e-02 -1.25354692e-01 -3.08971293e-02 -7.18930438e-02 -7.27789756e-03 -8.45604911e-02 -4.95006479e-02 -1.32293865e-01 +1.35699183e-01 -9.68134105e-02 -1.20848119e-01 -1.17040724e-01 +1.19883969e-01 +3.95622216e-02 -6.42180294e-02 +4.86839190e-02 +2.29010861e-02 +4.38170619e-02 -1.22936904e-01 -6.02291115e-02 +8.34558830e-02 -1.28971815e-01 +4.87348028e-02 +1.02636889e-02 -3.78928427e-03 -2.39690840e-02 -1.08415268e-01 -9.15020332e-02 +5.22725992e-02 +6.80898950e-02 +1.74681284e-02 -4.79716137e-02 -5.65403588e-02 +7.97939897e-02 -1.13799974e-01 -1.01625908e-03 +1.81739163e-02 -1.37180924e-01 -9.96183008e-02 -2.54381541e-02 +5.71031086e-02 +4.90256585e-02 -8.40139091e-02 +7.42392167e-02 -1.56980362e-02 +4.22175787e-02 -2.63150260e-02 +7.74885342e-02 +1.04149738e-02 +3.61833908e-02 +5.54434443e-03 +4.26180884e-02 -6.10676259e-02 -1.00544438e-01 -1.15811266e-01 +3.53707075e-02 -9.90000814e-02 -7.18866810e-02 +1.36532530e-01 -1.33776455e-03 -1.00216456e-02 +1.75933950e-02 +5.70569485e-02 -8.48483443e-02 -1.28951343e-02 +7.36049116e-02 +1.04196094e-01 +1.27689615e-01 -1.15649447e-01 -1.52267635e-01 -1.21486811e-02 -5.30861542e-02 -4.70957682e-02 +4.67833364e-03 +1.35819748e-01 -2.05498096e-02 -9.32658613e-02 +3.97864124e-03 -2.04701871e-02 +1.43839315e-01 +4.67526652e-02 +9.43330768e-03 -3.56735289e-02 +1.32267192e-01 -1.37724593e-01 -8.19725767e-02 -1.20418696e-02 +7.91759714e-02 +3.61612476e-02 +7.71575049e-02 -2.70779505e-02 -1.23920878e-02 -1.26463309e-01 +2.10318081e-02 -4.47321385e-02 +8.55766460e-02 +4.09477763e-02 +4.23888825e-02 -3.41552123e-02 +1.42356858e-01 +7.63994083e-02 +5.51246069e-02 +1.49089783e-01 +1.47677407e-01 -1.01305157e-01 +1.02905244e-01 +7.98903629e-02 +4.21505831e-02 -9.62891430e-02 +1.24972768e-01 +1.17044307e-01 -9.00383480e-03 +1.03325717e-01 -6.93562329e-02 +1.16485581e-02 -1.37649281e-02 +9.10920948e-02 +1.05567373e-01 +3.18081565e-02 -1.41258361e-02 -1.42646879e-01 +4.83224802e-02 +3.53340954e-02 -2.28696689e-02 +5.74643798e-02 -2.56452430e-02 +5.44623025e-02 -8.77531841e-02 -1.86527565e-01 -2.74696369e-02 +1.53858453e-01 -4.98421416e-02 +9.70091447e-02 +5.24590835e-02 +1.36515826e-01 +6.51270971e-02 +1.27849326e-01 -3.43833640e-02 +4.02568765e-02 -1.82947833e-02 -1.05907083e-01 -4.70110625e-02 +2.96716075e-02 +3.43185626e-02 -1.81453153e-02 +1.06645912e-01 -9.17367488e-02 -3.31394002e-02 -8.98094773e-02 -3.34388390e-02 -2.95346212e-02 +8.13975856e-02 +9.15108323e-02 +8.41499865e-02 -7.97388051e-03 -8.10613390e-04 +1.72070172e-02 +1.00148983e-01 +7.07268119e-02 +1.55102149e-01 -1.22053124e-01 -8.39454457e-02 +6.82075024e-02 -6.67497590e-02 -8.61026049e-02 +8.75619352e-02 -7.39056990e-02 -2.54512671e-02 +1.22898206e-01 +9.55786929e-02 +1.25330225e-01 +1.33326560e-01 +4.63104360e-02 +6.18861690e-02 -1.51676595e-01 +4.05540615e-02 -1.80764701e-02 +2.52787694e-02 -1.29129142e-01 +9.87003222e-02 +1.16483860e-01 +5.06223179e-02 -5.47648780e-03 +2.52147205e-02 +4.08600606e-02 +1.22730464e-01 +1.06601395e-01 +3.41625288e-02 +2.72756368e-02 -8.50364193e-03 -1.16419168e-02 +1.31277651e-01 +7.63115808e-02 -5.96313439e-02 -4.44715619e-02 +1.43352553e-01 +2.97836773e-02 +1.03400260e-01 -3.69619951e-02 +6.37445673e-02 +5.05836941e-02 +6.10985309e-02 +6.08820058e-02 +8.78297240e-02 -3.73553745e-02 +9.60218012e-02 -9.74478796e-02 +1.22245930e-01 -6.15358017e-02 -7.27366135e-02 +1.69704258e-02 -8.58554617e-02 -6.45062327e-02 -2.16572881e-02 -1.28524810e-01 +2.70899013e-03 -5.03451563e-02 +6.26375303e-02 +1.76757336e-01 +8.49219039e-02 -2.65141595e-02 -6.66638762e-02 -1.00046150e-01 -3.96820344e-02 +1.20917082e-01 +1.35730192e-01 -5.22073545e-02 -9.56207812e-02 +4.82797846e-02 +8.18144307e-02 +8.74840170e-02 +1.24254599e-01 +1.33925840e-01 -1.47970542e-02 -5.44176553e-04 +2.69247070e-02 +1.24627687e-02 +6.21648356e-02 -1.31644875e-01 -7.61184990e-02 +9.96465310e-02 +1.48608536e-01 +9.33879763e-02 +1.17607944e-01 -1.08607143e-01 -5.35047380e-04 -5.65067455e-02 +1.17057547e-01 +6.29613036e-03 -1.12947851e-01 +3.39863896e-02 -7.37280473e-02 +8.74497294e-02 +3.80863026e-02 -7.23182559e-02 +1.34036746e-02 +3.61937545e-02 +3.79771106e-02 +1.33704366e-02 -1.20024137e-01 -1.25174895e-01 -1.25737563e-01 +7.30058625e-02 +1.10165700e-01 -9.38082188e-02 +1.19664423e-01 -7.70124188e-03 +3.98283787e-02 -7.82454535e-02 -1.04436483e-02 -4.10682335e-02 +2.98949312e-02 +2.82546636e-02 +8.45545530e-02 +8.64780694e-02 +9.77753401e-02 -3.21189128e-02 +7.55784437e-02 +7.41107091e-02 +8.55658129e-02 +9.54547897e-03 -6.89494163e-02 +6.12790138e-02 -1.33326560e-01 -1.61301821e-01 +5.08726351e-02 -1.47985235e-01 -3.22899371e-02 -9.06373113e-02 -8.46231077e-03 +2.85577476e-02 +5.36733260e-03 -1.62380037e-03 -1.09479740e-01 -3.90816554e-02 +8.39788392e-02 -4.93418165e-02 -3.35809216e-02 +1.21146925e-01 -7.19916075e-02 -4.55041416e-03 +6.78585097e-02 -6.05338700e-02 +1.22805446e-01 -8.16431865e-02 -4.55584899e-02 +7.12956935e-02 +4.56328243e-02 -6.22791685e-02 -2.47770883e-02 -1.09184042e-01 +6.31228462e-02 +3.08708772e-02 -3.10672652e-02 +2.95281783e-02 -1.33547429e-02 -6.75962269e-02 -9.05690566e-02 +4.30193581e-02 +1.23145349e-01 +2.81416569e-02 +6.54071495e-02 +7.42909610e-02 -7.29620010e-02 -1.08832516e-01 -1.08531766e-01 +6.00265414e-02 -7.94467777e-02 -8.48511420e-03 -1.10057481e-01 -1.97722390e-02 -9.06309932e-02 -1.04624316e-01 -7.18929097e-02 -1.10812671e-01 +9.00885612e-02 +1.03982046e-01 +1.12004802e-01 +8.19937140e-02 -7.96133711e-04 -9.86634418e-02 -1.17232099e-01 +1.18787915e-01 -8.15646499e-02 -5.77462167e-02 -5.96068092e-02 -1.63904820e-02 +8.55890289e-03 -1.05222613e-01 -1.80477696e-03 -8.13869312e-02 -8.26288909e-02 -1.47042111e-01 +1.04138941e-01 +5.70444874e-02 +8.08072090e-02 -7.12314323e-02 +9.20848921e-02 +5.91835305e-02 -3.19113880e-02 +1.08036250e-01 -7.95448944e-02 +6.12133406e-02 +2.27398314e-02 +1.13553993e-01 -2.07882375e-03 +6.25346899e-02 -7.07690567e-02 -1.11580111e-01 +9.77458134e-02 +3.18055823e-02 +1.23182014e-01 +8.83453116e-02 +1.16709232e-01 +5.53294718e-02 -9.66493599e-03 +8.07454139e-02 -6.79207891e-02 +1.20367541e-03 -2.73771286e-02 -7.19351470e-02 +1.77503806e-02 -9.98996273e-02 -2.82882564e-02 -2.27124547e-03 -1.31279945e-01 -1.58829555e-01 -8.45266208e-02 +2.57236436e-02 +9.96707454e-02 +9.90183726e-02 -7.64666647e-02 -7.64814541e-02 -2.87484825e-02 +5.91058917e-02 -5.74440509e-03 +5.30487625e-03 +1.51420832e-01 +9.88905802e-02 +9.10529420e-02 -1.73777640e-02 -7.51809254e-02 +5.93173690e-02 -5.65002635e-02 -6.20692642e-03 +1.69525385e-01 -7.07449540e-02 -4.61269468e-02 -3.15949582e-02 -7.87885394e-03 +1.38634015e-02 +5.35833137e-03 -1.78030189e-02 +1.82917137e-02 +1.24931328e-01 -8.42150673e-02 +2.99148727e-02 -1.20922655e-01 -1.31320789e-01 +1.27695993e-01 -1.27581609e-02 +1.17068253e-01 +2.57282816e-02 +5.55402189e-02 +1.29725412e-01 +3.22881900e-02 -1.60763443e-01 +3.54639292e-02 +8.94874185e-02 +1.08828776e-01 -1.02122270e-01 +7.77446106e-02 +1.29280746e-01 -7.75402263e-02 +1.02132253e-01 +4.35959771e-02 -6.53634444e-02 +4.08494286e-02 +6.79963008e-02 -5.67811802e-02 -1.06983311e-01 -4.06898707e-02 +8.77645537e-02 -1.48308411e-01 -3.70222679e-03 -9.28470716e-02 +8.39631185e-02 -3.74323428e-02 +4.73221652e-02 -7.86240399e-02 -8.19642618e-02 +6.82809874e-02 -1.15087092e-01 -9.75948721e-02 -2.84025352e-03 +7.07771331e-02 -4.92157303e-02 +1.28530851e-02 +8.49399120e-02 +4.17569280e-02 +6.15420677e-02 -9.62004736e-02 +9.78929996e-02 +6.43331558e-02 -9.40557569e-02 -4.04283777e-02 -5.54482872e-03 -1.12898916e-01 -8.80408660e-03 -9.54312831e-02 +9.68344882e-02 +6.34269491e-02 +1.17834806e-01 -6.21972047e-02 -1.33883953e-01 -1.28271654e-01 +1.15330532e-01 -1.91666931e-02 -9.79252681e-02 +1.11565173e-01 +1.07022367e-01 -1.26167545e-02 -2.93459501e-02 -8.77339467e-02 -6.54912218e-02 +7.38527402e-02 -3.76113392e-02 +6.05057292e-02 +4.05971333e-02 +2.44387519e-02 -1.76481623e-02 -5.91473430e-02 -1.17645122e-01 +5.81313856e-02 +7.97261223e-02 -2.55028121e-02 -8.96543413e-02 +5.09274751e-02 -8.88878852e-02 -5.08245407e-03 -4.63530645e-02 +1.18221603e-01 -4.06917967e-02 +8.66340660e-03 -5.59380427e-02 -7.96083882e-02 +1.59723274e-02 -2.99581941e-02 +8.73619784e-03 +1.52306214e-01 -1.23311080e-01 +1.02884360e-01 +7.83096477e-02 -1.02815740e-01 +1.04163304e-01 +7.55545646e-02 -9.65506285e-02 +6.66591600e-02 -1.45515069e-01 -6.10389039e-02 +2.03496423e-02 -1.78258922e-02 -1.04196444e-02 -7.51667470e-02 +7.72686377e-02 +8.21693894e-03 +2.90630162e-02 -1.33331090e-01 +4.60599437e-02 +9.12885964e-02 +5.03086159e-03 +1.62125472e-02 -9.70515236e-02 +8.63425285e-02 -3.00766826e-02 +3.08107696e-02 -1.35948397e-02 +1.64138414e-02 +1.32014111e-01 +6.35855719e-02 -8.58777538e-02 -6.59967884e-02 -9.22968835e-02 -5.10373116e-02 -1.86490387e-01 -1.03299096e-01 -8.13164562e-02 -4.84624952e-02 +5.51063661e-03 +1.57480940e-01 +1.20399274e-01 -6.93338215e-02 +2.46406179e-02 +1.11361586e-01 +5.38863279e-02 +8.10315683e-02 +9.80540831e-03 +1.01277150e-01 +9.54598859e-02 +1.12281002e-01 +6.79768994e-02 -8.96476731e-02 -1.27464995e-01 -5.11170626e-02 +9.36709791e-02 -3.34930606e-02 +1.21637471e-01 -9.50351134e-02 -2.03674715e-02 -2.83753537e-02 +7.19270781e-02 +5.01929820e-02 -8.74356776e-02 +1.12004094e-01 -5.96811548e-02 +8.30627158e-02 -4.31842022e-02 -4.08537090e-02 +1.46097794e-01 +1.78223345e-02 -1.05759412e-01 -7.44836256e-02 +3.31871025e-02 -1.73733186e-03 -7.01269209e-02 -6.15907051e-02 +7.94205442e-03 +4.82573919e-02 -9.26185772e-02 +1.03478730e-01 -3.10740005e-02 -6.19644336e-02 +5.41381771e-03 +5.59567027e-02 -9.27545875e-02 +3.40779163e-02 -7.58080408e-02 +2.65087318e-02 -4.24271300e-02 +1.09676793e-01 -1.00989334e-01 -7.55195618e-02 -2.05927007e-02 +1.20089658e-01 +1.17874891e-01 -7.74076357e-02 +8.65141768e-03 -7.22355619e-02 -8.77210721e-02 +2.99602710e-02 +5.14662676e-02 +2.03840341e-02 -7.40010664e-02 +4.36411425e-02 +2.60571241e-02 +8.67119059e-02 +8.57470091e-03 -1.33293882e-01 +7.68399313e-02 +7.48811960e-02 -6.31084144e-02 -1.03826514e-02 +5.65732978e-02 -6.03559129e-02 +3.94036919e-02 -6.11896850e-02 +9.11560655e-02 -5.56306168e-03 +3.25343646e-02 -4.69427966e-02 +7.30875060e-02 -1.37151778e-01 +8.40751007e-02 -1.43071473e-01 -9.47586596e-02 -1.42784774e-01 -6.91106319e-02 -8.90609473e-02 +4.64627333e-02 +4.01353687e-02 -8.11993405e-02 -1.61858518e-02 -7.27045089e-02 -1.39570180e-02 +9.17035341e-02 +3.21060419e-02 +2.44825669e-02 +5.14085703e-02 +9.99854580e-02 -8.95206481e-02 +1.05775788e-01 -1.23496495e-01 +6.32714182e-02 -9.44793969e-02 +8.60270634e-02 -4.98300008e-02 +1.73985176e-02 -2.98280902e-02 +3.86760980e-02 -1.67332739e-01 +2.83612683e-02 -5.69649152e-02 +3.05754039e-02 -5.83529919e-02 +1.51839837e-01 +9.71736610e-02 +6.25421777e-02 +1.58949532e-02 -6.37898743e-02 +9.29570198e-02 +1.35825127e-01 -7.07091391e-02 +1.05771152e-02 +1.87309626e-02 +5.44172246e-04 +5.69873750e-02 -3.29352729e-02 -4.29375470e-02 -2.34090574e-02 -8.71302560e-02 -3.72074284e-02 +1.16564326e-01 +1.18203089e-02 +7.91214556e-02 +8.93152878e-02 -1.31131327e-02 +4.48036902e-02 +7.39099085e-02 -6.94154650e-02 +4.87320125e-03 +1.85918789e-02 -1.69185340e-01 -6.59571728e-03 +6.31644949e-02 +8.53485689e-02 +7.82231987e-02 +3.38217467e-02 +3.14371027e-02 -1.07559837e-01 -2.25702021e-02 +5.52979559e-02 +5.34007549e-02 +9.02686566e-02 +8.03520232e-02 +7.64843300e-02 +7.92514384e-02 +1.23036072e-01 +5.59510954e-04 -4.69474830e-02 -6.02705963e-02 -6.75102398e-02 +1.97620410e-02 +8.41700751e-03 +1.06573971e-02 +1.55506022e-02 -2.89109796e-02 -9.12567228e-02 +9.94584635e-02 -1.39943302e-01 -6.97400644e-02 +1.49215937e-01 +4.97394502e-02 +1.27467548e-03 -4.32935590e-03 +4.57740016e-02 -2.87076551e-02 +7.81594962e-02 +7.36656785e-02 +5.49797267e-02 +7.61293843e-02 -7.27677299e-03 +1.01869360e-01 -5.22505715e-02 -1.16417624e-01 -1.12960292e-02 +1.48347303e-01 -1.02699110e-02 -6.95743337e-02 -3.14931199e-02 -4.92500253e-02 -3.62103656e-02 +4.02556034e-03 
#Parameter# /simple-rnn-builder/_1 {8,8} 1025 ZERO_GRAD
+5.94477832e-01 -4.36629862e-01 +4.39042687e-01 -9.21115726e-02 -4.45285410e-01 -2.18081534e-01 -7.06518516e-02 +4.29821499e-02 +1.04515009e-01 -3.18603009e-01 -1.12151526e-01 +5.54763190e-02 +4.10673499e-01 +1.11327760e-01 -1.77999288e-01 +1.49993012e-02 -4.29745287e-01 +6.02457106e-01 +6.07460320e-01 +4.63839769e-01 +4.60011750e-01 -2.93821782e-01 -2.15628058e-01 -2.55028069e-01 -1.88340247e-01 +1.47753075e-01 -5.60242534e-01 +9.40340161e-02 +4.57983762e-01 +5.18410325e-01 -5.63044488e-01 -1.77395776e-01 +5.40137589e-01 -4.01891947e-01 -2.65258968e-01 +1.72691792e-01 -3.65203500e-01 +6.37486875e-02 -2.11812764e-01 +5.48813164e-01 -2.42976129e-01 +4.25862700e-01 +5.82075492e-03 +4.87951219e-01 +4.74543750e-01 +4.20659967e-02 +3.03095818e-01 +2.53636718e-01 +5.42701304e-01 -2.24997148e-01 +3.45327944e-01 -4.63145196e-01 -1.11846760e-01 -3.02435517e-01 -4.89273131e-01 +4.38056201e-01 +8.91023781e-04 +4.77430552e-01 -2.09614754e-01 +8.05761218e-02 +9.21332836e-02 +5.49169838e-01 -4.75920379e-01 +4.17367220e-01 
#Parameter# /simple-rnn-builder/_2 {8} 129 ZERO_GRAD
-1.88617725e-02 +5.44026494e-02 -8.80734175e-02 +1.76543165e-02 -6.06819466e-02 +1.38282748e-02 +7.33995959e-02 -1.57106258e-02 
#Parameter# /simple-rnn-builder/_3 {8,8} 1025 ZERO_GRAD
+3.06617767e-01 -7.31157735e-02 +4.16894108e-02 -7.07309619e-02 +2.74104238e-01 -3.76264989e-01 -5.93152165e-01 +1.56184971e-01 -2.59355724e-01 -2.02778354e-01 -1.72838643e-01 -4.51950431e-01 -9.19048339e-02 +1.05104908e-01 +3.88204813e-01 -2.99181491e-01 -4.48103756e-01 -1.40667200e-01 -6.12215064e-02 -5.87078750e-01 +4.25970525e-01 -1.89289320e-02 -4.33507770e-01 +3.17194641e-01 -1.62694186e-01 -3.27672184e-01 -7.29779620e-03 -3.15941185e-01 +1.69648752e-01 +3.78813595e-01 +1.91951573e-01 -4.26533014e-01 +2.98940718e-01 -1.08830549e-01 +4.94145185e-01 -5.27670197e-02 +3.52862954e-01 +2.98083723e-01 +3.09195876e-01 -4.53842312e-01 +1.54355280e-02 +5.57393610e-01 -1.39703816e-02 -2.40967512e-01 -5.03019989e-01 -2.79397935e-01 +3.84099215e-01 -2.89897412e-01 +2.81235039e-01 -3.19020808e-01 +7.39648789e-02 +2.59215206e-01 +9.63551775e-02 +1.29245520e-01 +5.38070761e-02 +5.70832100e-03 +1.93718120e-01 +1.91465825e-01 +6.32824451e-02 -1.50503218e-01 +3.92998427e-01 -2.67842770e-01 -1.51297554e-01 +2.38289580e-01 
#Parameter# /simple-rnn-builder/_4 {8,8} 1025 ZERO_GRAD
-2.43603643e-02 +1.63520515e-01 -3.36265087e-01 -4.72874105e-01 +1.55491680e-01 -4.22201842e-01 -1.51462838e-01 -5.79772592e-01 -2.54976094e-01 +2.34209508e-01 -6.04240596e-01 +4.84110028e-01 +3.89588714e-01 -4.14798766e-01 +1.84910879e-01 +5.17383754e-01 -3.70146662e-01 +1.28006890e-01 +2.16481071e-02 -1.48037627e-01 +9.85097811e-02 +1.47769988e-01 -5.85631430e-01 +1.09836280e-01 +2.76592188e-02 +5.70506275e-01 +3.93851668e-01 -4.34224606e-01 +1.90563291e-01 -6.48994371e-02 -5.03546186e-02 +7.83951506e-02 +3.37641656e-01 -4.85275745e-01 +3.55777562e-01 +3.71999107e-02 +2.93410242e-01 -4.84518021e-01 -4.30594385e-01 -2.26986315e-02 +3.12546641e-01 -5.30677319e-01 +5.41350961e-01 +4.12329853e-01 -3.23815256e-01 -7.12038800e-02 -4.93893921e-02 -4.58431959e-01 +2.53251940e-01 +2.99877584e-01 +3.67875665e-01 -1.61410756e-02 -2.15732574e-01 +6.19117975e-01 +3.41362566e-01 -2.45229244e-01 -5.52750170e-01 +7.15743899e-02 -4.72543925e-01 +5.73409915e-01 -1.37887999e-01 +4.15096372e-01 +6.88904971e-02 +3.50882471e-01 
#Parameter# /simple-rnn-builder/_5 {8} 129 ZERO_GRAD
+1.18550822e-01 -3.00527573e-01 -3.44372481e-01 +1.21253416e-01 +4.28486057e-02 -1.39594167e-01 +2.60833055e-01 -4.23396602e-02 
#Parameter# /simple-rnn-builder/_6 {8,8} 1025 ZERO_GRAD
+1.84091687e-01 -6.86744601e-02 +3.86144459e-01 -4.65538830e-01 -5.41268706e-01 -9.45522636e-02 +5.77610545e-02 -8.49606618e-02 -1.08338874e-02 -2.70282384e-03 -5.58585763e-01 -1.48819357e-01 +1.81252703e-01 -1.15519948e-01 +3.41504186e-01 +5.51642001e-01 -4.35851961e-01 +1.61080196e-01 -5.57004988e-01 +1.99879840e-01 +2.36120954e-01 -3.24012674e-02 -2.16731891e-01 +3.03525180e-01 +3.19677413e-01 -1.75801739e-01 +8.65431800e-02 +4.25969481e-01 +2.10378408e-01 +6.19514845e-02 -2.33127564e-01 +6.64439425e-02 -8.92713293e-02 -2.67481953e-01 +1.13942854e-01 +4.93208081e-01 +2.60442972e-01 -3.64951640e-02 +4.21925098e-01 -1.10058568e-01 +4.99156505e-01 -4.25466418e-01 -2.05080763e-01 -2.64656425e-01 -2.15350837e-01 -4.62413758e-01 +1.71484336e-01 +3.11557889e-01 -4.20615450e-02 +3.19429189e-02 +3.35095555e-01 +5.27015388e-01 -2.46876970e-01 +3.41404945e-01 +1.04525484e-01 -1.12776689e-01 -5.69067776e-01 -3.52495313e-01 +1.85319781e-01 +2.28448778e-01 +3.74584734e-01 -2.06768364e-01 +4.49477494e-01 -3.19205105e-01 
#Parameter# /simple-rnn-builder/_7 {8,8} 1025 ZERO_GRAD
-3.02315861e-01 +5.24599135e-01 +5.03697157e-01 +2.62116969e-01 -4.14916724e-01 +4.73148763e-01 +1.35434464e-01 -4.42588955e-01 +1.04000382e-01 +2.94346839e-01 -5.44749081e-01 +2.35514551e-01 +6.46538287e-02 -2.19954982e-01 -5.31218290e-01 +1.33289799e-01 +4.69980747e-01 +1.39556751e-01 +6.42269194e-01 +4.55881625e-01 +2.64932364e-01 +5.49495995e-01 -4.36237693e-01 -3.22296619e-01 -6.21933602e-02 -4.77059960e-01 +3.11413974e-01 +1.99235514e-01 +5.49139082e-01 -5.09559095e-01 -4.85093594e-01 +1.99755266e-01 +2.11894885e-01 +4.69591320e-01 -2.24314407e-01 -5.26153624e-01 -3.66645247e-01 +2.07545161e-01 +3.95287603e-01 -3.23498338e-01 +6.17305636e-01 +3.73313129e-01 -3.53659809e-01 +5.94143987e-01 -6.25814676e-01 +4.10339952e-01 -5.20918369e-01 -6.11012518e-01 -2.07573280e-01 +3.46742779e-01 -4.44055825e-01 +5.19053638e-01 -1.56540677e-01 -3.12438905e-01 -4.73302275e-01 -1.21368304e-01 +3.25181842e-01 +3.91649872e-01 +2.13509932e-01 +2.22244889e-01 -4.00207639e-02 -2.61768303e-03 -2.68693477e-01 -3.54745805e-01 
#Parameter# /simple-rnn-builder/_8 {8} 129 ZERO_GRAD
+1.19548418e-01 -3.46389860e-01 +4.24600899e-01 +2.20345825e-01 -1.39244646e-01 +6.36176169e-01 -2.39837602e-01 -1.69675618e-01 
#Parameter# /simple-rnn-builder/_9 {8,8} 1025 ZERO_GRAD
+5.07879108e-02 +3.86751629e-02 +5.32957911e-01 -2.54032224e-01 -4.62937862e-01 +1.66016132e-01 +3.44139606e-01 -4.15107399e-01 -5.00866473e-01 -7.87653178e-02 -1.82395145e-01 +5.22328436e-01 +4.60287988e-01 +6.06501818e-01 -6.79818839e-02 +3.98414493e-01 -1.31570578e-01 +1.07166305e-01 +5.63490391e-01 +5.42786598e-01 +4.10742491e-01 -2.53803283e-01 +6.11118041e-02 +5.34642041e-01 +2.24480957e-01 +3.80070448e-01 -3.57848346e-01 +3.70181561e-01 -5.16599059e-01 -2.92692840e-01 -1.48962615e-02 -2.68475503e-01 -4.44895893e-01 +4.80196178e-01 +1.43143415e-01 +4.32594210e-01 -5.38926065e-01 +3.83942425e-01 +1.10564791e-01 -3.87438178e-01 +5.70190251e-01 +7.20962107e-01 +4.77461457e-01 +4.76435512e-01 +1.90563649e-01 -7.09914044e-02 -4.33387280e-01 -1.50020689e-01 -5.14038466e-02 -3.36373448e-01 +4.55977440e-01 -3.64073396e-01 +3.03831875e-01 +2.56685793e-01 +2.11489633e-01 -2.74735391e-01 +1.73609070e-02 -5.27515292e-01 -1.34906113e-01 -5.76328754e-01 -3.46579641e-01 -5.34816943e-02 +9.21937674e-02 -5.64428747e-01 
#Parameter# /simple-rnn-builder/_10 {8,8} 1025 ZERO_GRAD
+6.28616691e-01 +3.45146477e-01 +2.86790341e-01 +5.29217243e-01 -1.50235295e-01 +4.18300778e-01 +5.10113180e-01 -2.15017825e-01 +6.00903690e-01 +6.50348723e-01 +5.29772937e-01 +4.18306068e-02 -2.34603792e-01 +3.42584848e-02 +3.30619574e-01 +4.93333131e-01 -2.38782093e-01 -5.04884303e-01 -2.72649348e-01 +2.88324393e-02 +3.09980482e-01 -7.61811584e-02 -4.69935417e-01 +1.09604768e-01 +4.02304113e-01 +3.72708648e-01 -4.46920723e-01 +3.34331095e-01 -1.59316301e-01 +2.09023774e-01 +7.58196414e-02 +3.71431530e-01 +4.15727377e-01 +2.84365177e-01 -3.41027170e-01 -1.82883471e-01 +7.50584062e-03 +2.59682387e-02 -1.45431936e-01 -4.99162942e-01 -2.05038026e-01 +4.45931911e-01 +1.33375093e-01 +3.19291919e-01 +8.75298455e-02 +5.17451763e-01 -3.97700489e-01 -8.93601328e-02 -4.25851256e-01 -4.83733743e-01 -2.87595659e-01 -2.22476795e-01 -5.96591711e-01 -2.76702911e-01 +1.60589382e-01 -9.26797390e-02 -8.96867961e-02 -5.40886283e-01 -2.33698100e-01 -3.98161620e-01 -1.89851612e-01 +2.85544217e-01 +4.98872310e-01 +1.04037048e-02 
#Parameter# /simple-rnn-builder/_11 {8} 129 ZERO_GRAD
+3.58511984e-01 +4.00106519e-01 +9.58695188e-02 +1.19856618e-01 +2.79543530e-02 -3.66636097e-01 -1.83373660e-01 +5.64962104e-02 
#Parameter# /simple-rnn-builder/_12 {8,8} 1025 ZERO_GRAD
+7.01819181e-01 +1.94846600e-01 +5.38529754e-01 +2.44127214e-01 -2.48618573e-01 -4.96290177e-01 -5.33877194e-01 -1.97767928e-01 -8.42032358e-02 -3.54162931e-01 +4.56793040e-01 -9.65606645e-02 -1.45979514e-02 -4.14751649e-01 -2.39400238e-01 -5.40735066e-01 +4.04415280e-01 +2.30242638e-03 -1.62434075e-02 +4.23087001e-01 -1.23423211e-01 -2.42278054e-01 -8.70774984e-02 +2.08128840e-01 +5.95842302e-01 +2.19826967e-01 +2.91905552e-01 +4.06397164e-01 -2.58303910e-01 -5.35420895e-01 -4.36484553e-02 +3.84445041e-01 -7.37970620e-02 -1.89416930e-01 +3.27542186e-01 +1.25163883e-01 +2.48494581e-03 -4.31430228e-02 +2.86142398e-02 +2.36102551e-01 +1.38668731e-01 -3.64910990e-01 -6.09760940e-01 +1.08633354e-01 +2.65155464e-01 +4.89650041e-01 +4.86481190e-01 -2.02663057e-02 +2.63678312e-01 +3.48120369e-02 +7.39941821e-02 -2.59798706e-01 +3.09478790e-01 +4.16046411e-01 +8.32349211e-02 -1.99566752e-01 -9.96288359e-02 +1.54810727e-01 -1.62003338e-01 -3.49536657e-01 -4.62099403e-01 +5.18622279e-01 +2.33804569e-01 -4.97161955e-01 
#Parameter# /simple-rnn-builder/_13 {8,8} 1025 ZERO_GRAD
-3.92643332e-01 -4.75512892e-01 +4.78879139e-02 -6.96085334e-01 -3.78131688e-01 -1.09979920e-01 +2.76707560e-01 -3.32121640e-01 +5.08275390e-01 -2.41615936e-01 +5.34559667e-01 -1.92717895e-01 +3.95965934e-01 +4.34731841e-01 -8.25411752e-02 +1.28220290e-01 -3.44221145e-01 +1.51641592e-02 +2.84275502e-01 +6.83438063e-01 -6.31523430e-01 -1.83282062e-01 -2.52155751e-01 +1.48507446e-01 +3.70188206e-01 +4.98845130e-01 -2.52092510e-01 -4.87270802e-01 +9.86030102e-02 +5.53545773e-01 -4.69991446e-01 +3.30246180e-01 -4.88715678e-01 +5.86101674e-02 +4.37637091e-01 -1.78807214e-01 +3.30218434e-01 -1.48423597e-01 -4.11434591e-01 +3.63721579e-01 -3.32381390e-02 +2.95193553e-01 -3.85003984e-01 -3.43550891e-01 +3.54138374e-01 +4.11095053e-01 +1.43715546e-01 -3.42611551e-01 +4.79739048e-02 +3.46187979e-01 +4.09412086e-01 -1.14916861e-01 +4.68669862e-01 +2.86511898e-01 -7.34209642e-02 +6.52399957e-01 -3.92505914e-01 +2.29014575e-01 -9.00653675e-02 -3.96086425e-01 +2.90653735e-01 +4.86980796e-01 -1.84727758e-01 +3.74944657e-01 
#Parameter# /simple-rnn-builder/_14 {8} 129 ZERO_GRAD
+7.56785348e-02 +1.94616127e-03 +2.87727535e-01 +2.88527340e-01 -3.92901629e-01 -2.78817654e-01 -1.06156215e-01 -2.92059720e-01 
#Parameter# /simple-rnn-builder/_15 {8,8} 1025 ZERO_GRAD
-4.14062858e-01 -2.05738857e-01 +3.21303546e-01 +6.43711686e-02 -4.06426452e-02 +4.86968845e-01 +2.12202042e-01 -6.38676584e-01 +1.38824195e-01 -1.43432826e-01 +1.16716154e-01 +3.61151248e-01 +5.32130480e-01 -5.21849155e-01 -1.30580723e-01 -2.88333669e-02 -7.51688004e-01 -4.07873034e-01 -4.67006713e-01 +3.59574556e-01 +9.10280496e-02 +3.31036299e-01 +2.87329823e-01 -1.94156811e-01 -4.34694946e-01 -7.93773085e-02 -5.13548434e-01 -1.85768068e-01 +2.58455366e-01 +4.55997825e-01 +1.21301048e-01 -6.54077753e-02 +5.00138998e-01 +6.28973782e-01 +1.71403214e-02 +1.83709860e-01 -6.98506236e-01 -7.31106222e-01 -2.71160714e-02 +7.77759925e-02 +6.50260746e-01 +5.64116612e-03 +7.10296094e-01 +5.15228152e-01 -3.25328201e-01 +1.05990857e-01 -6.95260823e-01 +2.63703197e-01 -8.56289081e-03 +5.92291951e-01 +3.49113613e-01 +5.69829226e-01 +1.96704995e-02 +1.59352347e-01 -2.14706361e-01 +5.04638292e-02 -3.16052943e-01 +2.08353922e-01 -9.21311602e-02 +4.79518771e-01 -1.32602885e-01 -1.72929317e-01 +2.47265026e-01 +5.46548739e-02 
#Parameter# /simple-rnn-builder/_16 {8,8} 1025 ZERO_GRAD
+2.58246511e-02 +5.28016806e-01 +8.31173956e-01 +6.79561421e-02 +2.15259299e-01 -2.87009895e-01 -2.10846499e-01 +6.43394947e-01 -3.35328579e-01 +6.20406158e-02 +3.33421558e-01 +5.92735171e-01 -4.76391256e-01 -3.49509269e-01 -6.33122087e-01 +6.67060137e-01 -2.47901544e-01 +6.59878612e-01 -3.86408478e-01 +6.13482356e-01 -2.76690751e-01 -6.68533385e-01 -1.48856878e-01 +4.26552385e-01 -4.05282885e-01 +1.44040301e-01 +6.44135580e-04 +5.50947785e-01 -3.48885745e-01 +4.18825269e-01 +2.56949753e-01 -7.20913559e-02 +1.14492945e-01 -2.59585381e-01 -2.19586685e-01 -6.21661663e-01 +2.62384683e-01 +5.53415060e-01 +4.61335868e-01 +5.53348601e-01 -6.13709586e-03 +5.62023580e-01 -5.93917863e-03 -4.50907260e-01 +5.48736572e-01 -5.45879044e-02 +6.81722820e-01 +6.33776128e-01 -5.52731574e-01 +4.01283532e-01 +6.83435380e-01 -4.04821746e-02 +4.68818605e-01 +1.33750007e-01 +5.41082859e-01 -5.73755920e-01 -4.56815332e-01 +4.34564888e-01 -3.36475372e-02 -5.79622328e-01 +3.24975014e-01 -5.10817647e-01 +4.68237936e-01 -6.64083064e-01 
