#Parameter# /_0 {1,3,1,16} 769 ZERO_GRAD
-1.29003813e-02 +2.05759946e-02 +3.60748023e-02 -4.61968686e-03 +4.51746723e-03 +8.80631898e-03 +1.23319612e-03 -1.55112101e-02 -2.29852032e-02 +4.58081107e-04 -2.30521371e-04 -5.59599139e-04 +3.90464440e-03 -1.19027998e-02 -1.91046614e-02 +7.68787169e-04 +8.72235652e-03 +1.22002801e-02 +1.97945186e-03 -3.03520239e-03 -5.35937725e-03 +7.40052061e-03 -1.57624241e-02 -2.64049992e-02 +5.62856626e-03 -2.54188781e-03 -6.45691017e-03 +6.96239993e-03 -1.59841459e-02 -2.65076011e-02 +5.78957051e-03 -1.16901752e-02 -1.97324138e-02 -5.16122114e-03 -1.95192022e-03 -2.56959582e-04 -7.62855075e-03 +8.93983524e-03 +1.66768879e-02 -2.89109931e-03 +6.35872874e-03 +1.06052663e-02 +1.51451735e-03 -3.34632094e-03 -5.57764480e-03 -4.75623086e-03 +6.56591030e-03 +1.18287513e-02 
#Parameter# /_1 {8,2} 257 ZERO_GRAD
-5.68911612e-01 +9.66892168e-02 +1.62188131e-02 -6.43667758e-01 +6.83443397e-02 +5.54510534e-01 -2.80662626e-01 +7.74429560e-01 +6.87185228e-01 -2.83645242e-01 +2.13956118e-01 -3.62610184e-02 +3.17585826e-01 -6.71722651e-01 +1.02958118e-03 -4.82577085e-01 
#Parameter# /_2 {8} 129 ZERO_GRAD
+2.56395310e-01 +3.54729742e-01 +3.95202368e-01 -3.77892077e-01 -2.43097171e-01 -9.97856408e-02 +5.38738430e-01 -7.10577220e-02 
#Parameter# /_3 {1,8} 129 ZERO_GRAD
-7.70543963e-02 -1.41785383e-01 +7.49342978e-01 +7.43537486e-01 +6.98598385e-01 -3.08167219e-01 -3.18095386e-01 +2.39532799e-01 
#Parameter# /_4 {1} 17 ZERO_GRAD
-1.18983614e+00 
#Parameter# /_5 {1,1,16,1} 257 ZERO_GRAD
+3.74884121e-02 +8.80623795e-03 -2.55257376e-02 -5.20979054e-04 -2.05403771e-02 +1.38828550e-02 -5.55461459e-03 -2.79189758e-02 -5.93071431e-03 -2.81370580e-02 -2.08029840e-02 -1.49999035e-03 +1.69396158e-02 +1.12324134e-02 -5.90889202e-03 +1.21687474e-02 
