#Parameter# /_0 {1,3,1,16} 769 ZERO_GRAD
-4.59913770e-03 -1.18700066e-03 +2.09864741e-03 +2.44412152e-03 +1.27720635e-03 +1.74170214e-04 -1.20265642e-04 +1.83632619e-06 +1.20429395e-04 -4.74738702e-03 -6.31751772e-03 -7.98897538e-03 -3.33310454e-03 -8.19623761e-04 +1.60166365e-03 +1.38595744e-04 +1.71276188e-04 +2.06961136e-04 -7.95588084e-03 -2.73831259e-03 +2.26414576e-03 -9.00245912e-04 +1.79474286e-04 +1.23181986e-03 +3.08875344e-04 -1.23346678e-03 -2.75949109e-03 +1.98162626e-03 +1.56473357e-03 +1.19619968e-03 -5.07214223e-04 +1.47000945e-03 +3.42370570e-03 -2.40102084e-03 -6.01867097e-04 +1.13068428e-03 -5.15124062e-03 -2.13312288e-03 +7.47730781e-04 -9.78299417e-04 +1.77754759e-04 +1.30421564e-03 -4.72646701e-04 -6.42449828e-04 -8.22267146e-04 -1.24342798e-04 -1.18270136e-05 +9.71358459e-05 
#Parameter# /_1 {1,1,16,1} 257 ZERO_GRAD
-1.48804422e-04 -2.19554943e-03 -1.19540578e-04 +1.77620836e-02 -2.50406534e-04 -4.72219865e-04 +2.15274608e-03 -1.47769693e-03 +4.62972326e-03 -3.64148826e-03 -5.64832333e-03 -1.39798212e-04 +2.66093365e-03 -1.54508534e-03 +1.81581976e-03 -7.52986089e-05 
