#Parameter# /_0 {1,3,1,16} 769 ZERO_GRAD
+2.29075947e-03 -1.17977373e-02 -1.68670472e-02 +1.73959986e-03 +4.53532557e-04 -1.47219736e-03 +3.96097265e-03 -5.43047208e-03 -1.11364080e-02 -3.58112529e-03 -2.76520681e-02 -2.91492250e-02 +4.10212763e-03 +6.11620955e-03 +2.60666781e-03 -4.83971508e-03 +1.84224471e-02 +2.78034844e-02 +3.50352470e-03 +1.17408740e-03 -2.65082484e-03 -9.88859124e-03 -2.19374876e-02 -1.49479611e-02 +1.01062376e-02 -3.82035389e-03 -1.63272209e-02 +3.75358365e-03 +1.25712790e-02 +1.07855350e-02 -2.90462933e-03 +1.05941454e-02 +1.61298644e-02 -2.24635913e-03 +1.02473665e-02 +1.49482694e-02 +2.05542017e-02 +1.78970713e-02 -2.29309197e-03 +1.24232378e-02 +1.38228443e-02 +2.23378348e-03 +1.43102147e-02 +2.77622342e-02 +1.68332495e-02 +7.85002671e-03 -4.10796655e-03 -1.40557792e-02 
#Parameter# /_1 {1} 17 ZERO_GRAD
+4.80197966e-01 
#Parameter# /_2 {1,1,16,1} 257 ZERO_GRAD
-1.93407759e-02 -8.89807648e-04 -1.15000661e-02 -3.73334549e-02 +5.29946201e-03 +3.13295573e-02 -1.40982307e-03 -2.33199168e-02 -1.46315414e-02 +1.50730582e-02 +1.81251876e-02 +1.70284957e-02 +7.86605943e-03 +9.15999245e-03 +2.79068407e-02 -1.30368480e-02 
