#Parameter# /_0 {1,3,1,16} 769 ZERO_GRAD
+4.53305524e-03 +1.94050726e-02 +2.08333824e-02 -7.54922628e-04 -2.90072989e-03 -3.12182494e-03 -1.31590199e-02 +5.98430447e-03 +4.99672815e-03 -1.15796179e-02 +7.91342463e-03 +7.17856409e-03 +5.72261680e-03 +2.47370568e-03 +3.16051370e-03 -4.93352395e-03 +2.04727650e-02 +2.10264977e-02 -2.77435803e-03 -9.25706048e-03 -9.99847054e-03 +5.78392204e-03 -2.14932021e-02 -2.20152568e-02 +6.27190573e-03 -3.87363099e-02 -4.00844924e-02 -2.30821804e-03 +3.81055730e-03 +3.77726555e-03 +1.53444186e-02 +1.27890483e-02 +1.49426674e-02 +1.12885574e-03 +1.09937061e-02 +1.16617149e-02 -5.52562159e-03 -3.71989831e-02 -3.96266356e-02 -4.86248964e-03 -5.10320440e-03 -5.83892409e-03 -6.32429612e-04 +7.94311706e-03 +8.28369986e-03 -1.18290670e-02 -1.21821254e-03 -2.44041509e-03 
#Parameter# /_1 {1,1,16,1} 257 ZERO_GRAD
+2.25565769e-02 -3.34979012e-03 +1.11061111e-02 +1.30267413e-02 +1.40879280e-03 +2.65675038e-02 -1.05860308e-02 -2.80640684e-02 -4.93949652e-02 +5.34120761e-03 +1.13433963e-02 +1.31894769e-02 -4.41423580e-02 -4.88566095e-03 +9.94239654e-03 +1.87505502e-03 
