#Parameter# /_0 {320,8} 40961 ZERO_GRAD
+1.00676117e+01 +7.88784552e+00 +1.02432384e+01 +5.56698990e+00 +2.50132823e+00 +4.78554773e+00 +4.10788298e+00 -1.31796932e+00 -2.01395202e+00 -3.86852312e+00 -9.31942558e+00 -8.97135067e+00 -1.14886084e+01 -9.52993774e+00 -1.36710043e+01 -1.11552734e+01 -8.99543953e+00 -1.03048944e+01 -1.09131365e+01 -1.26858292e+01 -1.07971067e+01 -1.44992609e+01 -1.16434755e+01 -1.45136356e+01 -1.09161901e+01 -7.34990978e+00 -7.71378946e+00 -8.14385033e+00 -3.58364201e+00 -1.85143888e+00 -1.56347311e+00 +3.49294618e-02 +2.89603639e+00 +1.92334461e+00 +3.95521688e+00 +7.33386755e+00 +4.34182930e+00 +1.18683214e+01 +7.65995312e+00 +1.06804037e+01 +7.56657171e+00 +6.68459129e+00 +1.01697054e+01 +9.07707977e+00 +1.00557270e+01 +9.34256363e+00 +9.20449448e+00 +8.17716503e+00 +9.70273876e+00 +1.15157995e+01 +6.23952055e+00 +6.81252193e+00 -1.23184240e+00 +4.57773060e-01 -2.19988084e+00 +9.70018864e-01 +1.19095534e-01 +4.80069220e-01 +4.73460227e-01 -3.80222273e+00 -1.50019979e+00 -8.26338708e-01 -8.80793393e-01 +2.02914453e+00 +3.44159317e+00 +1.27664936e+00 +3.51532626e+00 +4.24331951e+00 +6.78568935e+00 +5.36979198e+00 +7.27055120e+00 +6.77346277e+00 +5.80451679e+00 +6.79708052e+00 +4.57022047e+00 +1.99253631e+00 +5.72013092e+00 +2.66286097e-02 -1.57629237e-01 -1.76894236e+00 -4.85049438e+00 -4.27056313e+00 -4.09110737e+00 -4.59974384e+00 -7.95675802e+00 -8.72658825e+00 -1.09883995e+01 -1.31323090e+01 -1.16873827e+01 -1.33501720e+01 -1.16434259e+01 -1.18721886e+01 -7.50719500e+00 -9.98727322e+00 -6.19962549e+00 -2.34230113e+00 -6.10292625e+00 -1.43514013e+00 -3.38187695e-01 +1.25029552e+00 +4.37640876e-01 +3.08900285e+00 +4.82717609e+00 +3.50352812e+00 +4.52216053e+00 +2.05031896e+00 +4.02583075e+00 +6.23763657e+00 +4.68098402e+00 +2.20188904e+00 +1.55112827e+00 -4.88181300e-02 -5.22809601e+00 -2.17342377e+00 -3.98203802e+00 -1.57019603e+00 -8.37676811e+00 -7.56406689e+00 -2.60008192e+00 -5.93547726e+00 -5.70945168e+00 -4.16312838e+00 -1.19807482e+00 -1.33641839e+00 -4.25178432e+00 -3.98336910e-02 -8.28791440e-01 +3.13273221e-01 +7.95735598e-01 +3.22336292e+00 +1.65176129e+00 +1.72631764e+00 +1.61392081e+00 +6.70289707e+00 +3.69192457e+00 +4.83328581e+00 +5.26437283e+00 +3.45749712e+00 +8.14794159e+00 +6.75877619e+00 +6.76542377e+00 +7.06178331e+00 +8.02147198e+00 +2.67631364e+00 +4.33621264e+00 +1.98291159e+00 +6.30645227e+00 +2.52789044e+00 +5.34161663e+00 +1.06171095e+00 +5.75999796e-01 +1.11956847e+00 -3.39815116e+00 -4.32953835e+00 -2.98133278e+00 -2.52682662e+00 -3.18538260e+00 -1.22949982e+00 +3.96472692e-01 +1.96637976e+00 +2.18490314e+00 +1.38423944e+00 +1.39810801e+00 +2.07145071e+00 -6.85008168e-01 +5.72830248e+00 +8.41620922e+00 +3.53531122e+00 +8.73645210e+00 +4.82115841e+00 +6.40799665e+00 +1.99352980e+00 +3.17771292e+00 +9.09862667e-02 -8.30687761e-01 +4.10507023e-01 -2.59437633e+00 +1.46505797e+00 -2.67425609e+00 -5.64535570e+00 -4.81346512e+00 -5.78304148e+00 -1.21766548e+01 -1.10734549e+01 -8.09093761e+00 -9.03375721e+00 -8.34429264e+00 -1.01519556e+01 -9.36536598e+00 -7.91537094e+00 -6.30238533e+00 -6.47028399e+00 -5.83246851e+00 -2.02210093e+00 -4.22936678e+00 -3.42923331e+00 -1.29267430e+00 -1.59739101e+00 +1.57437488e-01 -1.44209552e+00 -2.46708855e-01 -1.60992157e+00 -3.49972486e+00 -2.30081344e+00 -3.64060473e+00 -3.97316575e+00 -6.20381927e+00 -8.53064120e-01 -3.55513453e+00 -5.12238503e+00 -1.40482485e+00 -6.63422823e-01 -2.26183581e+00 -6.54885530e-01 -4.41002756e-01 -4.25385743e-01 +3.34454226e+00 +4.19728947e+00 +6.09712172e+00 +9.17305660e+00 +9.69171906e+00 +1.37029409e+01 +1.08122396e+01 +9.60929871e+00 +9.89936543e+00 +9.91950607e+00 +6.77080441e+00 +8.94651031e+00 +7.74845409e+00 +2.67212319e+00 +4.20598078e+00 +5.43569088e+00 +3.39571238e+00 +5.44768906e+00 +2.78280830e+00 +1.97304761e+00 +2.64977598e+00 +5.79272890e+00 +3.17667556e+00 +1.27587068e+00 +1.22306514e+00 -1.23936407e-01 -4.96879935e-01 -3.05738640e+00 -1.67765126e-01 -5.15519905e+00 -2.04024339e+00 -4.71376944e+00 -2.00794172e+00 -4.34486341e+00 -1.41291785e+00 -5.08434820e+00 -3.49936175e+00 -5.21395874e+00 -7.94943810e+00 -2.38898349e+00 -3.84652066e+00 -5.72225618e+00 -4.14244413e+00 -5.20943260e+00 -2.87291360e+00 -3.31227732e+00 -5.00480080e+00 -1.43209803e+00 -4.12288809e+00 -4.45584631e+00 -6.18869305e+00 -5.14379740e+00 -8.07869148e+00 -4.78575802e+00 -5.91704702e+00 -7.29826069e+00 -4.76650095e+00 -5.33846426e+00 -5.21211100e+00 -2.72724581e+00 -4.02033234e+00 -1.97725332e+00 -1.05834210e+00 +1.38787091e+00 +8.79076302e-01 +4.00000286e+00 +1.16104150e+00 +1.74088329e-01 +2.71012926e+00 +2.92387986e+00 +4.84111118e+00 +6.95555592e+00 +4.10171318e+00 +4.89308500e+00 +2.40587759e+00 +6.60812330e+00 +2.78662586e+00 +1.73174131e+00 +3.53431845e+00 +3.78172374e+00 +2.50722456e+00 +3.75796461e+00 +3.18225360e+00 -3.28220516e-01 -2.81100774e+00 -3.21056128e+00 -9.47351933e+00 -6.29072618e+00 -2.88828969e+00 -3.70714784e+00 -6.61848259e+00 -2.49494958e+00 -3.44162560e+00 -3.99195170e+00 +2.31262279e+00 -9.81811225e-01 +2.10542250e+00 +6.97688341e-01 +4.58696556e+00 +4.56311035e+00 +4.73078823e+00 +7.66557550e+00 +4.82124043e+00 +3.59870195e+00 +4.94062328e+00 +2.52225471e+00 +5.70087814e+00 +3.92147660e+00 +3.27149034e+00 -2.55539203e+00 -3.42466640e+00 -3.87681794e+00 -5.19835234e+00 -2.53191042e+00 +3.51648211e+00 +3.98898554e+00 +2.34133625e+00 +5.52860928e+00 +5.83663940e+00 +6.50094509e+00 +5.57421303e+00 +8.89979267e+00 +7.06703663e+00 +7.88574457e+00 +9.36710262e+00 +4.35945797e+00 +1.27387486e+01 +1.38500414e+01 +1.48966637e+01 +1.26984558e+01 +1.68764896e+01 +1.20459957e+01 +1.46873045e+01 +1.79596386e+01 +1.31649942e+01 +1.09293737e+01 +1.34551992e+01 +9.71247005e+00 +1.30806866e+01 +7.45911646e+00 +6.64994574e+00 +2.24387288e+00 +1.67288792e+00 +1.90147626e+00 -3.96975160e+00 -4.16166830e+00 -9.70125580e+00 -7.58021069e+00 -5.83627987e+00 -1.23606939e+01 -9.84620380e+00 -1.45310612e+01 -1.91168900e+01 -2.33424358e+01 -2.60856438e+01 -2.78279152e+01 -2.24751282e+01 -2.70076370e+01 -2.91415215e+01 -2.67596016e+01 -2.36110783e+01 -2.52750549e+01 -1.49562159e+01 -1.17515116e+01 -1.60805168e+01 -1.36733618e+01 -1.11403913e+01 -9.77436447e+00 +2.54978776e-01 +5.93297720e-01 +2.83857751e+00 -6.19383156e-01 +1.53615654e+00 +4.85419321e+00 +2.90903068e+00 +3.78658271e+00 -4.04753268e-01 +7.20532894e-01 -1.23173273e+00 +2.62975073e+00 +3.34630513e+00 +8.40678120e+00 +3.71031070e+00 +1.58180225e+00 -4.22472924e-01 +3.79928398e+00 +4.49224091e+00 +2.88610053e+00 +2.91344213e+00 +6.50599384e+00 +6.29996490e+00 +5.81058931e+00 +8.00715542e+00 +9.07055569e+00 +4.91586924e+00 +6.00587988e+00 +3.28968716e+00 +5.54990959e+00 +7.45239973e+00 +6.71350765e+00 +3.68363929e+00 +1.28422880e+00 +1.42990732e+00 -8.35829437e-01 -3.93924385e-01 +6.37732220e+00 +4.24878168e+00 +7.67444789e-01 +3.85367393e+00 +1.43552911e+00 -1.33872497e+00 +2.70150685e+00 +9.73365784e-01 +5.58208644e-01 +6.50451136e+00 +4.65729952e+00 +4.17662144e+00 +3.89312124e+00 +4.78684998e+00 +1.38257515e+00 +4.96972466e+00 +6.35733652e+00 +3.66422129e+00 -1.51952088e+00 +3.04151940e+00 +5.31110525e+00 +5.89306068e+00 +1.84026861e+00 +1.35047722e+00 +3.87063503e+00 -8.22010219e-01 -2.01810673e-01 +1.99264216e+00 -6.43520474e-01 +3.22703958e+00 +3.67113948e+00 -5.04920053e+00 -7.51040220e+00 -6.47575665e+00 -5.65356207e+00 -8.38836384e+00 -6.26758718e+00 -1.04012671e+01 -1.44018278e+01 -1.07049675e+01 -1.45472689e+01 -1.18734055e+01 -1.12155676e+01 -1.21681890e+01 -1.28679218e+01 -1.27975512e+01 -1.28584423e+01 -1.14803562e+01 -9.37206554e+00 -8.83030605e+00 +1.96063399e+00 -5.63869119e-01 +1.59996283e+00 +2.64178443e+00 +1.56755555e+00 +3.03886461e+00 +8.17433453e+00 +6.10610819e+00 +4.81201649e+00 +6.59831572e+00 +1.49620571e+01 +1.05660315e+01 +4.92999506e+00 +1.14818726e+01 +8.47987270e+00 +8.70053959e+00 +2.13316178e+00 +6.46672869e+00 +3.95119357e+00 +4.60013008e+00 +8.13547516e+00 +7.46524477e+00 +4.26541519e+00 +5.41164637e+00 +3.06951809e+00 +4.97546625e+00 +1.67753959e+00 +3.73356128e+00 +8.31504822e-01 -3.10035658e+00 -1.33885813e+00 -3.10778236e+00 -1.45547271e+00 -4.37910509e+00 +4.77094126e+00 -3.30615902e+00 +1.57302046e+00 -3.67137998e-01 -2.60821295e+00 -4.71210718e+00 +5.49475491e-01 +2.62130976e+00 +5.18299818e-01 +9.62213707e+00 +9.64189148e+00 +7.26981783e+00 +9.73124790e+00 +8.74881089e-01 +1.65811002e+00 +4.91772032e+00 +7.35475063e+00 +7.01966286e-01 +2.61908913e+00 +1.12964416e+00 +9.20572221e-01 -1.85225236e+00 -9.09181881e+00 -6.49618912e+00 -1.53266871e+00 -1.46995890e+00 -4.83500338e+00 +6.77157879e+00 +1.01444125e+00 +4.87497002e-01 +4.85469961e+00 -2.41846490e+00 +4.80215359e+00 +3.11748886e+00 +1.84408569e+00 +3.99945068e+00 -3.35296059e+00 -6.31090760e-01 -4.77232504e+00 +7.73933232e-02 -8.97049427e+00 +1.46518505e+00 -6.56802833e-01 +3.01681662e+00 +5.14349937e+00 +4.97579575e+00 +5.64986587e-01 +5.11874151e+00 -9.86563861e-01 -2.52365804e+00 -4.30803013e+00 -2.95514488e+00 -7.46326351e+00 -6.17729950e+00 -5.60933161e+00 -7.43400240e+00 -6.72595024e+00 -1.65305157e+01 -5.87162876e+00 -1.32126265e+01 -2.16954827e+00 -5.62600994e+00 +8.92387092e-01 +2.46731067e+00 -2.64512330e-01 -2.06050467e+00 +2.10637522e+00 +5.09460736e-03 +5.31652737e+00 +6.29464483e+00 +3.16931987e+00 +7.40804577e+00 +9.18035507e+00 +1.68780100e+00 +4.06689644e+00 +1.10243857e+00 -2.03412151e+00 +1.91969216e+00 -9.43546176e-01 -1.61806631e+00 +1.87516940e+00 +4.23803568e+00 +4.18629408e-01 +1.63388634e+00 +5.37398481e+00 +2.99120951e+00 +3.05100250e+00 +2.35518241e+00 +7.71297991e-01 +1.16770697e+00 +5.44608259e+00 -1.25963128e+00 -5.31170011e-01 +9.14867342e-01 -1.59528708e+00 -5.18981457e+00 -3.34127975e+00 -5.11232710e+00 -6.10139191e-01 +3.07213044e+00 -1.59350300e+00 -5.44851160e+00 -4.93648195e+00 -2.71524429e+00 -2.48990726e+00 -5.23040473e-01 -2.90846014e+00 +6.28496265e+00 +3.97648001e+00 +1.00736284e+01 +2.20844960e+00 +5.92614889e+00 +2.96099544e+00 +6.87998104e+00 +2.03963590e+00 +2.54966736e+00 +3.18413973e+00 +9.85671902e+00 +1.03772819e+00 +8.81997764e-01 -4.00113201e+00 -4.17552710e+00 -4.90194529e-01 -1.14290226e+00 -2.31736255e+00 -3.60161209e+00 -4.88317871e+00 +5.35499716e+00 -3.20378470e+00 -3.45859408e+00 -5.60342503e+00 -1.31759799e+00 -4.24178457e+00 -3.02794099e+00 +1.50784945e+00 +7.09587669e+00 +7.35680294e+00 +7.74608374e+00 +6.19940472e+00 +6.90303898e+00 +4.18771076e+00 +7.60711384e+00 +6.75139475e+00 +7.89431763e+00 +6.90331841e+00 +8.76341057e+00 +8.56449699e+00 +8.76352596e+00 +7.49191809e+00 +9.37294006e+00 +5.21103668e+00 +7.32235956e+00 +4.23516750e+00 +5.73565340e+00 +3.03741717e+00 +1.58560288e+00 +1.23161122e-01 -1.52658248e+00 -2.26409888e+00 -3.83789849e+00 -3.80101156e+00 -3.86644268e+00 -3.61522961e+00 -4.26334381e+00 -2.77880788e+00 -4.49226904e+00 -2.53098106e+00 -1.71380091e+00 -4.50127268e+00 -4.08587486e-01 -3.69447684e+00 -3.14404154e+00 -3.32791615e+00 -6.73305035e+00 -5.40113449e+00 -7.70485067e+00 -5.25308943e+00 -5.84025049e+00 -4.41534901e+00 -3.20530486e+00 -3.51517987e+00 -2.77941179e+00 -4.39693260e+00 -2.34860325e+00 -1.82389808e+00 +9.72127140e-01 +1.11549759e+00 +4.49095756e-01 -6.01527393e-01 -3.81568980e+00 -6.09174252e-01 -1.68459654e+00 -2.07821941e+00 -3.13511419e+00 -1.67918062e+00 +1.12618637e+00 +4.19963151e-01 +8.11226249e-01 -6.17791712e-01 +1.27027011e+00 +2.87941337e+00 +2.63032675e+00 +4.75799799e+00 +4.75917530e+00 +3.81383538e+00 +3.07471061e+00 +4.42127514e+00 +2.20384645e+00 +1.01607084e+00 +7.81244189e-02 -3.27608258e-01 +7.18263090e-02 -2.11792612e+00 -3.59037733e+00 -5.03905010e+00 -4.61369562e+00 -4.18661165e+00 -3.04588556e+00 -3.57964921e+00 -5.33680391e+00 -3.55495644e+00 -3.94399214e+00 -5.11567497e+00 -5.26683092e+00 -4.97886515e+00 -8.57931995e+00 -7.25891209e+00 -9.44896126e+00 -8.48406219e+00 -9.01759148e+00 -5.19623470e+00 -5.74371099e+00 -2.29498219e+00 -1.76627547e-01 -7.05541193e-01 -1.70754468e+00 -3.95190310e+00 -1.85332692e+00 -1.46980309e+00 +8.11717927e-01 +2.17469263e+00 +2.64193296e+00 +3.81971478e+00 +5.77440310e+00 +6.05379725e+00 +5.00014400e+00 +4.60550547e+00 +5.54757118e+00 +6.41586065e+00 +7.37411928e+00 +6.63263988e+00 +7.18870783e+00 +9.29728508e+00 +1.02614193e+01 +1.03629074e+01 +1.03148632e+01 +1.02846060e+01 +8.34074497e+00 +8.93333435e+00 +9.84830952e+00 +9.18369198e+00 +3.49135113e+00 +2.68257308e+00 +4.22807837e+00 +1.46443450e+00 +2.40038872e+00 +8.33477199e-01 +2.66641527e-01 +7.52392352e-01 -4.30694759e-01 -2.22517565e-01 -1.81611776e+00 -1.03288567e+00 -1.71963561e+00 -5.45636082e+00 -4.16069794e+00 -7.67460060e+00 -6.87380600e+00 -1.09178457e+01 -1.01124773e+01 -1.36669493e+01 -1.13596659e+01 -1.34209309e+01 -1.08690472e+01 -1.11651630e+01 -9.77097321e+00 -6.29896498e+00 -6.34448957e+00 -4.07214785e+00 -3.60207438e+00 -3.67792726e+00 -8.45940411e-01 -1.49147883e-01 +2.38901470e-03 +1.71888041e+00 +3.74497366e+00 +9.22061920e+00 +7.78158808e+00 +8.81766319e+00 +8.72956753e+00 +6.24371386e+00 +5.36936283e+00 +3.45160151e+00 +6.12437963e+00 +2.60167575e+00 +3.16738534e+00 +2.93057609e+00 +2.53008103e+00 -1.56061938e-02 -4.52878326e-01 -7.81468093e-01 +3.13739228e+00 +5.71192074e+00 +8.19587803e+00 +7.91277456e+00 +6.24024725e+00 +6.56162930e+00 +4.07464123e+00 +5.31427670e+00 +1.95420706e+00 +4.29516029e+00 +3.02796912e+00 +2.20932174e+00 -9.57380176e-01 -1.40416515e+00 -2.90732646e+00 -1.96914256e+00 -3.83471942e+00 -3.08530831e+00 -2.60958362e+00 -2.54679322e+00 -6.46762371e+00 -6.01824856e+00 -8.63806248e+00 -6.39976215e+00 -3.86708403e+00 +1.82524896e+00 -3.92066032e-01 +2.06715870e+00 +3.44831562e+00 +4.91486120e+00 +4.81093311e+00 +5.46130943e+00 +3.59546685e+00 +5.65438557e+00 +2.86974239e+00 +3.67173243e+00 +3.78062844e+00 +2.06581688e+00 -1.55086160e+00 +4.16593254e-01 -1.36917472e+00 +3.11699241e-01 +7.80166328e-01 -1.14841402e+00 -1.55757046e+00 -6.48961544e+00 -4.81955767e+00 -6.45728922e+00 -5.96449327e+00 -7.27363586e+00 -7.16048670e+00 -8.10285854e+00 -8.75214100e+00 -9.78423405e+00 -8.70333576e+00 -8.30106544e+00 -3.39318800e+00 -6.83561087e+00 -4.17414856e+00 -5.26121902e+00 -2.81425214e+00 -5.67350674e+00 -4.62692642e+00 -8.74286175e+00 -6.18743134e+00 -6.27744389e+00 -4.86161757e+00 -2.44952893e+00 -2.71304536e+00 -1.23068619e+00 -1.04770291e+00 +1.55727708e+00 +3.13226056e+00 +5.08431435e+00 +6.57401896e+00 +4.91666317e+00 +5.85747719e+00 +5.44743681e+00 +5.12823105e+00 +5.80380535e+00 +8.43382931e+00 +9.94034767e+00 +1.17208948e+01 +1.17859735e+01 +1.28711615e+01 +1.17271557e+01 +1.29939070e+01 +1.01660938e+01 +7.17934561e+00 +5.21478415e+00 +4.19085026e+00 +4.47248888e+00 +4.58279800e+00 +7.69475174e+00 +4.89069462e+00 +5.43177795e+00 +3.80261135e+00 +5.51577711e+00 +3.06883192e+00 +4.24913692e+00 +7.85028160e-01 +2.04305100e+00 +6.68050468e-01 +1.39629054e+00 -1.94678247e+00 -2.91519761e+00 -2.26648808e+00 -3.05182624e+00 -2.66551471e+00 -4.57196856e+00 -6.48671484e+00 -8.51662540e+00 -9.75312042e+00 -1.17193031e+01 -9.74055481e+00 -9.92903614e+00 -7.58760214e+00 -6.66585255e+00 -6.09651423e+00 -5.45131731e+00 -6.79050827e+00 -7.54456425e+00 -8.75488853e+00 -1.00684719e+01 -1.08418961e+01 -8.56717968e+00 -7.66442204e+00 -7.35922623e+00 -6.10061836e+00 -2.16447377e+00 -1.50151908e-01 +2.53429985e+00 +2.95274472e+00 +3.88182831e+00 +1.57704222e+00 +2.17041135e+00 +5.55475426e+00 +4.44004154e+00 +5.00397158e+00 +3.75017333e+00 +2.60616255e+00 +2.50127167e-01 +2.76116037e+00 +3.43974662e+00 +3.64444423e+00 -1.02193284e+00 -4.38084304e-01 -9.26269650e-01 -5.31899357e+00 -5.73229933e+00 -2.75658298e+00 -4.54894829e+00 -6.57381487e+00 -6.61821365e+00 -6.81104517e+00 -3.82366729e+00 -7.64772415e+00 -9.03832150e+00 -1.13033056e+01 -5.17523432e+00 -4.88900995e+00 -3.05501199e+00 -4.06495380e+00 -2.02775383e+00 -2.11336851e+00 -5.51644182e+00 -5.63525105e+00 -7.30915880e+00 -5.63738632e+00 -5.75318289e+00 -2.67488074e+00 -9.62185860e+00 -4.77198172e+00 +2.24955869e+00 +2.16601276e+00 +1.60611451e+00 -8.70760262e-01 -2.60103822e+00 +2.96567917e+00 +6.20653772e+00 +7.35368919e+00 +1.59231710e+01 +1.19885597e+01 +1.85686302e+01 +9.14841175e+00 +8.33330250e+00 +1.15981894e+01 +1.32075815e+01 +1.48702269e+01 +7.12190628e+00 +8.04813671e+00 +5.24286175e+00 +5.77437210e+00 +8.11588001e+00 +4.61839962e+00 +2.70007229e+00 -4.73109961e+00 -7.32679081e+00 -6.32544470e+00 -6.43043470e+00 -1.13833129e+00 -3.85193586e+00 -5.40681267e+00 -1.13359518e+01 -8.56215191e+00 -8.50949764e+00 -6.29884529e+00 -4.01360607e+00 -2.35645986e+00 -5.26420593e+00 -1.03080559e+01 -6.78780651e+00 -3.91700315e+00 -2.80516481e+00 +4.81234789e+00 +3.78217196e+00 +2.40638995e+00 +6.94532681e+00 +3.36262965e+00 +1.39843011e+00 +3.39225674e+00 +1.81948614e+00 -4.25472116e+00 -7.00995255e+00 -3.80034089e+00 -1.54992795e+00 -2.43667054e+00 -9.49650824e-01 -7.59514713e+00 -6.52380705e+00 -7.79938889e+00 -6.74058676e+00 -6.45549440e+00 -8.12646770e+00 -3.26226878e+00 -8.39316273e+00 -5.72855854e+00 -1.33874950e+01 -5.13335419e+00 -4.03228664e+00 -5.47256565e+00 -4.64907312e+00 -1.42563915e+00 +2.89712358e+00 +6.48319304e-01 +1.75320733e+00 -5.83366193e-02 +3.13185883e+00 +1.85184908e+00 -2.67616212e-01 +1.78281069e+00 +2.49641395e+00 +1.46653068e+00 +6.57908440e+00 +5.76418936e-01 +6.30616188e+00 +6.40083075e-01 +8.45708132e-01 +3.11435986e+00 +3.49532962e+00 -2.25629911e-01 -3.00764036e+00 -2.17788339e+00 -1.35937583e+00 -1.05041957e+00 -6.95845634e-02 +7.84823036e+00 +4.71424150e+00 +5.70179272e+00 +8.00718784e-01 -6.12796640e+00 -5.82759953e+00 +6.12754524e-01 -6.81731224e-01 +4.58650999e-02 +1.83653191e-01 -6.44602060e+00 -5.60737896e+00 -4.18855667e+00 -1.03731041e+01 -9.06432819e+00 -8.32647896e+00 -6.60882950e+00 -8.13793087e+00 -8.31694794e+00 -6.13318205e+00 -6.40611792e+00 -1.19156532e+01 -1.15588245e+01 -1.16026545e+01 -8.20370102e+00 -7.35369492e+00 -5.99719763e+00 -5.20272684e+00 -7.20613909e+00 -2.98646116e+00 -4.34174299e+00 +3.97640038e+00 +8.26030827e+00 +9.38793373e+00 +6.27710009e+00 +5.09547901e+00 +6.86924076e+00 +1.24965258e+01 +1.41752501e+01 +9.95795441e+00 +1.40589361e+01 +1.35168333e+01 +1.49680166e+01 +2.05680199e+01 +1.88585587e+01 +1.86722889e+01 +1.96925449e+01 +2.01748199e+01 +1.99758415e+01 +1.70297108e+01 +1.32629128e+01 +1.00273409e+01 +1.03692331e+01 +2.43037224e+00 +2.19106245e+00 +3.89914751e+00 +1.34700978e+00 +4.26126346e-02 +3.88707757e+00 -2.98619413e+00 -8.09423447e+00 -7.80912542e+00 -7.35893250e+00 -3.42296147e+00 -7.61019421e+00 -6.89410448e+00 -9.87390995e+00 -1.40676079e+01 -1.46674671e+01 -1.03974991e+01 -1.32655945e+01 -1.09154549e+01 -8.61054230e+00 -9.75448418e+00 -1.31715040e+01 -1.47798071e+01 -1.41210012e+01 -1.77198582e+01 -1.75557995e+01 -2.13582344e+01 -2.38265896e+01 -2.53344669e+01 -1.90070305e+01 -1.07703524e+01 -1.43132095e+01 -9.21675205e+00 -1.08745174e+01 -3.91143060e+00 +2.07303238e+00 +3.19671082e+00 +1.17522659e+01 +8.49115944e+00 +6.01627016e+00 +7.79211617e+00 +1.04790649e+01 +1.27281609e+01 +1.93803577e+01 +1.79297466e+01 +1.62285328e+01 +1.71239262e+01 +2.08736572e+01 +1.51568155e+01 +1.68810520e+01 +1.81700230e+01 +1.82203541e+01 +9.36918736e+00 +3.71681142e+00 +2.71917820e+00 -3.57925534e+00 +1.04176986e+00 -1.25274312e+00 +1.93972364e-02 -4.74552774e+00 +7.76084661e-02 -5.54058969e-01 +9.20279145e-01 +3.34258938e+00 +3.95321131e+00 +1.61013925e+00 +3.81080508e+00 -1.65790403e+00 +1.27339506e+00 -2.37177938e-01 -4.14730549e+00 -1.79169798e+00 -3.26121473e+00 -4.31204462e+00 -1.11302137e+00 -2.55676508e-01 -2.49702382e+00 +2.62101626e+00 +1.77617276e+00 +2.23956060e+00 +4.03985214e+00 +1.04008780e+01 +6.73301411e+00 +5.90455675e+00 -1.88512313e+00 -2.24610114e+00 -5.53360987e+00 -8.62758636e+00 -7.28912210e+00 -1.17868614e+01 -1.31200542e+01 -1.27949390e+01 -9.69050884e+00 -1.13194075e+01 -1.23788195e+01 -1.32516804e+01 -1.42736292e+01 -1.44081640e+01 -1.20294666e+01 -1.02075539e+01 -1.01206579e+01 -1.26884289e+01 -8.98425674e+00 -8.31778336e+00 -8.65294933e+00 -8.56964397e+00 -4.05753040e+00 -3.31618047e+00 -1.94213533e+00 +8.31931949e-01 +1.38770616e+00 +2.55764556e+00 +1.77551055e+00 +3.19632404e-02 -4.09424019e+00 -5.02901697e+00 -3.60726714e+00 -5.67182922e+00 -4.59572983e+00 -5.45400667e+00 -9.20395279e+00 -7.94886732e+00 -6.67050028e+00 -3.61560035e+00 -2.91489029e+00 -1.57296322e-02 +6.29994678e+00 +4.41977167e+00 +2.14591956e+00 +5.80718613e+00 +4.48143053e+00 +3.87032539e-01 +2.39880371e+00 +4.31985617e+00 +1.62450230e+00 +1.05953016e+01 +6.77210379e+00 +8.05253696e+00 +8.34372425e+00 +8.06824589e+00 +3.72397470e+00 -4.43578474e-02 +1.39798200e+00 +8.17733955e+00 +6.13628292e+00 -1.11748862e+00 -9.28615808e-01 -2.44925857e+00 -8.85301173e-01 -1.94183755e+00 -1.17309690e+00 +1.05684590e+00 +1.49674404e+00 +1.04114044e+00 +6.48652792e-01 +1.75474048e+00 -9.41109061e-01 +1.29265738e+00 -1.20179141e+00 +2.05671000e+00 +1.63842070e+00 +3.65751863e+00 +5.27494621e+00 +6.38068628e+00 +8.36748695e+00 +6.21341276e+00 +9.50379467e+00 +4.78587055e+00 +6.53197670e+00 +6.19204521e+00 +2.93752337e+00 +1.85758042e+00 +6.21001065e-01 -1.20331056e-01 +6.75353229e-01 +9.20304954e-01 +5.86826026e-01 -4.85131264e+00 -1.11215985e+00 -2.35893860e-01 -2.57831168e+00 -3.57036203e-01 +7.81885087e-02 +2.41776451e-01 +2.14641809e+00 -8.48741114e-01 -1.18922365e+00 +1.08436632e+00 +4.54875618e-01 -7.21568227e-01 -2.57660055e+00 +3.32406938e-01 -2.58852649e+00 -2.19666457e+00 -9.61454511e-01 +1.03105938e+00 -7.71034598e-01 -2.45417595e+00 -3.69485712e+00 -4.08566332e+00 -2.86875081e+00 -3.45923042e+00 -4.53359514e-01 -4.46224403e+00 -1.64211154e+00 -1.07649112e+00 -1.72955716e+00 +2.45823050e+00 +1.57770133e+00 -2.53861636e-01 +2.23104405e+00 +2.87612748e+00 +2.18009710e+00 +4.36303616e+00 +1.51314831e+00 +4.12583542e+00 +2.30979991e+00 +3.39532018e+00 +2.67862558e+00 +1.96808100e+00 +1.47483313e+00 -2.54859591e+00 -2.09588155e-01 -3.95548868e+00 -4.03025579e+00 -5.02498341e+00 -5.39441204e+00 -3.40639281e+00 -2.25463128e+00 -2.74962497e+00 -1.35173249e+00 -9.95545030e-01 -2.53337622e-01 -7.45401680e-01 -1.18414056e+00 +2.21121311e+00 -8.36192295e-02 +1.64530933e+00 +5.66780150e-01 -2.82642901e-01 +2.40250850e+00 +3.95219088e+00 +4.85736275e+00 +2.92956567e+00 +3.27562523e+00 +2.65150023e+00 +1.87445033e+00 -1.21220279e+00 -1.55488059e-01 +1.25830996e+00 +1.59521353e+00 +1.67410266e+00 -2.60470724e+00 -2.80297041e+00 -6.87883019e-01 -6.99568796e+00 -5.23389387e+00 -5.67199564e+00 -5.51630974e+00 -6.18849325e+00 -8.27131081e+00 -6.56192827e+00 -7.57964659e+00 -8.24762440e+00 -2.82089114e+00 -4.61524630e+00 -2.86791515e+00 -1.98872364e+00 -5.11257350e-01 +2.25381899e+00 -1.49799907e+00 -1.81811357e+00 -1.28885472e+00 +3.77954662e-01 -8.55486393e-01 +1.89951253e+00 +2.12643313e+00 +1.48135984e+00 +2.68648601e+00 +2.61679935e+00 -9.16832745e-01 -5.56275129e-01 -2.46142656e-01 +1.24779247e-01 -2.45112568e-01 -3.30952257e-01 -1.06823623e+00 +1.61916590e+00 +1.13408542e+00 +3.66150832e+00 +4.19746208e+00 +1.27592182e+00 +5.67511654e+00 +2.65236998e+00 +5.99876785e+00 +3.28125787e+00 +7.72046232e+00 +8.36089039e+00 +8.21251011e+00 +8.19148636e+00 +7.94299841e+00 +6.22876310e+00 +3.43498731e+00 +3.37618113e+00 +2.26641583e+00 +3.78241253e+00 +6.54420435e-01 +6.51660800e-01 +1.77652884e+00 +2.47137332e+00 -1.25301778e+00 +7.53109276e-01 +3.71328878e+00 -4.55407381e-01 +1.28627801e+00 +1.64269900e+00 +4.05799770e+00 -2.39659950e-01 +1.46173850e-01 +2.06981158e+00 -3.56539559e+00 -4.48139459e-01 -4.27739286e+00 -3.45880294e+00 -3.46392965e+00 -2.66016817e+00 -4.83502054e+00 -4.79645252e+00 -6.57155895e+00 -5.45270872e+00 -4.96803427e+00 -5.07741451e+00 -6.36182928e+00 -8.64326668e+00 -9.29049110e+00 -7.55635118e+00 -6.57108164e+00 -8.30604649e+00 -6.59355831e+00 -6.64771605e+00 -6.66745567e+00 -7.02177191e+00 -6.11659956e+00 -4.05794907e+00 -3.49869299e+00 -1.81026280e+00 -3.93271947e+00 +8.66743088e-01 +3.43673140e-01 +7.10791469e-01 +3.75742626e+00 +3.89278626e+00 +4.34916592e+00 +2.89417100e+00 +3.30506039e+00 +2.57748437e+00 +5.09197807e+00 +6.58459139e+00 +5.43264008e+00 +7.32976580e+00 +8.80973911e+00 +1.02668886e+01 +6.89282656e+00 +1.14931202e+01 +9.09689236e+00 +6.42198944e+00 +6.24774218e+00 +6.53996086e+00 +2.77589345e+00 +1.42057192e+00 +4.58413887e+00 +2.10029888e+00 -1.00667548e+00 -3.33614111e+00 -1.08850408e+00 -6.37602806e+00 -3.15190291e+00 -3.93720555e+00 -2.56043005e+00 -3.51602650e+00 -1.25525713e+00 -3.70623612e+00 -1.74802637e+00 +8.35642338e-01 +6.10470176e-01 -7.90223122e-01 -5.09815872e-01 +6.94071829e-01 -2.76713878e-01 -1.25441685e-01 -8.02680016e-01 +8.43582511e-01 +2.66924262e+00 -1.07557774e+00 +2.14727521e+00 +1.22191405e+00 +1.66187838e-01 -7.53210247e-01 -2.99188399e+00 -1.85700130e+00 -3.17287636e+00 -1.17603147e+00 -7.33656526e-01 +1.87670732e+00 -2.89713120e+00 -2.01292539e+00 -2.02565479e+00 -2.23363614e+00 -2.42433906e+00 -1.07085717e+00 -1.08038282e+00 -2.16153264e+00 +1.37937307e+00 +1.45809785e-01 -2.35698390e+00 +1.17107522e+00 -4.56581086e-01 -2.51969337e+00 -9.62250829e-02 -6.66440070e-01 -4.55061388e+00 -2.16311049e+00 -1.91676748e+00 -3.61390018e+00 -3.03077459e+00 -4.04267609e-02 -2.57118344e+00 -1.50620091e+00 -1.89177775e+00 -1.16079855e+00 +2.07303977e+00 +6.14587605e-01 -1.50419247e+00 -6.34987950e-01 -3.37865305e+00 -2.06724858e+00 -3.90264106e+00 -3.51092649e+00 -7.23705590e-01 -5.05612469e+00 -2.10609293e+00 -5.48473835e+00 -3.82605600e+00 -3.18816876e+00 -2.04651546e+00 -3.92660588e-01 +1.58706057e+00 +2.04615307e+00 +2.01048946e+00 +1.61371255e+00 +3.17117572e+00 +7.49581873e-01 +1.68789303e+00 +3.92430449e+00 +2.57659721e+00 +2.40899301e+00 +4.65625286e+00 -3.36931139e-01 +3.96718717e+00 +3.84436107e+00 +5.37738752e+00 +2.14561057e+00 +2.50595021e+00 +2.87261271e+00 +1.30994773e+00 -1.08987021e+00 -8.95860698e-03 -1.18295729e+00 -2.37647581e+00 -8.39884102e-01 -5.07882714e-01 -8.27159822e-01 -3.25704455e-01 -2.11545134e+00 -2.01077199e+00 -2.20754957e+00 -1.77828550e+00 -2.60498238e+00 -3.71227384e+00 -1.17599893e+00 -1.18338811e+00 -2.36769304e-01 -7.22645402e-01 +4.83331949e-01 -5.56934893e-01 -1.23907423e+00 -5.74730694e-01 -4.24176931e+00 -2.24873638e+00 -4.57284737e+00 -2.94715858e+00 -5.04164791e+00 -5.69364357e+00 -4.91014624e+00 -3.29298663e+00 -2.80502725e+00 -2.35008693e+00 -5.15798283e+00 -3.43860960e+00 -2.86229539e+00 -3.07507586e+00 -1.12979388e+00 +4.67250079e-01 +2.09737492e+00 +2.64645290e+00 +2.25631261e+00 +3.54827571e+00 +3.16798329e+00 +5.12554979e+00 +6.78982592e+00 +5.84666967e+00 +6.09175014e+00 +5.47501564e+00 +5.88555098e+00 +5.95235825e+00 +6.44427109e+00 +5.81768513e+00 +3.86286068e+00 +1.95661366e+00 +2.80781436e+00 +1.43812847e+00 +2.46873832e+00 +2.09964061e+00 +2.93083116e-02 +7.90921628e-01 +1.71577537e+00 +5.86280644e-01 +2.17881846e+00 +7.48647928e-01 +3.84279370e-01 +1.91419750e-01 -3.36275339e+00 +6.02472305e-01 -1.87970328e+00 -3.42862099e-01 -1.64181793e+00 -8.12142134e-01 -7.73280025e-01 -5.39125383e-01 -1.79874456e+00 -2.96768308e+00 -3.44728398e+00 -2.96067119e+00 -1.84789062e+00 -3.49946237e+00 -1.06247759e+00 -2.21448970e+00 -1.95537269e+00 -2.20657802e+00 -2.73552608e+00 -3.12357950e+00 -1.92968357e+00 -1.79798037e-01 -1.31601059e+00 -2.36785054e+00 -2.13528943e+00 -1.51164520e+00 -1.80121982e+00 -4.15002537e+00 -1.85503983e+00 -1.51638246e+00 +1.07164526e+00 -1.12835920e+00 +1.44272357e-01 -7.57011235e-01 +2.19704077e-01 -3.73507166e+00 -3.09581900e+00 -2.02708817e+00 -2.41498375e+00 -2.86427379e-01 -1.65451363e-01 -1.33407187e+00 -1.81955504e+00 +1.38139570e+00 -1.79304945e+00 +3.69091749e-01 +1.00106764e+00 +2.77365029e-01 +2.71289039e+00 -6.79335892e-01 -8.99209738e-01 -5.04051387e-01 -7.66727388e-01 +1.79854178e+00 +6.20771825e-01 +6.99638426e-01 +3.89149022e+00 +3.79589987e+00 +5.19363022e+00 +1.94856119e+00 +2.05460668e+00 +8.53686154e-01 +1.00071907e+00 +1.94341731e+00 -2.74938755e-02 -1.69948429e-01 +2.02196777e-01 -1.78152466e+00 -4.18181904e-02 -2.54754400e+00 -2.69645119e+00 -1.94688118e+00 -2.22736835e+00 +7.75067031e-01 -1.91099370e+00 +6.15466461e-02 +1.11301506e+00 +1.50367200e+00 +2.60418701e+00 +3.33417010e+00 +2.81024742e+00 +4.13419771e+00 +3.98309708e+00 +3.98203492e+00 +4.59201193e+00 +2.79916835e+00 +4.86387730e+00 +5.15691376e+00 +2.62576175e+00 +2.78091908e+00 +2.27539226e-01 -1.23390627e+00 -2.69954467e+00 -2.43684816e+00 -2.76074195e+00 -4.56117058e+00 -2.78175855e+00 -3.66057587e+00 -3.67027783e+00 -2.93106031e+00 -3.98625994e+00 -1.79507315e+00 -3.30230999e+00 -1.25515914e+00 -1.16638160e+00 -4.56367821e-01 -1.37785876e+00 -1.18004513e+00 -4.33977157e-01 -2.21340346e+00 -1.38821852e+00 -9.27629769e-01 -4.12459195e-01 -6.89093411e-01 +2.52868986e+00 +4.64910120e-01 +1.06528942e-02 +1.12096578e-01 +9.66509044e-01 +1.00442338e+00 -6.42751396e-01 -2.35765412e-01 -1.31993628e+00 -3.17754912e+00 -1.01418388e+00 -6.59035504e-01 -2.16207647e+00 -7.30650350e-02 +1.36691883e-01 -2.21412945e+00 -4.44629431e+00 -2.67687607e+00 -3.07903385e+00 -2.53793526e+00 -3.84836912e+00 -2.44873595e+00 -2.35495090e+00 -3.22322702e+00 -1.18377185e+00 -8.31497729e-01 +6.80223823e-01 +1.89605272e+00 +2.09341812e+00 +3.88356090e+00 +1.88974428e+00 +4.78527260e+00 +5.22180986e+00 +7.17849255e+00 +6.48940754e+00 +7.88466787e+00 +1.09065723e+01 +9.18318272e+00 +9.03817463e+00 +8.11281490e+00 +8.28632450e+00 +6.86205244e+00 +7.27670193e+00 +3.68723750e+00 +2.77025938e+00 +3.65773177e+00 +1.15816844e+00 -2.26010180e+00 -4.28987312e+00 -4.21665430e+00 -9.17573452e+00 -7.04647112e+00 -8.36947536e+00 -7.91244698e+00 -1.02934608e+01 -8.26548195e+00 -1.07218027e+01 -1.06098251e+01 -9.60773754e+00 -1.01418991e+01 -7.54911518e+00 -9.00108147e+00 -5.81790352e+00 -6.90096521e+00 -7.03939772e+00 -5.62925482e+00 -7.01333904e+00 -4.56819391e+00 -5.43090343e+00 -2.01171350e+00 -2.04793882e+00 -2.95444179e+00 -7.72908092e-01 -2.31429243e+00 -4.00575027e-02 -5.59030473e-01 +3.15765047e+00 +5.03980827e+00 +7.20375633e+00 +6.45010710e+00 +9.18751240e+00 +8.53117943e+00 +9.05830479e+00 +8.14171791e+00 +8.88674545e+00 +4.98908377e+00 +6.20308876e+00 +5.77484035e+00 +6.64336109e+00 +5.30991936e+00 +6.51092577e+00 +5.39873505e+00 +5.91138840e+00 +6.01766586e+00 +4.33929682e+00 +2.61690283e+00 +2.99945068e+00 +1.78449416e+00 -1.13598895e+00 -2.67964035e-01 -6.25996709e-01 -2.07473803e+00 -2.91551089e+00 -2.58076668e+00 -3.20681190e+00 -1.51682138e+00 -1.02445590e+00 -3.28253341e+00 -2.85914350e+00 -4.28217936e+00 -3.65789175e+00 -4.00925684e+00 -4.37349796e+00 -1.37368321e+00 -4.45885563e+00 -3.81682897e+00 -4.09134197e+00 -2.36397481e+00 -3.11477518e+00 -2.87014395e-01 -1.05647989e-01 +3.24693233e-01 +1.40390790e+00 +4.51188356e-01 +1.72684658e+00 +2.17597151e+00 +2.45050597e+00 -4.27180082e-01 +1.01474845e+00 +7.44427085e-01 +5.97908378e-01 +1.12430716e+00 -2.63707304e+00 -7.48793364e-01 -2.48233819e+00 -2.38278961e+00 -3.55992603e+00 -4.53047180e+00 -2.13454223e+00 -3.75409389e+00 -5.41155159e-01 +1.57212412e+00 +4.11981249e+00 +5.05946589e+00 +7.01005793e+00 +6.12821531e+00 +5.21053982e+00 +6.63675451e+00 +5.28484058e+00 +7.29419327e+00 +7.76773739e+00 +7.28879547e+00 +8.93759632e+00 +7.73032999e+00 +9.61561966e+00 +4.87273741e+00 +3.93470669e+00 +3.26905918e+00 +3.60839915e+00 +1.08050764e+00 +2.16405177e+00 +4.01518536e+00 +4.12131214e+00 +3.30077577e+00 +3.09171438e+00 +1.04938841e+00 +2.64924884e+00 +3.18631673e+00 +3.64193177e+00 +2.24733233e+00 +3.72902703e+00 +7.24461126e+00 +4.54804277e+00 +9.69396114e+00 +8.52332115e+00 +6.25535965e+00 +6.16276836e+00 +3.02543688e+00 +2.79295826e+00 -7.90273964e-01 +2.93346095e+00 -9.79732215e-01 -2.65755320e+00 -3.68015075e+00 -5.23843431e+00 -7.92156982e+00 -8.07031631e+00 -1.19505863e+01 -1.33056192e+01 -1.45813274e+01 -1.52809916e+01 -1.63558617e+01 -1.11170464e+01 -1.00455389e+01 -1.21951303e+01 -8.31181717e+00 -8.74070454e+00 -5.63384628e+00 -4.37819815e+00 -5.25898814e-01 -2.64544177e+00 -3.57307816e+00 -7.32219994e-01 -2.19984651e+00 -1.63267624e+00 -3.28061432e-01 +4.00150394e+00 +1.49243951e+00 +1.15634906e+00 +3.61378717e+00 +1.35124397e+00 +2.43819213e+00 +2.28911614e+00 -6.01766586e-01 +2.06235218e+00 +2.78275347e+00 +1.24646866e+00 +1.71345007e+00 +1.94538903e+00 +2.03233194e+00 +4.06097502e-01 +1.17707503e+00 +2.20127368e+00 +1.63699520e+00 +5.02345610e+00 +5.15138817e+00 +3.07784677e+00 +3.98470354e+00 +4.06135416e+00 +6.76103497e+00 +4.62232542e+00 +5.24493790e+00 +5.70208406e+00 +6.25931835e+00 +6.54965401e+00 +4.84119511e+00 +5.54412127e+00 +3.84887505e+00 +4.58792925e+00 +3.18527937e+00 +3.57653642e+00 +5.45054436e+00 +6.22032404e+00 +2.06634617e+00 +3.27935219e+00 +3.88835454e+00 -7.02289581e-01 +1.83437824e+00 -1.29304811e-01 -1.71935332e+00 -1.00820906e-01 -1.19268715e+00 +4.47110742e-01 -1.51597846e+00 -2.09703743e-02 +1.42773073e-02 -7.09962726e-01 +3.09772396e+00 +9.46573913e-02 +7.75501132e-01 -1.77605629e+00 -1.61981022e+00 -6.02834129e+00 -5.48894310e+00 -5.85080862e+00 -6.16480207e+00 -3.43129373e+00 -4.57088566e+00 -3.86216855e+00 -3.48965740e+00 -9.90559816e-01 -1.39295638e+00 -1.55008340e+00 -4.78611261e-01 -3.57174039e+00 -4.84510586e-02 -5.32894909e-01 +1.86579376e-01 -2.74865603e+00 -3.71872091e+00 -3.71291447e+00 -4.68972731e+00 -3.02726245e+00 -3.49385357e+00 -4.35221386e+00 -2.50901246e+00 -5.67608881e+00 -3.42312980e+00 -4.61367273e+00 -5.68341398e+00 -4.25939798e+00 -1.93400764e+00 -3.40302324e+00 -3.29220772e+00 -2.04669547e+00 -4.27987069e-01 +6.51619792e-01 +2.08397627e+00 +3.02141929e+00 +1.69231868e+00 +2.09410000e+00 +4.06855106e+00 +4.28072500e+00 +5.25520134e+00 +9.17714691e+00 +4.64977074e+00 +6.46243286e+00 +4.28044081e+00 +5.25332499e+00 +5.36796474e+00 +3.55580211e+00 +4.96732378e+00 +3.01949716e+00 +2.39704037e+00 +5.99443293e+00 +2.52327180e+00 +3.79193926e+00 +1.68570966e-01 +2.63481665e+00 -1.56991279e+00 -3.99467528e-01 +1.10023367e+00 +9.65076804e-01 +6.61115110e-01 +1.55019593e+00 -2.47002244e-01 -1.76645505e+00 +1.43780601e+00 +6.69765294e-01 -1.45499635e+00 +2.02372146e+00 +1.33474243e+00 +4.25942063e-01 +3.38318646e-01 +1.58852971e+00 +9.99030650e-01 +1.07511485e+00 +4.12795258e+00 +1.99499279e-02 +1.09510422e+00 +2.17035794e+00 +3.10858011e+00 +9.52694535e-01 +5.08910799e+00 +3.73570061e+00 +2.20665312e+00 +2.14383268e+00 -1.27461886e+00 +2.66510159e-01 +1.62761547e-02 -1.13731146e+00 -2.51264787e+00 -2.92640996e+00 -5.04518080e+00 -4.63723850e+00 -5.20169973e+00 -8.18267727e+00 -8.89807606e+00 -8.85553646e+00 -1.05877609e+01 -1.15332069e+01 -1.24122658e+01 -8.93724346e+00 -1.01437626e+01 -7.89434576e+00 -7.43433571e+00 -6.58673859e+00 -3.44924712e+00 +6.54484510e-01 +3.56312537e+00 +3.96086049e+00 +4.12913513e+00 +4.29777098e+00 +3.71877861e+00 +2.46115279e+00 +6.28588104e+00 +3.95389724e+00 +6.38101768e+00 +5.61053801e+00 +6.68902588e+00 +4.84723282e+00 +4.75269938e+00 +4.99525070e+00 +3.82629585e+00 +4.27213335e+00 +7.69574070e+00 +4.54224443e+00 +7.97412348e+00 +6.26078796e+00 +4.97629738e+00 +4.12876892e+00 +4.68496990e+00 +1.20350850e+00 +2.85181546e+00 +3.67730761e+00 +9.99423265e-02 -8.08008313e-01 -4.21534866e-01 -2.72526407e+00 -3.96810198e+00 -4.18239689e+00 -5.97278452e+00 -3.85808635e+00 -6.23058081e+00 -8.29834521e-01 -9.97775078e-01 +1.53293407e+00 +6.08418703e-01 -8.03969562e-01 -5.27595282e-01 +1.11687648e+00 -2.07271862e+00 -8.14248174e-02 +1.59158766e-01 -2.66485274e-01 -1.71801353e+00 +1.26778865e+00 +1.65727091e+00 +2.22027540e+00 +3.62059927e+00 +4.48131132e+00 +2.24442816e+00 +3.13960218e+00 +5.71574354e+00 +3.22316122e+00 +5.34393644e+00 +3.67937636e+00 +4.48990917e+00 +4.08930922e+00 +3.95484662e+00 +2.88410950e+00 +2.76360655e+00 +3.72111344e+00 +1.72509730e+00 +6.20226450e-02 +3.57901186e-01 -1.64896584e+00 -3.39208889e+00 -1.96207261e+00 -3.85905862e+00 -4.08207846e+00 -5.89702988e+00 -3.65289807e+00 -4.59261322e+00 -5.37461662e+00 -5.73996830e+00 -5.33181810e+00 -5.55925512e+00 -5.16767931e+00 -6.05068970e+00 -7.27985477e+00 -4.51190233e+00 -3.84927917e+00 -4.50407171e+00 -4.41781712e+00 -3.86084867e+00 -2.97706866e+00 -1.25253129e+00 -4.52648735e+00 -1.93753541e+00 +5.95842183e-01 -2.42386746e+00 -2.82349706e+00 -2.36988187e+00 -2.17483592e+00 -1.69275105e+00 -2.42025447e+00 -1.93038237e+00 +3.30388844e-01 +3.19770622e+00 +3.49489498e+00 +4.14845324e+00 +4.69614887e+00 +5.72553968e+00 +8.36377048e+00 +1.06285982e+01 +1.07241268e+01 +1.24380884e+01 +1.37522573e+01 +1.31201982e+01 +1.38168011e+01 +1.25946493e+01 +1.15960283e+01 +1.16731882e+01 +1.03860550e+01 +7.98770475e+00 +8.15256119e+00 +7.62172031e+00 +6.25911236e+00 +3.46080184e+00 +1.81983387e+00 +1.65305805e+00 -3.71629566e-01 -2.29172421e+00 -2.22625947e+00 -1.85341227e+00 -2.57790780e+00 -4.64321375e+00 -4.30685997e+00 -3.48140883e+00 -3.47061825e+00 -3.54234052e+00 -5.50418854e+00 -7.09620380e+00 -7.56682873e+00 -8.49747372e+00 -1.02333498e+01 -1.17273474e+01 -1.24166937e+01 -1.39414740e+01 -1.38409033e+01 -1.40055294e+01 -1.48104420e+01 -1.58253975e+01 -1.45677576e+01 -1.38342266e+01 -1.26516161e+01 -1.06967010e+01 -9.77391052e+00 -6.94849873e+00 -5.16610241e+00 -3.91041589e+00 -2.93620706e+00 +2.97003508e-01 +1.51605403e+00 +2.44148207e+00 +3.73538971e+00 +5.16729641e+00 +7.65677643e+00 +1.05924149e+01 +1.06053905e+01 +1.12731857e+01 +1.19068069e+01 +1.13284082e+01 +1.05632019e+01 +8.67007256e+00 +8.09250832e+00 +8.77754688e+00 +9.04619598e+00 +8.53028679e+00 +7.77607870e+00 +7.50204849e+00 +7.91740465e+00 +8.55992699e+00 +8.32927704e+00 +9.21248150e+00 +9.04482079e+00 +8.42096138e+00 +7.91294670e+00 +8.56934357e+00 +7.19178247e+00 +5.01895905e+00 +4.18055010e+00 +2.20965314e+00 -1.20388174e+00 -3.14915919e+00 -3.50635791e+00 -3.81399536e+00 -5.43633890e+00 -5.89542294e+00 -5.00806952e+00 -5.54983664e+00 -4.08082628e+00 -4.64846802e+00 -5.13602209e+00 -5.53482962e+00 -5.50802374e+00 -4.44889069e+00 -2.23633242e+00 -1.92376506e+00 -2.31860638e+00 -2.11182880e+00 -2.48731685e+00 -2.16175389e+00 -2.96349430e+00 -4.49926567e+00 -5.99598026e+00 -6.12247086e+00 -7.89006901e+00 -7.65892458e+00 -8.65619373e+00 -9.03608704e+00 -9.81727600e+00 -1.00129642e+01 -9.15830421e+00 -9.11073875e+00 -8.48589039e+00 -7.53277636e+00 -5.04336166e+00 -2.01133609e+00 +1.02769506e+00 +3.53456765e-01 +6.12750769e-01 +1.36282122e+00 +2.58637333e+00 +3.84565115e+00 +5.52918625e+00 +5.77005482e+00 +6.14350653e+00 +7.33311415e+00 +7.35639572e+00 +6.68143415e+00 +5.21133852e+00 +5.01952744e+00 +4.95541573e+00 +6.60988426e+00 +7.54932499e+00 +8.72256947e+00 +9.24337387e+00 +9.20666313e+00 +1.03200006e+01 +1.00102253e+01 +1.09943428e+01 +1.04564800e+01 +9.18571091e+00 +8.53142929e+00 +8.14747334e+00 +7.22337341e+00 +7.11129475e+00 +3.04005480e+00 -5.03069460e-01 -1.47677100e+00 -1.12297118e+00 -2.99822569e+00 -2.58610153e+00 -3.01806021e+00 -3.72061014e+00 -4.11532784e+00 -4.44430590e+00 -6.13142109e+00 -7.92322683e+00 -8.06067276e+00 -9.81128025e+00 -9.10502529e+00 -1.04074984e+01 -9.84202862e+00 -8.76511002e+00 -7.88648891e+00 -7.05345535e+00 -4.98255062e+00 -4.62396431e+00 -4.01696682e+00 -2.13627386e+00 -1.36278009e+00 -5.25507271e-01 +8.51434767e-01 +1.91090739e+00 +2.24682927e+00 +2.02568626e+00 +3.09659332e-01 -7.49868929e-01 -8.84384036e-01 -6.27295315e-01 -3.99992734e-01 +2.25488812e-01 +1.09029794e+00 -4.65216100e-01 -1.61682594e+00 -1.69768071e+00 -1.24785578e+00 -7.29702711e-01 +1.12852052e-01 -1.40009618e+00 -3.35184598e+00 -2.50585842e+00 -2.53519988e+00 -2.49306321e+00 -3.47095490e+00 -1.76575291e+00 -7.97720909e-01 +8.57757866e-01 +1.90695632e+00 +6.14246309e-01 +1.19004452e+00 +1.22405016e+00 +2.29352927e+00 +2.49086666e+00 +3.47590804e+00 +4.33419991e+00 +5.15648031e+00 +5.73131990e+00 +5.31027031e+00 +3.85829377e+00 +3.77309513e+00 +3.61846399e+00 +4.46346855e+00 +3.02954793e+00 +4.42794514e+00 +6.62891674e+00 +6.35498285e+00 +5.37166977e+00 +5.05420971e+00 +3.52942038e+00 +1.95796382e+00 +1.35119069e+00 +2.17456535e-01 +1.52436185e+00 +1.63243973e+00 -1.97833866e-01 -3.12914222e-01 +1.32331800e+00 +3.08697152e+00 +3.55625010e+00 +1.58443069e+00 +2.49281907e+00 +2.49229050e+00 +2.71984410e+00 +2.61867023e+00 +8.43574226e-01 -5.35799682e-01 -1.65339053e+00 -2.62586641e+00 -2.54916668e+00 -2.18053031e+00 -2.96104026e+00 -3.91168761e+00 -3.99247408e+00 -3.57024765e+00 -4.16349173e+00 -3.90522981e+00 -3.90688396e+00 -3.04638433e+00 -4.56310701e+00 -6.06725645e+00 -6.59341908e+00 -7.30664635e+00 -9.22543144e+00 -1.12084284e+01 -1.10919590e+01 -1.11284742e+01 -1.08455219e+01 -1.04408875e+01 -9.28641796e+00 -6.64927244e+00 -2.79112077e+00 -7.48749793e-01 +1.58488810e+00 +1.83014238e+00 +3.80477595e+00 +2.97673416e+00 +3.30781054e+00 +4.62869358e+00 +3.87621927e+00 +3.16199923e+00 +3.62374067e+00 +2.80744958e+00 +7.90971756e-01 +9.02880579e-02 -1.03742623e+00 -1.35536063e+00 -1.71196795e+00 -1.59165537e+00 -2.66202903e+00 -1.94217908e+00 -1.49494493e+00 -6.32861078e-01 +1.48996544e+00 +3.95877910e+00 +4.60612106e+00 +5.78186274e+00 +7.85263062e+00 +9.24383163e+00 +1.17903824e+01 +1.32523165e+01 +1.33676519e+01 +1.39072084e+01 +1.23829422e+01 +1.07021761e+01 +8.50578880e+00 +7.07990789e+00 +6.95694399e+00 +5.41830969e+00 +3.40911031e+00 +1.57778800e+00 -5.55282950e-01 -3.21933126e+00 -3.10067201e+00 -2.69047379e+00 -2.42784309e+00 -1.99449456e+00 
#Parameter# /_1 {320} 5121 ZERO_GRAD
+5.73795652e+00 +2.28387547e+00 +4.11424541e+00 +4.36195707e+00 +3.64959526e+00 +4.97812557e+00 +2.25305367e+00 +3.55257249e+00 +2.60967994e+00 +4.16069269e+00 +3.29360580e+00 +2.22299242e+00 +2.96347713e+00 +4.88876152e+00 +1.80509126e+00 +1.38302732e+00 -2.36599445e+00 -1.57069862e+00 -4.11890459e+00 -3.34285140e+00 -3.03844571e+00 -2.36142755e+00 -6.08158410e-01 -6.77741468e-01 +3.89068364e-03 +7.00128555e-01 +2.52555823e+00 +3.63617969e+00 +3.98598933e+00 +2.71879077e+00 +3.26079488e+00 +3.31326938e+00 +4.90748787e+00 +4.76306629e+00 +3.25540709e+00 +2.70733452e+00 +1.84765518e+00 -1.65763438e+00 -1.85241342e+00 -1.89689732e+00 -3.99678540e+00 -2.43314552e+00 -4.67449808e+00 -4.30843258e+00 -5.01198959e+00 -6.72776890e+00 -4.03523016e+00 -6.62753248e+00 -5.18206310e+00 -5.67141390e+00 -8.80956173e+00 -6.90329170e+00 -4.76589489e+00 -4.16942310e+00 -4.30512047e+00 -4.95863390e+00 -4.67266750e+00 -4.02378511e+00 -2.76806092e+00 -3.05324721e+00 -5.21479702e+00 -4.84977961e+00 -5.16079950e+00 -5.49701214e+00 -4.50428057e+00 -4.27567434e+00 -1.30585444e+00 -3.40244532e+00 -2.69421792e+00 -1.42605054e+00 +6.00020766e-01 +1.07851171e+00 +1.44937813e+00 +1.98982763e+00 +3.26416564e+00 +8.25060463e+00 +6.67229891e+00 +8.77887249e+00 +7.40027428e+00 +1.01502914e+01 +9.48277378e+00 +8.32357025e+00 +9.39709663e+00 +8.14753246e+00 +8.08841133e+00 +7.32856464e+00 +5.95175409e+00 +3.85663104e+00 +5.32333755e+00 +4.26201010e+00 +4.13960075e+00 +2.82406235e+00 +3.44753575e+00 +4.85134459e+00 +2.25106740e+00 +1.34168422e+00 -6.92648232e-01 -2.24859089e-01 -6.93186164e-01 -6.63195610e-01 -6.78737164e-02 +3.57521510e+00 +1.80142665e+00 +4.05583769e-01 +2.44932270e+00 -8.72997522e-01 -6.22151256e-01 -8.92716765e-01 +5.97906001e-02 -1.67119038e+00 +7.59887993e-01 +2.16758773e-02 -2.40073586e+00 -8.32671404e-01 -9.95022655e-01 -2.42197204e+00 +8.55723321e-01 -1.49943650e+00 +6.75636947e-01 -1.50837815e+00 -8.09185684e-01 -2.12708735e+00 -3.45262289e+00 -4.14432526e+00 -5.14526701e+00 -3.76443076e+00 -3.36994743e+00 -6.39451265e-01 -4.09794855e+00 -1.27105451e+00 -3.48614192e+00 -2.45111299e+00 -2.35983253e+00 -2.98094177e+00 -2.21419239e+00 -2.13430572e+00 -1.14964426e+00 -8.49606037e-01 -1.83628643e+00 -1.78100300e+00 -1.45329738e+00 -1.81127656e+00 -1.23157370e+00 -3.21983337e+00 -2.58578777e+00 -3.38836932e+00 -4.02724743e+00 -1.79063690e+00 -5.22576761e+00 -3.97695470e+00 -5.02612209e+00 -3.42215919e+00 -4.04350662e+00 -5.89672661e+00 -3.68812466e+00 -2.29299378e+00 -1.80588508e+00 +1.69140172e+00 +1.79225838e+00 +2.04252195e+00 +3.88552737e+00 +3.98208261e+00 +4.15407228e+00 +4.38428259e+00 +6.07075071e+00 +5.41629505e+00 +6.66884565e+00 +6.09296370e+00 +6.96962786e+00 +7.29506493e+00 +6.22137213e+00 +6.94962168e+00 +6.23613453e+00 +6.52748060e+00 +5.49088860e+00 +6.10036898e+00 +5.95018148e+00 +5.06694746e+00 +4.57302904e+00 +3.77860975e+00 -1.91602483e-01 +1.48127544e+00 +1.13891292e+00 +4.13357973e-01 -1.27093351e+00 -7.25691020e-01 -4.80233043e-01 -3.20004299e-03 +9.81734037e-01 +1.62133658e+00 +2.90212482e-01 -1.61935985e+00 -3.16483170e-01 -1.89763355e+00 -2.08814812e+00 -9.05492246e-01 +9.58411038e-01 -4.96829599e-01 -9.49717760e-02 -1.58726287e+00 -1.19927096e+00 -3.25505304e+00 -1.54857278e+00 -1.96671951e+00 -2.06046748e+00 -3.40466237e+00 -2.68371749e+00 -5.07455778e+00 -4.01706362e+00 -4.66778946e+00 -2.36286092e+00 -3.90601778e+00 -4.09682083e+00 -5.33253574e+00 -4.47913504e+00 -5.43014622e+00 -6.99240255e+00 -4.67109013e+00 -5.43233728e+00 -4.13287449e+00 -4.30859089e+00 -1.49852431e+00 -3.01575589e+00 -1.90971351e+00 +3.33610922e-01 -2.24382353e+00 +3.68632115e-02 +2.02694249e+00 +2.76686645e+00 +3.91481948e+00 +5.57000780e+00 +5.19809151e+00 +4.43355036e+00 +4.18870258e+00 +5.77071619e+00 +4.79182911e+00 +5.72967958e+00 +5.46451855e+00 +4.97803736e+00 +5.24867058e+00 +3.98077893e+00 +3.48436999e+00 +1.15548885e+00 +3.71980739e+00 +1.19317746e+00 +3.43358421e+00 +1.12409055e+00 +3.14558291e+00 +2.78937006e+00 +1.01186764e+00 +1.57106507e+00 +2.63416338e+00 +2.12413716e+00 +4.13546467e+00 +3.77166557e+00 +4.43548059e+00 +1.74012482e+00 +1.33505911e-01 -1.40131187e+00 -5.39000690e-01 -3.35196424e+00 -2.25045228e+00 -2.11291671e+00 -2.57331491e+00 -2.59091902e+00 -4.39133555e-01 -1.00540709e+00 -2.27077198e+00 -2.71302319e+00 -3.58075690e+00 -3.94669366e+00 -4.40828276e+00 -3.68432307e+00 -4.52203178e+00 -2.88185048e+00 -2.73041463e+00 -1.82591665e+00 -1.03381526e+00 +1.78191280e+00 +9.81836140e-01 +3.93341035e-01 +3.96698952e+00 +2.28390527e+00 +2.78596091e+00 +3.26046014e+00 +1.23665261e+00 +1.66050839e+00 -1.80017596e-04 +2.19691420e+00 +1.47098958e+00 +1.26580119e+00 +1.44772971e+00 +1.97771442e+00 -2.51743972e-01 +2.09853411e+00 +2.84178805e+00 +2.58522749e+00 +3.46948504e+00 +2.69413042e+00 +7.99995780e-01 +5.17275691e-01 -1.16707432e+00 +4.60804105e-01 -2.10692239e+00 -1.61019778e+00 -3.45870805e+00 -1.93905890e+00 -8.26033056e-01 -2.38743448e+00 -3.33006501e+00 -3.23397303e+00 -3.05905223e+00 -2.68518734e+00 -2.66581130e+00 -3.63986516e+00 -1.73315990e+00 -1.27500677e+00 -1.49144626e+00 -1.54822314e+00 -2.07339764e+00 
#Parameter# /simple-rnn-builder/_0 {8,320} 40961 ZERO_GRAD
+1.34783342e-01 -1.05490394e-01 -4.85754646e-02 +7.96945393e-02 -1.32882193e-01 +6.00947030e-02 -8.05786178e-02 +4.12265994e-02 +5.75734526e-02 -3.12139578e-02 -1.15940599e-02 -6.49456754e-02 -6.79451525e-02 +7.44115040e-02 +1.01417914e-01 -1.01776011e-01 -5.42405955e-02 +1.08000435e-01 -1.96544882e-02 +5.34842797e-02 +1.11247540e-01 +1.28439302e-02 +2.56729238e-02 -1.13521717e-01 -1.20360680e-01 -6.75277412e-02 -4.62302864e-02 +1.10074587e-01 -2.80586444e-02 -5.04995137e-02 -3.66724320e-02 +6.16358686e-03 +6.84112757e-02 +2.87117437e-02 +1.09121643e-01 +4.17595021e-02 +4.41735946e-02 -1.31855518e-01 +8.93091112e-02 -1.16774328e-01 -4.30628238e-03 +7.66448602e-02 +5.52632660e-02 +1.16847521e-02 -2.77884696e-02 -8.88980553e-03 +6.54600263e-02 +4.87018935e-02 +1.03530012e-01 -4.10856716e-02 +2.08131596e-02 +7.42123201e-02 -8.36464465e-02 +2.13547405e-02 +6.16563894e-02 -5.73392101e-02 +2.07785033e-02 -4.06050831e-02 +2.32664738e-02 +1.12473175e-01 +5.82216233e-02 +1.28653094e-01 +7.43101612e-02 -1.12045862e-01 -6.53045252e-02 +1.15986340e-01 -8.25493038e-02 -4.43034992e-03 +2.84910873e-02 -2.61091907e-02 -2.46918034e-02 +4.12163660e-02 -1.34290367e-01 -4.87306491e-02 -3.42699699e-02 +2.96225566e-02 -1.14965411e-02 +1.16614133e-01 -2.40900218e-02 +2.88858674e-02 +4.01854748e-03 +3.73842716e-02 -5.70011288e-02 -5.10885529e-02 +7.23320171e-02 -3.72899510e-02 -5.91000495e-03 +3.72756235e-02 +8.30834359e-02 -5.90793490e-02 +2.45819464e-02 -1.26253575e-01 -5.84144669e-04 -8.78386945e-02 -1.04122669e-01 +2.18696576e-02 -8.11702684e-02 +2.67083365e-02 -6.25894889e-02 -1.07094862e-01 +3.16711217e-02 -3.00548854e-03 -2.89443191e-02 +1.13197707e-01 +1.23692371e-01 -8.41660127e-02 -1.31754845e-01 -9.51932892e-02 +6.41324595e-02 +7.30111971e-02 +3.04634143e-02 +9.63548347e-02 -1.27155915e-01 +1.28692329e-01 +1.80874858e-02 -7.78394286e-03 -6.79433793e-02 -1.11176856e-01 -1.25088230e-01 +9.06888172e-02 -2.71333717e-02 -1.27601162e-01 +4.93250564e-02 +1.23140357e-01 -6.94302619e-02 -1.08309813e-01 +7.65281022e-02 -1.01976015e-01 -1.10509425e-01 +1.70111097e-02 +8.97314996e-02 -5.92053831e-02 -4.65218946e-02 +8.32812861e-02 -7.49253631e-02 +8.80346261e-03 +6.50605708e-02 +1.27239019e-01 -2.26795413e-02 -1.30376726e-01 -7.31453523e-02 +1.34667903e-01 +1.19641721e-01 -6.37698695e-02 -6.79214625e-03 -5.47635518e-02 -6.18153699e-02 -3.08054853e-02 -1.33082360e-01 +5.38241193e-02 -7.08448663e-02 -1.10667594e-01 -9.35043395e-02 -5.31337049e-04 +1.10441595e-02 -1.71148069e-02 +3.82142887e-02 +3.11884806e-02 +7.56615177e-02 +1.28931969e-01 +4.03237939e-02 +5.21301664e-02 +3.63628156e-02 +1.09917730e-01 -2.97789299e-03 +8.60937387e-02 +1.06963888e-02 +1.08822629e-01 +1.27153262e-01 -1.18592449e-01 -1.20608145e-02 +1.61821060e-02 +7.93957636e-02 -2.47893967e-02 +1.41225550e-02 +7.21499473e-02 +1.12766787e-01 +2.78818905e-02 +1.23004898e-01 +1.33209616e-01 +7.93645009e-02 -9.79645550e-02 +4.13099304e-03 +4.02177051e-02 +1.31515652e-01 -1.09071080e-02 -5.10072894e-02 +1.21394172e-01 +4.41947430e-02 -5.44320308e-02 -4.15467545e-02 +4.37321253e-02 -2.16514170e-02 -4.35088202e-02 -6.78491741e-02 -8.07233974e-02 +7.47161582e-02 -9.89149585e-02 -9.85330492e-02 -1.12598747e-01 -7.44258314e-02 -9.61568877e-02 +9.10581797e-02 +1.19380951e-01 -5.66570163e-02 +1.00135446e-01 -1.27950847e-01 +1.13445006e-01 -1.88510809e-02 +9.99861732e-02 +1.30463690e-01 +4.13094573e-02 -5.94137534e-02 -5.54338209e-02 -2.97844503e-02 -4.72681750e-05 -1.24380879e-01 +4.76688184e-02 +1.28271952e-01 +3.32579389e-02 -4.46631685e-02 +7.56960586e-02 +5.34767173e-02 +6.02868609e-02 -1.00665472e-01 -5.87293021e-02 +4.72208261e-02 -3.81591730e-02 +8.83602723e-03 -1.29266486e-01 -7.88407400e-02 -2.39151940e-02 -9.89419669e-02 -8.78097117e-02 -1.14871442e-01 -3.48574929e-02 -9.13054124e-02 +5.74044138e-03 +5.77079356e-02 -1.34856582e-01 +6.96710572e-02 +1.53545672e-02 +2.29813587e-02 +1.37831215e-02 -1.22556120e-01 +6.43666834e-02 -9.78750363e-02 -9.43772644e-02 +3.99611108e-02 -9.54257324e-02 +1.06430434e-01 -7.58919492e-02 -4.36210260e-02 +4.53236848e-02 +3.06889322e-02 +1.18343264e-01 +8.83553773e-02 -7.01523945e-02 +1.87578835e-02 +4.53544743e-02 +6.05803803e-02 +1.23976082e-01 -1.19342461e-01 -4.14289981e-02 +2.56248359e-02 -1.00021742e-01 +1.67552233e-02 -4.05035354e-02 +1.79253481e-02 +1.03212349e-01 -1.33236289e-01 -1.01967022e-01 -6.49890229e-02 -1.20815270e-01 -2.75999904e-02 +1.18813321e-01 +9.98470560e-02 -1.32025182e-01 +5.60980774e-02 -9.93774012e-02 -3.38995978e-02 +3.18615139e-02 -1.69610046e-02 -3.96998925e-03 +1.56130549e-02 +9.88143906e-02 -9.05451924e-02 +6.95895404e-02 +3.57076116e-02 -2.63962080e-04 +2.53607407e-02 -4.31629717e-02 -5.40652946e-02 +1.18936047e-01 -7.19558969e-02 +1.97644604e-05 +9.71205011e-02 -1.21828079e-01 +7.81298429e-02 +1.91363487e-02 -1.14007272e-01 +1.35538038e-02 -8.80004615e-02 +8.03394392e-02 -5.42095676e-02 -3.39739993e-02 -1.22773703e-02 -1.34558037e-01 +1.07323915e-01 +1.21927269e-01 -7.37310871e-02 +6.24422953e-02 -3.48880067e-02 +4.42650579e-02 -1.16839431e-01 +4.09571379e-02 -7.34842033e-04 +1.16026305e-01 +1.21788224e-02 -1.06472641e-01 -6.66778833e-02 -7.43103996e-02 +5.46748079e-02 +1.73669495e-02 +6.85450360e-02 +4.73423414e-02 +1.03677101e-01 +9.91086215e-02 -2.83939205e-02 -1.25743657e-01 -5.44416793e-02 -1.26517519e-01 -1.46768438e-02 +5.16504198e-02 +5.40144928e-02 +7.20727220e-02 -3.12432777e-02 -1.00525588e-01 -6.05636016e-02 -1.29642785e-01 -1.25759751e-01 +7.62631968e-02 -1.19886905e-01 +9.80411470e-02 -6.48907721e-02 -3.43024395e-02 +1.09410934e-01 -1.13461129e-01 -7.77243003e-02 +4.77517992e-02 +5.89171872e-02 +6.63931817e-02 +8.30118731e-02 -1.02068223e-01 +9.57180187e-02 -1.22312754e-01 +1.03565790e-01 -9.49873850e-02 -5.67799294e-03 +5.98786697e-02 -1.28634557e-01 +1.18022546e-01 -6.80211633e-02 -5.93318641e-02 -1.22951411e-01 -6.21222444e-02 -8.95328522e-02 -1.15746982e-01 -7.12822825e-02 -1.24989212e-01 -1.99257303e-02 +9.45029259e-02 -1.06720515e-01 -5.17437607e-02 +1.17010869e-01 -1.27223045e-01 +6.77641556e-02 +2.66146157e-02 -8.11953917e-02 +4.18198518e-02 +9.37957317e-02 +1.28214300e-01 -3.27424146e-02 +4.51711006e-02 +1.66309346e-02 +6.14925623e-02 -1.19745925e-01 +6.41429722e-02 -1.26940966e-01 -1.42308176e-02 -9.44272056e-02 +1.13610458e-02 -5.67212813e-02 -4.29971665e-02 -1.01166936e-02 +5.34450682e-03 +1.21071413e-01 -6.22528233e-02 +1.20010450e-01 -1.04873136e-01 +6.39123246e-02 -9.37912017e-02 +1.10362433e-01 -1.26946464e-01 +1.19740069e-01 -7.72967860e-02 -9.65555981e-02 -5.26151657e-02 -4.60867248e-02 -1.19921319e-01 +2.71583330e-02 -1.27177075e-01 +7.28795752e-02 -2.14027092e-02 -3.06249149e-02 -6.47232831e-02 +1.95400603e-02 +5.78614324e-02 +5.59114665e-02 +4.67657223e-02 -9.58205387e-02 -3.50807644e-02 -5.42739891e-02 +8.55442211e-02 -1.23071499e-01 +1.22768342e-01 +3.13911703e-03 -1.23598643e-01 -1.09725446e-02 +1.05794653e-01 +1.00517727e-01 -1.11576572e-01 -1.01403721e-01 +1.10298589e-01 -1.01118252e-01 +3.83570604e-02 -6.83372915e-02 +2.26099491e-02 +6.75338134e-02 -2.77415430e-03 +1.13083564e-01 -7.25347921e-02 -1.19835339e-01 -4.21038195e-02 -4.59996983e-02 +4.99086343e-02 -1.23305999e-01 +7.06748292e-02 +8.53891969e-02 +1.30545691e-01 +1.02201313e-01 -2.64572212e-03 +5.82392067e-02 -1.01289913e-01 +1.21023655e-01 -4.40748148e-02 -9.41529498e-02 +1.16388157e-01 -5.46649434e-02 -9.92968604e-02 +8.49368889e-03 -9.81547683e-02 -5.17348759e-02 +7.68103600e-02 -1.06674716e-01 -4.32117283e-03 +9.61812511e-02 -8.89505073e-02 -8.75183269e-02 +6.82388097e-02 +3.31762284e-02 -9.79601499e-03 -8.06756914e-02 -5.23035675e-02 -5.68625480e-02 -2.01929621e-02 +1.02137357e-01 +4.52941284e-03 +9.44917426e-02 -8.34594667e-02 +4.44352478e-02 +9.20109525e-02 +1.27840217e-03 -4.69565876e-02 +1.25187159e-01 +1.10549539e-01 -3.76154147e-02 +2.75551062e-02 -8.66918489e-02 +1.09654451e-02 +7.87104219e-02 +4.70462628e-02 +6.92717209e-02 -1.73155796e-02 -8.42849165e-02 -1.27902499e-03 +3.22160311e-02 +7.70939291e-02 -6.32511377e-02 -1.47784939e-02 -5.99981211e-02 +1.66532993e-02 +4.74912524e-02 -1.62445437e-02 +3.80564816e-02 +4.26340103e-02 -3.75647917e-02 +3.64814959e-02 +1.41578959e-02 +5.51633723e-02 +2.94209328e-02 +4.63890210e-02 -1.09853692e-01 +1.62721928e-02 +2.69594677e-02 +1.07437372e-01 -6.13931715e-02 +1.21821277e-01 -4.33330089e-02 +5.17327078e-02 -9.66360196e-02 -1.02597423e-01 -6.26870617e-02 +5.49148209e-02 +2.97784563e-02 +6.48171455e-02 +4.05441374e-02 -8.77631381e-02 -1.31086051e-01 +2.84370650e-02 +1.31936297e-01 +1.11194551e-01 -1.31190091e-01 -1.09081894e-01 +1.18642583e-01 +3.05056833e-02 -7.38366768e-02 -1.01552464e-01 -1.08809948e-01 +9.10545588e-02 +4.22452129e-02 -2.60278378e-02 +1.05442584e-01 +2.87600271e-02 -2.80485023e-02 +6.61548600e-02 +9.09048840e-02 -3.05240322e-02 -7.31627345e-02 -1.14781946e-01 -1.05256937e-01 -1.09037720e-01 +1.30849376e-01 -1.32519856e-01 -1.05905913e-01 -5.28389513e-02 +9.92212519e-02 -7.05747455e-02 +1.85713526e-02 +7.20151663e-02 +1.22801505e-01 +3.74763459e-02 -6.75494671e-02 +1.00485377e-01 -1.38808731e-02 +7.68606216e-02 -1.34124700e-03 -1.76031049e-02 +1.09521344e-01 +1.33411288e-02 +1.05842333e-02 -3.05994917e-02 +1.34092793e-01 -5.52496538e-02 -2.44798977e-02 +8.84729624e-02 +6.23982958e-02 +7.87128285e-02 -1.62672605e-02 +2.99590603e-02 -1.08516961e-01 -3.25840968e-03 -3.28148641e-02 +1.19895428e-01 -8.52172598e-02 -8.93587545e-02 -1.02389447e-01 +1.98866930e-02 -8.61172751e-03 +6.18955530e-02 -6.27535507e-02 -1.25934586e-01 +1.15952708e-01 +1.01938862e-02 -1.29509285e-01 -1.12371720e-01 +1.52861066e-02 -2.17729732e-02 -7.53831714e-02 -5.04435338e-02 +2.71361396e-02 -5.64947613e-02 -1.32608518e-01 -6.47760555e-02 +8.94814879e-02 -3.08327191e-02 +1.10123977e-01 +6.60181865e-02 -8.40190277e-02 +2.84815651e-05 +9.32864845e-02 +1.08370557e-01 -8.78011137e-02 -7.70230070e-02 +5.06909527e-02 +6.30042925e-02 -5.85943870e-02 -8.23692828e-02 +1.28038824e-01 +8.75657983e-03 -9.77301225e-02 -1.14727147e-01 +9.67564583e-02 +3.72107849e-02 -1.23109937e-01 +9.71803740e-02 +7.85685033e-02 -1.41242119e-02 -8.11274126e-02 -1.19694583e-01 +9.14467946e-02 -8.02870374e-03 +1.19837850e-01 +2.88135582e-03 -3.55273159e-03 -8.39992091e-02 +1.29867718e-01 +8.66213348e-03 -6.89145923e-02 -2.57825572e-02 -8.07693452e-02 +4.94645573e-02 -5.18627353e-02 +1.20772056e-01 +9.61338803e-02 -1.12125710e-01 -4.18632198e-03 -6.39129952e-02 +1.11259013e-01 +2.54200157e-02 -7.51871541e-02 -6.17185645e-02 +1.07092880e-01 +7.92837441e-02 +6.21245056e-02 -6.36119023e-02 -9.87559035e-02 +1.16044313e-01 +4.34954837e-02 -6.27024397e-02 -9.13276002e-02 +1.26929553e-02 +5.42761832e-02 +1.27984032e-01 +4.12653200e-02 -3.97421792e-02 +1.40922321e-02 +9.37450081e-02 -8.31301063e-02 +7.85641596e-02 -2.76140571e-02 +1.22622885e-01 -1.16616353e-01 -1.02747664e-01 +7.98396170e-02 -3.91459130e-02 -7.13628232e-02 -9.94725078e-02 +9.07656997e-02 +1.13245569e-01 -5.62582053e-02 +6.16221689e-02 +9.61530954e-03 -6.93221018e-02 +1.13298468e-01 +6.89918995e-02 -4.06393409e-02 -1.20391347e-01 +1.26542076e-01 +2.27577612e-02 -8.03879946e-02 -1.06477596e-01 -1.07321799e-01 -1.20170832e-01 +8.98130238e-02 -3.04406062e-02 +8.07668343e-02 +9.68485046e-03 -9.96389091e-02 -2.87929494e-02 -3.67842540e-02 -4.87134978e-02 -4.72182706e-02 +8.88862088e-02 +2.75609996e-02 -1.31991804e-01 +9.78253484e-02 -2.69314814e-02 +1.31450891e-01 +6.66249618e-02 -3.07119060e-02 +5.32251447e-02 +2.12610830e-02 +5.66813871e-02 +6.94649667e-02 -7.04745352e-02 -3.39256674e-02 -6.27825502e-04 +5.86712621e-02 -3.90732102e-03 +6.71796501e-02 +5.40949702e-02 -1.81062352e-02 -1.97176207e-02 +2.93343631e-03 -2.15839185e-02 +6.05513528e-02 +1.11630738e-01 +8.47874880e-02 -6.12676293e-02 -8.70940313e-02 +1.02534294e-01 +1.23013817e-01 -9.78659093e-02 -1.22829787e-01 +4.53667417e-02 +3.46276090e-02 -4.36492115e-02 -9.08682123e-02 +7.56071731e-02 +4.74851876e-02 -7.85537660e-02 -1.38566509e-01 -9.97417122e-02 -7.85515234e-02 +1.08147718e-01 -9.22165662e-02 +2.12972127e-02 -4.52927127e-02 +2.36670151e-02 -3.70662063e-02 +2.75666863e-02 -1.24152914e-01 +4.61319350e-02 +1.02484494e-01 +2.19914112e-02 -6.96601570e-02 +1.27269745e-01 +3.04772984e-02 +1.11937128e-01 -2.85476968e-02 -1.24538481e-01 -9.89149734e-02 +5.55581078e-02 -4.05652747e-02 -6.77651763e-02 +1.07744662e-02 +1.64600480e-02 -3.38012259e-03 +8.71528611e-02 -1.27816677e-01 -5.29031530e-02 +7.04790726e-02 -5.08869886e-02 +9.53465030e-02 -8.34384747e-03 -6.58785850e-02 +3.45004946e-02 +4.70066480e-02 -3.73634845e-02 +6.84917066e-03 +7.32940659e-02 +6.31863028e-02 -1.31780744e-01 +1.33890629e-01 +5.81802800e-02 +2.87045985e-02 +6.87151849e-02 +5.25388382e-02 -1.23088863e-02 -1.27261013e-01 +5.63605800e-02 -1.28104031e-01 +1.08798228e-01 +1.02067543e-02 +8.05677325e-02 +5.69653288e-02 -1.16153471e-02 -1.31652355e-01 +9.61968303e-02 -1.08215407e-01 -1.07237548e-01 +1.20118797e-01 +7.87755847e-02 -1.25247594e-02 -1.23334274e-01 +3.89598086e-02 -8.43875855e-02 +8.63474160e-02 +6.27501905e-02 +5.09632751e-04 +1.27906039e-01 -5.74640557e-02 +9.85600129e-02 -2.70790514e-02 +9.36748981e-02 -1.06452249e-01 -1.09495819e-01 +8.32534283e-02 +1.09408878e-01 +4.81140427e-02 -4.20388281e-02 +2.87903082e-02 +1.13527305e-01 -4.29894440e-02 +7.96161145e-02 +8.45693275e-02 +4.02590772e-03 -9.94120762e-02 +5.80137502e-03 -1.27226010e-01 +7.11822510e-02 +7.02051818e-02 +4.56967242e-02 +1.27047881e-01 -5.83557747e-02 +7.85007328e-02 +4.71052714e-02 +4.47491333e-02 -1.27676383e-01 -1.03898212e-01 +9.90937427e-02 +3.55203338e-02 +1.18044376e-01 +2.41503660e-02 -7.50512583e-03 +6.00511557e-04 +1.14090078e-01 +4.27421555e-02 -2.63658185e-02 -8.79569650e-02 -1.07095763e-01 +2.57549491e-02 -3.98097858e-02 +1.75059829e-02 -3.96054573e-02 -9.23816115e-02 -1.30644038e-01 +6.80515841e-02 +4.26454209e-02 +1.27077758e-01 +9.60436091e-02 +4.49952409e-02 -2.31267065e-02 -2.80160885e-02 -7.89319128e-02 +7.19031543e-02 +9.08164755e-02 +1.28793269e-01 -1.31353848e-02 +5.29537015e-02 -1.42034832e-02 -1.17134310e-01 -4.86170985e-02 -1.27643213e-01 +2.43808073e-03 +1.55289983e-02 -1.47307022e-02 -3.37041616e-02 +1.34177372e-01 +1.16668507e-01 -9.62935165e-02 -4.15146165e-02 -7.06425980e-02 -5.62109351e-02 +1.08776400e-02 -1.29148498e-01 -9.25819110e-03 +1.21516004e-01 -3.78709547e-02 -2.90957298e-02 -1.23942748e-01 -1.13701217e-01 +1.01348963e-02 -1.31557763e-01 -8.72995257e-02 +5.07950746e-02 +8.93599689e-02 +1.24276981e-01 -7.49476925e-02 -1.27522796e-01 -1.32182866e-01 +5.28113283e-02 +9.33921188e-02 -4.63119484e-02 -5.23697175e-02 -3.65488441e-03 -6.09421059e-02 +1.18531890e-01 +4.87635471e-02 +1.08259842e-02 +2.57934700e-03 +1.09220506e-03 -1.14717759e-01 -1.24225676e-01 -1.07164785e-01 +3.56480256e-02 +1.26437113e-01 +7.98439384e-02 -7.56732970e-02 +1.00829914e-01 -1.59847289e-02 -9.68987197e-02 -9.30901170e-02 +7.50070363e-02 -1.53061142e-02 +3.13226692e-02 +3.51590738e-02 -4.29455042e-02 -4.24809754e-02 -1.09218009e-01 +1.20156310e-01 -4.53899913e-02 -1.83223635e-02 +1.23782761e-01 +3.24215293e-02 -4.04728837e-02 -2.52857786e-02 -9.91744846e-02 -5.94088696e-02 +4.54332605e-02 -4.01071608e-02 -3.92710194e-02 -2.25852504e-02 +6.59595430e-02 -9.89159644e-02 +4.72278185e-02 +1.30614236e-01 -3.87945361e-02 +1.32697910e-01 -5.95197231e-02 +3.31005678e-02 -3.30524258e-02 -1.29580811e-01 +1.77623853e-02 -4.10603881e-02 -7.95372799e-02 -4.29487936e-02 +6.35244995e-02 -7.02003483e-03 +9.12010968e-02 +4.34486456e-02 +5.19677214e-02 -5.74987456e-02 -3.51556316e-02 -4.69204187e-02 +3.88983600e-02 +3.10497242e-04 -9.19273868e-02 +2.87812464e-02 -4.65928623e-03 -1.24599375e-01 -7.39674568e-02 -4.43839766e-02 +4.32540150e-03 -1.23192213e-01 -2.50305738e-02 +9.57484245e-02 +2.84359884e-02 -6.46293163e-02 -4.21628635e-03 -4.56841253e-02 -8.74516442e-02 -9.06226411e-02 -2.63134502e-02 +2.97554657e-02 -1.21916257e-01 +1.65713951e-02 -3.50370482e-02 -3.86171974e-02 -1.13090239e-01 -3.28661688e-02 +6.15006313e-02 -3.22431475e-02 -2.51560155e-02 -1.06181644e-01 +1.29978716e-01 +1.36032067e-02 -8.60010087e-02 +3.30286101e-02 +1.21172369e-01 +1.05410762e-01 -6.63152635e-02 -2.02431735e-02 +1.23580955e-02 +6.74033016e-02 +8.77749026e-02 -2.07099747e-02 +9.77351218e-02 +3.64948399e-02 -8.13145563e-02 +5.46551161e-02 +6.89951032e-02 +1.25174105e-01 -6.25324175e-02 +1.30481780e-01 -1.79044753e-02 -4.82401140e-02 -6.77688718e-02 +1.07964925e-01 -1.18871674e-01 +1.00491524e-01 -6.18619937e-03 +4.75036027e-03 -6.94571286e-02 -4.35147285e-02 -1.07462659e-01 -9.11276713e-02 +4.71170321e-02 +6.21707030e-02 +7.37422109e-02 -8.58502313e-02 -8.64520762e-03 -1.85994344e-04 -2.23236880e-03 -9.34480950e-02 +5.77754788e-02 +1.24005098e-02 +4.74486947e-02 -3.63053977e-02 -1.58154741e-02 +5.48783727e-02 -1.24098934e-01 -8.65498483e-02 +4.34071608e-02 +9.12541673e-02 +2.52318233e-02 +4.20053070e-03 +3.92704410e-03 +1.15425915e-01 -1.25813913e-02 -1.38016865e-02 -3.12488396e-02 +1.18365593e-01 +1.01233199e-01 +7.19541982e-02 +3.20973177e-03 +1.23280913e-01 +5.31832799e-02 -3.37206684e-02 -9.39695239e-02 -1.26521304e-01 -5.35523407e-02 +1.27053693e-01 +7.85683915e-02 +7.92725831e-02 -5.23424819e-02 +6.39174134e-02 -3.27663459e-02 -9.91718397e-02 -7.49663496e-03 -5.69601683e-03 -9.25646648e-02 +9.17089805e-02 -1.12692580e-01 -5.29522449e-02 +5.52316643e-02 -2.14805268e-02 +1.61958635e-02 -2.21758094e-02 +2.20064856e-02 +2.85578314e-02 -8.19350481e-02 +7.96529576e-02 -5.75427450e-02 +1.90524217e-02 +2.53448426e-03 +4.35320325e-02 -7.98711330e-02 -1.16434343e-01 -6.00111261e-02 +9.04776752e-02 +9.91235524e-02 +5.38176000e-02 +6.12790976e-03 +4.30812016e-02 +2.94462261e-05 +5.34585677e-02 +2.45676823e-02 +1.75633170e-02 +1.04808807e-01 +8.58201683e-02 -6.69419989e-02 -5.86668253e-02 -4.88315001e-02 -1.06091060e-01 -9.31357443e-02 -1.32589519e-01 +1.57301389e-02 -1.25380801e-02 -4.30904776e-02 -1.08377852e-01 -1.37170088e-02 -3.60217877e-02 -9.64683071e-02 -1.13721922e-01 -2.51118876e-02 +5.77827021e-02 +1.18447721e-01 +7.40559250e-02 +1.02940097e-01 -3.67147550e-02 +2.20820941e-02 +8.75364318e-02 +1.15295663e-01 -3.21038291e-02 +3.72822173e-02 -8.64266977e-02 +4.88124192e-02 +5.96645847e-02 +1.45196142e-02 +7.89641738e-02 -4.07968601e-03 -1.01007573e-01 -1.24123067e-01 -1.20814182e-01 +1.08353131e-01 +1.12887047e-01 -1.24430820e-01 +3.69950347e-02 +1.15925789e-01 -6.01308383e-02 -1.34803489e-01 +1.32315889e-01 -3.19851469e-03 +7.01999739e-02 +8.03975612e-02 +1.02655508e-01 +9.33892578e-02 +8.12751502e-02 -1.28086865e-01 -5.18081598e-02 -2.47348519e-03 +6.49986938e-02 +2.77464092e-02 -9.93368775e-03 +1.14795700e-01 -8.37502107e-02 +8.86715204e-02 -2.56674993e-03 +1.45615898e-02 -4.99972738e-02 +7.16030970e-02 +2.04113629e-02 +1.07921824e-01 -1.00304589e-01 +1.22611888e-01 +7.13609755e-02 -3.61556932e-02 +8.13057870e-02 +4.73723523e-02 -9.08893570e-02 -9.81943831e-02 +3.52733023e-02 +1.78018119e-02 -8.91795475e-03 +1.12793930e-01 -1.26245677e-01 +1.03434645e-01 +4.50872220e-02 -2.89607253e-02 +8.12531486e-02 -4.02541086e-02 +7.87605718e-03 +4.72445227e-02 -7.35546723e-02 +1.30776063e-01 +5.51453568e-02 +1.17797501e-01 -7.29497895e-02 -1.00098044e-01 +1.03473552e-01 -9.13700238e-02 +9.60564613e-02 +2.80207535e-03 +9.41669196e-02 -1.10865958e-01 -9.44517925e-02 -8.57693981e-03 +8.83522406e-02 +3.24755684e-02 -6.46023378e-02 -1.05135038e-01 +5.78388274e-02 +7.02649057e-02 +1.03114203e-01 +9.50592011e-03 +8.09218064e-02 -1.01527169e-01 -5.61379939e-02 -4.83794920e-02 +3.25861126e-02 -3.57121229e-02 -4.77056056e-02 +8.85178670e-02 -2.66843066e-02 -4.85334657e-02 -7.25148767e-02 -8.77256915e-02 +8.59056786e-02 -7.69472420e-02 +7.77029395e-02 +8.06276202e-02 +1.24263652e-02 +2.06614635e-03 -7.59352520e-02 -1.21989109e-01 +8.73297080e-02 +1.23917140e-01 -2.52057966e-02 -4.38954728e-03 -8.27733576e-02 -7.17426315e-02 +1.28437309e-02 -1.22900844e-01 -9.32845771e-02 +8.38367939e-02 +7.46956319e-02 -1.26096666e-01 -4.68834713e-02 -1.32517904e-01 +1.08385891e-01 +9.74343121e-02 -7.53259361e-02 -6.41838759e-02 +6.95558032e-03 +1.01892747e-01 +1.23959780e-01 +1.08931594e-01 +8.12897012e-02 +3.87509055e-02 -3.60607095e-02 -8.13802332e-02 +1.12304509e-01 +1.31913409e-01 -8.06879401e-02 -1.24066435e-01 -6.82204217e-02 -7.26903230e-02 -1.05581693e-01 +6.95175603e-02 -1.05414368e-01 +1.36907518e-01 +7.30735064e-02 +5.13141453e-02 +1.12472452e-01 +1.17924981e-01 +8.41091797e-02 -1.10245004e-01 +1.00195564e-01 -4.63658422e-02 +1.34405538e-01 -6.75226822e-02 +4.79351021e-02 +6.61647320e-02 +1.19058757e-04 -6.18336201e-02 -1.05107598e-01 +1.20648921e-01 +4.71776053e-02 -5.82351536e-03 -8.33780989e-02 -1.31484330e-01 +7.88563415e-02 +1.28110200e-01 +2.99756713e-02 -2.72910912e-02 +2.46253721e-02 +5.91408052e-02 -2.71939300e-02 +6.97505772e-02 +1.02900296e-01 -1.24729507e-01 -1.35903126e-02 -9.25399512e-02 -1.02967143e-01 +1.27513766e-01 -4.50221635e-02 -7.31200203e-02 +9.03801396e-02 +1.17079578e-02 -6.18042462e-02 +6.17245436e-02 -1.32676765e-01 +2.90080234e-02 -1.03248365e-01 +4.75215316e-02 -9.56594497e-02 +7.51950294e-02 -1.20905645e-01 -7.99961239e-02 +5.73418848e-02 -7.09817261e-02 -7.41675347e-02 +1.15791343e-01 +5.45749590e-02 -1.28332704e-01 -4.71618585e-02 -3.91484760e-02 +4.18813759e-03 +8.04935396e-02 +8.13392699e-02 -1.48295062e-02 +8.51365104e-02 -9.54084173e-02 +1.27442330e-01 +2.55008135e-02 +8.84334072e-02 -2.83974428e-02 +9.88462642e-02 -8.98477435e-02 +1.14156790e-01 -8.54185075e-02 -2.07208041e-02 -1.08008593e-01 -1.24035910e-01 -4.44358289e-02 +8.53996426e-02 +2.58621778e-02 +9.42720473e-03 +8.97257999e-02 +1.20209731e-01 -7.93069974e-02 -4.43892889e-02 -1.19290009e-01 -1.08023264e-01 -4.72949184e-02 +4.86965943e-03 -9.32686254e-02 +1.52515229e-02 +9.15033091e-03 +3.85975726e-02 +1.13549985e-01 +6.47226945e-02 +7.12339506e-02 -1.66478921e-02 -4.07994390e-02 +1.32356742e-02 -1.03974476e-01 -9.29086059e-02 -2.96604596e-02 -3.14497128e-02 +1.25989720e-01 -2.22836565e-02 +8.40435848e-02 +1.01042882e-01 -5.93007989e-02 -1.28282264e-01 -1.82451436e-03 +1.24796852e-01 +1.09510303e-01 -1.58402901e-02 +1.07356183e-01 +1.11847371e-01 +1.34126440e-01 -8.58029816e-03 -6.95035979e-02 +6.70905635e-02 -7.98643082e-02 -7.25310761e-03 -1.08826578e-01 -1.31397787e-02 -1.23508766e-01 -1.04082607e-01 +7.91075602e-02 -1.23492420e-01 +5.54610379e-02 +6.19414672e-02 +1.33320391e-01 +7.05477372e-02 +8.37590247e-02 -9.85276327e-02 +9.09442008e-02 +1.03247240e-01 -2.37622913e-02 -3.63270715e-02 -4.03347891e-03 +1.32344952e-02 -3.81161198e-02 -1.98812294e-03 +4.09696847e-02 +5.84776886e-02 +9.82222334e-03 +1.25441790e-01 +5.78751862e-02 -7.54704773e-02 +1.30441234e-01 -8.09381306e-02 -3.95259224e-02 +1.12274989e-01 +9.23963785e-02 +1.33909777e-01 -1.02671370e-01 -1.28107905e-01 +3.14309634e-02 -5.33215366e-02 +2.15352308e-02 -5.09676114e-02 -1.08263060e-01 +8.22752267e-02 +1.99062862e-02 +1.33491326e-02 -5.41451620e-03 -6.22141957e-02 -5.12998085e-03 +3.22974920e-02 -7.56493732e-02 -1.86000988e-02 -4.28666770e-02 -1.32888004e-01 +1.81653467e-03 +6.57544211e-02 -3.37529071e-02 +1.72557607e-02 -6.88288882e-02 +2.38856934e-02 -9.02179182e-02 +1.01922944e-01 +7.40470588e-02 +1.18978806e-01 -6.23721853e-02 -9.46249366e-02 -1.85464472e-02 +2.90390104e-03 +1.07800946e-01 +1.11985132e-01 +4.80469811e-04 -1.10367261e-01 +1.18290529e-01 +8.84893164e-02 +1.09031603e-01 -5.09880185e-02 +6.46435516e-03 -4.56176139e-02 +3.74701209e-02 -3.87611873e-02 -5.97847030e-02 -1.30758271e-01 -1.12622529e-01 -8.87498036e-02 +9.91157591e-02 -6.82592317e-02 -2.54951380e-02 -4.58320901e-02 -5.49130067e-02 +6.15828671e-02 -3.72912139e-02 -1.09898284e-01 +1.49596334e-02 +1.58415909e-03 +2.85268165e-02 +6.68231100e-02 -7.54720122e-02 -2.68256641e-03 +9.88967344e-02 +6.13049977e-02 +6.53807223e-02 +1.47872958e-02 +3.35925408e-02 -2.39504948e-02 +6.08214661e-02 -4.18476239e-02 +3.89305763e-02 +7.13261515e-02 +4.34219539e-02 -4.95012850e-02 +5.55000193e-02 -3.04117408e-02 -4.68564108e-02 -1.17696837e-01 -1.02547787e-01 -7.27677196e-02 -1.45882359e-02 -1.29829431e-02 -4.02074344e-02 +1.96379516e-02 -1.67132691e-02 +2.97026243e-02 +8.02440569e-02 -1.19460054e-01 -3.65511440e-02 +5.08454570e-04 -3.75772305e-02 -6.08431324e-02 -7.50548765e-02 -6.47665560e-03 -1.21896431e-01 +4.40044403e-02 -9.99240205e-02 +1.20935611e-01 -1.75332949e-02 +8.29015821e-02 -1.34330511e-01 -1.05275661e-01 -4.71896566e-02 -8.52657035e-02 +9.45615321e-02 +1.11431777e-01 +3.15894224e-02 -1.09649189e-01 -1.14956729e-01 -4.64107618e-02 +8.56529698e-02 +2.14822311e-02 +2.06828024e-02 +6.52310029e-02 +1.17420495e-01 -4.79533188e-02 -1.20675631e-01 -5.45701534e-02 +1.07951239e-02 +1.16643220e-01 +4.00069952e-02 -1.43846525e-02 +4.62051891e-02 +1.07978798e-01 -1.25905395e-01 +6.51273206e-02 -1.84913143e-03 -2.27844603e-02 -1.32417947e-01 +8.10860172e-02 -2.19665430e-02 -4.06299010e-02 -6.34753481e-02 -8.12752619e-02 +3.90054211e-02 +1.25071853e-01 +6.90099970e-02 -8.22576210e-02 +7.87425190e-02 -1.11244209e-01 +6.47333860e-02 -8.79573822e-02 -9.53242108e-02 -9.11456719e-02 -4.20663357e-02 +1.19999148e-01 -9.38572921e-03 -9.89727378e-02 -8.80010575e-02 +4.85513806e-02 -7.92999715e-02 +8.68478790e-02 -1.08002529e-01 -8.79924521e-02 -5.26214540e-02 +7.54470602e-02 -1.01149008e-01 -8.91809687e-02 +1.13865972e-01 -9.50855091e-02 +3.19219753e-02 -6.84625581e-02 -3.54608223e-02 -9.57645327e-02 -6.06139041e-02 +9.16454121e-02 -1.95413325e-02 +4.18307213e-03 +8.48507434e-02 -1.06308773e-01 -9.42563340e-02 -1.34804979e-01 +1.39448058e-03 -4.30227295e-02 -9.83000994e-02 +1.09338067e-01 +1.25169471e-01 -1.93203781e-02 -1.79242678e-02 -1.21781781e-01 -5.54661043e-02 +4.64761108e-02 -1.27255946e-01 +7.93124661e-02 +2.02683508e-02 +1.51735516e-02 -1.16420135e-01 +5.76678291e-02 +5.37380092e-02 -2.45756060e-02 -1.49534279e-02 -1.25084847e-01 -1.34747967e-01 +1.33875847e-01 +4.56619933e-02 -2.38993783e-02 +7.53708407e-02 +1.31898344e-01 -1.35867326e-02 +4.66388054e-02 -8.65995511e-02 +1.27335325e-01 -3.49747203e-02 +4.89160158e-02 -6.94557577e-02 -6.02285890e-03 +1.17747292e-01 +6.15652464e-02 +8.72299727e-03 +6.48789555e-02 -9.67119113e-02 -5.12323827e-02 +1.70563105e-02 -7.26779848e-02 +7.68958554e-02 +9.57502127e-02 -2.16659606e-02 +9.11230296e-02 -1.51006989e-02 +3.20939086e-02 -1.29598364e-01 +8.87967348e-02 -6.20142855e-02 +1.15443347e-02 -6.86235800e-02 +1.95164997e-02 -8.46345425e-02 +4.12019975e-02 +7.44493380e-02 -8.95046890e-02 +7.61785358e-02 +3.34969647e-02 -1.13552511e-01 +1.13771230e-01 -2.50164531e-02 -9.41212401e-02 +1.32003874e-01 -7.76986331e-02 -1.14434406e-01 -5.94213270e-02 -7.82132670e-02 +8.81298818e-03 +4.98244464e-02 +4.37687896e-02 -3.16525511e-02 -1.37677025e-02 +6.57582283e-02 -1.25633270e-01 +3.83261368e-02 +1.20211437e-01 -4.46109846e-02 +4.41669673e-02 +6.29614890e-02 -6.42192513e-02 +2.97253532e-03 -6.84236288e-02 -6.09046184e-02 -7.72069618e-02 +1.13315091e-01 -5.38093187e-02 -1.34848684e-01 -6.85993955e-02 +1.53071107e-03 -8.34302530e-02 -1.17490388e-01 +3.54929753e-02 +3.29312962e-03 -9.32747945e-02 +2.44584177e-02 -6.98462948e-02 -1.76079702e-04 -6.84994012e-02 +4.08527851e-02 +4.91280146e-02 -2.23955140e-03 +1.20661385e-01 +9.97777432e-02 -4.44508195e-02 +1.32147446e-01 +2.70567928e-02 +1.27972886e-01 +7.44374618e-02 +5.10777980e-02 -7.94146862e-03 -4.92194407e-02 +9.13051143e-03 -1.05040714e-01 +6.15660697e-02 -1.11831017e-01 +4.29152697e-02 +1.29706845e-01 +6.64236173e-02 -1.19460307e-01 -2.23743226e-02 +2.09352374e-02 -7.35393763e-02 +7.66409487e-02 +9.73660573e-02 +2.16933340e-02 -5.98785132e-02 -1.52131459e-02 -1.13720484e-01 -4.35791276e-02 -1.34826958e-01 +1.01872891e-01 -1.22458421e-01 +6.58573210e-02 +8.62942636e-02 -9.55987498e-02 +2.75227409e-02 +8.65167081e-02 -5.22350855e-02 +1.45591339e-02 +3.01134363e-02 +9.59820449e-02 -1.18327923e-01 +1.02743007e-01 -9.06526223e-02 -3.38055640e-02 +3.59142525e-03 +1.04318419e-02 +3.11173256e-02 +1.08868675e-02 +2.51760390e-02 -6.50797114e-02 +6.98216334e-02 +8.96196067e-02 +1.06468700e-01 +2.74923537e-02 -2.50457004e-02 +7.37452507e-02 -7.90986195e-02 +2.21992955e-02 +9.40087810e-02 -1.28620267e-01 +1.18886925e-01 -6.60657585e-02 -1.21770792e-01 -5.13412617e-02 +1.12332925e-01 +1.02257729e-01 +1.35970884e-03 -2.35117646e-03 +1.14505403e-01 -6.63098693e-02 -6.39404058e-02 -1.16531774e-01 -3.13577219e-03 +9.92095917e-02 -5.30559868e-02 -3.54000330e-02 +4.58195247e-02 +8.11067671e-02 -1.23271234e-01 +7.24095330e-02 -7.83934444e-02 +1.20978288e-01 +1.65891033e-02 -7.89902732e-02 -9.04373527e-02 +1.01941694e-02 -8.46459344e-02 -1.70394052e-02 -5.70342466e-02 +1.01875730e-01 +8.10947567e-02 -1.02140643e-01 -4.25996222e-02 +7.69989714e-02 +1.16316944e-01 -1.03132680e-01 -1.09788358e-01 +4.64494377e-02 -7.92124718e-02 +1.01882994e-01 -1.21367544e-01 -1.20514140e-01 +7.87957832e-02 -1.00402541e-01 +2.80951932e-02 +8.47271606e-02 -1.01626210e-01 -1.31526202e-01 +7.91204628e-03 +9.57474709e-02 -1.23111829e-01 -4.37352732e-02 +3.73565815e-02 -1.01737946e-03 -3.35692312e-03 +1.05066814e-01 -6.36024028e-02 +6.21666089e-02 +3.86529937e-02 +5.53615130e-02 +5.41554466e-02 -8.70023072e-02 -9.70443934e-02 -9.09066871e-02 -3.22640017e-02 +1.28051877e-01 +3.79424766e-02 -3.14746872e-02 -3.73492204e-02 +1.13505952e-01 -1.13245472e-01 +1.01530835e-01 -3.77801172e-02 +1.53149795e-02 +4.66804169e-02 +2.22824793e-02 +7.27666169e-02 -4.02962565e-02 -7.93385208e-02 -6.08799197e-02 -9.47859064e-02 -1.28831342e-01 -5.09169810e-02 -2.55544409e-02 +2.80764420e-02 -1.12416558e-01 -9.90929827e-02 -9.56033170e-02 -4.17723693e-02 +1.21617541e-01 -9.56000239e-02 -3.69062237e-02 +5.46334684e-02 -1.15291603e-01 -2.78655589e-02 +6.92436844e-02 -7.47286007e-02 -1.31485283e-01 -1.28841519e-01 +8.19547176e-02 +1.22148864e-01 -1.15547612e-01 +9.10832286e-02 -4.61602490e-03 -1.17359227e-02 +6.44394457e-02 +2.89498217e-04 +3.76096442e-02 +4.08079587e-02 +1.64305493e-02 -9.79151390e-03 +4.90851514e-02 -7.66412988e-02 +2.01626737e-02 -3.11455987e-02 -8.95709246e-02 +8.17764327e-02 -8.50945264e-02 -7.86615387e-02 -2.60475762e-02 -1.20259393e-02 +7.60817726e-04 -8.78143832e-02 +8.43817294e-02 -2.15479825e-03 -9.95580032e-02 -6.07174970e-02 +9.08419266e-02 -1.29099905e-01 +1.57047100e-02 +1.03744097e-01 -8.64550322e-02 +5.48663549e-02 +4.28024083e-02 -1.34726986e-01 +1.17157571e-01 -9.28390175e-02 -2.44186483e-02 -8.09391588e-02 -1.19095623e-01 -1.11966841e-01 +1.02446422e-01 -1.02814868e-01 +3.84358712e-03 -7.21063018e-02 +1.04210384e-01 -1.68719459e-02 -1.75942313e-02 +1.07623376e-02 +1.92691013e-02 -1.04385681e-01 +1.32019848e-01 +6.87234551e-02 -1.03262551e-01 +3.48691233e-02 -2.18966901e-02 +3.51926610e-02 +3.46736959e-03 +9.49918553e-02 +1.31973878e-01 -4.76338416e-02 +1.84530914e-02 +9.04867202e-02 +6.11727387e-02 -7.79054081e-03 +2.69667562e-02 -4.12663557e-02 -9.45898294e-02 +5.83208613e-02 +7.82582238e-02 +1.15709320e-01 +5.77886626e-02 +8.29485729e-02 +4.40496579e-02 +1.17355645e-01 -3.92674208e-02 +8.75472799e-02 -3.25490758e-02 +4.95194532e-02 +3.43748927e-02 +1.12367392e-01 -3.20169963e-02 +6.43371493e-02 -3.29505093e-02 -4.85247560e-02 +5.82253151e-02 +3.77497897e-02 +7.08447322e-02 -1.31694600e-01 +7.38198534e-02 -6.34216368e-02 +1.30182549e-01 -3.37878093e-02 -2.35836059e-02 +1.26664847e-01 +7.96959735e-03 +4.39088121e-02 +1.96518358e-02 +8.32905844e-02 +5.95810935e-02 -1.31976098e-01 +1.17368631e-01 -1.25198185e-01 -1.21225327e-01 -1.22699924e-01 -1.81552824e-02 -1.03817172e-01 +2.39933692e-02 +4.11040187e-02 -6.64271191e-02 -2.13554986e-02 -1.36597687e-02 +1.29714862e-01 -1.04215980e-01 +3.31175290e-02 +8.89324993e-02 -6.45122007e-02 +7.96675757e-02 -1.19036175e-01 -4.33084592e-02 +1.04966298e-01 +3.46111543e-02 +5.78963943e-02 -8.97480771e-02 +9.54180583e-02 -1.54702924e-02 -7.17898831e-02 +3.55493203e-02 +7.89414793e-02 -1.15776189e-01 -4.70111668e-02 -5.61382622e-02 +7.85213485e-02 -4.48224172e-02 +1.13619991e-01 -7.55497767e-03 +2.35690153e-03 +3.56293581e-02 +3.06764301e-02 +9.48341265e-02 -7.65835047e-02 -5.47263101e-02 +6.51027425e-04 +9.21238437e-02 +2.73804218e-02 +9.25417319e-02 -8.53034109e-02 -1.32290214e-01 -1.21547222e-01 -3.89550999e-02 -3.45937647e-02 +1.24752205e-02 +1.49762295e-02 +1.88202951e-02 +3.45070958e-02 -1.06395736e-01 -1.90815274e-02 +5.16589768e-02 -6.01684675e-02 -7.43504316e-02 -7.80935511e-02 -3.20254788e-02 -1.04851425e-01 -8.70861933e-02 +1.02308273e-01 -9.66797099e-02 +1.03610745e-02 -5.48779815e-02 +3.77276354e-02 +6.26987312e-03 -2.04065721e-02 -9.27966088e-02 -8.35073367e-02 +2.46882513e-02 +7.25807175e-02 +9.56104621e-02 -4.28942069e-02 +9.82983038e-02 -1.22500941e-01 -1.20453089e-01 -3.76769230e-02 -7.67058209e-02 +1.18424952e-01 +1.25170365e-01 -1.33347467e-01 -1.32125959e-01 -2.53682025e-03 -8.28015506e-02 -1.18477702e-01 +4.40205187e-02 -3.66576239e-02 -1.18108958e-01 +4.42761071e-02 -7.64936805e-02 +1.25318468e-01 -8.57242942e-02 -4.39169481e-02 -8.94260630e-02 -6.55736327e-02 +1.31642781e-02 -1.07235469e-01 +1.73878707e-02 +1.23757519e-01 -4.73770015e-02 -1.25546321e-01 -5.84776998e-02 -3.11949234e-02 +8.39334130e-02 -8.18326548e-02 -1.16237421e-02 +1.29675359e-01 -1.34352505e-01 +4.54479642e-02 +4.70519476e-02 -4.99489391e-03 -1.12221017e-01 +2.38300599e-02 -2.48527117e-02 +9.48197991e-02 +3.12096830e-02 -1.00371763e-01 -1.34822875e-01 +6.29403293e-02 +3.08744656e-03 +1.09667301e-01 +8.89306590e-02 -1.32374197e-01 +1.34190693e-01 -3.35985981e-03 +2.00501140e-02 +1.29051348e-02 +1.20230801e-01 -1.47255361e-02 +2.91499384e-02 -6.10565469e-02 +6.18238002e-02 -1.18209235e-01 -1.02153338e-01 +1.11464635e-01 -1.05038032e-01 -8.13120008e-02 -1.35351932e-02 -1.21375427e-01 +3.12099084e-02 +9.40443873e-02 +1.67378392e-02 +1.22661002e-01 +6.51172847e-02 -5.32539673e-02 -1.32535100e-01 -5.33664711e-02 +1.03263229e-01 -1.19661964e-01 -5.85445352e-02 +8.64795595e-02 +8.01346451e-02 +1.01964653e-01 -3.81853878e-02 -5.36988080e-02 +9.60391015e-02 -4.16684188e-02 -8.99186879e-02 -7.74463341e-02 +9.27501991e-02 +7.62141198e-02 -9.29203555e-02 +1.05093829e-01 +8.59834850e-02 -1.27192572e-01 +4.29238789e-02 +8.09113607e-02 -4.32721106e-04 -4.10126224e-02 +3.18440539e-03 +5.16485074e-04 +8.78000036e-02 +3.31434608e-02 +1.00203812e-01 +1.10901542e-01 +1.03664115e-01 -1.07832886e-01 +4.81247194e-02 -4.97390740e-02 +1.14665866e-01 +4.47854493e-03 -4.08163071e-02 -1.30642885e-02 -6.21327907e-02 +3.04199010e-02 +1.22927122e-01 +8.58573467e-02 +1.05832098e-03 -1.70264095e-02 +4.30436134e-02 +7.81692192e-02 +1.28570780e-01 -9.95436907e-02 +1.31256193e-01 +9.80359539e-02 +1.39587587e-02 +7.02893957e-02 +9.65543315e-02 -6.39841184e-02 -4.68939655e-02 +5.95017187e-02 -2.21631434e-02 -1.22160055e-01 -8.88221338e-02 -1.42682279e-02 -1.10318042e-01 -1.32234007e-01 -3.72465812e-02 -8.24824795e-02 -5.32788895e-02 -9.67715308e-02 +3.67929600e-02 -3.29382457e-02 +2.46213619e-02 +6.68471726e-03 -9.65292007e-02 +3.75390276e-02 -3.24843340e-02 -1.23741686e-01 +6.15870245e-02 -1.26252368e-01 +1.09454073e-01 +1.65387038e-02 +1.03704222e-01 -7.15136304e-02 +8.08738619e-02 +3.92852612e-02 +7.34817609e-02 -1.33595765e-01 +8.74136165e-02 +1.34423211e-01 -7.65342861e-02 +1.05962276e-01 -2.35195607e-02 -1.01490252e-01 -6.65248409e-02 +9.11863968e-02 -1.13505177e-01 +1.07828088e-01 +6.35358319e-02 -2.62175538e-02 +4.28332910e-02 +7.36776786e-03 -1.06572993e-01 -1.28607213e-01 +1.73177607e-02 -7.13260621e-02 +1.32656947e-01 -1.21506996e-01 +1.02912538e-01 +1.59866130e-03 -5.46631552e-02 -9.13751051e-02 -5.61403623e-03 +3.71057279e-02 +1.38873041e-01 +2.60175373e-02 -1.29989251e-01 -5.11013307e-02 -6.79717632e-03 -1.10564426e-01 -1.07440166e-01 -6.33652732e-02 +1.01509824e-01 -7.14175478e-02 +7.63421059e-02 -4.36900556e-02 -1.84651390e-02 -5.31629808e-02 +7.50154331e-02 -6.25138953e-02 -5.41128628e-02 +1.16627209e-01 +6.22776113e-02 +8.64754021e-02 -7.27807432e-02 +1.61796082e-02 +7.84242898e-03 -1.22817419e-01 +1.26979396e-01 +1.05631286e-02 -5.53765334e-02 +1.26037329e-01 +8.83733183e-02 +7.34086707e-02 -1.89736802e-02 -1.35705844e-01 +1.34003669e-01 -9.67650414e-02 +9.94833857e-02 -9.32882428e-02 +7.37606511e-02 -1.19677253e-01 +4.90309224e-02 -1.16870902e-01 -8.76574293e-02 -1.15143068e-01 +9.10896342e-05 +1.15911871e-01 +8.64541978e-02 +6.95664552e-04 -8.07519034e-02 +8.03517029e-02 -8.60195532e-02 -7.59735657e-03 -3.05747092e-02 -1.08105749e-01 +1.71069596e-02 +5.65136783e-02 -1.39796436e-02 -7.67593086e-02 -3.15949209e-02 +8.16981569e-02 -1.08573340e-01 +4.47586179e-02 +1.32799998e-01 -2.10230282e-04 -5.61673082e-02 -1.09452404e-01 +1.32410184e-01 +9.06981975e-02 +1.23505697e-01 +7.30809569e-02 +9.10350531e-02 -4.80474792e-02 +1.24586344e-01 +8.23391527e-02 -8.19421187e-02 -3.30956355e-02 -1.28729194e-01 -2.91315224e-02 +4.31402363e-02 +1.26853168e-01 +8.73029884e-03 +4.03551571e-02 -9.10256654e-02 -3.73588018e-02 +1.33345008e-01 +3.45165096e-02 +1.86722092e-02 +1.14993416e-01 +1.22721478e-01 +7.65382200e-02 +3.17629762e-02 +1.45831201e-02 -9.76442322e-02 -2.55312845e-02 -7.79010206e-02 +4.97504091e-03 -3.47080342e-02 -5.48467264e-02 +8.06348622e-02 -1.18446715e-01 -1.02294549e-01 +6.25975877e-02 -1.34444654e-01 -1.19394168e-01 +9.39981565e-02 +7.64084840e-03 +7.94652998e-02 -1.05854228e-01 +7.13062845e-03 -6.30361736e-02 -1.51946163e-02 -4.41157463e-04 +1.26229778e-01 -7.82466456e-02 +5.04101021e-03 -8.58606771e-02 -1.33667260e-01 -4.78811674e-02 +1.26339450e-01 +9.45329294e-02 -1.30916331e-02 -1.11817896e-01 +3.27184349e-02 +9.80243683e-02 -9.20835137e-02 +8.40196759e-02 +1.03498191e-01 -7.56702274e-02 +2.39277678e-03 +6.65750429e-02 +3.91472578e-02 +4.70701531e-02 -9.26105082e-02 -1.59812644e-02 -8.83338377e-02 +9.65606272e-02 -2.36921967e-03 -9.42613855e-02 -7.09788129e-02 +7.95341060e-02 -2.11347174e-02 -1.29629061e-01 +2.01970413e-02 +7.16425031e-02 +1.34958789e-01 +3.65560092e-02 -8.30689743e-02 -5.36780134e-02 -1.34360105e-01 -1.26387000e-01 -1.11214012e-01 +5.70991114e-02 +1.29791766e-01 -7.88264126e-02 -6.75795600e-02 +9.57543124e-03 -7.96071813e-03 +1.10098213e-01 +8.69143754e-02 +9.14615951e-03 -8.80411416e-02 -1.23540364e-01 -1.13194630e-01 -1.85558796e-02 +9.64011007e-04 +1.20510437e-01 +4.10997123e-03 +4.22498323e-02 -1.28644228e-01 -9.07821953e-03 -1.07234560e-01 +8.45748559e-02 +5.12979226e-03 +8.70798901e-02 -1.23550251e-01 +2.81732231e-02 +9.18861106e-02 -9.50079411e-02 +2.67784428e-02 +3.26479115e-02 +1.24272771e-01 -3.24128829e-02 -6.16485327e-02 +9.07549635e-02 -5.76545075e-02 -1.23216718e-01 -1.30422637e-01 -4.91657592e-02 -1.24438241e-01 -5.55007309e-02 +2.99296416e-02 -4.43704501e-02 +4.63127941e-02 -3.12558636e-02 -9.92667302e-02 -1.26309022e-01 -7.62871429e-02 +1.05694346e-02 +9.82017145e-02 -1.34533852e-01 +1.21150859e-01 -1.34954944e-01 +6.90904036e-02 +6.79401122e-03 +5.58417030e-02 +1.10578872e-01 -5.55660501e-02 -3.30959111e-02 -4.32080626e-02 +6.64054155e-02 +8.54665488e-02 -1.02339767e-01 -1.32790962e-02 +4.64586727e-02 -4.98876087e-02 +1.19505279e-01 -2.48977672e-02 +1.20548226e-01 -1.39651641e-01 -1.17625780e-02 -1.32471591e-01 +1.28052562e-01 -7.35831559e-02 +1.17591158e-01 +2.19162479e-02 -9.67342556e-02 -3.93383577e-02 +1.23457603e-01 +7.79418945e-02 +1.23854294e-01 -2.65408121e-02 -8.95158015e-03 -5.94125427e-02 +4.48638350e-02 -3.56315672e-02 -3.46008539e-02 -8.64082053e-02 +4.62722220e-02 +9.94901657e-02 +1.28297165e-01 -2.86698788e-02 -6.34726835e-03 +1.22068830e-01 -8.03389400e-02 +9.47325975e-02 +3.13088894e-02 +5.07523119e-03 +5.23222946e-02 -3.46723981e-02 +1.01838365e-01 -4.71437955e-03 +7.72347823e-02 +8.28328580e-02 +5.56345917e-02 -1.17476292e-01 +8.64375662e-03 -5.78083396e-02 -1.00928955e-01 -1.33034915e-01 +4.04283293e-02 -6.19796254e-02 +7.58236945e-02 +1.13403149e-01 -5.92957363e-02 -1.07031353e-01 -1.33955613e-01 -4.54320274e-02 -2.97615416e-02 -1.10339418e-01 -7.00448966e-03 +8.85757133e-02 +4.35225442e-02 +1.12345546e-01 +1.05828114e-01 -4.16071787e-02 -7.88618103e-02 -1.52944401e-02 +1.53094836e-04 +1.26964167e-01 -3.34339365e-02 +1.34261832e-01 +7.49261975e-02 -9.90041625e-03 +6.26745820e-02 +1.64169837e-02 +5.65750599e-02 +2.53873691e-02 -1.20026313e-01 +1.16708949e-01 -5.81216142e-02 -4.03877022e-03 -8.32769647e-02 +2.06986051e-02 -1.19227968e-01 -1.25759006e-01 -6.14653938e-02 -1.20069861e-01 -3.30067091e-02 -1.40156848e-02 +1.32852063e-01 +1.31415308e-01 -2.77970787e-02 -7.91736469e-02 +1.07047945e-01 +4.48893793e-02 +1.01820454e-01 -1.08371086e-01 -1.04525514e-01 -3.81236518e-04 -1.18792333e-01 +3.53105552e-02 +7.64831603e-02 +1.09933734e-01 +3.41541017e-03 +9.74839553e-02 -5.41846864e-02 -8.15908089e-02 -1.31079555e-01 -1.19370550e-01 -1.21603750e-01 -3.34116779e-02 +1.27360106e-01 -5.83179109e-02 -7.89533630e-02 +5.58158942e-03 +4.88830591e-03 -5.13590034e-03 -1.33297339e-01 +3.88802551e-02 +1.22019894e-01 -1.13181435e-01 +8.55940953e-03 -4.95573729e-02 +4.73106392e-02 -5.65767735e-02 -1.19945042e-01 +7.93998018e-02 +9.40097421e-02 +1.09750705e-04 -3.01016159e-02 +6.53064391e-03 +6.33343160e-02 -3.47851925e-02 -1.77916307e-02 +1.29697740e-01 -9.82832015e-02 +4.80600782e-02 +3.08432132e-02 +7.07998127e-02 +1.07440375e-01 +9.10127014e-02 -1.07918411e-01 -4.90281507e-02 +1.29391670e-01 +9.74254981e-02 +2.02435534e-03 
#Parameter# /simple-rnn-builder/_1 {8,8} 1025 ZERO_GRAD
-3.96666259e-01 +2.84753054e-01 +3.91730458e-01 -2.27599442e-01 -3.05528998e-01 +3.18848416e-02 -2.19250500e-01 +5.24693549e-01 -5.18811584e-01 -3.11240405e-01 -3.02084774e-01 -5.44741929e-01 -2.05087855e-01 -5.84805906e-01 +6.30706608e-01 -1.70598909e-01 +1.36690587e-01 +1.83695719e-01 +2.68691391e-01 -1.63884133e-01 -2.85549104e-01 +1.85244218e-01 -2.19449043e-01 +5.16621433e-02 -5.63293286e-02 -2.61683285e-01 -3.44189256e-01 -1.96508050e-01 -3.75215977e-01 +4.59192336e-01 +2.93499410e-01 +4.05794621e-01 -4.60055530e-01 +6.71499610e-01 -5.97599745e-01 +2.45947123e-01 -5.54925859e-01 +3.91478181e-01 -2.87437618e-01 +2.11391121e-01 +1.05377957e-01 -4.89427209e-01 -4.32611644e-01 +2.30563834e-01 -4.67004359e-01 +2.77806640e-01 +6.39233887e-01 -2.48679742e-01 -4.08460528e-01 -6.41874298e-02 -5.26574671e-01 +4.67289716e-01 +3.50194186e-01 +5.05408347e-01 -2.24431278e-03 +3.97654265e-01 +2.90089637e-01 +6.00078285e-01 +2.62139529e-01 +5.14588784e-03 +2.52069950e-01 -4.82691258e-01 +4.28950228e-02 +3.65013063e-01 
#Parameter# /simple-rnn-builder/_2 {8} 129 ZERO_GRAD
+3.31562944e-02 -9.76104140e-02 +2.26200335e-02 +5.03375232e-02 +2.94937682e-03 +6.48913458e-02 -5.95051087e-02 -5.95980436e-02 
#Parameter# /simple-rnn-builder/_3 {8,8} 1025 ZERO_GRAD
-1.00505471e+00 +1.14929712e+00 -1.09788947e-01 -8.09413135e-01 -1.42309797e+00 -6.47308409e-01 +6.99150115e-02 -7.43162274e-01 +7.58943260e-01 -6.51125908e-01 +2.66937762e-01 +1.16892183e+00 +3.77757490e-01 +5.34044504e-01 -2.44224429e-01 -2.54198253e-01 +4.41261083e-01 +5.32999635e-01 -3.05911034e-01 +8.70430544e-02 -1.85470700e-01 +3.56818229e-01 +5.19391775e-01 +5.19553244e-01 -7.63313353e-01 +9.18059230e-01 +2.59960480e-02 -8.24645996e-01 -9.91336405e-02 -4.74107236e-01 -1.11341929e+00 -8.35756958e-01 -1.79533169e-01 +5.92958152e-01 -3.33184361e-01 -2.92243689e-01 +2.05346370e+00 +3.67257506e-01 -4.98366803e-01 +3.22092414e-01 +1.13750942e-01 +4.28960949e-01 +1.51725039e-01 -1.15821369e-01 -4.90534306e-01 -5.76390564e-01 -5.22494972e-01 +2.78242856e-01 +6.17507577e-01 -1.45285106e+00 +1.34413886e+00 +1.23116231e+00 +3.77954453e-01 +2.27885675e+00 +6.36383593e-01 +3.79960477e-01 -3.63038927e-01 +3.89613688e-01 +5.45376241e-01 +1.53553641e+00 +3.72854084e-01 -3.69204998e-01 +1.28009355e+00 -7.66294777e-01 
#Parameter# /simple-rnn-builder/_4 {8,8} 1025 ZERO_GRAD
+2.35480890e-01 -8.46024752e-01 -3.05134207e-01 +5.66134512e-01 +3.51572126e-01 -2.27745444e-01 +3.41592968e-01 +6.28257394e-01 +8.08749557e-01 -3.74357253e-01 +5.48049569e-01 -4.23772097e-01 -9.25676763e-01 +7.25080490e-01 +4.24350142e-01 +4.92808610e-01 +3.96475464e-01 -8.09102476e-01 -6.95110485e-02 -3.08657587e-01 -3.90505373e-01 +3.51493210e-01 +7.39954293e-01 +2.13002354e-01 -1.45857204e-02 -8.61010134e-01 +3.93575013e-01 +3.86231616e-02 -1.04994811e-01 +4.97158527e-01 +2.70212322e-01 -1.81516871e-01 +5.01827896e-01 +7.73204267e-01 +7.78484464e-01 -6.98113963e-02 +4.67720270e-01 -2.97882050e-01 +2.84264624e-01 +2.66829163e-01 -1.20984674e-01 -6.75100267e-01 +1.03963101e+00 +9.01660621e-01 -2.77090192e-01 -1.22237301e+00 +5.35904706e-01 -5.99111617e-01 -3.06163043e-01 -3.05608064e-01 -6.58642173e-01 +2.13622376e-01 +1.91647902e-01 -9.58207607e-01 +3.97536308e-01 +3.00714374e-01 -3.19975644e-01 -1.26903355e-01 +4.38887268e-01 -2.33996529e-02 +6.41299129e-01 -8.17783058e-01 +1.28898680e-01 -9.56966430e-02 
#Parameter# /simple-rnn-builder/_5 {8} 129 ZERO_GRAD
+3.15206021e-01 +1.55507103e-01 -1.40820062e+00 -2.31512666e-01 -1.46372354e+00 +1.13571489e+00 -9.61149156e-01 +4.76323128e-01 
#Parameter# /simple-rnn-builder/_6 {8,8} 1025 ZERO_GRAD
+1.81760326e-01 -8.55947077e-01 +4.29683417e-01 +8.72011900e-01 -5.12285292e-01 +9.62592363e-01 +2.31679797e-01 -4.08716649e-01 -8.37967217e-01 +1.07460511e+00 -6.58621192e-01 -1.12142766e+00 +1.45710967e-02 -2.15866014e-01 -4.46641803e-01 +8.31887603e-01 +2.11379245e-01 -8.25333297e-01 -2.03831553e-01 +9.22643602e-01 +4.32690054e-01 -1.56527296e-01 -1.52111351e-01 -2.60572404e-01 -3.88213098e-01 -7.24151671e-01 +1.93674698e-01 +6.21926129e-01 +9.38885927e-01 -5.03871888e-02 +3.10765266e-01 +1.31526008e-01 -2.78235793e-01 -4.76847231e-01 -3.53066534e-01 +3.35914373e-01 -2.09465027e-01 -5.94620287e-01 +7.58561045e-02 -1.04514682e+00 +5.44719040e-01 -5.39453566e-01 +2.63926327e-01 +4.70403135e-01 +6.51233196e-02 +7.65614331e-01 +1.79925516e-01 -2.42090032e-01 -3.32989961e-01 -6.42222404e-01 -5.94215930e-01 +6.70967638e-01 +4.08354312e-01 +1.10518141e-03 +4.14192379e-01 -9.53166425e-01 +9.40876067e-01 -2.09131986e-01 -2.76022889e-02 -1.56549856e-01 +4.66897458e-01 +3.88145894e-01 -1.80603951e-01 -8.50962326e-02 
#Parameter# /simple-rnn-builder/_7 {8,8} 1025 ZERO_GRAD
+3.62036467e-01 +5.77922389e-02 +9.14692879e-02 -3.25287372e-01 +1.49788663e-01 -5.33011742e-03 -1.60320610e-01 +7.18614638e-01 +4.39296097e-01 +1.43716723e-01 +6.57938182e-01 -5.34317136e-01 +7.87755251e-01 +4.13653165e-01 +1.77980661e-01 -2.20669910e-01 -6.84585124e-02 +8.80254582e-02 +1.78988501e-01 -1.58664901e-02 -5.61717331e-01 +2.55321562e-01 +1.01847255e+00 +1.26939937e-01 +2.16344953e-01 -3.63815695e-01 -4.17559922e-01 -2.05683395e-01 -6.51001334e-01 -8.72462749e-01 -8.69087160e-01 +4.45715524e-02 -5.98056138e-01 -6.41293943e-01 +2.48184577e-01 +7.39676297e-01 -1.15747236e-01 -3.40690045e-03 +1.70886591e-01 -4.40418661e-01 +6.57552540e-01 -3.24403435e-01 +3.34647864e-01 -2.27810144e-01 -3.75201344e-01 -6.42183900e-01 +8.14974666e-01 +3.21688473e-01 +4.22745466e-01 -1.48237318e-01 +2.17454940e-01 +1.48544937e-01 -4.71417338e-01 -1.03294671e-01 -3.21397096e-01 -5.69504619e-01 +6.07248545e-01 -1.42485425e-01 +3.64408493e-01 -6.74137473e-01 +6.33652389e-01 +9.20411706e-01 +3.93539429e-01 -2.81127244e-01 
#Parameter# /simple-rnn-builder/_8 {8} 129 ZERO_GRAD
+1.42962980e+00 +7.44267225e-01 +1.01225495e+00 -2.15123147e-01 -3.54181379e-01 +2.21339011e+00 -8.51300955e-02 +1.24666047e+00 
#Parameter# /simple-rnn-builder/_9 {8,8} 1025 ZERO_GRAD
+1.06247759e+00 -3.58871482e-02 -1.03256261e+00 +9.68043879e-02 -3.66784751e-01 +8.18023741e-01 +3.44607830e-01 -4.21450317e-01 -1.13131791e-01 +5.35175264e-01 -7.42153311e-03 -7.25399971e-01 -7.55945325e-01 -1.79539904e-01 -1.00576031e+00 +1.01524480e-01 +6.16762675e-02 -1.86325580e-01 +6.27688318e-02 +1.94263414e-01 +5.25262356e-02 +3.10403317e-01 +7.02920780e-02 -6.24747396e-01 -6.01380825e-01 +1.51467826e-02 -1.14659533e-01 +5.24977922e-01 +9.83363628e-01 +8.03951263e-01 +5.11818469e-01 -2.01407790e-01 -4.53767151e-01 -1.10164680e-01 -4.13959473e-01 +3.91299687e-02 +3.47708642e-01 +6.59407005e-02 +6.53438091e-01 -2.07537815e-01 +4.21008229e-01 -5.02094805e-01 -1.05002463e+00 -4.19028997e-01 -6.29852176e-01 +5.55131197e-01 +6.93410695e-01 -8.67240846e-01 +3.00237015e-02 -8.19969475e-01 -2.27198437e-01 +8.36192131e-01 +5.47356345e-02 +1.24393247e-01 +1.05684832e-01 +1.34278640e-01 +1.11231141e-01 +9.69707370e-02 +2.27486715e-01 +1.13363698e-01 -7.37460077e-01 +2.39823565e-01 +3.44456285e-02 -5.89059055e-01 
#Parameter# /simple-rnn-builder/_10 {8,8} 1025 ZERO_GRAD
-8.55390966e-01 -1.10787261e+00 -4.52535868e-01 +5.93067646e-01 -9.85403895e-01 +1.68423563e-01 +3.50869417e-01 +8.44106674e-02 -1.30605876e-01 -5.00485189e-02 +2.47141439e-02 +3.98534656e-01 -3.82010102e-01 -1.45347461e-01 +2.25183934e-01 -2.83940077e-01 +1.40631571e-01 +2.38435581e-01 +4.44316983e-01 -1.23775148e+00 +3.52171600e-01 +6.84598088e-01 -4.68388051e-01 -1.25025079e-01 -3.11228782e-01 -6.63748026e-01 +5.25362492e-01 +7.76853487e-02 -6.42930090e-01 +1.26067251e-01 -1.26619017e+00 +3.39422673e-02 -3.24215233e-01 +6.40241504e-01 +5.66572905e-01 -5.43875515e-01 -1.48398310e-01 -5.09959817e-01 +4.70763624e-01 +6.50965691e-01 +8.51698041e-01 -4.57460850e-01 +4.46694285e-01 +2.70842433e-01 -4.03031439e-01 -7.70384729e-01 +5.01734555e-01 -1.92843348e-01 -2.41229191e-01 -5.98571479e-01 +2.60143846e-01 +3.71936411e-01 -2.22981408e-01 -5.12519181e-01 -2.65439004e-01 +1.67917907e-01 +4.13465440e-01 +6.93242311e-01 +1.52121797e-01 -9.56663430e-01 +4.04102772e-01 +4.07878876e-01 -7.43514419e-01 +1.51180670e-01 
#Parameter# /simple-rnn-builder/_11 {8} 129 ZERO_GRAD
+7.03238606e-01 +1.22573428e-01 -1.36320806e+00 -2.63487428e-01 -5.01431346e-01 +1.34388804e+00 -2.41852249e-03 -1.28524101e+00 
#Parameter# /simple-rnn-builder/_12 {8,8} 1025 ZERO_GRAD
-4.31457549e-01 -3.97100389e-01 -3.25402677e-01 +1.25421152e-01 +4.43136781e-01 -6.03070796e-01 +4.56210732e-01 -1.16119988e-01 +1.11582913e-01 +9.75383744e-02 +3.75252843e-01 -2.70728379e-01 -2.72105396e-01 +7.99722791e-01 +1.26457143e+00 -1.65705770e-01 +2.47976765e-01 +4.37697083e-01 +7.94886589e-01 +1.11972928e+00 -8.00274253e-01 +1.22760248e+00 +4.75475132e-01 +1.29897153e+00 +3.31872851e-01 -7.73378789e-01 +1.38990209e-01 -6.15960956e-01 +1.14408517e+00 -3.00835609e-01 -1.26747417e+00 -6.74571246e-02 +1.01238132e+00 +1.27607867e-01 +4.36841965e-01 -3.05098027e-01 -8.02674890e-01 +1.02631032e+00 -1.32196501e-01 +2.91102976e-01 +1.31115206e-02 -8.74401808e-01 -1.05298173e+00 -4.15429205e-01 +7.89918080e-02 -1.14167535e+00 -8.48813355e-02 -5.36653280e-01 +9.41083252e-01 +7.65290141e-01 -3.95104080e-01 -3.28638367e-02 -2.93991119e-01 -6.77903116e-01 -9.40636992e-01 -3.96933526e-01 +1.43802047e-01 +6.92018420e-02 +5.58382392e-01 +1.26357245e+00 -5.64850390e-01 +1.05089784e+00 +1.20380849e-01 +2.71572232e-01 
#Parameter# /simple-rnn-builder/_13 {8,8} 1025 ZERO_GRAD
+4.62968141e-01 +3.71832788e-01 -1.57393247e-01 +2.78290302e-01 +1.65209979e-01 +8.94841075e-01 -5.10528505e-01 +2.45819092e-01 -6.52227342e-01 -2.07943273e+00 -2.48657707e-02 +4.44274135e-02 -4.15006548e-01 +9.83412206e-01 -6.30649149e-01 -2.01942161e-01 +6.21606827e-01 -1.73887596e-01 -5.38022220e-02 -8.26715305e-02 -7.93437183e-01 -4.94352281e-02 +5.04775524e-01 +8.01172182e-02 +5.48378050e-01 -9.43767548e-01 -6.00632548e-01 -5.37725508e-01 -4.03740048e-01 +9.17750061e-01 +2.98329085e-01 +4.18699265e-01 -7.36899674e-01 +2.99480677e-01 -5.43315113e-01 -3.88293296e-01 -3.14945310e-01 +4.28806812e-01 -2.41673976e-01 -2.10249037e-01 +3.21277648e-01 -9.50092196e-01 -1.02245748e-01 +3.08848321e-01 -2.01537833e-01 -1.55241454e+00 +4.71824944e-01 -1.19320795e-01 +5.36037683e-01 +7.39229381e-01 +4.63450961e-02 +9.39318359e-01 +5.77845752e-01 -3.86256099e-01 -6.31205812e-02 -2.25795344e-01 -1.44190967e-01 -7.79303253e-01 +7.26870418e-01 +5.81911862e-01 +8.93810838e-02 +6.96426630e-01 +1.27972794e+00 +3.09658557e-01 
#Parameter# /simple-rnn-builder/_14 {8} 129 ZERO_GRAD
-3.68709743e-01 -4.31518584e-01 -1.32862341e+00 -8.06302249e-01 +2.42204934e-01 -1.18209481e+00 -6.45699427e-02 -4.94312316e-01 
#Parameter# /simple-rnn-builder/_15 {8,8} 1025 ZERO_GRAD
+8.33197415e-01 +5.72541296e-01 -3.53445001e-02 -1.06805146e+00 +6.45732403e-01 -7.23127648e-02 +9.66104642e-02 +5.71605742e-01 -1.18146852e-01 +7.32040763e-01 -8.45897377e-01 +3.96520160e-02 -1.89948916e-01 -1.21771879e-01 +1.82470119e+00 +7.30797827e-01 -2.00347036e-01 -8.95594358e-02 -1.54173768e+00 -1.65196371e+00 -3.26837867e-01 -4.55955744e-01 +1.35081828e-01 +1.31074870e+00 +9.62011516e-01 +7.80542195e-01 -9.76453602e-01 -1.03478920e+00 -1.40050673e+00 -1.54666066e-01 +9.42484438e-01 +6.20145977e-01 -1.38531852e+00 -5.57392001e-01 +3.68609242e-02 +9.65344131e-01 +3.77789766e-01 +4.32710975e-01 +4.61712211e-01 -7.70982563e-01 +2.81945705e-01 +4.64534871e-02 +6.45839751e-01 -5.13547957e-01 -1.30796623e+00 -4.03431237e-01 -2.89702475e-01 +5.09978294e-01 +7.38571286e-01 +1.33455169e+00 +3.44917238e-01 -1.40876872e-02 -2.41125189e-02 +2.82457769e-01 -3.18856359e-01 -6.81846857e-01 +3.95433933e-01 -3.83798927e-01 -4.30709302e-01 -9.15769935e-01 -1.18926358e+00 -5.13938606e-01 +3.53004187e-01 +1.27062380e+00 
#Parameter# /simple-rnn-builder/_16 {8,8} 1025 ZERO_GRAD
+5.89816630e-01 +5.59119582e-01 -5.13865530e-01 -1.24065697e-01 -1.98764503e-01 -9.84655559e-01 +4.23036844e-01 +6.25112176e-01 -6.07140660e-01 -5.62348545e-01 +1.09770082e-01 -7.67624751e-02 -7.73805022e-01 -6.31077349e-01 +5.86975664e-02 +5.52405298e-01 +3.66892934e-01 +1.56558439e-01 -1.29562080e+00 -5.48872709e-01 +1.78577948e+00 +4.47269157e-02 +3.98070097e-01 -2.62087345e-01 +3.78627367e-02 -1.33519626e+00 +2.81300962e-01 -7.97530770e-01 +1.56574976e+00 +1.46854207e-01 -5.48515022e-01 +5.74800789e-01 -4.40719813e-01 +1.94256499e-01 -2.19866967e+00 +7.48023987e-01 -8.27085674e-01 -5.12011647e-02 +7.86259294e-01 +4.35621530e-01 +2.39711195e-01 +1.57435760e-01 -7.47708619e-01 +4.53537732e-01 -6.84838772e-01 -2.13794559e-01 +3.26060392e-02 -2.07611490e-02 -1.96258396e-01 -4.09419417e-01 +1.16559720e+00 +7.49728024e-01 -6.42289042e-01 +1.93237513e-01 -6.82679534e-01 +2.17620030e-01 -1.98136151e-01 +5.89294285e-02 +8.62208247e-01 -1.60908774e-02 +2.34396532e-01 +2.47431397e-01 -9.40841675e-01 -2.20971063e-01 
