#Parameter# /_0 {1,3,1,16} 769 ZERO_GRAD
+1.02810387e-03 +1.31729785e-02 +1.39844725e-02 -2.30686329e-02 -1.36161502e-02 +5.37396222e-03 -1.24005005e-02 -2.84370948e-02 -2.10150536e-02 -1.09134400e-02 -2.57169697e-02 -1.92759782e-02 +6.27829134e-03 +1.25858327e-02 +8.58909078e-03 +6.26879046e-03 +3.50985443e-03 -1.67568657e-03 +3.58627265e-04 -1.62435621e-02 -1.87096726e-02 +1.04808286e-02 +6.72976999e-03 -1.82632694e-03 +1.55181484e-02 +5.49192587e-03 -7.76647637e-03 -1.27558701e-03 +1.20486207e-02 +1.47875035e-02 -6.32921525e-04 +6.60369266e-03 +8.04519281e-03 +3.04838992e-03 -1.28426859e-02 -1.72837991e-02 +6.32691151e-03 +2.29026045e-04 -5.44175832e-03 -1.51600072e-03 +2.24443302e-02 +2.67713405e-02 +3.27449315e-03 -1.77119370e-03 -4.95540630e-03 +1.07584009e-02 +7.98767712e-03 -6.52639486e-04 
#Parameter# /_1 {1,1,16,1} 257 ZERO_GRAD
+1.84285045e-02 -3.59843182e-03 -3.26344594e-02 -2.97240745e-02 +1.38888648e-02 +7.01272278e-04 -2.38659792e-02 +2.42503290e-03 -2.91113416e-03 +1.84113085e-02 +1.00445226e-02 -2.08103769e-02 -4.10908787e-03 +3.36929485e-02 -4.87385690e-03 +4.05880576e-03 
