#Parameter# /_1 {1,8} 129 ZERO_GRAD
+4.12599603e-03 +9.36944387e-04 -2.08620122e-03 -1.17319613e-03 +1.26456411e-03 -1.16110605e-03 +3.13057168e-03 -2.55425926e-04 
#Parameter# /_2 {1} 17 ZERO_GRAD
-8.94116703e-03 
#Parameter# /simple-rnn-builder/_0 {8,320} 40961 ZERO_GRAD
+5.65420128e-02 +1.43412814e-01 -1.15086161e-01 -6.46703690e-02 -5.21768965e-02 +8.28677788e-02 +5.90305552e-02 -4.02451120e-02 +7.50835389e-02 -3.02355569e-02 +9.56835821e-02 -1.82393163e-01 -1.46315126e-02 -1.37353003e-01 -2.02648386e-01 +9.39344242e-03 +8.00815597e-03 +1.08910576e-02 -9.41659734e-02 +3.32134888e-02 -6.75205002e-03 -7.83472583e-02 -1.42705917e-01 -1.56730600e-02 -8.97915140e-02 -3.51844244e-02 -8.65549073e-02 -9.69163030e-02 -8.32846910e-02 +1.36095351e-02 -1.42307460e-01 +1.19324297e-01 +8.18488151e-02 -5.20905592e-02 -1.29125521e-01 -9.21328366e-02 -8.60192329e-02 -1.45617411e-01 -1.63614690e-01 -2.19991636e-02 +4.53441171e-03 +4.38001007e-02 -1.79977208e-01 -6.05697483e-02 +1.85015678e-01 +2.01545522e-01 -3.04923981e-01 -1.92556724e-01 +1.29281878e-01 -9.14904848e-03 -9.23151523e-02 +1.36826038e-02 +5.27487099e-02 +7.91142061e-02 +4.91616428e-02 -7.17867613e-02 -2.64046788e-01 +4.83785830e-02 +1.18740045e-01 -3.65186110e-02 +1.27021492e-01 -8.78399014e-02 -1.50591224e-01 +1.15018107e-01 -6.46065176e-02 -1.31407291e-01 +1.04370750e-02 +1.17646143e-01 -7.81423748e-02 +9.86500233e-02 +1.00098833e-01 +6.84986413e-02 -4.21060659e-02 +1.34246781e-01 +9.61995944e-02 +4.30852349e-04 +1.24423601e-01 -7.33395666e-02 -5.98185025e-02 -4.40506861e-02 -2.13709809e-02 -1.30382955e-01 +3.18937562e-02 +4.28825989e-03 +3.24729830e-02 -1.87674314e-01 -6.30475506e-02 -6.68528974e-02 -2.18381822e-01 +4.70786802e-02 +1.82097673e-01 +1.75533310e-01 +1.59821510e-01 +1.11674862e-02 +1.33235991e-01 +1.07664578e-01 -4.08784933e-02 +1.36205927e-01 -1.25564545e-01 +2.22543478e-02 +1.84015110e-01 +2.35951017e-03 -6.01609200e-02 +3.37898247e-02 +4.67566848e-02 -9.01299343e-02 +3.34447362e-02 +9.25652012e-02 +4.37632538e-02 +1.09396465e-01 -1.11734115e-01 -1.45731270e-01 +9.08327699e-02 -1.33959815e-01 -1.27948731e-01 -4.79589356e-03 +1.14696182e-01 +1.79159626e-01 -5.14960550e-02 +2.51735952e-02 -1.35303885e-01 -4.83689010e-02 -1.06525540e-01 -2.94018462e-02 +1.88430604e-02 -8.43336657e-02 +1.18585639e-01 +7.72634055e-03 -1.72393337e-01 -1.51441768e-01 -2.21061986e-02 -2.96577252e-02 -7.13165626e-02 +4.74411473e-02 -1.21261373e-01 +3.33071710e-03 -3.83153856e-02 -2.27298707e-01 -5.00044115e-02 -4.56758514e-02 +1.07144020e-01 -1.67770553e-02 +1.29452839e-01 +5.74789420e-02 -5.70841581e-02 -1.36363298e-01 -1.50749177e-01 -7.86886290e-02 -8.18532854e-02 -7.23211616e-02 +4.50649997e-03 -5.08935675e-02 -8.35143253e-02 -7.59032816e-02 -1.70456529e-01 +6.95651248e-02 +2.25562215e-01 +6.34156391e-02 -3.83325666e-02 +5.91227897e-02 -1.44342825e-01 -2.70893812e-01 +7.05099180e-02 +5.15359491e-02 +1.34566575e-01 +7.99735449e-03 +3.72769833e-02 +9.34563503e-02 -1.10819347e-01 -3.08302224e-01 +3.36004025e-03 -8.71904343e-02 -5.69414422e-02 -4.70544845e-02 -2.25981772e-02 +2.91185938e-02 +9.21766683e-02 -1.61590099e-01 -1.76084787e-01 -5.54286353e-02 +1.34043917e-01 +1.03246048e-01 +2.29898654e-02 +5.23784086e-02 -3.81302647e-02 -1.45991743e-01 -8.74553109e-04 -1.42149329e-01 +9.11827832e-02 -2.69896798e-02 -3.54580693e-02 -1.32754445e-01 +5.20107374e-02 -2.70343542e-01 +5.66781685e-02 +5.01978304e-03 +6.18145615e-02 -1.09591998e-01 +1.37145907e-01 +1.09146491e-01 -1.12827405e-01 -2.40880936e-01 -1.52474865e-01 +3.60348038e-02 +2.15531811e-01 -1.96936548e-01 +2.96160989e-02 +9.05912668e-02 -3.41420025e-02 -1.67680904e-01 -7.66335381e-03 -9.39256176e-02 -1.32472962e-01 -7.77254924e-02 -5.86196743e-02 -4.04591747e-02 -1.41481264e-02 -1.66107547e-02 +1.40882567e-01 +5.25358990e-02 -1.91240720e-02 +8.13880265e-02 +9.35291424e-02 -1.76792368e-01 -4.69502956e-02 -8.67101327e-02 -3.25352065e-02 +6.51653484e-02 +2.04320010e-02 +8.80985558e-02 -2.69026998e-02 +1.77719668e-02 -5.75342327e-02 -1.37522802e-01 +3.86844538e-02 -8.56910795e-02 +1.60376742e-01 +4.96534407e-02 -4.22047861e-02 +6.86262548e-02 -1.04566596e-01 -7.39246011e-02 +8.56773648e-03 +1.31104335e-01 +8.35485905e-02 +1.76122058e-02 -6.74882531e-02 +2.70251185e-02 -8.18444416e-02 -1.12452097e-02 -3.20222415e-02 +8.97417441e-02 +8.00080746e-02 +3.89384329e-02 -3.46601196e-02 +3.83369848e-02 +1.09937951e-01 -4.84318882e-02 -7.18394220e-02 +5.58483377e-02 +1.12977758e-01 +9.93010178e-02 -2.56966427e-02 +1.06379814e-01 +1.19285278e-01 +3.65344025e-02 +4.44911508e-04 +3.78571562e-02 -5.47898561e-02 +8.84271488e-02 +4.04832400e-02 +1.09575175e-01 -3.16685326e-02 +1.50609702e-01 -1.62458822e-01 -7.60181993e-03 -4.39493656e-02 +3.75032052e-02 +1.17843896e-01 -8.04875493e-02 -4.77375723e-02 +8.47660154e-02 -1.47882476e-03 +1.40271693e-01 -1.15209863e-01 -1.29695103e-01 +9.08131301e-02 +6.92196265e-02 +1.04530990e-01 -2.13078693e-01 +6.18188381e-02 +1.46140650e-01 +1.21954247e-01 -1.94744810e-01 +1.67364731e-01 +6.41282201e-02 -1.63851157e-01 -1.48963436e-01 -2.37582475e-01 -2.28190776e-02 +5.32922782e-02 -1.08396403e-01 -1.19541608e-01 +9.52233002e-02 -1.05066195e-01 -1.91476736e-02 -1.67082518e-01 +5.43490946e-02 -4.04111110e-02 -5.60245775e-02 +1.76872030e-01 -1.01237863e-01 -1.32296216e-02 +1.32863477e-01 +3.89081538e-02 +3.12518217e-02 +3.17519978e-02 +2.48967648e-01 +2.43449494e-01 +2.40202006e-02 -8.97958428e-02 -2.13660136e-01 +9.55319323e-04 +1.49517372e-01 +6.80564120e-02 +2.15703338e-01 -2.54923254e-02 +2.49007955e-01 +4.20622900e-02 -2.96787973e-02 +1.27224606e-02 +1.15137184e-02 -4.56962436e-02 -5.14392592e-02 +1.69851072e-02 +4.28507403e-02 -1.37681544e-01 -3.28894071e-02 -1.58353284e-01 -5.62056452e-02 -9.38564986e-02 -5.59030846e-02 -4.83782813e-02 -1.38200790e-01 -2.72329152e-02 -1.62480250e-01 -1.30414907e-02 +7.89174214e-02 +1.31493425e-02 +3.20049413e-02 +2.81788968e-03 +1.58421978e-01 +2.52489418e-01 +1.00288510e-01 +1.53258420e-03 -2.53024064e-02 -1.45789646e-02 +2.07190007e-01 +3.15327197e-02 +2.08382204e-01 +8.31456482e-02 -1.57364216e-02 -1.18318252e-01 -8.13718587e-02 -1.81424066e-01 -1.71759538e-02 +2.55203933e-01 +1.28742859e-01 +1.11249126e-02 +1.48045361e-01 +1.60605758e-01 +1.41129568e-01 -6.68460652e-02 -9.20291916e-02 +3.65510210e-02 +6.06175745e-03 -5.77684790e-02 +1.98318869e-01 +1.84582129e-01 +1.70170635e-01 -1.07580513e-01 -1.25473529e-01 -2.04476900e-02 -7.41926953e-02 -1.17396757e-01 +4.71643358e-03 +6.41230168e-03 +1.46733910e-01 -9.30542350e-02 +7.14603439e-02 +1.72037736e-01 -6.50551692e-02 -1.33935511e-01 -3.53091629e-03 +9.27572027e-02 -1.02937020e-01 -1.41627833e-01 +5.67619689e-02 +1.09225109e-01 -5.94181493e-02 +1.14568017e-01 -1.39167905e-01 +8.00243095e-02 -2.83848513e-02 -5.49481772e-02 +3.26963179e-02 -1.07027099e-01 -4.83658724e-02 +1.07173227e-01 -1.64293140e-01 -5.35352044e-02 -5.59340678e-02 -1.33420322e-02 +2.00620651e-01 +3.55906114e-02 -8.43794718e-02 +1.58587284e-02 +9.34322923e-02 +8.55474472e-02 -1.82994213e-02 +2.92009041e-02 -4.01160903e-02 +9.37057212e-02 -3.38575803e-02 +2.71963840e-03 +3.91838746e-03 +7.77021348e-02 -1.14093861e-02 +3.22433598e-02 -1.10076271e-01 +8.89697000e-02 -6.79688081e-02 +4.71148677e-02 +3.33651043e-02 -6.44585118e-02 +7.60940239e-02 -1.41023502e-01 -1.55006513e-01 -1.52911335e-01 +7.12586567e-02 -2.16414221e-02 +4.58954796e-02 +1.38459206e-01 +1.27894893e-01 -1.79976709e-02 -2.84097139e-02 +1.22618623e-01 -1.43019937e-03 +1.70241762e-02 +1.14039101e-01 +1.34773120e-01 -1.18677393e-01 +1.26750499e-01 +1.65732335e-02 -1.55896157e-01 +9.49042663e-03 +1.50224835e-01 -2.26929486e-02 +1.57590419e-01 -1.43457413e-01 -1.62798300e-01 +2.91549377e-02 -2.19478250e-01 +1.41207501e-01 -6.58025667e-02 -2.78623849e-01 +1.89620644e-01 +3.20311524e-02 -1.59184828e-01 +3.19386534e-02 +7.55516887e-02 -7.07649887e-02 +3.77908647e-02 -4.26876880e-02 +1.79225265e-03 +8.99630934e-02 -4.85239699e-02 +8.78478810e-02 -8.58726166e-03 +1.93922706e-02 +1.36950582e-01 +2.38682739e-02 +1.03574835e-01 +1.90001298e-02 -3.58440131e-02 -8.77089351e-02 -4.25791778e-02 +1.27291501e-01 +2.96558719e-02 -1.53348252e-01 -4.96603288e-02 -8.89433473e-02 -2.22269416e-01 +9.74923745e-03 +8.96854233e-03 -5.91571964e-02 -6.78032488e-02 -2.44536266e-01 -1.74332216e-01 -2.37107635e-01 -9.01364814e-03 +1.29331937e-02 -1.84365530e-02 -1.56120658e-01 +1.00613251e-01 -1.23039663e-01 +2.03869760e-01 -5.45594320e-02 -1.41821608e-01 -1.57066911e-01 +6.17778823e-02 -1.33480594e-01 +3.15256678e-02 -9.02104899e-02 +5.01928329e-02 +9.07939766e-03 +3.30861509e-02 -1.21737048e-01 -8.36013875e-04 +7.32047483e-02 -2.76385453e-02 -1.08522386e-03 +1.32577449e-01 -7.88587332e-02 -1.85451172e-02 +1.54668033e-01 +4.63811457e-02 -1.74919274e-02 +3.29523645e-02 -1.64887726e-01 +1.01740465e-01 +1.78188398e-01 +7.88424760e-02 +8.41090381e-02 -1.18827961e-01 -1.31550267e-01 +1.99477434e-01 -6.38405681e-02 -3.65712009e-02 +1.44741416e-01 +1.25654116e-01 -4.85022701e-02 -9.36395675e-02 -1.03835836e-01 +1.28734350e-01 -1.56336978e-01 +9.65881944e-02 +1.02752090e-01 -3.43858674e-02 +1.85722277e-01 +1.21651433e-01 +1.52806528e-02 -7.62420967e-02 -2.80144624e-02 +1.46877855e-01 -6.62795827e-02 -5.67595428e-03 +1.29719317e-01 -8.69712234e-02 -1.08101569e-01 +1.33318126e-01 -2.12260336e-01 -6.89256415e-02 +2.89267041e-02 -2.49972150e-01 -1.50918931e-01 -2.20247973e-02 +1.37068629e-01 -7.01516792e-02 +7.99418390e-02 -2.06763491e-01 +1.18681394e-01 +4.97200787e-02 +1.08213224e-01 -1.71618000e-01 -3.96526866e-02 +2.03007340e-01 -3.49936821e-02 -2.86570610e-03 +2.44280184e-03 -2.01311663e-01 -5.31577505e-04 -3.84309851e-02 -6.87100813e-02 -9.89309326e-02 -1.23779722e-01 +1.10904410e-01 -3.90130766e-02 +2.83618271e-02 +6.73075244e-02 -1.67735163e-02 -1.91997401e-02 -3.90557386e-02 -2.03263536e-01 -5.36303520e-02 -9.19155404e-02 -2.50093285e-02 +2.05684423e-01 +4.59698662e-02 -5.84534369e-03 +1.25134960e-01 +1.10853910e-01 +1.60189196e-01 -3.33744497e-03 +4.35648598e-02 +1.15453131e-01 -1.17570318e-01 +1.18150888e-02 -9.39401612e-03 +5.89603633e-02 +6.14865273e-02 +3.01630348e-02 -6.16012253e-02 +1.37543544e-01 -1.37185454e-01 -1.05965465e-01 -1.04820348e-01 +5.80233075e-02 +3.51877436e-02 -3.54647860e-02 -6.16446361e-02 -4.67360765e-02 +8.79010856e-02 -1.37484461e-01 -1.91828027e-01 -9.20276865e-02 -5.72946519e-02 -1.86925493e-02 +3.59591432e-02 -5.75275114e-03 +1.11549255e-02 +1.92130003e-02 +1.29645690e-01 -1.03277722e-02 +9.80625153e-02 +1.59345269e-01 -1.44138023e-01 +2.33144775e-01 +9.50651169e-02 +1.14749424e-01 +2.61385720e-02 +1.11541033e-01 +2.67554168e-02 -5.72353862e-02 -1.74165234e-01 +1.66920319e-01 +7.47418106e-02 +1.04374804e-01 -2.24538714e-01 -1.29656211e-01 -7.40474910e-02 +2.48471112e-03 +2.49636155e-02 +2.79117958e-03 -9.09252092e-03 +5.96674755e-02 -1.38089895e-01 +1.31047100e-01 +6.57087564e-02 -9.11007226e-02 -2.76835531e-01 +3.88521589e-02 -8.06263182e-03 +1.32691488e-02 -6.83060661e-02 +2.18390618e-02 +8.95666629e-02 -1.63794383e-02 -1.20144606e-01 +1.26038104e-01 -4.23055934e-03 -1.87972918e-01 +1.20768212e-01 -1.97773278e-01 -1.26822278e-01 -9.59211066e-02 +1.16891630e-01 +2.47877792e-01 +3.08599547e-02 +7.55179226e-02 -8.33922848e-02 +3.44351083e-02 +9.97365732e-03 -1.09751828e-01 -7.31086582e-02 +2.24994309e-02 +5.06700948e-02 -1.03141658e-01 -1.46572545e-01 -5.10611571e-02 -1.93170086e-01 -9.03773680e-02 -5.43462187e-02 -2.57493891e-02 -2.44613424e-01 -3.42518687e-02 -9.03594345e-02 -1.62274584e-01 -2.18924388e-01 +1.90552939e-02 -1.61019579e-01 +1.27527326e-01 -1.75237030e-01 -2.07759347e-02 -2.39339888e-01 +4.06941622e-02 +3.37857418e-02 -1.01250000e-01 -4.56054546e-02 -7.49799535e-02 -1.72534287e-01 -2.65381820e-02 -1.53957233e-01 +7.45307654e-02 -3.41202989e-02 -1.65632293e-01 +3.99436690e-02 -2.46397648e-02 +1.04206331e-01 +5.54708354e-02 -1.93621796e-02 -1.95545256e-02 +1.88439165e-03 -9.51891020e-02 +5.79594113e-02 -2.02970728e-02 +1.28160208e-01 +3.33967097e-02 +1.09530392e-03 +4.84467112e-02 +6.94812313e-02 +3.55356634e-02 +8.11600760e-02 -5.17169684e-02 +4.65174653e-02 -5.18321656e-02 -9.56444442e-02 +3.35827544e-02 -1.72589675e-01 -7.75642768e-02 -8.85245577e-02 -2.27769744e-02 +1.07484842e-02 -1.42506257e-01 -3.49425711e-02 -8.72725099e-02 -2.42955402e-01 -4.54393588e-02 -1.03829540e-01 +7.92095438e-02 -9.08376500e-02 -1.75757691e-01 -9.77215171e-02 +7.38404691e-02 -4.48888876e-02 +4.56651859e-02 +2.11282417e-01 -1.52395023e-02 -1.44438148e-01 -7.29068741e-02 -2.21480546e-03 +1.00882649e-01 -2.24381443e-02 -1.92135751e-01 +1.65110618e-01 -5.34085967e-02 -3.42550650e-02 -5.08034565e-02 -9.55241024e-02 +3.37753333e-02 +1.99957215e-03 -9.37206000e-02 +4.47408743e-02 -5.87270744e-02 +2.42655221e-02 -7.36796930e-02 -2.27469847e-01 +9.82523188e-02 -2.13810533e-01 -1.56369388e-01 -1.23228736e-01 +1.17615432e-01 +2.20130272e-02 +2.24692691e-02 +1.10941507e-01 -1.44432470e-01 -2.89857179e-01 -2.59360801e-02 +8.90168175e-02 +2.80332342e-02 +6.29332811e-02 +9.27497596e-02 -8.49920884e-02 -1.04660280e-01 -1.35832861e-01 +4.25666980e-02 +2.38415614e-01 +1.21863171e-01 -7.22487941e-02 -2.21738219e-03 +9.13993046e-02 +6.03559464e-02 -1.89094931e-01 -1.24553226e-01 -8.73484742e-03 -2.44518220e-02 +3.35422754e-02 -1.61907613e-01 +9.56552029e-02 +1.79540157e-01 -1.46850109e-01 +4.96022776e-02 +1.71187356e-01 -1.01126723e-01 +1.77103058e-02 +3.19890715e-02 +3.03139612e-02 -1.17853202e-03 +3.17968577e-02 -7.20693693e-02 +1.46515206e-01 -8.65644589e-02 -8.41584429e-02 -2.07545042e-01 +1.85312815e-02 +3.41988988e-02 -1.94603637e-01 -1.90453410e-01 +1.28227519e-02 -2.12552436e-02 +1.56857580e-01 -5.31936809e-02 -7.96092451e-02 -5.47132343e-02 -8.42966139e-02 -3.29639539e-02 +1.91297993e-01 -5.93478121e-02 -1.87198818e-01 -1.57848582e-01 -6.58892766e-02 +1.73970193e-01 -1.49157345e-01 +2.41721943e-02 +1.46606594e-01 -1.91322997e-01 +7.54716545e-02 -1.96122052e-03 +9.83272791e-02 +3.31917219e-02 -5.55309989e-02 -1.60023794e-01 -1.11195616e-01 -1.15779608e-01 -5.98400943e-02 -9.51450411e-03 +5.26701845e-02 +3.52763683e-02 +8.21342319e-02 -9.64353047e-03 +3.61506827e-02 +1.52357846e-01 -3.25766839e-02 +4.94492240e-02 +1.30771890e-01 -2.01386423e-03 -1.67704657e-01 +1.75275296e-01 -3.04126479e-02 -2.07932115e-01 +1.94580644e-01 -2.91994493e-02 +8.03600326e-02 -8.47787969e-03 +9.04719457e-02 +4.30387724e-03 +1.11407518e-01 -6.39314353e-02 +2.37732995e-02 -2.49907188e-02 +1.97034299e-01 +5.55338757e-03 +2.45260820e-02 -1.44269735e-01 +1.24214739e-02 -1.63896516e-01 -3.97938527e-02 +5.04394658e-02 -1.37952164e-01 +2.44672652e-02 +4.68503358e-03 -1.06488556e-01 -9.42762792e-02 -2.86244676e-02 -9.63949263e-02 +5.09724068e-03 -5.22284443e-03 -2.77322233e-02 -8.66956078e-03 -4.43971669e-03 -6.14654198e-02 +4.73556854e-02 -1.06102787e-01 +6.51843026e-02 +2.43485913e-01 +2.00093910e-01 +2.06595119e-02 -6.31161556e-02 +1.87081888e-01 -9.83825251e-02 +3.75392139e-02 -1.93183813e-02 +2.31814217e-02 +1.00468323e-01 -1.19271703e-01 -7.79257864e-02 +6.55455841e-03 -9.51285437e-02 +1.11859486e-01 +6.00626804e-02 +1.02244951e-01 +1.14917137e-01 +3.19711603e-02 +8.10442790e-02 -5.26611954e-02 -3.36427353e-02 -7.04242587e-02 -8.76351222e-02 -8.20471942e-02 -1.25702307e-01 +1.40974313e-01 +2.80624963e-02 -1.83556285e-02 -6.13403097e-02 +6.77291453e-02 +1.27962768e-01 -6.47861212e-02 -1.74047306e-01 +8.34009871e-02 -1.29470319e-01 -3.22280452e-02 -1.29801985e-02 +2.31834352e-01 -2.89852787e-02 +1.86057076e-01 +5.81484549e-02 -1.36742666e-01 -1.01291992e-01 -3.01384460e-02 -5.28055392e-02 -2.44719200e-02 -1.95810311e-02 +1.04404569e-01 -9.71133485e-02 +1.09353825e-01 +1.78315733e-02 +2.88996492e-02 -1.85846761e-01 +9.85092483e-03 -1.59530357e-01 +1.45887792e-01 -1.14995493e-02 +4.53513004e-02 +8.86864215e-02 -1.18283026e-01 -1.47252068e-01 -4.99150902e-03 -1.50701003e-02 -3.47162560e-02 -1.35802582e-01 +6.68204129e-02 +3.61644663e-02 -8.91972333e-02 -7.24105686e-02 +9.85568985e-02 -1.66446797e-03 -1.12565354e-01 +7.64117911e-02 +8.88795927e-02 +6.93625957e-02 -1.87129248e-02 -9.33501944e-02 +2.06955783e-02 +1.52003482e-01 +1.70551270e-01 -8.60212147e-02 +9.57564116e-02 +3.66324261e-02 -1.28149092e-01 +7.60854185e-02 +2.07477167e-01 -3.32860276e-02 -2.02565175e-02 +1.87763311e-02 +1.77161917e-01 -1.87276483e-01 -1.25589401e-01 -1.04705608e-02 +1.45324349e-01 -1.90607496e-02 +4.75616045e-02 +1.56077296e-01 +7.95577168e-02 +1.23875581e-01 -9.21537578e-02 +1.01965472e-01 -7.39203617e-02 +5.20479791e-02 +1.37132332e-01 +5.97538576e-02 +2.16332540e-01 +4.37899865e-02 -2.28971001e-02 +2.16759846e-01 +6.14513867e-02 -8.09963718e-02 +9.63661000e-02 +2.94695236e-02 +1.90006167e-01 -1.93256289e-02 -1.21022142e-01 +1.19789531e-02 +1.17372274e-01 +1.03494413e-02 -1.69657782e-01 +2.12128665e-02 -1.81893744e-02 -9.51294526e-02 -7.07891658e-02 -2.27622762e-02 +1.74279943e-01 -1.93014994e-01 -4.24980223e-02 -1.43537506e-01 -1.25108719e-01 -6.72541931e-02 -2.09862608e-02 -8.19066763e-02 +1.72863379e-01 -6.81213960e-02 -5.23811057e-02 -4.02637906e-02 +6.27225712e-02 +1.63169041e-01 -1.62311286e-01 +7.40852281e-02 +1.59589306e-01 -3.25804725e-02 -3.50259207e-02 +1.07718900e-01 +3.64241786e-02 -1.79272909e-02 -1.42772526e-01 -7.04099238e-02 +9.66607705e-02 -1.68631971e-01 -7.31151104e-02 -3.90146375e-02 -4.42228429e-02 -5.39338961e-03 -9.57852751e-02 -6.54707253e-02 +2.44201154e-01 -3.18876132e-02 -1.42028391e-01 +1.15574216e-02 -3.55947274e-03 +1.61192939e-01 -8.79616477e-03 -2.43374016e-02 +1.38761476e-01 -1.23388723e-01 -3.48447599e-02 +1.31518707e-01 +1.45883486e-01 +4.17957157e-02 -5.32584749e-02 -4.87133563e-02 -1.96508933e-02 +4.00616489e-02 -5.70761552e-03 -7.16388449e-02 +2.34916899e-02 -4.37761620e-02 -1.87801301e-01 -2.22508505e-01 +2.81678922e-02 -4.26297411e-02 +4.74200249e-02 +2.27472335e-02 -3.33629809e-02 +9.00774077e-03 -6.14208877e-02 -1.05475098e-01 +3.19177806e-02 -1.35188043e-01 -1.48776412e-01 +3.74372154e-02 +4.61685918e-02 -2.15570748e-01 -1.23609252e-01 -1.16205953e-01 -1.00952961e-01 -5.18102497e-02 +7.75853265e-03 +2.06972897e-01 +1.18221957e-02 +8.87082890e-02 -1.31337315e-01 +5.26732877e-02 -8.30000117e-02 +8.00208151e-02 -1.07854374e-01 +2.96366811e-01 +7.68221766e-02 -6.14308454e-02 -7.10805459e-03 -6.52570203e-02 +4.37748022e-02 +1.48337901e-01 -1.32439762e-01 +1.94416523e-01 +2.82326162e-01 +7.80343339e-02 -8.33107680e-02 -2.90007573e-02 +1.60316497e-01 -6.44743517e-02 -8.50036815e-02 +4.13562581e-02 -6.91818818e-02 +1.49725243e-01 -1.80550724e-01 -1.13515437e-01 +1.43343896e-01 -1.21978700e-01 +2.35539284e-02 +1.08760856e-01 +5.59797511e-03 +1.36854529e-01 -2.94396542e-02 -1.32875919e-01 -8.13640654e-02 +3.44504490e-02 +5.94190359e-02 +3.98594514e-02 +9.07622203e-02 +1.40355781e-01 +1.04289584e-01 -5.67861227e-03 -4.87409346e-02 -9.09161568e-03 -2.49080360e-03 +1.81331083e-01 -6.86618909e-02 +6.39320612e-02 +1.09622784e-01 -1.10323265e-01 +2.12569274e-02 +4.76953462e-02 -9.03946236e-02 +1.19751796e-01 -2.07143482e-02 -4.29387353e-02 -8.16022754e-02 -2.71925747e-01 +8.27930793e-02 +1.54931784e-01 -6.11109212e-02 -6.74999431e-02 -2.12762300e-02 +1.24983534e-01 -8.45714957e-02 -4.05440740e-02 +1.54309034e-01 -9.38609615e-03 -8.02180991e-02 -1.85815860e-02 -4.90821600e-02 +2.36173376e-01 +7.71080330e-02 -2.56977603e-02 +6.94712996e-02 -4.65371497e-02 +1.09176710e-01 +6.15033507e-03 -9.93708968e-02 +1.97216973e-01 +1.21074282e-01 -2.12639347e-01 +2.51321997e-02 +5.90549521e-02 +9.53893512e-02 +1.11259170e-01 +5.83111355e-03 -3.53070199e-02 -9.18182731e-03 +3.13636623e-02 -1.03902973e-01 +2.83386093e-02 -4.14207578e-02 +1.45750910e-01 +3.48226279e-02 -8.53661671e-02 +1.32654965e-01 +5.52001642e-03 -1.29840206e-02 -1.03744112e-01 -1.69100910e-02 +2.15518758e-01 +9.24006179e-02 +7.87720457e-02 +7.03346878e-02 -6.90414235e-02 -1.07571155e-01 +6.74256235e-02 +7.13516250e-02 +6.93442598e-02 +3.44432332e-02 -1.34950399e-01 +7.62624666e-02 -1.56613871e-01 -6.76820055e-02 +1.68334439e-01 +2.31168449e-01 +5.90862371e-02 +3.81338038e-02 -1.33651644e-01 -5.60669811e-04 -8.91103819e-02 -1.18412711e-01 -7.65774995e-02 +8.84993300e-02 -7.44828070e-03 +3.77992056e-02 +2.72333864e-02 -2.68615484e-02 +1.40805095e-02 +3.06045040e-02 +5.26777431e-02 -7.44349658e-02 +5.16881794e-02 +1.04882509e-01 +1.96704224e-01 +1.13208987e-01 +4.42708023e-02 -5.48299588e-02 +4.51851217e-03 -4.19803634e-02 +3.57362740e-02 +8.74019042e-02 -1.01162642e-01 +1.34235531e-01 -2.08370155e-03 -2.61580739e-02 -2.31075985e-03 +2.56747417e-02 -2.04307660e-02 -1.39058784e-01 -1.26969323e-01 +2.10264653e-01 +8.82318243e-02 -1.68587729e-01 -2.71336287e-02 -8.63594189e-02 +9.54477191e-02 +1.32872194e-01 +4.84367236e-02 -2.39312556e-02 +6.24029413e-02 +6.52325228e-02 +8.87138769e-02 +1.82976007e-01 +2.31238957e-02 -1.59025162e-01 -1.00600533e-01 +1.32546891e-02 -8.28072801e-02 -1.18231043e-01 +7.34226480e-02 +2.06398442e-01 -3.34976837e-02 +9.88026336e-02 -2.31753718e-02 -2.85177343e-02 +8.86286888e-03 -1.91008504e-02 +8.39768201e-02 +1.26927763e-01 +2.59094080e-03 +7.24005923e-02 -1.42776892e-01 +1.23429239e-01 -1.61572255e-03 +1.27976099e-02 +1.10902615e-01 +2.09149197e-01 -9.65622440e-02 -9.00372490e-02 +1.19075567e-01 -7.07455575e-02 +1.75725669e-01 -2.84178536e-02 -3.13708819e-02 +8.25503841e-02 -8.74239281e-02 -2.00083211e-01 -5.34620360e-02 -6.97033852e-02 +1.12151563e-01 +2.40711812e-02 -7.16692582e-02 +1.69365957e-01 +9.11647603e-02 +1.54234245e-01 -2.08722092e-02 +1.35731578e-01 -3.36201563e-02 +8.11840743e-02 -8.79297592e-03 -3.98399606e-02 -9.98344794e-02 +6.15856051e-02 +1.80325374e-01 -3.89598198e-02 +3.70543562e-02 -3.41978110e-02 -1.38906851e-01 +2.35477537e-01 +4.46807109e-02 -2.25634038e-01 -2.52476148e-02 +4.76847626e-02 +1.02907680e-01 +7.68312141e-02 -7.10595474e-02 -4.71639000e-02 +7.95482378e-03 +1.49035677e-01 -4.62387875e-02 -2.82027032e-02 +6.31998479e-02 -2.46662512e-01 +5.22723123e-02 +1.45794079e-03 -8.95191804e-02 +1.05330557e-01 -1.87861666e-01 -8.24566279e-03 +3.28977734e-01 +2.78884955e-02 -9.74698737e-02 +2.92815983e-01 -6.68783486e-02 -5.86594315e-03 +1.67372823e-01 -3.61110382e-02 +7.86251649e-02 +5.89999035e-02 +4.71494831e-02 +1.50297135e-01 -1.52234435e-01 -1.09453730e-01 +5.63954562e-02 +2.82962117e-02 +4.91289906e-02 -3.64554767e-03 +2.73129139e-02 -7.45715052e-02 -1.19740225e-01 +6.44357651e-02 -1.21276937e-01 -3.36017236e-02 +9.10421535e-02 +7.41883740e-02 +2.46610008e-02 -4.02043276e-02 -6.62225261e-02 -1.30688637e-01 -1.64755538e-01 -9.73214135e-02 -5.33075109e-02 -1.16218209e-01 +1.74494945e-02 +7.90021941e-02 +1.64296061e-01 +1.80967897e-01 +7.63152838e-02 -1.15185603e-02 +1.27784103e-01 -1.18003143e-02 +1.52099028e-01 +6.96301237e-02 -8.40365980e-03 +2.33492702e-01 -1.22953594e-01 +5.14333099e-02 +1.10558206e-02 -1.66231133e-02 -3.29064094e-02 +1.03387669e-01 -6.11549430e-03 +1.43457010e-01 -1.49043083e-01 +1.47078976e-01 +1.04156667e-02 +1.03694752e-01 -1.27455086e-01 +1.42561227e-01 +1.69020414e-01 +1.29098129e-02 +3.97945568e-02 -7.73683861e-02 +9.96545032e-02 +7.00894967e-02 -9.80044156e-03 +4.85832579e-02 -2.06556823e-02 +1.50030240e-01 -6.95481002e-02 -1.16931228e-02 +1.82958260e-01 +1.17879309e-01 +1.48455441e-01 -1.22391507e-01 -2.80993432e-01 +1.90309003e-01 +1.08744048e-01 +1.00897163e-01 +8.04092214e-02 +3.12131997e-02 -1.88358221e-03 +6.18749708e-02 -1.50888011e-01 +2.36148536e-01 -6.13696426e-02 +1.95754826e-01 -1.70538038e-01 +4.23224717e-02 -1.50256762e-02 -5.86701632e-02 -1.66940168e-01 -5.62323183e-02 -9.42506492e-02 +1.53565928e-01 -3.80035378e-02 -7.50689507e-02 +1.42177790e-01 +6.66385069e-02 -5.72512560e-02 +3.21693458e-02 -1.95192412e-01 -1.42263053e-02 -7.17244819e-02 +1.88013457e-03 +1.16159273e-02 +2.26410195e-01 -1.01487644e-01 +5.46697490e-02 -3.45036462e-02 +1.63213655e-01 +4.79512103e-02 -4.37536351e-02 -2.92348396e-02 +9.42226425e-02 -1.58548743e-01 +1.12967156e-01 -5.80878779e-02 +1.30017817e-01 -1.41802609e-01 +8.81780311e-02 +2.85130471e-01 -2.81684920e-02 -4.82096076e-02 -1.01724073e-01 -1.86194003e-01 +2.07457080e-01 -4.08268943e-02 -2.32246146e-02 +2.35130414e-02 -5.22649027e-02 +1.25552893e-01 +2.08709180e-01 +3.06936782e-02 +1.44551724e-01 -2.50944287e-01 -9.81904045e-02 -1.61403611e-01 -1.72194377e-01 -2.22983211e-01 +1.30515188e-01 +1.20779939e-01 +7.13707656e-02 -1.96163028e-01 +8.06407928e-02 +8.50366578e-02 -1.51243493e-01 +1.85423587e-02 +1.54412866e-01 -5.11416830e-02 +9.11506116e-02 -2.98657175e-02 +7.11260829e-03 +4.59680706e-02 +6.36971667e-02 +9.65815559e-02 +8.89859870e-02 -7.47063309e-02 +3.34905535e-01 -4.54147197e-02 -1.98804393e-01 +2.47728173e-03 +6.33965880e-02 -2.73011804e-01 +9.62137058e-02 -1.18997768e-01 +1.06977828e-01 -1.68476596e-01 +1.69916122e-04 -1.22859120e-01 -1.21986702e-01 +4.73921746e-02 +1.09855950e-01 -8.00627172e-02 -6.44743592e-02 -2.92191189e-02 +5.31139448e-02 +1.49780899e-01 +4.61007506e-02 +4.87657599e-02 -5.82958609e-02 -1.04216032e-01 +1.75972000e-01 -1.59298703e-01 +1.05091622e-02 +1.02775745e-01 -7.34619647e-02 -2.72899009e-02 -5.96032143e-02 +8.23964551e-03 +6.06404059e-02 +8.67929235e-02 -5.83408438e-02 +5.08642569e-02 -1.30066678e-01 -1.94795772e-01 +3.19173895e-02 +1.36733353e-01 +2.78283358e-02 -2.58280244e-02 -8.79495218e-02 +2.35204194e-02 -1.10795796e-01 +6.33073179e-03 +1.71559043e-02 -4.40026112e-02 +1.31557167e-01 -2.04656184e-01 +7.80532286e-02 -1.05121665e-01 +2.67317276e-02 +1.54527098e-01 -2.09075958e-01 -4.66390252e-02 +1.77775323e-01 -1.61066130e-01 -1.78122923e-01 -4.57679257e-02 +1.80343315e-02 -9.11036506e-02 +5.47330044e-02 +8.90519097e-02 +1.50677981e-02 -6.99855015e-02 -6.80729449e-02 +5.44069149e-02 -3.75580713e-02 +9.49920639e-02 -1.46489725e-01 +3.06365341e-02 +3.40370908e-02 -1.28109679e-02 -9.82881188e-02 +1.59073528e-02 -1.67258650e-01 +5.24523333e-02 -1.87032536e-01 +3.23572978e-02 -5.20181246e-02 -5.41761480e-02 -1.46463308e-02 -9.11746845e-02 -1.20497644e-01 -1.02541111e-01 -1.90714672e-01 -5.12221567e-02 -1.46092125e-03 -1.01473771e-01 +1.01860352e-01 +1.06854334e-01 +1.83860585e-02 -4.00973782e-02 -1.61445811e-01 +1.09345026e-01 +2.65538376e-02 -1.22848712e-01 +5.69855794e-02 +1.35237232e-01 -2.41249442e-01 +1.13901310e-01 +1.65678456e-01 +1.37880147e-01 +1.42424643e-01 -2.30217084e-01 +6.02538884e-02 -6.34672940e-02 +2.62384228e-02 -4.33598273e-02 +1.18676275e-01 +7.96876624e-02 +4.79827337e-02 +8.63586664e-02 +2.12703198e-01 +1.29553556e-01 -6.83585033e-02 +4.97441031e-02 -1.98773332e-02 +1.70207098e-01 -2.02308878e-01 +1.76514506e-01 -5.33274673e-02 -6.28105402e-02 -1.24249838e-01 +5.09243682e-02 -1.82351023e-01 +7.97167071e-04 +2.28944384e-02 -3.58468778e-02 -5.26973456e-02 -4.40098718e-02 -1.70652121e-01 -8.15799311e-02 -1.98156476e-01 -1.06863387e-01 +2.16674030e-01 -1.12324625e-01 +9.74173397e-02 +1.00332238e-01 -1.09935910e-01 -6.03541173e-03 +2.89322082e-02 -1.36646897e-01 -2.87067909e-02 -7.57546425e-02 -3.98194641e-02 +6.16053045e-02 +5.41897677e-02 -1.85093340e-02 +5.71643300e-02 +2.23007947e-01 +5.81414066e-02 -9.42997113e-02 +8.09884667e-02 -1.77876964e-01 +6.61073104e-02 +1.71230652e-03 -9.08836797e-02 +1.10168876e-02 +8.47202316e-02 +3.91180031e-02 -4.65913154e-02 -7.47647360e-02 +1.67310104e-01 -6.55512093e-03 +4.23905849e-02 +5.58185913e-02 +7.77366757e-02 +1.38223633e-01 +1.46888345e-01 +1.65980645e-02 +8.15619305e-02 +5.00845984e-02 -1.45800486e-01 +4.38931584e-02 -7.22396076e-02 +2.03706697e-01 -5.80316707e-02 -1.26282096e-01 -1.12170659e-01 -1.51535064e-01 +1.57287404e-01 +9.55661684e-02 -4.33506779e-02 +1.05909489e-01 +2.05104407e-02 -1.95592418e-02 +4.19239253e-02 -5.83401956e-02 +8.59158561e-02 -1.05071079e-03 -1.79166913e-01 +8.17206874e-02 +1.57055989e-01 -1.12106569e-01 -2.50997022e-02 -4.93638925e-02 -2.77470257e-02 -2.18230993e-01 -3.86950746e-02 +9.29084495e-02 -1.37313418e-02 -5.97808622e-02 -6.40580505e-02 -1.22018911e-01 +3.65726203e-02 -8.33203048e-02 +2.87869573e-02 +3.20106111e-02 +1.40296116e-01 -4.59319092e-02 +1.30531378e-02 -2.17667550e-01 -1.39869928e-01 -8.07964876e-02 -9.37880110e-03 -2.82769911e-02 -2.83265281e-02 +4.75745723e-02 -6.95241168e-02 -1.85906217e-01 +6.19869865e-02 +7.37802312e-02 -1.12171151e-01 +5.34950495e-02 +4.01509404e-02 -9.13477689e-02 -2.18149513e-01 -6.63490221e-02 +5.42445481e-02 +8.19119141e-02 -3.30653116e-02 +3.05498322e-03 +8.89141634e-02 -5.24915494e-02 +1.98924150e-02 -2.02423304e-01 -1.84651285e-01 -6.20258041e-02 +1.64382562e-01 -4.23007123e-02 -9.31701735e-02 -1.97864193e-02 +1.22919930e-02 +1.17335729e-01 -3.65609489e-02 +9.66573805e-02 -8.64667371e-02 +7.87131563e-02 +2.77055912e-02 +4.49756905e-03 -1.31773073e-02 +3.62330340e-02 -6.76636472e-02 -1.48069143e-01 -8.29000473e-02 +2.35319254e-03 +1.66482031e-01 +1.31585807e-01 -4.69284505e-02 -4.73726317e-02 -2.35070467e-01 -8.37367177e-02 -1.65846884e-01 +3.06447335e-02 -8.49967450e-02 -2.81232279e-02 +1.22280829e-01 +1.30275950e-01 +6.46821111e-02 +1.39746681e-01 -1.54529735e-01 -8.36333856e-02 -3.43991295e-02 +3.86947058e-02 +8.93116593e-02 -9.39102769e-02 +8.53131041e-02 +3.91198583e-02 -2.35880300e-01 -4.49468940e-02 -2.73851678e-02 -5.57449386e-02 -1.41909719e-01 -1.30574360e-01 -1.87877119e-02 +7.07665682e-02 -2.83982288e-02 +8.65358785e-02 +1.07978620e-01 -2.11424176e-02 -9.67999250e-02 -6.98895603e-02 +8.61067846e-02 +2.79339012e-02 +4.31340374e-02 +1.10983588e-01 -6.82658032e-02 -7.92430341e-02 +2.15055093e-01 +1.00825049e-01 -1.87764153e-01 +6.24942817e-02 -1.10224634e-01 +7.79065266e-02 +2.50592409e-03 +3.11236940e-02 -5.67990951e-02 +1.64243624e-01 -4.42385450e-02 +6.93048164e-02 -4.46302146e-02 +2.17826054e-01 +1.10426128e-01 +1.30799919e-01 +5.99522404e-02 -9.13019106e-02 +2.89561301e-02 +2.22388264e-02 -6.86013103e-02 +3.78329083e-02 -5.40994294e-02 -7.02550039e-02 +2.08988175e-01 +4.47404236e-02 -6.03701137e-02 +4.90900502e-03 -3.56980376e-02 +3.11529972e-02 -6.92483485e-02 -1.18031554e-01 -6.08348735e-02 +5.31029552e-02 -1.72958430e-02 -1.08176678e-01 +1.03856646e-01 -4.12469730e-03 +9.54127386e-02 -1.25685424e-01 +8.47788379e-02 +5.21758273e-02 +6.16905205e-02 -1.22651771e-01 +3.26200505e-03 +7.26516917e-03 +1.51290102e-02 -5.72858155e-02 -1.66656256e-01 +1.78391293e-01 +1.37769729e-01 +1.10082053e-01 -3.31312045e-02 -7.77048469e-02 +4.04740348e-02 -1.69759035e-01 -5.87123856e-02 -4.92064394e-02 +2.29472090e-02 +2.66404427e-03 -8.48433003e-02 -2.42899749e-02 -3.82219031e-02 +9.84953493e-02 +1.30041435e-01 +1.33198723e-01 -7.17719495e-02 +9.06464979e-02 -8.79596993e-02 +6.04469813e-02 +2.15075933e-03 -1.05438061e-01 -6.21820763e-02 -1.12153359e-01 -1.35056555e-01 -8.28107521e-02 +9.94988680e-02 -1.29885646e-02 -7.24303052e-02 +9.57491472e-02 -1.14929810e-01 -1.44351542e-01 +9.73710641e-02 -5.03008999e-02 +1.21371314e-01 +9.10674594e-03 -2.65762247e-02 -4.66427617e-02 +5.65057136e-02 +3.93342674e-02 -9.73322093e-02 +2.99281105e-02 -1.40196815e-01 +1.75700739e-01 +7.97203556e-02 -6.49312511e-02 +1.52750790e-01 +3.84518951e-02 -5.91525994e-03 +1.38590381e-01 +7.42340982e-02 +1.29080489e-01 -7.10928962e-02 -5.07570691e-02 -8.05158541e-02 +2.26195753e-01 -5.90809137e-02 +4.17462736e-02 -6.31289110e-02 -1.82006314e-01 -2.19729152e-02 +1.67446192e-02 -1.05031006e-01 +6.40046224e-02 +3.09342053e-02 +1.33561358e-01 +7.00600222e-02 +2.89740823e-02 +1.44947439e-01 +5.28503507e-02 +4.64687757e-02 -1.24230698e-01 +1.34553671e-01 -6.62098303e-02 +1.31032243e-01 +1.65017515e-01 -7.86402076e-02 +3.01150163e-03 +1.83896586e-01 -2.63871383e-02 +6.69727176e-02 +1.76131070e-01 +2.26530563e-02 -6.39162958e-02 +7.77804777e-02 +1.03288770e-01 +8.59064162e-02 -6.86753541e-02 -1.03969067e-01 +1.25913054e-01 +1.53477743e-01 -9.58913751e-03 +1.54008299e-01 -1.06908061e-01 -6.92819878e-02 -1.55105025e-01 +7.37053752e-02 +2.07942501e-01 -1.30879050e-02 +9.88937318e-02 -3.25453170e-02 -1.55268595e-01 -1.70788448e-02 +2.06945568e-01 -5.85964173e-02 +1.07029855e-01 -1.16807833e-01 -8.39587227e-02 +1.54334709e-01 -2.08002195e-01 -1.87960509e-02 +8.06440935e-02 +9.34279561e-02 -2.61564311e-02 +9.22638252e-02 -2.40162000e-01 -8.00026283e-02 -7.47330785e-02 +2.74896652e-01 -1.05277315e-01 -4.29869778e-02 +1.58625349e-01 +4.28012386e-02 -9.95224863e-02 -4.56590876e-02 -5.06576570e-03 +1.60355821e-01 -7.87941143e-02 +1.23096481e-01 +4.15772274e-02 -5.91840036e-02 -2.98738703e-02 -1.42117664e-02 +3.09567750e-02 +8.84296820e-02 +1.54929414e-01 +1.37940884e-01 +1.31535545e-01 -3.42490226e-02 -2.70272136e-01 -9.18882084e-04 -2.06438944e-01 +1.55843869e-01 -8.96348283e-02 +1.89986285e-02 +9.19063315e-02 +1.18028969e-02 +1.29013695e-02 -9.21676308e-02 -1.56823676e-02 +2.06116065e-01 -1.53913781e-01 -2.00460419e-01 +2.15552211e-01 +3.91222946e-02 +2.50733867e-02 -1.59414127e-01 -1.01478092e-01 +1.53157949e-01 -1.45343557e-01 -1.32886618e-01 +2.39315867e-01 -2.57697720e-02 -1.53282717e-01 -1.66442655e-02 +4.26223781e-03 -1.11889616e-01 -2.12118670e-01 -5.21624684e-02 +1.52668133e-01 +3.31309177e-02 +1.05693378e-01 -1.20597400e-01 -1.38457268e-01 -1.17364347e-01 +5.68821952e-02 +6.33600205e-02 +1.60266817e-01 +8.99280235e-02 +5.45092858e-02 +6.51550367e-02 -3.87481190e-02 +2.55925078e-02 -1.62817650e-02 +1.70905571e-02 -8.42967816e-03 -1.99226156e-01 +1.19595543e-01 -1.04306944e-01 -2.99038272e-02 +6.90411329e-02 -1.80703163e-01 -1.03314228e-01 +8.43523219e-02 -2.13273287e-01 -1.21900924e-01 -1.24199152e-01 -1.44972980e-01 +1.90853309e-02 -2.11912319e-02 -1.13957047e-01 +5.61998785e-03 -8.84486958e-02 -1.31139114e-01 -9.05066431e-02 -4.26484682e-02 -1.04100339e-01 -1.34916827e-01 -1.14713699e-01 +2.43322626e-01 -2.40330566e-02 +5.26973680e-02 -5.70666753e-02 +1.29506752e-01 -7.16913044e-02 +6.50486872e-02 +1.84022978e-01 +1.04002930e-01 -1.58765510e-01 -1.52190804e-01 -4.39323187e-02 +1.18510522e-01 +1.05318967e-02 -2.88962647e-02 -1.09806424e-02 -1.16638452e-01 -2.86262423e-01 +1.97774414e-02 -1.98214233e-01 -2.06203476e-01 +1.16474152e-01 -1.40869766e-01 +1.33400019e-02 +2.01755673e-01 +2.75540203e-02 +8.96709878e-03 -1.30777076e-01 -1.53750004e-02 -1.19764172e-01 -4.46896702e-02 +1.30861953e-01 +1.52545974e-01 -1.06628865e-01 +3.96528468e-02 -6.09874837e-02 +4.32943814e-02 -6.74440935e-02 +3.46780531e-02 -2.29133740e-02 +1.03114419e-01 -9.65589657e-02 +3.93812470e-02 -5.52350581e-02 -8.56081545e-02 +6.11637309e-02 -2.84121260e-02 +1.94235042e-01 +3.38709801e-02 -2.48164944e-02 -2.30900291e-02 +1.02476832e-02 -1.34971216e-01 -7.61366934e-02 +7.63902292e-02 +5.66938259e-02 -1.70125455e-01 +1.55164704e-01 +1.80194706e-01 -1.21332258e-01 +8.06543157e-02 -1.01026967e-01 +2.07262352e-01 +4.92945611e-02 +4.17408943e-02 -1.52782544e-01 +9.61067304e-02 -1.46697342e-01 -3.43752056e-02 +1.79008260e-01 +1.37628457e-02 -3.01974895e-03 -2.34077703e-02 -7.09678903e-02 -2.50019189e-02 -1.24315895e-01 +5.01811206e-02 -3.34929079e-02 -7.94758052e-02 +1.17748387e-01 +2.14636000e-03 +9.63419825e-02 -2.34755531e-01 +1.05928384e-01 +7.32053146e-02 +5.73508516e-02 +1.38870711e-02 -6.18678518e-02 -1.11596420e-01 +2.93015763e-02 -7.24420473e-02 -1.10531516e-01 +8.10115859e-02 -1.50158867e-01 +7.57148117e-02 -1.72691330e-01 +2.07339749e-01 -1.12266175e-01 +3.45051028e-02 +2.31656015e-01 -1.95812760e-03 -2.47059856e-02 +7.64800012e-02 +9.70404893e-02 -1.18187092e-01 +2.13333499e-02 +2.68796980e-02 +9.32476968e-02 -1.40942663e-01 -6.44469038e-02 -2.99106315e-02 +7.27952793e-02 +1.04256824e-03 -5.71498163e-02 +1.82214882e-02 +4.99452502e-02 +8.64184797e-02 -9.99240279e-02 +9.14704651e-02 +8.65887851e-02 +2.80589275e-02 -1.36969194e-01 +1.54252360e-02 -9.76671800e-02 +1.71857446e-01 -1.55103117e-01 +1.61366642e-01 -5.69197647e-02 -3.79395425e-01 -1.09859891e-01 +1.34072021e-01 +3.53841558e-02 +7.68724605e-02 -2.05601066e-01 -3.93585302e-02 -7.93368891e-02 -5.52974381e-02 +7.90649354e-02 -2.74147481e-01 +1.57786787e-01 +4.94395616e-03 -1.53791290e-02 +2.07221553e-01 -1.59729078e-01 -8.05958062e-02 -1.37177529e-02 -1.80091619e-01 +1.53630763e-01 -6.56613056e-03 +1.79821238e-01 -2.85774637e-02 -7.55323246e-02 -1.89678878e-01 +1.23016946e-01 +3.60302180e-02 +3.40912975e-02 +1.43107459e-01 -1.25780880e-01 +1.42959192e-01 +9.76356864e-02 +1.52560100e-01 +2.00843275e-01 -1.25793964e-01 -1.49223693e-02 +3.62744019e-03 -2.62720108e-01 -4.56562527e-02 +6.33229613e-02 -4.29513827e-02 -1.84517309e-01 -5.26468121e-02 +2.64622152e-01 -1.25974312e-01 +1.27567556e-02 +6.65490255e-02 +2.14010477e-02 -1.77426299e-03 +1.65329799e-01 -1.35466486e-01 +1.53386682e-01 +9.99934878e-03 +1.80883911e-02 +1.76498249e-01 -5.89824542e-02 -1.49238557e-01 +1.41274467e-01 -5.20491274e-03 +1.34915367e-01 +4.64129746e-02 -2.40763780e-02 +5.34439608e-02 -5.71853295e-02 +2.69283471e-03 +2.48127192e-01 +1.19429883e-02 +1.65239871e-01 +3.14446464e-02 -1.18648686e-01 +4.06127162e-02 -2.18348764e-02 -9.81837660e-02 +2.49001876e-01 +4.15879004e-02 -2.73123104e-02 -9.17372480e-03 -8.19106027e-03 -4.67911735e-02 -1.81481242e-01 -1.94249228e-01 +3.11905425e-02 -7.81300664e-02 +6.32198676e-02 -1.18518203e-01 +1.39658734e-01 -5.26508503e-02 -1.33569926e-01 +1.22968040e-01 +3.04015189e-01 -2.80900300e-02 +1.79029197e-01 +8.75391066e-02 -3.74332517e-02 +1.18094802e-01 +1.03012491e-02 -6.44376203e-02 +7.51737729e-02 +6.14550263e-02 +4.89942841e-02 -1.14410399e-02 -8.95860270e-02 +2.48227313e-01 +1.43115938e-01 -2.93809950e-01 +3.89949642e-02 -1.46038473e-01 +1.46519303e-01 -2.69743474e-03 -7.05142915e-02 +2.06279293e-01 +5.89379519e-02 -1.31465212e-01 +1.55240819e-01 +1.08248390e-01 +1.83165863e-01 +2.74933688e-02 -3.49797420e-02 -1.73627913e-01 -3.53398919e-02 -2.31682695e-02 +1.12578683e-01 +1.73374936e-01 +1.29538685e-01 +6.53158575e-02 -1.34666443e-01 +5.18899895e-02 -2.16550633e-01 -1.17588244e-01 +1.85034946e-01 +5.45170642e-02 +3.53766233e-02 -1.42479884e-02 -1.21710949e-01 +1.96362704e-01 -9.31152795e-03 +1.04308359e-01 +2.84917325e-01 -6.82313293e-02 +1.75945818e-01 -7.90710524e-02 +1.36553705e-01 +8.31243172e-02 +9.64604393e-02 -2.09528148e-01 +1.99879840e-01 +7.36918626e-03 +1.43582625e-02 +4.95902076e-02 +1.58564091e-01 -5.47230057e-02 +2.70375833e-02 -2.63218768e-02 +7.35927746e-02 +8.51520747e-02 +2.47734152e-02 +9.60212350e-02 -1.19002778e-02 +1.72109585e-02 +3.55692990e-02 -1.27165765e-01 +7.67583549e-02 +4.75005396e-02 +6.90390915e-02 -4.38139327e-02 -1.31306369e-02 -7.27748722e-02 +2.42445897e-02 -5.49932234e-02 -8.44753683e-02 -2.64943279e-02 -4.23278622e-02 +6.30144402e-02 -1.22554593e-01 +1.13000073e-01 +5.38283363e-02 +3.07153799e-02 -1.09830340e-02 +4.03167158e-02 -8.87047723e-02 +6.21758625e-02 -5.75105892e-04 -1.18683048e-01 -5.39336540e-02 -2.33408526e-01 +2.21065238e-01 +6.58285767e-02 +8.54183435e-02 +1.73911050e-01 +4.52950001e-02 -1.54951930e-01 -3.23049240e-02 -1.18949696e-01 +4.13153134e-02 -1.93804517e-01 -1.41757563e-01 +2.36764774e-01 +8.93415138e-02 +5.16585112e-02 +2.32445136e-01 -1.54964909e-01 -9.58039239e-03 -1.12230778e-01 +9.74653661e-02 +3.31240036e-02 +1.07742734e-02 +1.16141208e-01 +3.45817581e-02 -1.12780564e-01 -2.48654485e-02 +1.68442391e-02 -8.91734362e-02 +1.71976641e-01 -6.23442195e-02 +4.60681506e-02 -2.17295244e-01 -2.29726404e-01 -1.41733333e-01 -3.81839797e-02 -1.23905968e-02 +6.42751679e-02 -1.30317435e-01 +2.06710294e-01 +1.12459272e-01 -1.39923707e-01 -1.36742368e-02 +1.34569230e-02 -2.04025432e-02 +2.02103838e-01 +3.78075764e-02 +1.48932919e-01 -8.67910404e-03 +7.78848082e-02 -5.69946021e-02 -1.15617044e-01 +8.86932686e-02 +6.31111562e-02 -1.12325467e-01 +2.19125971e-01 -9.67511088e-02 +2.71117184e-02 +2.07955047e-01 -1.01844460e-01 +6.19517677e-02 +9.92428288e-02 +9.59129632e-02 +9.45501626e-02 -3.76408361e-02 -4.34546955e-02 +1.38834819e-01 -2.76046135e-02 +2.30389927e-03 +1.41137481e-01 +6.71636779e-03 +1.14864998e-01 -3.87039930e-02 -1.42212063e-01 -2.29001846e-02 -6.24276735e-02 +1.70428887e-01 +3.25076371e-01 -5.04417606e-02 -8.65064114e-02 +6.70401528e-02 +6.59861928e-03 +1.18032107e-02 +2.75494512e-02 -1.09932691e-01 +1.59237966e-01 -1.73530713e-01 +2.17285872e-01 +7.42033347e-02 -2.45402288e-02 +3.01654097e-02 +8.58166516e-02 +1.00782953e-01 +2.74045438e-01 -1.12889670e-01 +1.57273278e-01 +1.12959579e-01 +5.29229268e-03 +4.74309511e-02 -1.01090543e-01 +2.03047879e-02 +2.23714828e-01 +3.61760589e-03 +4.97939885e-02 +1.14642166e-01 -1.66490480e-01 -6.66556954e-02 -5.11636548e-02 -1.70252278e-01 +1.49111271e-01 -2.71997720e-01 +9.23553184e-02 -1.24130249e-01 +9.95312780e-02 +9.68163684e-02 +2.60796063e-02 +5.53244092e-02 +2.95523524e-01 +1.90606248e-02 +1.30998880e-01 -5.33360504e-02 +6.26680255e-02 +2.23294392e-01 +3.39051485e-02 -1.31846160e-01 +2.47133464e-01 -3.93398777e-02 +7.04010352e-02 -6.26754016e-02 +9.76980850e-02 +9.95701179e-02 -4.25394587e-02 -1.82752013e-01 +6.35612430e-03 +9.21973884e-02 -3.81222833e-03 +2.14265302e-01 -4.87064049e-02 -4.79358658e-02 -5.99058904e-02 -4.54393774e-02 +9.24388692e-02 -3.23499106e-02 +2.66521573e-01 +3.66484933e-02 -1.00815617e-01 +4.50689271e-02 +8.18657875e-02 -5.34721538e-02 -1.14976838e-01 +1.16069183e-01 +4.85363714e-02 +8.83852970e-03 +4.48692963e-02 +7.95876607e-02 +7.02255443e-02 -2.40885645e-01 +1.09659247e-01 -3.25226597e-02 +6.73393384e-02 -3.36988131e-03 +5.96582964e-02 -5.27083650e-02 -1.41946390e-01 -7.85809290e-03 +2.45635491e-02 +3.63230407e-02 -1.75803490e-02 -1.41495138e-01 -1.51796371e-01 -5.74007854e-02 +2.15365216e-01 -5.78342080e-02 +1.12770595e-01 +1.11358561e-01 -1.44032717e-01 +7.65355676e-02 +1.28276467e-01 -1.89692155e-02 -1.43197462e-01 +1.62362512e-02 +2.35399961e-01 
#Parameter# /simple-rnn-builder/_1 {8,8} 1025 ZERO_GRAD
+5.57571769e-01 -5.06400645e-01 -4.95397538e-01 -1.64463893e-01 -3.47099334e-01 -1.81236953e-01 -3.95939887e-01 +6.07862115e-01 -2.00166963e-02 +1.71231329e-01 -5.35603225e-01 -1.56515628e-01 -3.84306848e-01 +3.25471997e-01 +4.77624655e-01 +2.10081458e-01 -5.56733429e-01 -2.16291457e-01 +5.00705540e-01 +4.10190165e-01 +4.99247387e-02 -5.03292382e-01 +5.47498047e-01 -3.15768361e-01 -3.20568800e-01 -4.97337639e-01 +3.68688434e-01 -4.06635940e-01 +3.31991106e-01 +1.04844175e-01 -5.77647328e-01 -5.07418633e-01 -1.85731187e-01 -2.02598616e-01 -3.35741580e-01 +1.54914334e-01 +4.77410108e-01 -5.41076124e-01 +5.95516503e-01 -1.12285949e-01 +2.25076929e-01 -1.68317080e-01 -5.98981202e-01 +1.59729440e-02 -2.61525810e-01 -2.91221410e-01 -3.11002284e-01 +4.43209887e-01 +1.40580252e-01 +5.49304903e-01 +4.33960080e-01 +2.61864781e-01 -3.53825003e-01 +3.08196008e-01 -1.02759644e-01 -5.77830374e-01 -6.09428942e-01 -1.91442937e-01 -2.84143150e-01 -2.93986827e-01 -5.42532742e-01 +3.81614357e-01 -3.89759660e-01 -3.15489918e-01 
#Parameter# /simple-rnn-builder/_2 {8} 129 ZERO_GRAD
-1.24176091e-03 +1.85717887e-03 +2.28108931e-03 -2.73374165e-03 -6.08835835e-05 +9.33924981e-04 -2.04603397e-03 -1.80177530e-03 
#Parameter# /simple-rnn-builder/_3 {8,8} 1025 ZERO_GRAD
+2.14689039e-02 -5.35290182e-01 +6.91404223e-01 +3.14877570e-01 +5.45935631e-01 -4.22657996e-01 +1.16133548e-01 +2.78811276e-01 -1.02245843e+00 -9.21952307e-01 +9.24392164e-01 -2.17006207e-01 +6.12331986e-01 -6.83390439e-01 +2.41195545e-01 +2.01480195e-01 +4.72664922e-01 -1.46464650e-02 +8.11540782e-02 +6.24675810e-01 +6.40151024e-01 +1.04116285e+00 +3.81358624e-01 +1.20696254e-01 +1.52187675e-01 -8.26219559e-01 -1.81421503e-01 +7.77944863e-01 +8.92086565e-01 +2.99852551e-03 -8.77207816e-01 -5.79861939e-01 -1.10506523e+00 -8.95698011e-01 +1.75835326e-01 +4.66341287e-01 +5.30325651e-01 -6.43058360e-01 -3.65634024e-01 -2.58702099e-01 -6.28847241e-01 -4.95078303e-02 -2.50293404e-01 +8.18440393e-02 +9.40873846e-02 +4.85201001e-01 +1.23420469e-01 -1.00094223e+00 +4.71713729e-02 -2.75519580e-01 +1.48469225e-01 +2.04786852e-01 -1.12848639e-01 -5.73704839e-01 -6.73711896e-02 +8.86867166e-01 -4.76291627e-01 -6.28087819e-01 -7.47717321e-02 +2.19195262e-01 +4.83005354e-03 +2.34088600e-01 +1.70875043e-01 +5.40695488e-01 
#Parameter# /simple-rnn-builder/_4 {8,8} 1025 ZERO_GRAD
+8.86153653e-02 +4.14177030e-01 -6.01495087e-01 +4.90540266e-01 -6.06458664e-01 -1.14387490e-01 +5.65706730e-01 -2.82587916e-01 -2.72670656e-01 -2.16152251e-01 -1.82517052e-01 +4.00775224e-01 +8.24650750e-02 -4.49121505e-01 -7.82190338e-02 -3.86736721e-01 +4.21629190e-01 -1.09114371e-01 +7.76425898e-02 -6.70808405e-02 -4.23855215e-01 +2.54593581e-01 +5.50602496e-01 -4.36581582e-01 +5.86293697e-01 -4.85331386e-01 -4.54236776e-01 -5.36067188e-01 +3.73730361e-02 -2.01492295e-01 -3.57161552e-01 +4.82304633e-01 +1.16828740e-01 -4.91252095e-01 +4.73177105e-01 -1.23954751e-01 +4.88156945e-01 +2.71237105e-01 -5.24165452e-01 +5.19520462e-01 -1.69424310e-01 -1.96207166e-01 +3.16315264e-01 -1.62062168e-01 -3.95689100e-01 +1.13509912e-02 +5.46074867e-01 +1.52145356e-01 -4.44521040e-01 -1.51502758e-01 -4.38124537e-01 +5.00131130e-01 -3.71250272e-01 -1.71064928e-01 +5.29802144e-01 -2.12330744e-01 +7.88978264e-02 +6.49673641e-02 -2.59257853e-01 +2.42674053e-02 +2.77797520e-01 +2.95335591e-01 -3.37245703e-01 -2.57658571e-01 
#Parameter# /simple-rnn-builder/_5 {8} 129 ZERO_GRAD
-1.69184506e-01 +9.44329500e-01 -2.50558347e-01 -1.21430129e-01 -3.93648267e-01 +2.43575096e-01 -4.08978820e-01 -4.27562684e-01 
#Parameter# /simple-rnn-builder/_6 {8,8} 1025 ZERO_GRAD
-4.12981153e-01 -5.37585497e-01 -6.24443948e-01 +6.35966301e-01 -6.27875805e-01 +3.66609305e-01 -7.35212445e-01 -6.27697647e-01 +5.09570479e-01 +2.18621746e-01 -4.30290878e-01 +7.04871416e-01 +2.90957630e-01 +5.12352169e-01 -2.92951912e-01 +1.03487134e-01 +2.89574176e-01 +1.47181466e-01 +3.13532561e-01 -3.33649576e-01 -1.01950340e-01 -4.57611293e-01 +2.40705386e-02 -2.95940906e-01 +2.37857684e-01 +7.14355111e-01 -3.65313351e-01 -3.47482353e-01 -2.50647310e-02 -6.42683685e-01 -3.63228828e-01 +3.04712981e-01 -2.59972125e-01 -3.90446447e-02 -3.63878876e-01 +2.08411247e-01 -2.59904683e-01 -1.01294887e+00 -1.07612778e-02 +4.94110793e-01 +6.13089085e-01 -4.42197025e-01 -5.90547472e-02 -2.40059063e-01 +4.49961603e-01 +2.55882204e-01 -6.65020227e-01 +3.24413925e-01 -3.59790087e-01 -5.55263460e-01 +1.35181442e-01 -8.68435279e-02 -1.56393483e-01 +1.21544354e-01 -5.35925984e-01 +2.72059619e-01 -3.13447744e-01 -4.98753339e-01 +3.49256814e-01 +1.38881639e-01 -1.60979733e-01 -6.14112318e-01 -4.56985598e-03 -4.86283123e-01 
#Parameter# /simple-rnn-builder/_7 {8,8} 1025 ZERO_GRAD
+5.23037553e-01 -2.97134668e-01 -5.94958782e-01 -2.06609145e-01 -2.27387279e-01 -7.94340521e-02 +3.26815136e-02 +2.43931994e-01 +2.91213185e-01 +2.69095842e-02 +4.45566505e-01 -3.29145640e-01 -1.29906917e-02 -3.75929385e-01 -5.27628064e-01 +3.27310078e-02 -3.61698598e-01 +1.87448680e-01 +5.19660175e-01 -2.00589463e-01 -5.22168875e-01 +2.74393499e-01 -3.43906969e-01 -8.45882148e-02 -2.02185974e-01 -5.16646147e-01 +4.68797147e-01 -5.40328145e-01 +1.27884075e-01 +3.09151649e-01 -4.15982693e-01 -2.76149884e-02 -5.14809310e-01 +1.79926202e-01 +3.12805414e-01 +4.87994373e-01 +4.98149395e-01 -3.63472164e-01 +4.83077854e-01 -1.96146131e-01 -5.22796273e-01 -2.28046358e-01 +4.23745126e-01 -5.32657504e-01 +1.77161962e-01 -4.15462226e-01 +9.06882137e-02 +1.26056805e-01 +3.45326602e-01 -3.96113396e-01 -5.69137752e-01 +1.29318461e-01 -5.41960657e-01 -4.01098430e-01 -1.20002508e-01 -3.35127711e-01 -3.00133169e-01 -1.01388365e-01 -5.19770563e-01 +1.02412671e-01 -4.62382466e-01 +1.88832477e-01 -4.78337377e-01 -5.24812996e-01 
#Parameter# /simple-rnn-builder/_8 {8} 129 ZERO_GRAD
+6.77931547e-01 +3.42964232e-01 +4.49977256e-02 +2.60641128e-01 +7.12466240e-01 +6.03535652e-01 +1.85658768e-01 +2.02427268e-01 
#Parameter# /simple-rnn-builder/_9 {8,8} 1025 ZERO_GRAD
+1.72177777e-01 -8.27520967e-01 +3.90012473e-01 -3.53635758e-01 -1.86117128e-01 +3.04068953e-01 +2.40341231e-01 +4.69884992e-01 -6.49931192e-01 +1.44012719e-01 +4.68915015e-01 +6.66915551e-02 -6.24075472e-01 -2.87217826e-01 +8.18861425e-02 -5.93709290e-01 +3.66786718e-01 -1.31693155e-01 +6.27965152e-01 +2.76184291e-01 -3.08898631e-02 -2.23111853e-01 -4.27973658e-01 +3.15715045e-01 -8.24958012e-02 +9.45461765e-02 -1.66820943e-01 +5.62710166e-01 -4.01861757e-01 -6.67511702e-01 +2.55454957e-01 -1.61272585e-01 -4.31685001e-01 -4.46345389e-01 +1.30490035e-01 -1.47869110e-01 -4.52230513e-01 +4.75305617e-01 +1.47032335e-01 -4.08614501e-02 -4.69401628e-01 -8.96407485e-01 -7.98817351e-02 +5.79893366e-02 +1.33580910e-02 +3.30777407e-01 +1.71138018e-01 -3.05293590e-01 +3.39132160e-01 +3.09896469e-01 +6.22221828e-01 -3.64184529e-01 -6.42257988e-01 +4.06622678e-01 +3.47478330e-01 -4.14315283e-01 -2.35510487e-02 +6.98873773e-02 -3.78509283e-01 -6.10995770e-01 -3.98613453e-01 +1.18580505e-01 +3.33274603e-02 -2.24362478e-01 
#Parameter# /simple-rnn-builder/_10 {8,8} 1025 ZERO_GRAD
+4.14603353e-01 -1.16914734e-01 -1.46178361e-02 +6.87975585e-02 -2.64351964e-01 +3.72944884e-02 -5.34207709e-02 +4.84704971e-02 +3.09585929e-01 +5.72790504e-01 +5.93633175e-01 -6.35551736e-02 -4.92892742e-01 -5.93829215e-01 +3.27359796e-01 +2.54404634e-01 -2.01383919e-01 -1.36476591e-01 -5.79643011e-01 -1.36265114e-01 +5.00976071e-02 -7.29402602e-02 +5.30387342e-01 +3.41825217e-01 -9.75711718e-02 -1.96777001e-01 +1.35355085e-01 -4.42968637e-01 +2.88074881e-01 +6.06853127e-01 +5.38118064e-01 -4.89101447e-02 +1.64387465e-01 +3.60443473e-01 -5.86819410e-01 -6.03983819e-01 -6.03288531e-01 -4.23781246e-01 +6.57928586e-02 +2.41752416e-01 -4.59483474e-01 +1.87793747e-01 -5.95296979e-01 +5.47551036e-01 -9.82232094e-02 -5.69038801e-02 +3.10631812e-01 -1.66053250e-01 +4.92408574e-01 +1.83842599e-01 +4.25275058e-01 +2.69752622e-01 -1.16670839e-02 -4.91533875e-01 -3.75546396e-01 -2.61174798e-01 +2.31622070e-01 -5.95611453e-01 -4.40939933e-01 -4.98079509e-01 -5.80298722e-01 +1.47509456e-01 -2.83966601e-01 -5.78646243e-01 
#Parameter# /simple-rnn-builder/_11 {8} 129 ZERO_GRAD
-3.19312751e-01 -6.77702010e-01 +3.14824611e-01 -2.97464244e-02 -5.36685526e-01 -9.60614812e-03 +1.18426979e-01 -2.45088443e-01 
#Parameter# /simple-rnn-builder/_12 {8,8} 1025 ZERO_GRAD
-4.39951807e-01 +2.93140888e-01 -6.87817931e-01 -5.20744205e-01 -4.47369605e-01 -3.23635161e-01 +4.08634335e-01 +1.34927511e-01 +6.46442950e-01 +2.89545447e-01 -4.92422789e-01 +6.73861980e-01 -3.34407598e-01 +3.97079229e-01 +2.58621633e-01 -1.63642764e-01 +4.14161742e-01 -5.92517257e-01 +7.84735620e-01 +4.17910963e-01 -5.22730589e-01 -9.41265672e-02 +1.68096215e-01 +2.79663503e-01 +1.56624969e-02 +1.62381962e-01 +2.53265291e-01 -1.15974694e-01 -2.09749117e-01 -4.37014699e-01 +3.73735666e-01 -4.31067050e-01 -1.16562292e-01 +4.53443497e-01 -6.23097897e-01 +6.59807265e-01 -1.79324463e-01 +3.51230532e-01 +2.62050331e-01 +4.25208092e-01 -3.75428736e-01 +2.55620759e-02 -3.01788479e-01 +3.08510184e-01 -6.04428165e-02 -3.23441923e-02 +4.83545661e-01 +3.41687441e-01 -7.65822157e-02 +6.14745200e-01 -8.70443135e-02 -4.27772313e-01 +3.37541342e-01 +6.68936670e-02 +6.57571629e-02 +3.96254957e-01 -2.24914953e-01 -3.83059829e-01 -5.75092733e-01 -2.93362528e-01 +2.19650507e-01 -2.66188923e-02 +3.96509394e-02 -6.24495327e-01 
#Parameter# /simple-rnn-builder/_13 {8,8} 1025 ZERO_GRAD
-3.30828190e-01 +4.17607963e-01 +1.84977829e-01 +3.51919413e-01 -5.80563486e-01 +4.17897910e-01 -3.61000985e-01 +4.91294295e-01 +5.15228033e-01 -1.49922997e-01 -1.02737524e-01 +2.54940033e-01 -4.52124923e-01 -1.07036561e-01 +3.00013095e-01 -4.01243895e-01 +2.72682667e-01 -3.59621882e-01 -4.32639480e-01 +4.82235819e-01 +9.31524858e-02 -2.01214492e-01 -3.02574098e-01 -4.51864660e-01 -4.34483290e-01 -1.77650511e-01 -1.46810547e-01 -2.21058905e-01 -7.90261254e-02 -2.77893133e-02 -4.48351294e-01 -5.98556876e-01 +3.85266334e-01 +3.00820405e-03 -2.28063479e-01 +1.59995165e-02 +4.53629762e-01 -5.35790384e-01 +5.08058429e-01 +3.04736435e-01 -5.59651792e-01 +1.60371482e-01 +1.65739432e-01 +3.53553116e-01 -3.64885658e-01 -1.58854648e-01 +3.27853054e-01 -5.78674793e-01 -2.35425219e-01 -1.20860554e-01 -2.13692680e-01 -5.87602377e-01 +4.26545858e-01 +3.12915772e-01 +1.04777232e-01 +3.22845310e-01 +3.68211448e-01 -2.63272285e-01 -3.97767633e-01 +1.67788982e-01 +4.52358454e-01 -5.53516507e-01 +1.50146455e-01 +3.78807396e-01 
#Parameter# /simple-rnn-builder/_14 {8} 129 ZERO_GRAD
-1.29238486e-01 -3.09710681e-01 +6.82370186e-01 -3.09259683e-01 +1.65313289e-01 -1.49463117e-01 -5.00239655e-02 +2.45619163e-01 
#Parameter# /simple-rnn-builder/_15 {8,8} 1025 ZERO_GRAD
-1.67023197e-01 +9.48511884e-02 -9.36507434e-02 -4.13245559e-02 +1.70126885e-01 -5.33745810e-02 +6.55489862e-02 -1.02877773e-01 +2.64611691e-02 -3.13892365e-01 -1.95897758e-01 -4.32335585e-01 +5.77797651e-01 -9.87473279e-02 -7.52184540e-02 +3.57886612e-01 -2.56276757e-01 +4.47987944e-01 +3.12531255e-02 -5.03126204e-01 -5.80065906e-01 -5.71174026e-01 -4.57266659e-01 -6.45393208e-02 -2.23908201e-01 -2.81727999e-01 +3.45724434e-01 -1.71397515e-02 -3.46428826e-02 +1.04361111e-02 +4.00976837e-01 -6.33611903e-03 +5.02509654e-01 +5.89209981e-02 -1.12742558e-01 -1.15484418e-02 -3.53354514e-01 +3.23420703e-01 +1.75579607e-01 -1.78959802e-01 +1.31194040e-01 -2.11967438e-01 -1.97394758e-01 +1.03285395e-01 +9.11627933e-02 -2.15952113e-01 +1.23286068e-01 -3.57283890e-01 -1.34775378e-02 +1.54210985e-01 -1.79907292e-01 +1.84347276e-02 +1.98086694e-01 -2.27918960e-02 -6.41479611e-01 +1.41002715e-01 +2.26516649e-01 +1.56853318e-01 +2.13205203e-01 +4.46125776e-01 -2.65329957e-01 -2.04252377e-01 -2.85265535e-01 -3.12804639e-01 
#Parameter# /simple-rnn-builder/_16 {8,8} 1025 ZERO_GRAD
+4.53712255e-01 +3.64079326e-01 -3.20349097e-01 +5.38702309e-01 -1.62005156e-01 -7.69263059e-02 +1.65053874e-01 +5.45038223e-01 +3.46429497e-01 -5.38136601e-01 +1.26466408e-01 +2.75104880e-01 -1.40469760e-01 +7.55314827e-02 +6.96439249e-03 -5.47798395e-01 -2.36370787e-01 +2.81251162e-01 -5.56035578e-01 +7.38974437e-02 -3.65599543e-01 +5.03184557e-01 -4.92942303e-01 +5.35143614e-01 -2.28651315e-01 -1.34726043e-03 -5.59392452e-01 +5.13983428e-01 +5.15157342e-01 +2.29057267e-01 +4.03143138e-01 -9.31213200e-02 -2.02001944e-01 +5.02632678e-01 +8.31748545e-02 -1.33379295e-01 -2.36059114e-01 -3.89106899e-01 -1.76935032e-01 -3.84041667e-02 +3.29770565e-01 +4.27261323e-01 -1.40193313e-01 +3.76584530e-01 -7.22786561e-02 -4.10525829e-01 +5.83735883e-01 -1.90255105e-01 -3.71405184e-01 +1.87120095e-01 -2.01234922e-01 -5.59315123e-02 +3.95224571e-01 +3.43396246e-01 +1.01797789e-01 +1.27279773e-01 -5.56040704e-01 -3.73888671e-01 +5.94093278e-02 +2.19007954e-01 +3.21699768e-01 -3.38997722e-01 +1.27452061e-01 -4.14463222e-01 
#Parameter# /simple-rnn-builder/_17 {8} 129 ZERO_GRAD
-4.38971408e-02 +2.08385095e-01 +5.49997091e-02 -1.66666538e-01 -2.43965879e-01 -1.38319701e-01 -1.30353197e-01 -7.00297430e-02 
#Parameter# /simple-rnn-builder/_18 {8,8} 1025 ZERO_GRAD
+3.58834893e-01 -2.50676125e-02 +3.67689729e-01 -4.49388742e-01 +1.31192014e-01 +2.35909611e-01 -1.70321599e-01 +2.75542140e-01 -4.40335959e-01 +3.48716736e-01 -1.45959049e-01 +9.58654583e-02 -3.00079644e-01 -1.31604210e-01 +1.28538817e-01 +2.72033334e-01 +1.05896004e-01 +2.91282088e-01 -3.56155723e-01 -3.04483175e-01 +3.09361279e-01 -2.82016963e-01 -9.22615603e-02 +3.58466089e-01 +2.99647674e-02 +1.32026941e-01 +3.10664177e-02 -1.78850517e-01 +1.83551416e-01 -3.06101143e-01 -2.96530753e-01 -3.02318394e-01 -5.10212898e-01 +3.00624907e-01 +9.30144638e-02 -1.36428967e-01 -4.84946854e-02 +1.10752679e-01 +6.28716946e-02 +2.62291506e-02 -4.03741479e-01 +2.79340684e-01 +5.07374704e-01 +1.89604983e-01 -2.23731518e-01 +1.36938840e-01 +2.01251954e-01 +2.59278174e-02 +3.05201501e-01 -2.64360905e-01 -9.77250636e-02 -3.83395463e-01 -2.50017077e-01 -3.63140851e-01 -3.65887396e-02 +1.01773299e-01 +4.24886793e-01 +8.14858302e-02 -2.29470223e-01 -4.46019500e-01 +3.13976765e-01 -2.56673336e-01 -1.89593613e-01 +2.50852227e-01 
#Parameter# /simple-rnn-builder/_19 {8,8} 1025 ZERO_GRAD
-1.18563995e-01 -3.96596104e-01 +2.28316024e-01 +3.45856518e-01 +4.74054128e-01 -3.47819835e-01 +2.34602168e-01 -4.14739072e-01 +2.42606893e-01 -1.63940653e-01 +2.45495602e-01 -5.59468865e-01 -2.79361933e-01 -3.73462409e-01 -1.10993549e-01 +1.50051042e-01 -6.03614509e-01 -5.24201989e-01 -2.17744932e-01 +4.42750365e-01 -1.10950299e-01 +1.66977957e-01 -4.41509664e-01 -4.88262117e-01 +4.82280344e-01 -2.67819732e-01 -3.34772795e-01 +1.74011409e-01 +1.01587698e-01 -4.34260666e-01 -5.40917099e-01 -6.08209670e-01 -1.26230463e-01 -4.39688772e-01 +2.20538914e-01 -1.05882347e-01 -2.07282245e-01 -1.62726700e-01 -5.14192700e-01 +6.00713909e-01 -9.54220369e-02 -1.95524797e-01 +5.15265822e-01 -3.19831640e-01 -3.22975695e-01 +4.36121710e-02 +4.96221811e-01 -1.62748858e-01 -3.99688452e-01 -2.63560921e-01 +4.01456475e-01 +4.33102608e-01 +3.21722180e-01 -1.00854479e-01 +1.12771370e-01 -3.13024074e-01 -6.09743416e-01 -2.93566048e-01 +3.11458319e-01 -1.63914740e-01 -3.13129760e-02 +2.52235442e-01 +5.40985346e-01 +5.74790299e-01 
#Parameter# /simple-rnn-builder/_20 {8} 129 ZERO_GRAD
+5.34672737e-02 -2.65133027e-02 +6.74271509e-02 +7.41530508e-02 +4.44720238e-02 -3.77697609e-02 -9.46201161e-02 -1.08057439e-01 
#Parameter# /simple-rnn-builder/_21 {8,8} 1025 ZERO_GRAD
-1.30556628e-01 -3.97478938e-02 -3.42323519e-02 +4.66117822e-02 +3.95957232e-02 -1.86905768e-02 +9.37239677e-02 +3.22604552e-02 -3.34111676e-02 -4.88547906e-02 +3.43309827e-02 -7.47785792e-02 -5.12251519e-02 -2.02518087e-02 +8.81337002e-02 +9.68797207e-02 -6.71529025e-02 -6.25071228e-02 +8.75884593e-02 +8.54660273e-02 -1.17076002e-02 -2.87910104e-02 -2.16197167e-02 -7.67630637e-02 -8.74061137e-02 -1.22475296e-01 +1.16035894e-01 +1.83152199e-01 +7.89719298e-02 -4.32881638e-02 +7.56817684e-02 -8.51986930e-02 -4.87490818e-02 +5.39050763e-03 -2.17225961e-03 +1.33969799e-01 +4.14906740e-02 +4.34487015e-02 -6.60305396e-02 -4.46105078e-02 +2.07339302e-02 +4.19849716e-02 +1.02070114e-02 -8.68696421e-02 -4.89087496e-03 +3.80037539e-02 +2.42091641e-02 +7.31394738e-02 -2.97594666e-02 +5.48653863e-03 -3.82618532e-02 +3.76682356e-02 +7.93099776e-03 +1.48855411e-02 +5.96026815e-02 +4.32445444e-02 +7.15208128e-02 -1.37263527e-02 -3.86350751e-02 +5.75950332e-02 +1.79522857e-02 +1.66471656e-02 -9.80242863e-02 -1.53433932e-02 
#Parameter# /simple-rnn-builder/_22 {8,8} 1025 ZERO_GRAD
-3.15128803e-01 +3.01717877e-01 +6.01098835e-01 -4.75010842e-01 -5.77897072e-01 +5.13458133e-01 +1.46489933e-01 -1.42742306e-01 -5.10023832e-01 +4.57333297e-01 -5.39627492e-01 -5.43145835e-01 +5.78880131e-01 +2.45937467e-01 +1.14296280e-01 +5.26604652e-01 +6.86677620e-02 -4.47239250e-01 +8.41328427e-02 +3.37301165e-01 -1.33318558e-01 -2.18750551e-01 -6.11800432e-01 +4.05644357e-01 +1.92827210e-01 +4.86834019e-01 -5.21688938e-01 +4.04813468e-01 -7.00749159e-02 +3.34352672e-01 +5.97154677e-01 +4.40268852e-02 +1.01135015e-01 -2.37390250e-01 -1.83927059e-01 -2.41591819e-02 -1.68776721e-01 -1.95722073e-01 +5.13070822e-01 +2.76489346e-03 -5.97413421e-01 +5.72093427e-01 +3.52492839e-01 +4.87872690e-01 -1.46129817e-01 -2.91340828e-01 +3.32366407e-01 -1.69054165e-01 +3.42536241e-01 -4.01110470e-01 -4.47402835e-01 +1.55372486e-01 -6.05062187e-01 -5.06271183e-01 -5.59385657e-01 +6.06564879e-01 +2.65504003e-01 +3.19479331e-02 +2.80085862e-01 +2.04065919e-01 +2.02147543e-01 -5.79947412e-01 +3.33427757e-01 +1.15481950e-01 
#Parameter# /simple-rnn-builder/_23 {8} 129 ZERO_GRAD
+3.07911932e-02 +4.72305827e-02 -3.46005112e-02 -6.86243847e-02 -3.85984629e-02 +1.24574006e-02 -3.27074528e-02 +2.02202890e-02 
#LookupParameter# /_0 {320,1} 5121 ZERO_GRAD
-8.57583433e-03 -5.84565140e-02 +2.72384472e-02 -9.46923867e-02 -3.88816483e-02 +8.00795928e-02 -8.68976191e-02 -6.54145777e-02 +7.77667984e-02 +6.34288415e-02 -1.34194195e-02 +3.14837955e-02 +8.90297368e-02 +3.73792350e-02 -8.25295374e-02 +6.54879287e-02 +9.64802429e-02 -3.00426148e-02 -5.04394956e-02 -7.47147575e-03 +2.04088613e-02 +7.61653706e-02 -3.83293107e-02 +1.29543934e-02 -7.64326453e-02 -5.97086102e-02 -7.40340874e-02 +2.53482312e-02 +4.95170392e-02 -7.16782287e-02 -4.34616655e-02 -6.10092580e-02 +1.93370245e-02 +4.19660173e-02 -3.04512084e-02 -4.38257568e-02 -8.37159157e-03 +5.29281050e-02 -5.04194666e-03 -6.29535830e-03 -1.97478868e-02 +3.64875495e-02 +5.90652712e-02 -4.98856306e-02 -4.02094573e-02 -8.53535756e-02 +5.74951507e-02 +4.18600477e-02 -7.47636631e-02 +3.15323919e-02 -7.67923295e-02 -7.69522507e-03 +2.49434505e-02 -8.72933045e-02 -3.31159607e-02 -2.34266426e-02 +5.79962730e-02 +2.47862898e-02 +4.63983323e-03 +6.02635220e-02 +8.46081749e-02 +2.18658689e-02 -7.93292280e-03 +8.07857886e-02 -7.06722075e-03 -9.01882425e-02 -9.49818268e-02 +7.51146451e-02 -9.41738039e-02 +2.67306641e-02 -5.51036038e-02 +7.82629475e-03 -4.70368899e-02 -3.40356156e-02 +8.67013540e-03 +5.72113916e-02 +3.79297584e-02 -8.47920552e-02 -3.68307568e-02 +2.51194499e-02 +3.53892110e-02 -4.30334583e-02 +1.29604880e-02 +2.70427577e-02 -1.30148698e-02 +5.43982461e-02 -6.56534955e-02 -8.79284143e-02 -3.24928798e-02 +7.83781409e-02 +4.62262928e-02 -7.43706822e-02 -2.60296706e-02 -9.65562686e-02 -4.17762436e-02 +9.15057138e-02 -8.91142115e-02 -9.05225798e-02 +8.45495462e-02 +5.48189320e-02 +7.07557872e-02 -6.99005499e-02 +1.28747746e-02 -2.79931761e-02 -2.66791042e-02 -2.92887110e-02 +4.31717932e-02 -7.04431534e-02 -4.14840244e-02 -5.83385415e-02 +6.58843815e-02 -3.11794933e-02 -7.08593950e-02 -4.29481827e-02 -5.65781146e-02 -5.44169452e-03 +9.52628092e-04 +5.33960089e-02 -8.84649083e-02 -5.97363599e-02 -7.31203929e-02 +4.84044887e-02 +5.25585972e-02 +2.77313776e-02 -3.08843423e-02 +2.29705111e-04 -8.43817890e-02 -1.31711485e-02 -5.65613480e-03 +2.69930456e-02 -6.16857372e-02 -9.58921313e-02 -6.67015463e-02 +3.79148014e-02 +7.14617446e-02 -7.98649117e-02 -7.96087012e-02 +5.82179911e-02 -5.38766161e-02 +8.65257010e-02 +8.30635428e-03 +8.85969251e-02 -4.42016125e-02 -1.69935096e-02 -9.08632427e-02 +1.89036876e-02 -5.07996678e-02 -6.32253475e-03 +2.13925038e-02 +5.03356494e-02 -8.52708369e-02 -6.54979274e-02 +3.77960168e-02 -2.82570180e-02 +6.52158335e-02 -1.48436353e-02 +5.71865402e-02 +8.04752782e-02 -2.40145193e-04 -5.06563764e-03 -8.30715299e-02 +3.96871008e-02 -9.39701572e-02 +2.64430624e-02 +9.47318673e-02 +3.21853422e-02 -4.15573604e-02 -3.51261487e-03 -1.08100139e-02 +3.50290313e-02 +5.82634099e-02 +2.88296361e-02 -3.24508771e-02 +4.77404110e-02 +4.78151701e-02 +8.08479823e-03 -4.27730791e-02 -1.94374137e-02 +6.91054091e-02 +9.18830931e-02 +4.46835458e-02 +3.42846140e-02 -3.93985622e-02 -5.39641790e-02 -9.39263999e-02 -4.38847952e-02 +6.07360564e-02 +3.58380713e-02 -4.26637894e-03 +7.75467381e-02 +2.66036056e-02 -7.28711188e-02 +8.26310366e-02 -1.64424405e-02 -1.28738047e-03 -7.49204382e-02 +2.86587160e-02 -9.06877369e-02 +6.74708094e-03 +3.85099165e-02 -4.76635918e-02 +5.69448434e-02 +2.75421739e-02 +7.77915642e-02 +3.32370289e-02 -6.37331977e-02 +9.05416906e-02 -4.38302830e-02 -4.02557179e-02 +8.75596404e-02 +7.50202015e-02 +1.57840792e-02 +1.66317988e-02 +6.15881979e-02 -4.80007045e-02 -8.33439082e-03 +6.75987899e-02 -7.83619508e-02 +9.13379490e-02 +6.87229559e-02 -5.84031977e-02 +3.31652118e-03 -2.16506850e-02 +2.19299644e-03 +7.35445917e-02 +4.88871001e-02 +8.09447393e-02 +6.62500560e-02 +3.35599743e-02 -5.37373126e-02 +6.59226300e-03 +7.88349509e-02 +3.25921103e-02 -4.92727384e-02 +9.52211767e-02 +6.28698617e-02 +4.52568941e-02 -8.93057361e-02 -5.97588085e-02 +2.04223786e-02 +9.47259739e-02 -8.60582888e-02 -3.00766751e-02 -6.12853430e-02 -1.02731483e-02 -8.86869654e-02 -2.69369385e-03 +7.91531056e-02 -7.91920573e-02 +4.71028779e-03 -2.88638994e-02 +1.78858452e-02 +6.53668493e-02 +4.48723920e-02 -1.22361286e-02 -6.46685064e-02 +5.11936843e-02 -1.26578696e-02 +6.77673668e-02 -5.49079403e-02 +5.65392226e-02 -2.38050949e-02 +2.27032807e-02 -7.81085640e-02 -2.73594875e-02 -9.35368985e-02 -8.90763104e-02 +2.87270937e-02 +4.84557748e-02 -5.87969124e-02 +4.22006175e-02 -5.61973974e-02 -5.74238040e-02 -5.19035384e-02 +8.87274072e-02 +1.16070621e-02 +7.49271959e-02 -2.06797495e-02 -4.83977087e-02 +9.43384841e-02 -2.85410061e-02 +8.64408687e-02 +6.02534451e-02 -1.06084952e-02 -5.84274307e-02 +9.32593495e-02 +8.38582814e-02 +8.89465734e-02 -5.60608394e-02 -1.08381715e-02 +2.46488787e-02 -4.35533784e-02 +3.54004651e-02 +4.34018001e-02 -1.98505744e-02 -7.57985488e-02 -6.65011033e-02 -5.30581214e-02 -7.78062493e-02 -4.83366457e-04 +7.50337094e-02 +6.12463802e-02 -8.66502076e-02 +2.00400017e-02 +9.39370468e-02 -3.93733494e-02 -7.92946965e-02 -1.97663493e-02 -3.47436336e-03 +6.38436154e-02 -7.82954171e-02 +5.83474524e-02 -7.75091574e-02 -6.15625009e-02 -8.73955786e-02 -7.78109506e-02 +1.23133641e-02 -4.63533923e-02 -7.65292123e-02 +9.50984210e-02 
